{"learner":{"attributes":{"scikit_learn":"{\"_estimator_type\": \"regressor\"}"},"feature_names":["mass_Mj","T_irr","Met","core","f_sed","kzz","S_physical"],"feature_types":["float","float","float","float","float","float","float"],"gradient_booster":{"model":{"gbtree_model_param":{"num_parallel_tree":"1","num_trees":"200"},"iteration_indptr":[0,1,2,3,4,5,6,7,8,9,10,11,12,13,14,15,16,17,18,19,20,21,22,23,24,25,26,27,28,29,30,31,32,33,34,35,36,37,38,39,40,41,42,43,44,45,46,47,48,49,50,51,52,53,54,55,56,57,58,59,60,61,62,63,64,65,66,67,68,69,70,71,72,73,74,75,76,77,78,79,80,81,82,83,84,85,86,87,88,89,90,91,92,93,94,95,96,97,98,99,100,101,102,103,104,105,106,107,108,109,110,111,112,113,114,115,116,117,118,119,120,121,122,123,124,125,126,127,128,129,130,131,132,133,134,135,136,137,138,139,140,141,142,143,144,145,146,147,148,149,150,151,152,153,154,155,156,157,158,159,160,161,162,163,164,165,166,167,168,169,170,171,172,173,174,175,176,177,178,179,180,181,182,183,184,185,186,187,188,189,190,191,192,193,194,195,196,197,198,199,200],"tree_info":[0,0,0,0,0,0,0,0,0,0,0,0,0,0,0,0,0,0,0,0,0,0,0,0,0,0,0,0,0,0,0,0,0,0,0,0,0,0,0,0,0,0,0,0,0,0,0,0,0,0,0,0,0,0,0,0,0,0,0,0,0,0,0,0,0,0,0,0,0,0,0,0,0,0,0,0,0,0,0,0,0,0,0,0,0,0,0,0,0,0,0,0,0,0,0,0,0,0,0,0,0,0,0,0,0,0,0,0,0,0,0,0,0,0,0,0,0,0,0,0,0,0,0,0,0,0,0,0,0,0,0,0,0,0,0,0,0,0,0,0,0,0,0,0,0,0,0,0,0,0,0,0,0,0,0,0,0,0,0,0,0,0,0,0,0,0,0,0,0,0,0,0,0,0,0,0,0,0,0,0,0,0,0,0,0,0,0,0,0,0,0,0,0,0,0,0,0,0,0,0],"trees":[{"base_weights":[9.564814E-8,-4.2371333E-1,4.8267338E-1,-1.3306035E0,-6.995217E-2,3.0037332E-1,8.468094E-1,-1.899328E0,-6.3555795E-1,-2.718499E-1,3.8901255E-1,2.0482652E-1,4.878326E-1,7.099198E-1,9.586709E-1,-2.7818382E0,-1.2516661E0,-9.890116E-1,-3.0213618E-1,-1.5712553E-1,-6.813773E-1,1.3240618E-1,7.1753794E-1,1.605282E-1,2.994714E-1,4.6429127E-1,6.1041313E-1,6.0871387E-1,7.738652E-1,8.8977504E-1,1.0782969E0,-3.010055E0,-1.4478225E0,-1.6556244E0,-7.539449E-1,-1.3789946E0,-5.5803394E-1,-4.438049E-1,-1.777265E-1,-3.5424092E-1,-6.950992E-2,-7.801847E-1,-3.877366E-1,-6.9386163E-3,9.392991E-1,5.107202E-1,8.607774E-1,6.12667E-2,2.3087773E-1,2.3908728E-1,8.3605474E-1,3.5807618E-1,4.8552188E-1,4.9012727E-1,8.894777E-1,5.6514615E-1,7.2159284E-1,7.548696E-1,9.941807E-1,9.455852E-1,8.095928E-1,1.0174563E0,1.1379845E0,-1.8728255E-1,-1.1097685E-1,-1.2579945E-1,-3.83019E-2,-1.2759843E-1,-5.1932078E-2,-4.2279962E-2,1.3357299E-2,-8.5483424E-2,-4.9898624E-2,-3.8598683E-2,-2.1743897E-2,-3.8837645E-2,-1.9330794E-2,-1.1984994E-2,7.362669E-3,-1.1919547E-2,-2.8314328E-2,-4.8375074E-3,1.6117282E-2,-7.121941E-2,-3.739042E-2,-2.2948839E-2,-1.2323438E-2,-1.2152247E-2,1.1868897E-2,5.077551E-2,2.3661407E-2,2.153193E-2,3.809933E-2,4.8573893E-2,3.825328E-2,-2.5305718E-3,4.97015E-3,9.262011E-3,1.4086452E-2,1.1536555E-2,3.4526467E-2,3.386208E-2,4.6119135E-2,2.155985E-2,1.5119906E-2,2.6793936E-2,2.3167364E-2,2.0453133E-2,3.2233715E-2,3.7835684E-2,4.6425294E-2,3.3175904E-2,2.7080057E-2,3.471419E-2,4.9064163E-2,3.5123613E-2,3.8715754E-2,4.5197226E-2,5.3019006E-2,4.4769805E-2,4.868686E-2,5.01825E-2,3.9013583E-2,5.0375868E-2,5.566966E-2,5.5816602E-2,6.306136E-2],"categories":[],"categories_nodes":[],"categories_segments":[],"categories_sizes":[],"default_left":[0,0,0,0,0,0,0,0,0,0,0,0,0,0,0,0,0,0,0,0,0,0,0,0,0,0,0,0,0,0,0,0,0,0,0,0,0,0,0,0,0,0,0,0,0,0,0,0,0,0,0,0,0,0,0,0,0,0,0,0,0,0,0,0,0,0,0,0,0,0,0,0,0,0,0,0,0,0,0,0,0,0,0,0,0,0,0,0,0,0,0,0,0,0,0,0,0,0,0,0,0,0,0,0,0,0,0,0,0,0,0,0,0,0,0,0,0,0,0,0,0,0,0,0,0,0,0],"id":0,"left_children":[1,3,5,7,9,11,13,15,17,19,21,23,25,27,29,31,33,35,37,39,41,43,45,47,49,51,53,55,57,59,61,63,65,67,69,71,73,75,77,79,81,83,85,87,89,91,93,95,97,99,101,103,105,107,109,111,113,115,117,119,121,123,125,-1,-1,-1,-1,-1,-1,-1,-1,-1,-1,-1,-1,-1,-1,-1,-1,-1,-1,-1,-1,-1,-1,-1,-1,-1,-1,-1,-1,-1,-1,-1,-1,-1,-1,-1,-1,-1,-1,-1,-1,-1,-1,-1,-1,-1,-1,-1,-1,-1,-1,-1,-1,-1,-1,-1,-1,-1,-1,-1,-1,-1,-1,-1,-1],"loss_changes":[1.836096E4,1.5338109E4,2.7857324E3,5.301998E3,3.1871895E3,5.0085645E2,2.1371289E2,4.213547E3,7.1139233E2,1.1221703E3,8.857473E2,7.763263E1,2.6963379E1,4.0300293E1,6.2518066E1,9.4611914E2,8.546587E2,4.9185522E2,5.4717133E1,3.2225803E2,1.5135327E2,6.634933E2,1.3606982E2,8.813226E1,1.9116107E2,1.7697144E1,5.051953E1,1.1611572E1,1.5390869E1,2.113086E1,9.046631E0,1.5413867E3,3.3161536E2,1.2964146E3,1.7888428E2,1.9207251E2,3.639337E1,2.736621E1,3.3407448E1,1.4091998E2,1.3794229E2,8.0485596E1,1.3151169E1,2.903847E2,3.038623E1,3.7661835E1,2.808667E1,2.234931E1,1.7091003E1,1.9871765E1,7.560211E0,5.259903E0,7.1237793E0,1.3053864E1,1.6601868E0,3.7355957E0,4.119934E0,3.0783691E0,8.5147095E-1,3.1958008E0,1.0682007E1,2.1411133E-1,2.3546143E0,0E0,0E0,0E0,0E0,0E0,0E0,0E0,0E0,0E0,0E0,0E0,0E0,0E0,0E0,0E0,0E0,0E0,0E0,0E0,0E0,0E0,0E0,0E0,0E0,0E0,0E0,0E0,0E0,0E0,0E0,0E0,0E0,0E0,0E0,0E0,0E0,0E0,0E0,0E0,0E0,0E0,0E0,0E0,0E0,0E0,0E0,0E0,0E0,0E0,0E0,0E0,0E0,0E0,0E0,0E0,0E0,0E0,0E0,0E0,0E0,0E0,0E0,0E0,0E0],"parents":[2147483647,0,0,1,1,2,2,3,3,4,4,5,5,6,6,7,7,8,8,9,9,10,10,11,11,12,12,13,13,14,14,15,15,16,16,17,17,18,18,19,19,20,20,21,21,22,22,23,23,24,24,25,25,26,26,27,27,28,28,29,29,30,30,31,31,32,32,33,33,34,34,35,35,36,36,37,37,38,38,39,39,40,40,41,41,42,42,43,43,44,44,45,45,46,46,47,47,48,48,49,49,50,50,51,51,52,52,53,53,54,54,55,55,56,56,57,57,58,58,59,59,60,60,61,61,62,62],"right_children":[2,4,6,8,10,12,14,16,18,20,22,24,26,28,30,32,34,36,38,40,42,44,46,48,50,52,54,56,58,60,62,64,66,68,70,72,74,76,78,80,82,84,86,88,90,92,94,96,98,100,102,104,106,108,110,112,114,116,118,120,122,124,126,-1,-1,-1,-1,-1,-1,-1,-1,-1,-1,-1,-1,-1,-1,-1,-1,-1,-1,-1,-1,-1,-1,-1,-1,-1,-1,-1,-1,-1,-1,-1,-1,-1,-1,-1,-1,-1,-1,-1,-1,-1,-1,-1,-1,-1,-1,-1,-1,-1,-1,-1,-1,-1,-1,-1,-1,-1,-1,-1,-1,-1,-1,-1,-1],"split_conditions":[7.9317E2,6.9886766E4,1.22838E3,3.9721E2,6.9299185E-1,1.05999E3,1.41204E3,7.4709284E-1,1.13E0,-3.4E-1,7.751754E4,7.806021E4,1.951121E0,1.26736E3,1.53427E3,1.48E0,6.435058E4,6.1632E2,7.930687E-1,7.495159E4,5.3103E2,1.11E0,1.0957536E0,9.4953E2,9.989264E-1,1.09963E3,7.328757E4,1.7861303E0,7.9724305E4,7.79E0,1.63612E3,6.1754332E4,4.8593598E4,1.24E0,1.26E0,6.497836E4,6.5460156E4,1.6037903E1,6.518798E4,-1.62E0,6.137067E-1,7.2240875E4,7.69684E4,1.7861303E0,2.4233921E1,7.964972E4,1.7033E2,6.746584E4,1.00144E3,3.552372E1,2.3266773E0,7.46E0,-4.5E-1,8.7E-1,7.560264E4,7.09E0,7.564514E4,1.3101E3,1.2511427E0,7.444701E4,1E0,8.0567445E4,8.10861E4,-1.8728255E-1,-1.1097685E-1,-1.2579945E-1,-3.83019E-2,-1.2759843E-1,-5.1932078E-2,-4.2279962E-2,1.3357299E-2,-8.5483424E-2,-4.9898624E-2,-3.8598683E-2,-2.1743897E-2,-3.8837645E-2,-1.9330794E-2,-1.1984994E-2,7.362669E-3,-1.1919547E-2,-2.8314328E-2,-4.8375074E-3,1.6117282E-2,-7.121941E-2,-3.739042E-2,-2.2948839E-2,-1.2323438E-2,-1.2152247E-2,1.1868897E-2,5.077551E-2,2.3661407E-2,2.153193E-2,3.809933E-2,4.8573893E-2,3.825328E-2,-2.5305718E-3,4.97015E-3,9.262011E-3,1.4086452E-2,1.1536555E-2,3.4526467E-2,3.386208E-2,4.6119135E-2,2.155985E-2,1.5119906E-2,2.6793936E-2,2.3167364E-2,2.0453133E-2,3.2233715E-2,3.7835684E-2,4.6425294E-2,3.3175904E-2,2.7080057E-2,3.471419E-2,4.9064163E-2,3.5123613E-2,3.8715754E-2,4.5197226E-2,5.3019006E-2,4.4769805E-2,4.868686E-2,5.01825E-2,3.9013583E-2,5.0375868E-2,5.566966E-2,5.5816602E-2,6.306136E-2],"split_indices":[1,6,1,1,0,1,1,0,2,2,6,6,0,1,1,2,6,1,0,6,1,2,0,1,0,1,6,0,6,5,1,6,6,2,2,6,6,3,6,2,0,6,6,0,3,6,1,6,1,3,0,5,2,2,6,5,6,1,0,6,4,6,6,0,0,0,0,0,0,0,0,0,0,0,0,0,0,0,0,0,0,0,0,0,0,0,0,0,0,0,0,0,0,0,0,0,0,0,0,0,0,0,0,0,0,0,0,0,0,0,0,0,0,0,0,0,0,0,0,0,0,0,0,0,0,0,0],"split_type":[0,0,0,0,0,0,0,0,0,0,0,0,0,0,0,0,0,0,0,0,0,0,0,0,0,0,0,0,0,0,0,0,0,0,0,0,0,0,0,0,0,0,0,0,0,0,0,0,0,0,0,0,0,0,0,0,0,0,0,0,0,0,0,0,0,0,0,0,0,0,0,0,0,0,0,0,0,0,0,0,0,0,0,0,0,0,0,0,0,0,0,0,0,0,0,0,0,0,0,0,0,0,0,0,0,0,0,0,0,0,0,0,0,0,0,0,0,0,0,0,0,0,0,0,0,0,0],"sum_hessian":[8.9776E4,4.7808E4,4.1968E4,1.3415E4,3.4393E4,2.7968E4,1.4E4,7.377E3,6.038E3,2.3886E4,1.0507E4,1.8527E4,9.441E3,6.299E3,7.701E3,3.121E3,4.256E3,2.93E3,3.108E3,1.866E4,5.226E3,5.9E3,4.607E3,1.2622E4,5.905E3,7.924E3,1.517E3,2.443E3,3.856E3,4.892E3,2.809E3,2.664E3,4.57E2,2.348E3,1.908E3,1.537E3,1.393E3,1.452E3,1.656E3,5.741E3,1.2919E4,3.909E3,1.317E3,5.032E3,8.68E2,1.887E3,2.72E3,5.236E3,7.386E3,5.309E3,5.96E2,1.323E3,6.601E3,1.062E3,4.55E2,1.767E3,6.76E2,3.554E3,3.02E2,2.878E3,2.014E3,1.4E3,1.409E3,1.378E3,1.286E3,1.77E2,2.8E2,9.56E2,1.392E3,1.751E3,1.57E2,8.21E2,7.16E2,5.07E2,8.86E2,2.11E2,1.241E3,1.391E3,2.65E2,3.714E3,2.027E3,1.208E4,8.39E2,1.85E2,3.724E3,8.74E2,4.43E2,2.559E3,2.473E3,7.45E2,1.23E2,1.433E3,4.54E2,1.257E3,1.463E3,1.331E3,3.905E3,3.895E3,3.491E3,5.214E3,9.5E1,2.13E2,3.83E2,5.69E2,7.54E2,2.011E3,4.59E3,6.99E2,3.63E2,1.08E2,3.47E2,3.36E2,1.431E3,6.15E2,6.1E1,9.72E2,2.582E3,1.34E2,1.68E2,1.046E3,1.832E3,2.6E2,1.754E3,1.279E3,1.21E2,1.207E3,2.02E2],"tree_param":{"num_deleted":"0","num_feature":"7","num_nodes":"127","size_leaf_vector":"1"}},{"base_weights":[2.5068753E-6,-4.025461E-1,4.585659E-1,-1.2641425E0,-6.645318E-2,2.9498592E-1,8.249375E-1,-1.8044524E0,-6.038228E-1,-2.6159972E-1,3.6226234E-1,1.9715059E-1,4.772841E-1,7.652815E-1,1.0101335E0,-2.6347082E0,-1.1828575E0,-9.4763976E-1,-2.9420844E-1,-1.4981721E-1,-6.3816136E-1,1.1725394E-1,6.740618E-1,1.126833E-1,2.4298045E-1,4.5466086E-1,5.924841E-1,6.630076E-1,8.221286E-1,9.521227E-1,1.0811695E0,-2.8493426E0,-1.3792241E0,-1.5661134E0,-7.1385604E-1,-1.36267E0,-5.691026E-1,-4.2976838E-1,-1.7661415E-1,-3.2769012E-1,-6.578243E-2,-7.427758E-1,-3.425591E-1,-1.33657595E-2,8.924198E-1,4.7957063E-1,8.1777036E-1,6.454446E-2,3.7590757E-1,2.2137447E-1,3.9837214E-1,3.535768E-1,4.685537E-1,4.88122E-1,8.502877E-1,6.463823E-1,8.938446E-1,8.945828E-1,7.776262E-1,8.9015293E-1,9.6665907E-1,1.0605615E0,5.9923816E-2,-1.7771648E-1,-1.047027E-1,-1.1992746E-1,-3.6415827E-2,-1.2197441E-1,-4.9871575E-2,-4.005266E-2,1.3304901E-2,-8.404565E-2,-4.9351025E-2,-3.9314445E-2,-2.1723758E-2,-3.0952482E-2,-1.6122071E-2,-1.1741991E-2,5.114173E-3,-1.0931095E-2,-2.5285272E-2,-4.599166E-3,1.6067011E-2,-6.840598E-2,-3.545559E-2,-1.1170459E-2,-2.1482142E-2,-1.2735115E-2,1.0313174E-2,4.824014E-2,2.2487879E-2,2.8312743E-2,1.2035023E-2,4.4789948E-2,3.464667E-2,-2.2821657E-3,4.989159E-3,1.0718103E-2,4.0096276E-2,1.3991951E-2,9.77465E-3,1.3695056E-2,3.89759E-2,2.169264E-2,1.53503185E-2,2.2879492E-2,2.7244557E-2,2.0624395E-2,3.131244E-2,3.629951E-2,4.4388447E-2,3.4827672E-2,2.9459843E-2,4.13626E-2,4.728552E-2,4.1890543E-2,4.642284E-2,4.7099907E-2,3.8301937E-2,4.7619622E-2,4.241897E-2,4.785904E-2,5.2908998E-2,5.772844E-2,5.1940586E-2],"categories":[],"categories_nodes":[],"categories_segments":[],"categories_sizes":[],"default_left":[0,0,0,0,0,0,0,0,0,0,0,0,0,0,0,0,0,0,0,0,0,0,0,0,0,0,0,0,0,0,0,0,0,0,0,0,0,0,0,0,0,0,0,0,0,0,0,0,0,0,0,0,0,0,0,0,0,0,0,0,0,0,0,0,0,0,0,0,0,0,0,0,0,0,0,0,0,0,0,0,0,0,0,0,0,0,0,0,0,0,0,0,0,0,0,0,0,0,0,0,0,0,0,0,0,0,0,0,0,0,0,0,0,0,0,0,0,0,0,0,0,0,0,0,0],"id":1,"left_children":[1,3,5,7,9,11,13,15,17,19,21,23,25,27,29,31,33,35,37,39,41,43,45,47,49,51,53,55,57,59,61,63,65,67,69,71,73,75,77,79,81,83,85,87,89,91,93,95,97,99,101,103,105,107,109,111,113,115,117,119,121,123,-1,-1,-1,-1,-1,-1,-1,-1,-1,-1,-1,-1,-1,-1,-1,-1,-1,-1,-1,-1,-1,-1,-1,-1,-1,-1,-1,-1,-1,-1,-1,-1,-1,-1,-1,-1,-1,-1,-1,-1,-1,-1,-1,-1,-1,-1,-1,-1,-1,-1,-1,-1,-1,-1,-1,-1,-1,-1,-1,-1,-1,-1,-1],"loss_changes":[1.6572484E4,1.3844277E4,2.515004E3,4.7854355E3,2.877578E3,5.174121E2,1.4234277E2,3.804541E3,6.425769E2,9.948146E2,8.2183826E2,7.307501E1,2.6139404E1,5.6443848E1,1.1963623E1,8.4705664E2,7.575967E2,4.4869995E2,5.060077E1,2.724268E2,1.6704614E2,6.1015607E2,1.3192358E2,8.416394E1,4.1009583E1,1.1734741E1,4.424707E1,1.2881226E1,1.960498E1,7.105713E-1,2.1374512E0,1.4280918E3,3.054472E2,1.1508394E3,1.6256653E2,1.614043E2,4.345874E1,2.9785309E1,2.7695274E1,1.13433044E2,1.2559936E2,8.313086E1,1.4596451E1,2.7345004E2,2.7409851E1,4.15661E1,2.5883911E1,2.1818548E1,7.050757E1,1.6210144E1,7.0616806E1,3.709961E0,5.9835205E0,1.2111053E1,1.5777588E0,8.985718E0,2.2415161E-2,3.8164062E0,6.721924E0,8.639526E-2,2.0251465E-1,1.2705078E0,0E0,0E0,0E0,0E0,0E0,0E0,0E0,0E0,0E0,0E0,0E0,0E0,0E0,0E0,0E0,0E0,0E0,0E0,0E0,0E0,0E0,0E0,0E0,0E0,0E0,0E0,0E0,0E0,0E0,0E0,0E0,0E0,0E0,0E0,0E0,0E0,0E0,0E0,0E0,0E0,0E0,0E0,0E0,0E0,0E0,0E0,0E0,0E0,0E0,0E0,0E0,0E0,0E0,0E0,0E0,0E0,0E0,0E0,0E0,0E0,0E0,0E0,0E0],"parents":[2147483647,0,0,1,1,2,2,3,3,4,4,5,5,6,6,7,7,8,8,9,9,10,10,11,11,12,12,13,13,14,14,15,15,16,16,17,17,18,18,19,19,20,20,21,21,22,22,23,23,24,24,25,25,26,26,27,27,28,28,29,29,30,30,31,31,32,32,33,33,34,34,35,35,36,36,37,37,38,38,39,39,40,40,41,41,42,42,43,43,44,44,45,45,46,46,47,47,48,48,49,49,50,50,51,51,52,52,53,53,54,54,55,55,56,56,57,57,58,58,59,59,60,60,61,61],"right_children":[2,4,6,8,10,12,14,16,18,20,22,24,26,28,30,32,34,36,38,40,42,44,46,48,50,52,54,56,58,60,62,64,66,68,70,72,74,76,78,80,82,84,86,88,90,92,94,96,98,100,102,104,106,108,110,112,114,116,118,120,122,124,-1,-1,-1,-1,-1,-1,-1,-1,-1,-1,-1,-1,-1,-1,-1,-1,-1,-1,-1,-1,-1,-1,-1,-1,-1,-1,-1,-1,-1,-1,-1,-1,-1,-1,-1,-1,-1,-1,-1,-1,-1,-1,-1,-1,-1,-1,-1,-1,-1,-1,-1,-1,-1,-1,-1,-1,-1,-1,-1,-1,-1,-1,-1],"split_conditions":[7.9317E2,6.9886766E4,1.24146E3,3.9721E2,6.852346E-1,1.06604E3,1.52231E3,7.619873E-1,1.06E0,-4E-1,7.751754E4,9.5384E2,1.9027101E0,1.35633E3,1.63612E3,1.48E0,6.435058E4,5.8907E2,7.930687E-1,7.506361E4,5.4017E2,1.11E0,1.0957536E0,7.824874E4,1.329852E0,1.09963E3,7.328757E4,7.928413E4,5.68E0,1.53427E3,8.10861E4,6.1754332E4,4.8593598E4,1.19E0,1.26E0,6.497836E4,6.5460156E4,1.54E0,6.518798E4,-1.65E0,5.5455047E-1,7.2240875E4,3.66E0,1.4711858E0,2.4233921E1,-4.2E-1,2.5326E2,6.746584E4,1.0644844E0,6.77E0,7.32296E4,6.44E0,4.028998E1,9.7E-1,7.564514E4,7.12E0,1.1294183E0,7.418195E4,1E0,4.29E0,8.0567445E4,1.02E0,5.9923816E-2,-1.7771648E-1,-1.047027E-1,-1.1992746E-1,-3.6415827E-2,-1.2197441E-1,-4.9871575E-2,-4.005266E-2,1.3304901E-2,-8.404565E-2,-4.9351025E-2,-3.9314445E-2,-2.1723758E-2,-3.0952482E-2,-1.6122071E-2,-1.1741991E-2,5.114173E-3,-1.0931095E-2,-2.5285272E-2,-4.599166E-3,1.6067011E-2,-6.840598E-2,-3.545559E-2,-1.1170459E-2,-2.1482142E-2,-1.2735115E-2,1.0313174E-2,4.824014E-2,2.2487879E-2,2.8312743E-2,1.2035023E-2,4.4789948E-2,3.464667E-2,-2.2821657E-3,4.989159E-3,1.0718103E-2,4.0096276E-2,1.3991951E-2,9.77465E-3,1.3695056E-2,3.89759E-2,2.169264E-2,1.53503185E-2,2.2879492E-2,2.7244557E-2,2.0624395E-2,3.131244E-2,3.629951E-2,4.4388447E-2,3.4827672E-2,2.9459843E-2,4.13626E-2,4.728552E-2,4.1890543E-2,4.642284E-2,4.7099907E-2,3.8301937E-2,4.7619622E-2,4.241897E-2,4.785904E-2,5.2908998E-2,5.772844E-2,5.1940586E-2],"split_indices":[1,6,1,1,0,1,1,0,2,2,6,1,0,1,1,2,6,1,0,6,1,2,0,6,0,1,6,6,5,1,6,6,6,2,2,6,6,2,6,2,0,6,4,0,3,2,1,6,0,5,6,5,3,2,6,5,0,6,4,5,6,4,0,0,0,0,0,0,0,0,0,0,0,0,0,0,0,0,0,0,0,0,0,0,0,0,0,0,0,0,0,0,0,0,0,0,0,0,0,0,0,0,0,0,0,0,0,0,0,0,0,0,0,0,0,0,0,0,0,0,0,0,0,0,0],"split_type":[0,0,0,0,0,0,0,0,0,0,0,0,0,0,0,0,0,0,0,0,0,0,0,0,0,0,0,0,0,0,0,0,0,0,0,0,0,0,0,0,0,0,0,0,0,0,0,0,0,0,0,0,0,0,0,0,0,0,0,0,0,0,0,0,0,0,0,0,0,0,0,0,0,0,0,0,0,0,0,0,0,0,0,0,0,0,0,0,0,0,0,0,0,0,0,0,0,0,0,0,0,0,0,0,0,0,0,0,0,0,0,0,0,0,0,0,0,0,0,0,0,0,0,0,0],"sum_hessian":[8.9776E4,4.7808E4,4.1968E4,1.3415E4,3.4393E4,2.9015E4,1.2953E4,7.377E3,6.038E3,2.3635E4,1.0758E4,1.8883E4,1.0132E4,9.801E3,3.152E3,3.157E3,4.22E3,2.86E3,3.178E3,1.8226E4,5.409E3,6.025E3,4.733E3,6.643E3,1.224E4,8.473E3,1.659E3,3.506E3,6.295E3,1.743E3,1.409E3,2.695E3,4.62E2,2.321E3,1.899E3,1.363E3,1.497E3,1.475E3,1.703E3,5.847E3,1.2379E4,3.994E3,1.415E3,5.157E3,8.68E2,2.013E3,2.72E3,5.617E3,1.026E3,1.0748E4,1.492E3,1.027E3,7.446E3,1.183E3,4.76E2,3.274E3,2.32E2,2.388E3,3.907E3,3.43E2,1.4E3,1.207E3,2.02E2,1.392E3,1.303E3,1.79E2,2.83E2,9.14E2,1.407E3,1.744E3,1.55E2,7.36E2,6.27E2,5.71E2,9.26E2,5.32E2,9.43E2,1.409E3,2.94E2,3.627E3,2.22E3,1.1595E4,7.84E2,2.02E2,3.792E3,5.99E2,8.16E2,2.457E3,2.7E3,7.45E2,1.23E2,1.476E3,5.37E2,1.67E3,1.05E3,1.361E3,4.256E3,7.45E2,2.81E2,3.295E3,7.453E3,1.126E3,3.66E2,3.74E2,6.53E2,6.517E3,9.29E2,7.67E2,4.16E2,1.15E2,3.61E2,1.738E3,1.536E3,1.09E2,1.23E2,9.02E2,1.486E3,2.52E2,3.655E3,1.29E2,2.14E2,1.279E3,1.21E2,2.17E2,9.9E2],"tree_param":{"num_deleted":"0","num_feature":"7","num_nodes":"125","size_leaf_vector":"1"}},{"base_weights":[4.341233E-6,-3.854718E-1,4.3231913E-1,-1.2309744E0,-7.1082346E-2,2.6802653E-1,7.6458156E-1,-1.7404046E0,-5.871588E-1,-2.5401354E-1,3.2679993E-1,1.8193069E-1,4.4012597E-1,6.410078E-1,8.6556184E-1,-2.5340908E0,-1.1521239E0,-9.400081E-1,-2.7931157E-1,-1.4640488E-1,-6.1615735E-1,9.0071306E-2,6.398457E-1,1.394763E-1,2.742118E-1,4.1889042E-1,5.5070025E-1,5.4940754E-1,6.9888437E-1,8.095132E-1,9.850948E-1,-2.749324E0,-1.3071791E0,-1.5081071E0,-7.1292347E-1,-1.3260993E0,-5.92793E-1,-3.728055E-1,-1.3744637E-1,-3.3038807E-1,-6.6205196E-2,-7.153076E-1,-3.2920307E-1,-3.5698842E-2,8.413408E-1,4.5237583E-1,7.778688E-1,4.8754305E-2,2.0755725E-1,2.1832916E-1,7.5747806E-1,3.240635E-1,4.3784404E-1,4.4757354E-1,8.166012E-1,5.096011E-1,6.5255135E-1,6.812947E-1,9.0295225E-1,8.5950667E-1,7.363081E-1,9.272981E-1,1.0272312E0,-1.6171025E-1,-9.081019E-2,-8.953537E-2,4.834313E-4,-1.1625432E-1,-4.5348536E-2,-4.115324E-2,3.4918187E-3,-8.139166E-2,-4.7670487E-2,-4.036338E-2,-2.1338424E-2,-3.179507E-2,-1.660599E-2,-1.0599059E-2,1.8142985E-2,-1.0931692E-2,-2.7368883E-2,-4.5895597E-4,-1.07417805E-2,-7.611766E-2,-3.405743E-2,-2.0506427E-2,-1.0104401E-2,-1.18566295E-2,9.156717E-3,4.5933556E-2,2.1202093E-2,2.6699511E-2,1.13984E-2,4.3909404E-2,3.4496643E-2,-2.526256E-3,4.7140773E-3,8.365168E-3,1.2938701E-2,3.465688E-2,1.0437564E-2,3.0785888E-2,4.187395E-2,1.580968E-2,4.239809E-2,2.4273962E-2,2.084363E-2,1.8932873E-2,2.9199725E-2,3.4988847E-2,4.2153098E-2,2.9997647E-2,2.4399115E-2,3.1379547E-2,4.450102E-2,3.1743586E-2,3.4925908E-2,4.133247E-2,4.8763514E-2,4.1065004E-2,4.416191E-2,4.5367867E-2,3.5575252E-2,4.8400603E-2,4.512394E-2,5.047181E-2,5.7554644E-2],"categories":[],"categories_nodes":[],"categories_segments":[],"categories_sizes":[],"default_left":[0,0,0,0,0,0,0,0,0,0,0,0,0,0,0,0,0,0,0,0,0,0,0,0,0,0,0,0,0,0,0,0,0,0,0,0,0,0,0,0,0,0,0,0,0,0,0,0,0,0,0,0,0,0,0,0,0,0,0,0,0,0,0,0,0,0,0,0,0,0,0,0,0,0,0,0,0,0,0,0,0,0,0,0,0,0,0,0,0,0,0,0,0,0,0,0,0,0,0,0,0,0,0,0,0,0,0,0,0,0,0,0,0,0,0,0,0,0,0,0,0,0,0,0,0,0,0],"id":2,"left_children":[1,3,5,7,9,11,13,15,17,19,21,23,25,27,29,31,33,35,37,39,41,43,45,47,49,51,53,55,57,59,61,63,65,67,69,71,73,75,77,79,81,83,85,87,89,91,93,95,97,99,101,103,105,107,109,111,113,115,117,119,121,123,125,-1,-1,-1,-1,-1,-1,-1,-1,-1,-1,-1,-1,-1,-1,-1,-1,-1,-1,-1,-1,-1,-1,-1,-1,-1,-1,-1,-1,-1,-1,-1,-1,-1,-1,-1,-1,-1,-1,-1,-1,-1,-1,-1,-1,-1,-1,-1,-1,-1,-1,-1,-1,-1,-1,-1,-1,-1,-1,-1,-1,-1,-1,-1,-1],"loss_changes":[1.4961238E4,1.2615596E4,2.3098613E3,4.2180996E3,2.5182283E3,4.195089E2,1.7415723E2,3.349963E3,6.171543E2,9.235333E2,8.074852E2,7.391687E1,2.1940186E1,3.301538E1,5.0803223E1,8.034121E2,6.440166E2,3.541963E2,4.0230133E1,2.6960342E2,1.5422827E2,5.86418E2,1.2105444E2,7.985741E1,1.6044046E2,1.4101929E1,4.1260345E1,9.701965E0,1.3229614E1,1.8577148E1,5.0236816E0,1.1700488E3,2.916411E2,1.1166533E3,1.5946747E2,1.393518E2,4.936432E1,1.9377533E1,4.5123497E1,1.3439233E2,1.0786964E2,1.10171875E2,1.4277557E1,2.3441884E2,2.8330627E1,3.6361572E1,2.3221313E1,2.5067707E1,1.5186279E1,2.410344E1,6.470398E0,5.190796E0,6.3928223E0,1.0083008E1,7.1762085E-1,3.160675E0,3.4542236E0,2.3990479E0,8.6576843E-1,2.097168E0,8.420654E0,1.8237305E-1,1.9458008E0,0E0,0E0,0E0,0E0,0E0,0E0,0E0,0E0,0E0,0E0,0E0,0E0,0E0,0E0,0E0,0E0,0E0,0E0,0E0,0E0,0E0,0E0,0E0,0E0,0E0,0E0,0E0,0E0,0E0,0E0,0E0,0E0,0E0,0E0,0E0,0E0,0E0,0E0,0E0,0E0,0E0,0E0,0E0,0E0,0E0,0E0,0E0,0E0,0E0,0E0,0E0,0E0,0E0,0E0,0E0,0E0,0E0,0E0,0E0,0E0,0E0,0E0,0E0,0E0],"parents":[2147483647,0,0,1,1,2,2,3,3,4,4,5,5,6,6,7,7,8,8,9,9,10,10,11,11,12,12,13,13,14,14,15,15,16,16,17,17,18,18,19,19,20,20,21,21,22,22,23,23,24,24,25,25,26,26,27,27,28,28,29,29,30,30,31,31,32,32,33,33,34,34,35,35,36,36,37,37,38,38,39,39,40,40,41,41,42,42,43,43,44,44,45,45,46,46,47,47,48,48,49,49,50,50,51,51,52,52,53,53,54,54,55,55,56,56,57,57,58,58,59,59,60,60,61,61,62,62],"right_children":[2,4,6,8,10,12,14,16,18,20,22,24,26,28,30,32,34,36,38,40,42,44,46,48,50,52,54,56,58,60,62,64,66,68,70,72,74,76,78,80,82,84,86,88,90,92,94,96,98,100,102,104,106,108,110,112,114,116,118,120,122,124,126,-1,-1,-1,-1,-1,-1,-1,-1,-1,-1,-1,-1,-1,-1,-1,-1,-1,-1,-1,-1,-1,-1,-1,-1,-1,-1,-1,-1,-1,-1,-1,-1,-1,-1,-1,-1,-1,-1,-1,-1,-1,-1,-1,-1,-1,-1,-1,-1,-1,-1,-1,-1,-1,-1,-1,-1,-1,-1,-1,-1,-1,-1,-1,-1],"split_conditions":[7.7912E2,6.955081E4,1.22838E3,3.9721E2,6.852346E-1,1.05999E3,1.41204E3,7.4709284E-1,1.13E0,-4E-1,7.751754E4,7.806021E4,1.951121E0,1.26736E3,1.5548E3,1.48E0,6.405763E4,5.7405E2,1.1935996E0,7.482217E4,5.4017E2,1.11E0,1.0957536E0,9.4953E2,9.989264E-1,1.09963E3,7.4092516E4,1.7861303E0,7.9724305E4,7.77E0,1.63612E3,6.435058E4,3.4767E2,1.36E0,1.22E0,6.497836E4,6.5460156E4,1.6037903E1,6.405763E4,-1.62E0,-9.9E-1,7.1626555E4,7.69684E4,1.9027101E0,2.4233921E1,-4.2E-1,1.7033E2,6.935884E4,1.00472E3,-8.5E-1,2.3266773E0,8.148495E4,-4.5E-1,8.7E-1,2.7597783E0,7.09E0,7.564514E4,1.3101E3,1.5911175E0,7.444701E4,1E0,6.89E0,8.183366E4,-1.6171025E-1,-9.081019E-2,-8.953537E-2,4.834313E-4,-1.1625432E-1,-4.5348536E-2,-4.115324E-2,3.4918187E-3,-8.139166E-2,-4.7670487E-2,-4.036338E-2,-2.1338424E-2,-3.179507E-2,-1.660599E-2,-1.0599059E-2,1.8142985E-2,-1.0931692E-2,-2.7368883E-2,-4.5895597E-4,-1.07417805E-2,-7.611766E-2,-3.405743E-2,-2.0506427E-2,-1.0104401E-2,-1.18566295E-2,9.156717E-3,4.5933556E-2,2.1202093E-2,2.6699511E-2,1.13984E-2,4.3909404E-2,3.4496643E-2,-2.526256E-3,4.7140773E-3,8.365168E-3,1.2938701E-2,3.465688E-2,1.0437564E-2,3.0785888E-2,4.187395E-2,1.580968E-2,4.239809E-2,2.4273962E-2,2.084363E-2,1.8932873E-2,2.9199725E-2,3.4988847E-2,4.2153098E-2,2.9997647E-2,2.4399115E-2,3.1379547E-2,4.450102E-2,3.1743586E-2,3.4925908E-2,4.133247E-2,4.8763514E-2,4.1065004E-2,4.416191E-2,4.5367867E-2,3.5575252E-2,4.8400603E-2,4.512394E-2,5.047181E-2,5.7554644E-2],"split_indices":[1,6,1,1,0,1,1,0,2,2,6,6,0,1,1,2,6,1,0,6,1,2,0,1,0,1,6,0,6,5,1,6,1,2,2,6,6,3,6,2,2,6,6,0,3,2,1,6,1,2,0,6,2,2,0,5,6,1,0,6,4,5,6,0,0,0,0,0,0,0,0,0,0,0,0,0,0,0,0,0,0,0,0,0,0,0,0,0,0,0,0,0,0,0,0,0,0,0,0,0,0,0,0,0,0,0,0,0,0,0,0,0,0,0,0,0,0,0,0,0,0,0,0,0,0,0,0],"split_type":[0,0,0,0,0,0,0,0,0,0,0,0,0,0,0,0,0,0,0,0,0,0,0,0,0,0,0,0,0,0,0,0,0,0,0,0,0,0,0,0,0,0,0,0,0,0,0,0,0,0,0,0,0,0,0,0,0,0,0,0,0,0,0,0,0,0,0,0,0,0,0,0,0,0,0,0,0,0,0,0,0,0,0,0,0,0,0,0,0,0,0,0,0,0,0,0,0,0,0,0,0,0,0,0,0,0,0,0,0,0,0,0,0,0,0,0,0,0,0,0,0,0,0,0,0,0,0],"sum_hessian":[8.9776E4,4.7459E4,4.2317E4,1.2863E4,3.4596E4,2.8317E4,1.4E4,7.18E3,5.683E3,2.37E4,1.0896E4,1.8876E4,9.441E3,6.299E3,7.701E3,3.055E3,4.125E3,2.647E3,3.036E3,1.8272E4,5.428E3,6.205E3,4.691E3,1.293E4,5.946E3,7.924E3,1.517E3,2.443E3,3.856E3,5.248E3,2.453E3,2.598E3,4.57E2,2.277E3,1.848E3,1.252E3,1.395E3,1.829E3,1.207E3,5.546E3,1.2726E4,4.033E3,1.395E3,5.316E3,8.89E2,1.991E3,2.7E3,5.544E3,7.386E3,5.331E3,6.15E2,1.323E3,6.601E3,1.095E3,4.22E2,1.767E3,6.76E2,3.554E3,3.02E2,3.112E3,2.136E3,1.044E3,1.409E3,1.708E3,8.9E2,3.34E2,1.23E2,9.64E2,1.313E3,1.62E3,2.28E2,6.9E2,5.62E2,6.07E2,7.88E2,2.43E2,1.586E3,1.051E3,1.56E2,3.662E3,1.884E3,9.198E3,3.528E3,1.62E2,3.871E3,8.51E2,5.44E2,2.768E3,2.548E3,7.49E2,1.4E2,1.459E3,5.32E2,1.257E3,1.443E3,1.743E3,3.801E3,4.138E3,3.248E3,1.04E2,5.227E3,2.25E2,3.9E2,1.305E3,1.8E1,2.011E3,4.59E3,7.3E2,3.65E2,8.3E1,3.39E2,3.36E2,1.431E3,6.15E2,6.1E1,9.72E2,2.582E3,1.53E2,1.49E2,1.206E3,1.906E3,2.66E2,1.87E3,3.81E2,6.63E2,1.24E3,1.69E2],"tree_param":{"num_deleted":"0","num_feature":"7","num_nodes":"127","size_leaf_vector":"1"}},{"base_weights":[6.8374534E-6,-3.662147E-1,4.107274E-1,-1.1542666E0,-6.146879E-2,2.4871267E-1,7.1487784E-1,-1.6293044E0,-5.5577165E-1,-2.3350841E-1,3.3279872E-1,1.7284167E-1,4.1262847E-1,5.9664726E-1,8.2233155E-1,-2.389957E0,-1.0763198E0,-8.7498623E-1,-2.624014E-1,-1.3483392E-1,-5.8715785E-1,1.1172846E-1,6.1513996E-1,1.3250431E-1,2.6052108E-1,3.900815E-1,5.07024E-1,5.140116E-1,6.639808E-1,7.6302695E-1,9.253049E-1,-2.5854464E0,-1.2486482E0,-1.4705193E0,-6.8983465E-1,-1.187243E0,-4.955495E-1,-3.8262564E-1,-1.5532355E-1,-3.0701262E-1,-6.021718E-2,-6.699846E-1,-3.3545902E-1,-1.1107237E-2,7.994264E-1,4.3201676E-1,7.366862E-1,4.6317037E-2,1.9718225E-1,2.0742124E-1,7.1972215E-1,3.0357784E-1,4.1015825E-1,3.9304158E-1,6.8014574E-1,6.052614E-1,4.668462E-1,6.472487E-1,8.58102E-1,8.1173325E-1,6.92406E-1,8.736777E-1,9.7594637E-1,-1.6117509E-1,-9.510372E-2,-1.0991438E-1,-3.1915482E-2,-1.195479E-1,-4.2017322E-2,-3.976362E-2,3.8510195E-3,-7.220382E-2,-4.118239E-2,-3.3192232E-2,-1.8689381E-2,-2.7062867E-2,-1.3876385E-2,-1.1455669E-2,3.1947324E-3,-1.24351075E-2,-3.2278772E-2,1.4256864E-3,-7.932826E-3,-3.5237823E-2,-9.057232E-3,-2.0021698E-2,-1.0458848E-2,-1.1984639E-2,9.020152E-3,4.3651078E-2,2.0916205E-2,1.790269E-2,3.376948E-2,4.0533405E-2,3.090473E-2,4.3187873E-4,7.7625453E-3,7.947012E-3,1.2291963E-2,3.2940544E-2,9.91579E-3,2.9253412E-2,3.978561E-2,2.083537E-2,1.30245015E-2,2.2934923E-2,1.93797E-2,1.582483E-2,2.209127E-2,2.9749814E-2,3.8979184E-2,2.9491557E-2,4.119785E-2,2.2982756E-2,3.9465725E-2,3.3905778E-2,3.1089202E-2,3.9279263E-2,4.6341594E-2,3.8397692E-2,4.1809376E-2,4.3109737E-2,3.333556E-2,4.323392E-2,4.8046764E-2,4.7771376E-2,5.3673506E-2],"categories":[],"categories_nodes":[],"categories_segments":[],"categories_sizes":[],"default_left":[0,0,0,0,0,0,0,0,0,0,0,0,0,0,0,0,0,0,0,0,0,0,0,0,0,0,0,0,0,0,0,0,0,0,0,0,0,0,0,0,0,0,0,0,0,0,0,0,0,0,0,0,0,0,0,0,0,0,0,0,0,0,0,0,0,0,0,0,0,0,0,0,0,0,0,0,0,0,0,0,0,0,0,0,0,0,0,0,0,0,0,0,0,0,0,0,0,0,0,0,0,0,0,0,0,0,0,0,0,0,0,0,0,0,0,0,0,0,0,0,0,0,0,0,0,0,0],"id":3,"left_children":[1,3,5,7,9,11,13,15,17,19,21,23,25,27,29,31,33,35,37,39,41,43,45,47,49,51,53,55,57,59,61,63,65,67,69,71,73,75,77,79,81,83,85,87,89,91,93,95,97,99,101,103,105,107,109,111,113,115,117,119,121,123,125,-1,-1,-1,-1,-1,-1,-1,-1,-1,-1,-1,-1,-1,-1,-1,-1,-1,-1,-1,-1,-1,-1,-1,-1,-1,-1,-1,-1,-1,-1,-1,-1,-1,-1,-1,-1,-1,-1,-1,-1,-1,-1,-1,-1,-1,-1,-1,-1,-1,-1,-1,-1,-1,-1,-1,-1,-1,-1,-1,-1,-1,-1,-1,-1],"loss_changes":[1.3503933E4,1.1397713E4,2.0851196E3,3.7619082E3,2.3216147E3,3.433241E2,1.8635156E2,3.10083E3,5.4836096E2,8.3146204E2,6.489458E2,6.672882E1,1.8395386E1,3.8641357E1,4.6328613E1,6.8953906E2,6.5013916E2,3.317527E2,3.92558E1,2.3935452E2,1.0813989E2,4.9274484E2,1.0131152E2,7.207361E1,1.4485947E2,1.2129761E1,3.2903564E1,1.3274536E1,1.1972412E1,1.6268555E1,6.4941406E0,1.1493457E3,2.6289508E2,1.2247656E3,1.747091E2,1.4243433E2,2.5735626E1,2.3823929E1,2.6171349E1,1.1104474E2,1.13554504E2,6.6333984E1,1.0492691E1,2.1673679E2,2.4428589E1,3.2591187E1,2.3564941E1,2.2758495E1,1.3706268E1,2.178444E1,5.8375854E0,6.38916E0,6.0915527E0,3.654068E0,5.175232E0,3.1247559E0,4.462799E0,2.3726807E0,7.82074E-1,2.4517822E0,8.16803E0,2.692871E-1,1.7958984E0,0E0,0E0,0E0,0E0,0E0,0E0,0E0,0E0,0E0,0E0,0E0,0E0,0E0,0E0,0E0,0E0,0E0,0E0,0E0,0E0,0E0,0E0,0E0,0E0,0E0,0E0,0E0,0E0,0E0,0E0,0E0,0E0,0E0,0E0,0E0,0E0,0E0,0E0,0E0,0E0,0E0,0E0,0E0,0E0,0E0,0E0,0E0,0E0,0E0,0E0,0E0,0E0,0E0,0E0,0E0,0E0,0E0,0E0,0E0,0E0,0E0,0E0,0E0,0E0],"parents":[2147483647,0,0,1,1,2,2,3,3,4,4,5,5,6,6,7,7,8,8,9,9,10,10,11,11,12,12,13,13,14,14,15,15,16,16,17,17,18,18,19,19,20,20,21,21,22,22,23,23,24,24,25,25,26,26,27,27,28,28,29,29,30,30,31,31,32,32,33,33,34,34,35,35,36,36,37,37,38,38,39,39,40,40,41,41,42,42,43,43,44,44,45,45,46,46,47,47,48,48,49,49,50,50,51,51,52,52,53,53,54,54,55,55,56,56,57,57,58,58,59,59,60,60,61,61,62,62],"right_children":[2,4,6,8,10,12,14,16,18,20,22,24,26,28,30,32,34,36,38,40,42,44,46,48,50,52,54,56,58,60,62,64,66,68,70,72,74,76,78,80,82,84,86,88,90,92,94,96,98,100,102,104,106,108,110,112,114,116,118,120,122,124,126,-1,-1,-1,-1,-1,-1,-1,-1,-1,-1,-1,-1,-1,-1,-1,-1,-1,-1,-1,-1,-1,-1,-1,-1,-1,-1,-1,-1,-1,-1,-1,-1,-1,-1,-1,-1,-1,-1,-1,-1,-1,-1,-1,-1,-1,-1,-1,-1,-1,-1,-1,-1,-1,-1,-1,-1,-1,-1,-1,-1,-1,-1,-1,-1],"split_conditions":[7.7912E2,6.9886766E4,1.2182E3,3.9721E2,6.9299185E-1,1.05999E3,1.41204E3,7.4106324E-1,1.13E0,-3.4E-1,7.751754E4,7.806021E4,3.8357117E1,1.26736E3,1.53427E3,1.48E0,6.307727E4,6.1632E2,7.930687E-1,7.488245E4,5.3103E2,1.1E0,1.0809948E0,9.4953E2,9.989264E-1,1.09963E3,7.35151E4,6.98E0,7.9724305E4,7.81E0,1.63612E3,6.1754332E4,4.8593598E4,1.44E0,1.22E0,6.570324E4,6.618316E4,1.58E0,6.212526E4,-1.06E0,-1.21E0,7.820346E4,7.69684E4,1.4204533E0,2.2489914E1,7.964972E4,2.5326E2,1.7861303E0,1.00472E3,-8.5E-1,2.3266773E0,6.27E0,-4.8E-1,1.12144E3,2.003452E0,7.844097E4,7.983866E4,6.4E0,1.5911175E0,7.444701E4,1E0,8.0567445E4,7.988859E4,-1.6117509E-1,-9.510372E-2,-1.0991438E-1,-3.1915482E-2,-1.195479E-1,-4.2017322E-2,-3.976362E-2,3.8510195E-3,-7.220382E-2,-4.118239E-2,-3.3192232E-2,-1.8689381E-2,-2.7062867E-2,-1.3876385E-2,-1.1455669E-2,3.1947324E-3,-1.24351075E-2,-3.2278772E-2,1.4256864E-3,-7.932826E-3,-3.5237823E-2,-9.057232E-3,-2.0021698E-2,-1.0458848E-2,-1.1984639E-2,9.020152E-3,4.3651078E-2,2.0916205E-2,1.790269E-2,3.376948E-2,4.0533405E-2,3.090473E-2,4.3187873E-4,7.7625453E-3,7.947012E-3,1.2291963E-2,3.2940544E-2,9.91579E-3,2.9253412E-2,3.978561E-2,2.083537E-2,1.30245015E-2,2.2934923E-2,1.93797E-2,1.582483E-2,2.209127E-2,2.9749814E-2,3.8979184E-2,2.9491557E-2,4.119785E-2,2.2982756E-2,3.9465725E-2,3.3905778E-2,3.1089202E-2,3.9279263E-2,4.6341594E-2,3.8397692E-2,4.1809376E-2,4.3109737E-2,3.333556E-2,4.323392E-2,4.8046764E-2,4.7771376E-2,5.3673506E-2],"split_indices":[1,6,1,1,0,1,1,0,2,2,6,6,3,1,1,2,6,1,0,6,1,2,0,1,0,1,6,5,6,5,1,6,6,2,2,6,6,2,6,2,2,6,6,0,3,6,1,0,1,2,0,5,2,1,0,6,6,5,0,6,4,6,6,0,0,0,0,0,0,0,0,0,0,0,0,0,0,0,0,0,0,0,0,0,0,0,0,0,0,0,0,0,0,0,0,0,0,0,0,0,0,0,0,0,0,0,0,0,0,0,0,0,0,0,0,0,0,0,0,0,0,0,0,0,0,0,0],"split_type":[0,0,0,0,0,0,0,0,0,0,0,0,0,0,0,0,0,0,0,0,0,0,0,0,0,0,0,0,0,0,0,0,0,0,0,0,0,0,0,0,0,0,0,0,0,0,0,0,0,0,0,0,0,0,0,0,0,0,0,0,0,0,0,0,0,0,0,0,0,0,0,0,0,0,0,0,0,0,0,0,0,0,0,0,0,0,0,0,0,0,0,0,0,0,0,0,0,0,0,0,0,0,0,0,0,0,0,0,0,0,0,0,0,0,0,0,0,0,0,0,0,0,0,0,0,0,0],"sum_hessian":[8.9776E4,4.7459E4,4.2317E4,1.3234E4,3.4225E4,2.7611E4,1.4706E4,7.377E3,5.857E3,2.3828E4,1.0397E4,1.8876E4,8.735E3,7.005E3,7.701E3,3.104E3,4.273E3,2.804E3,3.053E3,1.8631E4,5.197E3,5.832E3,4.565E3,1.293E4,5.946E3,7.055E3,1.68E3,3.149E3,3.856E3,4.892E3,2.809E3,2.649E3,4.55E2,2.114E3,2.159E3,1.537E3,1.267E3,1.437E3,1.616E3,5.632E3,1.2999E4,3.909E3,1.288E3,4.949E3,8.83E2,1.823E3,2.742E3,5.544E3,7.386E3,5.331E3,6.15E2,1.332E3,5.723E3,1.015E3,6.65E2,1.069E3,2.08E3,3.554E3,3.02E2,2.889E3,2.003E3,1.4E3,1.409E3,1.368E3,1.281E3,1.77E2,2.78E2,8.58E2,1.256E3,1.898E3,2.61E2,8.99E2,6.38E2,5.3E2,7.37E2,5.71E2,8.66E2,1.209E3,4.07E2,4.806E3,8.26E2,6.837E3,6.162E3,3.649E3,2.6E2,8.49E2,4.39E2,2.256E3,2.693E3,7.39E2,1.44E2,1.4E3,4.23E2,1.685E3,1.057E3,4.12E3,1.424E3,4.138E3,3.248E3,1.04E2,5.227E3,2.25E2,3.9E2,3.65E2,9.67E2,1.81E3,3.913E3,3.98E2,6.17E2,3.62E2,3.03E2,1.002E3,6.7E1,2.037E3,4.3E1,1.595E3,1.959E3,1.53E2,1.49E2,1.047E3,1.842E3,2.59E2,1.744E3,1.279E3,1.21E2,1.173E3,2.36E2],"tree_param":{"num_deleted":"0","num_feature":"7","num_nodes":"127","size_leaf_vector":"1"}},{"base_weights":[8.78842E-6,-3.4523597E-1,3.9329448E-1,-1.0849005E0,-5.6706447E-2,2.4467479E-1,6.9015545E-1,-1.5916207E0,-5.649334E-1,-2.2583382E-1,3.0903125E-1,1.669285E-1,3.972101E-1,5.786667E-1,7.8126025E-1,-2.400101E0,-1.0269839E0,-9.0136814E-1,-2.4594073E-1,-1.3032521E-1,-5.4922426E-1,1.1431098E-1,5.981271E-1,1.1985782E-1,2.2827579E-1,3.779026E-1,5.011569E-1,4.9612287E-1,6.3082075E-1,7.249075E-1,8.791082E-1,-2.7225134E0,-1.6060476E0,-1.4358902E0,-6.302438E-1,-1.2863863E0,-5.075777E-1,-3.598538E-1,-1.45256E-1,-2.8143716E-1,-5.862356E-2,-6.429175E-1,-3.0188286E-1,1.7194946E-3,7.656474E-1,4.4514635E-1,7.053142E-1,7.976527E-2,2.4440715E-1,1.994877E-1,3.6171994E-1,2.9204032E-1,3.9504918E-1,3.979488E-1,7.3187673E-1,4.596314E-1,5.906883E-1,6.1585873E-1,8.2809955E-1,7.708009E-1,6.572288E-1,8.300589E-1,9.2722094E-1,-1.5442915E-1,-9.184452E-2,-9.6914925E-2,-6.716446E-2,-1.15227975E-1,-4.2495247E-2,-3.5862528E-2,9.444102E-3,-7.971472E-2,-4.534473E-2,-3.530943E-2,-1.8807841E-2,-2.9334703E-2,-1.1878206E-2,8.645324E-3,-9.326317E-3,-8.840034E-3,-2.141646E-2,-4.0554167E-3,1.5154257E-2,-6.0210127E-2,-3.0623673E-2,-1.8633978E-2,-9.392548E-3,-8.462947E-3,1.02777155E-2,1.8369308E-2,4.1386634E-2,1.9038917E-2,3.3169147E-2,3.7843727E-2,2.8411625E-2,-1.1101557E-3,5.237242E-3,8.877636E-3,3.4025397E-2,1.254742E-2,8.661242E-3,1.4047696E-2,3.5643816E-2,1.4232702E-2,3.933558E-2,2.1932926E-2,1.8791212E-2,1.6197426E-2,2.7079558E-2,2.8591571E-2,3.7854236E-2,2.2463521E-2,3.1222848E-2,2.8379498E-2,4.0532704E-2,2.8584186E-2,3.1610478E-2,3.7912898E-2,4.4173013E-2,3.6178112E-2,3.9556097E-2,4.0962532E-2,3.162136E-2,4.1140836E-2,4.6561476E-2,4.554767E-2,5.2025974E-2],"categories":[],"categories_nodes":[],"categories_segments":[],"categories_sizes":[],"default_left":[0,0,0,0,0,0,0,0,0,0,0,0,0,0,0,0,0,0,0,0,0,0,0,0,0,0,0,0,0,0,0,0,0,0,0,0,0,0,0,0,0,0,0,0,0,0,0,0,0,0,0,0,0,0,0,0,0,0,0,0,0,0,0,0,0,0,0,0,0,0,0,0,0,0,0,0,0,0,0,0,0,0,0,0,0,0,0,0,0,0,0,0,0,0,0,0,0,0,0,0,0,0,0,0,0,0,0,0,0,0,0,0,0,0,0,0,0,0,0,0,0,0,0,0,0,0,0],"id":4,"left_children":[1,3,5,7,9,11,13,15,17,19,21,23,25,27,29,31,33,35,37,39,41,43,45,47,49,51,53,55,57,59,61,63,65,67,69,71,73,75,77,79,81,83,85,87,89,91,93,95,97,99,101,103,105,107,109,111,113,115,117,119,121,123,125,-1,-1,-1,-1,-1,-1,-1,-1,-1,-1,-1,-1,-1,-1,-1,-1,-1,-1,-1,-1,-1,-1,-1,-1,-1,-1,-1,-1,-1,-1,-1,-1,-1,-1,-1,-1,-1,-1,-1,-1,-1,-1,-1,-1,-1,-1,-1,-1,-1,-1,-1,-1,-1,-1,-1,-1,-1,-1,-1,-1,-1,-1,-1,-1],"loss_changes":[1.2190041E4,1.0203099E4,1.851478E3,3.533918E3,2.1275537E3,3.3161963E2,1.417583E2,3.0989824E3,7.105603E2,7.263496E2,6.121725E2,5.347516E1,1.8760254E1,2.680835E1,4.1831543E1,7.106709E2,6.483374E2,4.8800684E2,3.895485E1,1.9672498E2,1.2406616E2,4.7667584E2,7.145813E1,5.234233E1,3.0825836E1,1.1614014E1,3.48555E1,8.1622925E0,1.0874634E1,1.4690918E1,5.8615723E0,6.378633E2,6.802319E1,1.00082544E3,1.450263E2,1.8890039E2,4.1366455E1,4.4106262E1,2.3759377E1,8.973276E1,1.0018984E2,6.569983E1,1.1837784E1,1.9321587E2,2.3383484E1,2.5117096E1,1.774878E1,2.0211235E1,7.431258E1,8.900787E0,4.024321E1,4.6355896E0,5.4002686E0,1.0687988E1,1.4027557E0,2.7387695E0,2.9796143E0,2.230957E0,3.7019348E-1,2.2210693E0,7.4544067E0,2.6019287E-1,1.6508789E0,0E0,0E0,0E0,0E0,0E0,0E0,0E0,0E0,0E0,0E0,0E0,0E0,0E0,0E0,0E0,0E0,0E0,0E0,0E0,0E0,0E0,0E0,0E0,0E0,0E0,0E0,0E0,0E0,0E0,0E0,0E0,0E0,0E0,0E0,0E0,0E0,0E0,0E0,0E0,0E0,0E0,0E0,0E0,0E0,0E0,0E0,0E0,0E0,0E0,0E0,0E0,0E0,0E0,0E0,0E0,0E0,0E0,0E0,0E0,0E0,0E0,0E0,0E0,0E0],"parents":[2147483647,0,0,1,1,2,2,3,3,4,4,5,5,6,6,7,7,8,8,9,9,10,10,11,11,12,12,13,13,14,14,15,15,16,16,17,17,18,18,19,19,20,20,21,21,22,22,23,23,24,24,25,25,26,26,27,27,28,28,29,29,30,30,31,31,32,32,33,33,34,34,35,35,36,36,37,37,38,38,39,39,40,40,41,41,42,42,43,43,44,44,45,45,46,46,47,47,48,48,49,49,50,50,51,51,52,52,53,53,54,54,55,55,56,56,57,57,58,58,59,59,60,60,61,61,62,62],"right_children":[2,4,6,8,10,12,14,16,18,20,22,24,26,28,30,32,34,36,38,40,42,44,46,48,50,52,54,56,58,60,62,64,66,68,70,72,74,76,78,80,82,84,86,88,90,92,94,96,98,100,102,104,106,108,110,112,114,116,118,120,122,124,126,-1,-1,-1,-1,-1,-1,-1,-1,-1,-1,-1,-1,-1,-1,-1,-1,-1,-1,-1,-1,-1,-1,-1,-1,-1,-1,-1,-1,-1,-1,-1,-1,-1,-1,-1,-1,-1,-1,-1,-1,-1,-1,-1,-1,-1,-1,-1,-1,-1,-1,-1,-1,-1,-1,-1,-1,-1,-1,-1,-1,-1,-1,-1,-1],"split_conditions":[7.9317E2,6.9886766E4,1.22838E3,3.6919E2,6.81069E-1,1.05999E3,1.41204E3,7.4106324E-1,1.08E0,-4E-1,7.7776625E4,9.882E2,2.003452E0,1.26736E3,1.53427E3,6.497836E4,6.307727E4,5.7405E2,7.7305335E-1,7.506361E4,5.3103E2,1.1E0,1.0957536E0,7.810428E4,9.133285E-1,1.09963E3,7.315873E4,1.7861303E0,7.9990625E4,7.84E0,1.63612E3,1.33E0,1.4341183E1,1.44E0,1.26E0,1.3744081E0,6.5460156E4,1.54E0,1.75E0,-1.69E0,5.5455047E-1,7.2240875E4,7.69684E4,1.7861303E0,7.1626555E4,7.983866E4,4.028998E1,6.618316E4,1.0644844E0,6.77E0,7.6710484E4,8.148495E4,-4.5E-1,8.7E-1,7.466903E4,7.829826E4,7.564514E4,1.3101E3,1.5911175E0,7.288516E4,1E0,8.148495E4,8.183366E4,-1.5442915E-1,-9.184452E-2,-9.6914925E-2,-6.716446E-2,-1.15227975E-1,-4.2495247E-2,-3.5862528E-2,9.444102E-3,-7.971472E-2,-4.534473E-2,-3.530943E-2,-1.8807841E-2,-2.9334703E-2,-1.1878206E-2,8.645324E-3,-9.326317E-3,-8.840034E-3,-2.141646E-2,-4.0554167E-3,1.5154257E-2,-6.0210127E-2,-3.0623673E-2,-1.8633978E-2,-9.392548E-3,-8.462947E-3,1.02777155E-2,1.8369308E-2,4.1386634E-2,1.9038917E-2,3.3169147E-2,3.7843727E-2,2.8411625E-2,-1.1101557E-3,5.237242E-3,8.877636E-3,3.4025397E-2,1.254742E-2,8.661242E-3,1.4047696E-2,3.5643816E-2,1.4232702E-2,3.933558E-2,2.1932926E-2,1.8791212E-2,1.6197426E-2,2.7079558E-2,2.8591571E-2,3.7854236E-2,2.2463521E-2,3.1222848E-2,2.8379498E-2,4.0532704E-2,2.8584186E-2,3.1610478E-2,3.7912898E-2,4.4173013E-2,3.6178112E-2,3.9556097E-2,4.0962532E-2,3.162136E-2,4.1140836E-2,4.6561476E-2,4.554767E-2,5.2025974E-2],"split_indices":[1,6,1,1,0,1,1,0,2,2,6,1,0,1,1,6,6,1,0,6,1,2,0,6,0,1,6,0,6,5,1,2,3,2,2,0,6,2,4,2,0,6,6,0,6,6,3,6,0,5,6,6,2,2,6,6,6,1,0,6,4,6,6,0,0,0,0,0,0,0,0,0,0,0,0,0,0,0,0,0,0,0,0,0,0,0,0,0,0,0,0,0,0,0,0,0,0,0,0,0,0,0,0,0,0,0,0,0,0,0,0,0,0,0,0,0,0,0,0,0,0,0,0,0,0,0,0],"split_type":[0,0,0,0,0,0,0,0,0,0,0,0,0,0,0,0,0,0,0,0,0,0,0,0,0,0,0,0,0,0,0,0,0,0,0,0,0,0,0,0,0,0,0,0,0,0,0,0,0,0,0,0,0,0,0,0,0,0,0,0,0,0,0,0,0,0,0,0,0,0,0,0,0,0,0,0,0,0,0,0,0,0,0,0,0,0,0,0,0,0,0,0,0,0,0,0,0,0,0,0,0,0,0,0,0,0,0,0,0,0,0,0,0,0,0,0,0,0,0,0,0,0,0,0,0,0,0],"sum_hessian":[8.9776E4,4.7808E4,4.1968E4,1.3415E4,3.4393E4,2.7968E4,1.4E4,6.793E3,6.622E3,2.3518E4,1.0875E4,1.8527E4,9.441E3,6.299E3,7.701E3,2.792E3,4.001E3,3.222E3,3.4E3,1.8157E4,5.361E3,6.499E3,4.376E3,1.0485E4,8.042E3,7.966E3,1.475E3,2.443E3,3.856E3,4.892E3,2.809E3,1.984E3,8.08E2,1.969E3,2.032E3,1.628E3,1.594E3,1.594E3,1.806E3,5.842E3,1.2315E4,3.887E3,1.474E3,5.542E3,9.57E2,1.805E3,2.571E3,7.933E3,2.552E3,6.617E3,1.425E3,1.329E3,6.637E3,1.021E3,4.54E2,1.767E3,6.76E2,3.588E3,2.68E2,2.909E3,1.983E3,1.4E3,1.409E3,1.402E3,5.82E2,3.54E2,4.54E2,7.92E2,1.177E3,1.837E3,1.95E2,8.97E2,7.31E2,6.33E2,9.61E2,5.57E2,1.037E3,2.07E2,1.599E3,3.413E3,2.429E3,1.1595E4,7.2E2,1.98E2,3.689E3,9.08E2,5.66E2,3.014E3,2.528E3,1.3E2,8.27E2,1.396E3,4.09E2,1.865E3,7.06E2,1.561E3,6.372E3,2.214E3,3.38E2,2.233E3,4.384E3,1.16E3,2.65E2,1.311E3,1.8E1,2.024E3,4.613E3,6.76E2,3.45E2,6.5E1,3.89E2,1.666E3,1.01E2,6.15E2,6.1E1,9.79E2,2.609E3,1.25E2,1.43E2,8.86E2,2.023E3,2.59E2,1.724E3,1.315E3,8.5E1,1.24E3,1.69E2],"tree_param":{"num_deleted":"0","num_feature":"7","num_nodes":"127","size_leaf_vector":"1"}},{"base_weights":[9.986274E-6,-3.3060563E-1,3.7079823E-1,-1.0563815E0,-6.0735114E-2,2.1096967E-1,6.2219447E-1,-1.5369099E0,-5.492013E-1,-2.231871E-1,2.7066886E-1,1.5616776E-1,3.5880914E-1,4.8813534E-1,7.2145265E-1,-2.303675E0,-9.961172E-1,-8.937462E-1,-2.3449028E-1,-1.3276878E-1,-5.344354E-1,6.332607E-2,5.438199E-1,1.1960953E-1,2.3563273E-1,3.538758E-1,7.510841E-1,4.4640088E-1,5.6555724E-1,6.731918E-1,8.352187E-1,-2.5706244E0,-1.5041386E0,-1.3641758E0,-6.151772E-1,-1.2325379E0,-5.0650483E-1,-3.360775E-1,-1.424585E-1,-6.331292E-1,-1.11783564E-1,-6.2387794E-1,-2.824843E-1,-4.19501E-2,7.2182125E-1,3.895418E-1,6.656155E-1,4.1138154E-2,1.7849733E-1,1.8757117E-1,6.512637E-1,3.960824E-1,3.1227005E-1,5.763139E-1,4.106478E-2,4.172989E-1,5.749171E-1,5.5236155E-1,3.5973508E-2,7.3423254E-1,6.3547707E-1,7.886184E-1,8.809293E-1,-1.4508323E-1,-8.694563E-2,-4.596459E-2,-8.2026355E-2,-1.0947385E-1,-4.037229E-2,-3.436714E-2,1.8394278E-2,-7.503928E-2,-4.179747E-2,-3.466103E-2,-1.7972114E-2,-1.3374783E-2,-3.517341E-2,-1.938362E-2,-4.3796953E-3,-2.5834167E-2,-5.0921023E-2,-1.1241923E-2,-3.0749086E-3,-6.5420486E-2,-2.950992E-2,-8.910029E-3,-1.8134499E-2,-1.0553419E-2,7.961511E-3,3.9516684E-2,1.7872123E-2,2.3450278E-2,7.1151317E-3,3.8133483E-2,2.9419962E-2,-2.5426336E-3,4.166204E-3,7.211571E-3,1.1104738E-2,3.067869E-2,8.94897E-3,3.7783682E-2,2.798365E-2,1.697082E-2,2.1893494E-2,1.22981025E-2,1.7203277E-2,3.7480243E-2,1.9974774E-2,2.5264813E-2,2.0102402E-2,2.6050944E-2,3.6106277E-2,2.9012343E-2,2.5738752E-2,3.478047E-2,3.7968583E-2,3.0833019E-2,3.619937E-2,3.9018463E-2,4.343511E-2,4.3109406E-2,4.8502415E-2],"categories":[],"categories_nodes":[],"categories_segments":[],"categories_sizes":[],"default_left":[0,0,0,0,0,0,0,0,0,0,0,0,0,0,0,0,0,0,0,0,0,0,0,0,0,0,0,0,0,0,0,0,0,0,0,0,0,0,0,0,0,0,0,0,0,0,0,0,0,0,0,0,0,0,0,0,0,0,0,0,0,0,0,0,0,0,0,0,0,0,0,0,0,0,0,0,0,0,0,0,0,0,0,0,0,0,0,0,0,0,0,0,0,0,0,0,0,0,0,0,0,0,0,0,0,0,0,0,0,0,0,0,0,0,0,0,0,0,0,0,0,0,0],"id":5,"left_children":[1,3,5,7,9,11,13,15,17,19,21,23,25,27,29,31,33,35,37,39,41,43,45,47,49,51,53,55,57,59,61,63,65,67,69,71,73,75,77,79,81,83,85,87,89,91,93,95,97,99,101,103,105,107,-1,109,111,113,-1,115,117,119,121,-1,-1,-1,-1,-1,-1,-1,-1,-1,-1,-1,-1,-1,-1,-1,-1,-1,-1,-1,-1,-1,-1,-1,-1,-1,-1,-1,-1,-1,-1,-1,-1,-1,-1,-1,-1,-1,-1,-1,-1,-1,-1,-1,-1,-1,-1,-1,-1,-1,-1,-1,-1,-1,-1,-1,-1,-1,-1,-1,-1],"loss_changes":[1.100574E4,9.295712E3,1.7002183E3,3.1342998E3,1.8626675E3,2.0955591E2,2.1849951E2,2.736541E3,6.785752E2,6.533146E2,6.4453864E2,5.481137E1,1.3273132E1,2.2365723E1,5.1311523E1,5.7902637E2,5.424675E2,3.9138403E2,3.0552216E1,1.8884827E2,1.1759241E2,4.486249E2,9.202051E1,5.9746918E1,1.1867435E2,1.2012329E1,5.8197784E-1,1.6788574E1,4.574463E0,1.4817383E1,5.2908936E0,5.582803E2,5.321167E1,9.0338794E2,1.3547076E2,1.6821509E2,3.8083405E1,3.8992126E1,2.3092712E1,3.1956482E1,9.816058E1,8.812671E1,1.1402611E1,1.8988344E2,2.1985779E1,4.254663E1,2.0107544E1,2.1522812E1,1.1003418E1,1.940596E1,5.4678955E0,7.9663086E0,7.2627563E0,5.58486E-1,0E0,4.7838745E0,6.272705E0,2.0689697E0,0E0,1.9273682E0,6.4001465E0,2.4768066E-1,1.5185547E0,0E0,0E0,0E0,0E0,0E0,0E0,0E0,0E0,0E0,0E0,0E0,0E0,0E0,0E0,0E0,0E0,0E0,0E0,0E0,0E0,0E0,0E0,0E0,0E0,0E0,0E0,0E0,0E0,0E0,0E0,0E0,0E0,0E0,0E0,0E0,0E0,0E0,0E0,0E0,0E0,0E0,0E0,0E0,0E0,0E0,0E0,0E0,0E0,0E0,0E0,0E0,0E0,0E0,0E0,0E0,0E0,0E0,0E0,0E0,0E0],"parents":[2147483647,0,0,1,1,2,2,3,3,4,4,5,5,6,6,7,7,8,8,9,9,10,10,11,11,12,12,13,13,14,14,15,15,16,16,17,17,18,18,19,19,20,20,21,21,22,22,23,23,24,24,25,25,26,26,27,27,28,28,29,29,30,30,31,31,32,32,33,33,34,34,35,35,36,36,37,37,38,38,39,39,40,40,41,41,42,42,43,43,44,44,45,45,46,46,47,47,48,48,49,49,50,50,51,51,52,52,53,53,55,55,56,56,57,57,59,59,60,60,61,61,62,62],"right_children":[2,4,6,8,10,12,14,16,18,20,22,24,26,28,30,32,34,36,38,40,42,44,46,48,50,52,54,56,58,60,62,64,66,68,70,72,74,76,78,80,82,84,86,88,90,92,94,96,98,100,102,104,106,108,-1,110,112,114,-1,116,118,120,122,-1,-1,-1,-1,-1,-1,-1,-1,-1,-1,-1,-1,-1,-1,-1,-1,-1,-1,-1,-1,-1,-1,-1,-1,-1,-1,-1,-1,-1,-1,-1,-1,-1,-1,-1,-1,-1,-1,-1,-1,-1,-1,-1,-1,-1,-1,-1,-1,-1,-1,-1,-1,-1,-1,-1,-1,-1,-1,-1,-1],"split_conditions":[7.7912E2,6.955081E4,1.18052E3,3.6919E2,6.6960365E-1,1.05999E3,1.35633E3,7.4106324E-1,1.13E0,-4E-1,7.751754E4,7.806021E4,8.148495E4,1.25651E3,1.53427E3,6.5460156E4,6.307727E4,5.7405E2,7.7305335E-1,7.172764E4,5.4017E2,1.11E0,1.0809948E0,9.4953E2,9.989264E-1,6.4E0,8.7484765E-1,1.951121E0,7.9327766E4,5.68E0,1.63612E3,1.33E0,-1.18E0,1.44E0,1.31E0,6.5460156E4,6.8396E2,8.75E0,4.2010406E4,-1.2E0,7.518283E4,7.185032E4,3.69E0,1.9027101E0,2.4233921E1,-4.2E-1,1.603E2,6.935884E4,1.00472E3,-8.5E-1,-2.7E-1,7.4092516E4,1.09963E3,-2.3E-1,4.106478E-2,5.23E0,7.488245E4,6.98E0,3.5973508E-2,7.418195E4,2.5255334E0,8.0567445E4,7.988859E4,-1.4508323E-1,-8.694563E-2,-4.596459E-2,-8.2026355E-2,-1.0947385E-1,-4.037229E-2,-3.436714E-2,1.8394278E-2,-7.503928E-2,-4.179747E-2,-3.466103E-2,-1.7972114E-2,-1.3374783E-2,-3.517341E-2,-1.938362E-2,-4.3796953E-3,-2.5834167E-2,-5.0921023E-2,-1.1241923E-2,-3.0749086E-3,-6.5420486E-2,-2.950992E-2,-8.910029E-3,-1.8134499E-2,-1.0553419E-2,7.961511E-3,3.9516684E-2,1.7872123E-2,2.3450278E-2,7.1151317E-3,3.8133483E-2,2.9419962E-2,-2.5426336E-3,4.166204E-3,7.211571E-3,1.1104738E-2,3.067869E-2,8.94897E-3,3.7783682E-2,2.798365E-2,1.697082E-2,2.1893494E-2,1.22981025E-2,1.7203277E-2,3.7480243E-2,1.9974774E-2,2.5264813E-2,2.0102402E-2,2.6050944E-2,3.6106277E-2,2.9012343E-2,2.5738752E-2,3.478047E-2,3.7968583E-2,3.0833019E-2,3.619937E-2,3.9018463E-2,4.343511E-2,4.3109406E-2,4.8502415E-2],"split_indices":[1,6,1,1,0,1,1,0,2,2,6,6,6,1,1,6,6,1,0,6,1,2,0,1,0,5,0,0,6,5,1,2,2,2,2,6,1,5,6,2,6,6,4,0,3,2,1,6,1,2,2,6,1,2,0,5,6,5,0,6,0,6,6,0,0,0,0,0,0,0,0,0,0,0,0,0,0,0,0,0,0,0,0,0,0,0,0,0,0,0,0,0,0,0,0,0,0,0,0,0,0,0,0,0,0,0,0,0,0,0,0,0,0,0,0,0,0,0,0,0,0,0,0],"split_type":[0,0,0,0,0,0,0,0,0,0,0,0,0,0,0,0,0,0,0,0,0,0,0,0,0,0,0,0,0,0,0,0,0,0,0,0,0,0,0,0,0,0,0,0,0,0,0,0,0,0,0,0,0,0,0,0,0,0,0,0,0,0,0,0,0,0,0,0,0,0,0,0,0,0,0,0,0,0,0,0,0,0,0,0,0,0,0,0,0,0,0,0,0,0,0,0,0,0,0,0,0,0,0,0,0,0,0,0,0,0,0,0,0,0,0,0,0,0,0,0,0,0,0],"sum_hessian":[8.9776E4,4.7459E4,4.2317E4,1.2863E4,3.4596E4,2.5871E4,1.6446E4,6.604E3,6.259E3,2.3216E4,1.138E4,1.8876E4,6.995E3,6.999E3,9.447E3,2.73E3,3.874E3,2.987E3,3.272E3,1.7991E4,5.225E3,6.47E3,4.91E3,1.293E4,5.946E3,6.91E3,8.5E1,4.552E3,2.447E3,6.638E3,2.809E3,2.045E3,6.85E2,1.969E3,1.905E3,1.592E3,1.395E3,1.554E3,1.718E3,7.23E2,1.7268E4,3.855E3,1.37E3,5.579E3,8.91E2,2.168E3,2.742E3,5.544E3,7.386E3,5.331E3,6.15E2,3.426E3,3.484E3,2.7E1,5.8E1,3.715E3,8.37E2,2.258E3,1.89E2,2.528E3,4.11E3,1.4E3,1.409E3,1.461E3,5.84E2,1.31E2,5.54E2,7.92E2,1.177E3,1.775E3,1.3E2,9.48E2,6.44E2,6.13E2,7.82E2,1.311E3,2.43E2,3.13E2,1.405E3,5.57E2,1.66E2,5.315E3,1.1953E4,1.79E2,3.676E3,5.97E2,7.73E2,3.031E3,2.548E3,7.49E2,1.42E2,1.64E3,5.28E2,1.211E3,1.531E3,1.743E3,3.801E3,4.138E3,3.248E3,1.04E2,5.227E3,2.84E2,3.31E2,1.458E3,1.968E3,1.132E3,2.352E3,1.2E1,1.5E1,5.44E2,3.171E3,6.16E2,2.21E2,1.288E3,9.7E2,1.008E3,1.52E3,3.396E3,7.14E2,1.279E3,1.21E2,1.173E3,2.36E2],"tree_param":{"num_deleted":"0","num_feature":"7","num_nodes":"123","size_leaf_vector":"1"}},{"base_weights":[9.198984E-6,-3.140928E-1,3.5227728E-1,-9.9034107E-1,-5.2582234E-2,2.1320495E-1,6.133579E-1,-1.4371029E0,-5.190138E-1,-2.0419669E-1,2.7790666E-1,1.4836597E-1,3.5328647E-1,5.0691104E-1,7.0132184E-1,-2.166686E0,-9.27567E-1,-8.363003E-1,-2.2481827E-1,-1.17862254E-1,-4.9781853E-1,-1.2178025E-1,3.9889646E-1,1.1363057E-1,2.2386876E-1,3.3284616E-1,4.3887448E-1,4.420941E-1,5.6495225E-1,6.517555E-1,7.935197E-1,-2.4585476E0,-1.4478828E0,-1.3081669E0,-5.80844E-1,-1.1617014E0,-4.7537926E-1,-3.2666346E-1,-1.3547054E-1,-2.8520542E-1,-6.375775E-2,-5.807388E-1,-2.7420938E-1,-1.8048893E-1,7.386961E-1,1.841618E-1,5.225498E-1,3.9081626E-2,1.6957484E-1,1.7819996E-1,6.188073E-1,2.5830722E-1,3.501466E-1,3.3955455E-1,6.019439E-1,5.2314335E-1,4.0020806E-1,5.506069E-1,7.5299335E-1,6.9046676E-1,5.8837247E-1,7.492462E-1,8.3694774E-1,-1.3688545E-1,-7.514785E-2,-8.794224E-2,-6.01041E-2,-1.08438425E-1,-3.850923E-2,-3.3787876E-2,3.7336505E-3,-7.265806E-2,-4.0127937E-2,-3.2289486E-2,-1.6582014E-2,-2.7298136E-2,-1.0512843E-2,-9.287506E-3,5.887196E-3,-1.0103366E-2,-2.83081E-2,-5.5005774E-4,-1.0148643E-2,-3.057835E-2,-3.0733792E-3,-1.7094687E-2,-8.384375E-3,-2.556242E-2,-2.6056208E-3,3.961719E-2,2.9850563E-2,2.1641904E-2,-4.440118E-3,3.3036724E-2,1.8817844E-2,9.449103E-5,7.3305145E-3,6.736302E-3,1.0420343E-2,2.9159361E-2,8.501603E-3,3.583711E-2,2.6531527E-2,1.7964862E-2,1.0992806E-2,1.9630035E-2,1.6520685E-2,1.3661146E-2,1.9073976E-2,2.6571324E-2,3.422654E-2,2.5457436E-2,3.6093548E-2,1.9695336E-2,3.4148943E-2,2.6771044E-2,2.9967377E-2,3.4093063E-2,4.0186044E-2,3.22358E-2,3.548182E-2,3.738297E-2,2.8245032E-2,3.8763817E-2,3.6274277E-2,4.110384E-2,4.702913E-2],"categories":[],"categories_nodes":[],"categories_segments":[],"categories_sizes":[],"default_left":[0,0,0,0,0,0,0,0,0,0,0,0,0,0,0,0,0,0,0,0,0,0,0,0,0,0,0,0,0,0,0,0,0,0,0,0,0,0,0,0,0,0,0,0,0,0,0,0,0,0,0,0,0,0,0,0,0,0,0,0,0,0,0,0,0,0,0,0,0,0,0,0,0,0,0,0,0,0,0,0,0,0,0,0,0,0,0,0,0,0,0,0,0,0,0,0,0,0,0,0,0,0,0,0,0,0,0,0,0,0,0,0,0,0,0,0,0,0,0,0,0,0,0,0,0,0,0],"id":6,"left_children":[1,3,5,7,9,11,13,15,17,19,21,23,25,27,29,31,33,35,37,39,41,43,45,47,49,51,53,55,57,59,61,63,65,67,69,71,73,75,77,79,81,83,85,87,89,91,93,95,97,99,101,103,105,107,109,111,113,115,117,119,121,123,125,-1,-1,-1,-1,-1,-1,-1,-1,-1,-1,-1,-1,-1,-1,-1,-1,-1,-1,-1,-1,-1,-1,-1,-1,-1,-1,-1,-1,-1,-1,-1,-1,-1,-1,-1,-1,-1,-1,-1,-1,-1,-1,-1,-1,-1,-1,-1,-1,-1,-1,-1,-1,-1,-1,-1,-1,-1,-1,-1,-1,-1,-1,-1,-1],"loss_changes":[9.933766E3,8.3930625E3,1.536397E3,2.7861611E3,1.7150153E3,2.5074048E2,1.3735352E2,2.5236514E3,6.0113574E2,5.9472076E2,5.205745E2,4.948175E1,1.5136963E1,2.4797852E1,3.6270508E1,5.823867E2,5.27355E2,3.6340698E2,3.0384918E1,1.6415833E2,9.8686646E1,1.2652793E2,2.1930835E2,5.3923233E1,1.0715201E2,9.008606E0,2.702118E1,1.0484314E1,9.050903E0,1.2453369E1,4.775879E0,5.254121E2,5.9721313E1,8.812483E2,1.3045819E2,1.6935059E2,3.5817444E1,3.9759766E1,2.2722164E1,1.033624E2,1.0064699E2,6.2202393E1,1.0353714E1,9.9461235E1,7.4313354E-1,2.0510306E2,1.0566858E2,2.2175201E1,9.968384E0,1.7538574E1,4.9391785E0,5.097275E0,4.6655273E0,2.8074265E0,3.3343506E0,2.6082458E0,3.4389648E0,2.0950928E0,3.396454E-1,2.3911133E0,7.032715E0,3.0395508E-1,1.3997803E0,0E0,0E0,0E0,0E0,0E0,0E0,0E0,0E0,0E0,0E0,0E0,0E0,0E0,0E0,0E0,0E0,0E0,0E0,0E0,0E0,0E0,0E0,0E0,0E0,0E0,0E0,0E0,0E0,0E0,0E0,0E0,0E0,0E0,0E0,0E0,0E0,0E0,0E0,0E0,0E0,0E0,0E0,0E0,0E0,0E0,0E0,0E0,0E0,0E0,0E0,0E0,0E0,0E0,0E0,0E0,0E0,0E0,0E0,0E0,0E0,0E0,0E0,0E0,0E0],"parents":[2147483647,0,0,1,1,2,2,3,3,4,4,5,5,6,6,7,7,8,8,9,9,10,10,11,11,12,12,13,13,14,14,15,15,16,16,17,17,18,18,19,19,20,20,21,21,22,22,23,23,24,24,25,25,26,26,27,27,28,28,29,29,30,30,31,31,32,32,33,33,34,34,35,35,36,36,37,37,38,38,39,39,40,40,41,41,42,42,43,43,44,44,45,45,46,46,47,47,48,48,49,49,50,50,51,51,52,52,53,53,54,54,55,55,56,56,57,57,58,58,59,59,60,60,61,61,62,62],"right_children":[2,4,6,8,10,12,14,16,18,20,22,24,26,28,30,32,34,36,38,40,42,44,46,48,50,52,54,56,58,60,62,64,66,68,70,72,74,76,78,80,82,84,86,88,90,92,94,96,98,100,102,104,106,108,110,112,114,116,118,120,122,124,126,-1,-1,-1,-1,-1,-1,-1,-1,-1,-1,-1,-1,-1,-1,-1,-1,-1,-1,-1,-1,-1,-1,-1,-1,-1,-1,-1,-1,-1,-1,-1,-1,-1,-1,-1,-1,-1,-1,-1,-1,-1,-1,-1,-1,-1,-1,-1,-1,-1,-1,-1,-1,-1,-1,-1,-1,-1,-1,-1,-1,-1,-1,-1,-1],"split_conditions":[7.7912E2,6.9886766E4,1.2182E3,3.6919E2,6.81069E-1,1.05999E3,1.39735E3,7.4106324E-1,1.08E0,-4E-1,7.372937E4,7.806021E4,3.8357117E1,1.26736E3,1.53427E3,6.497836E4,6.276442E4,5.7405E2,7.619873E-1,7.402348E4,5.3103E2,1.19E0,1.0290699E0,9.4953E2,9.989264E-1,1.09963E3,7.4092516E4,6.98E0,7.9990625E4,8.04E0,1.63612E3,1.41E0,1.4341183E1,1.44E0,1.22E0,1.3744081E0,6.618316E4,1.54E0,6.518798E4,-1.54E0,-9.9E-1,7.847702E4,7.69684E4,1.1294183E0,1.1294183E0,-6.6E-1,2.5326E2,1.7861303E0,1.00144E3,-8.5E-1,-2E-1,6.27E0,-4.8E-1,1.12144E3,2.003452E0,7.844097E4,7.983866E4,2.6868687E0,1.5911175E0,7.2427625E4,1E0,7.49E0,8.183366E4,-1.3688545E-1,-7.514785E-2,-8.794224E-2,-6.01041E-2,-1.08438425E-1,-3.850923E-2,-3.3787876E-2,3.7336505E-3,-7.265806E-2,-4.0127937E-2,-3.2289486E-2,-1.6582014E-2,-2.7298136E-2,-1.0512843E-2,-9.287506E-3,5.887196E-3,-1.0103366E-2,-2.83081E-2,-5.5005774E-4,-1.0148643E-2,-3.057835E-2,-3.0733792E-3,-1.7094687E-2,-8.384375E-3,-2.556242E-2,-2.6056208E-3,3.961719E-2,2.9850563E-2,2.1641904E-2,-4.440118E-3,3.3036724E-2,1.8817844E-2,9.449103E-5,7.3305145E-3,6.736302E-3,1.0420343E-2,2.9159361E-2,8.501603E-3,3.583711E-2,2.6531527E-2,1.7964862E-2,1.0992806E-2,1.9630035E-2,1.6520685E-2,1.3661146E-2,1.9073976E-2,2.6571324E-2,3.422654E-2,2.5457436E-2,3.6093548E-2,1.9695336E-2,3.4148943E-2,2.6771044E-2,2.9967377E-2,3.4093063E-2,4.0186044E-2,3.22358E-2,3.548182E-2,3.738297E-2,2.8245032E-2,3.8763817E-2,3.6274277E-2,4.110384E-2,4.702913E-2],"split_indices":[1,6,1,1,0,1,1,0,2,2,6,6,3,1,1,6,6,1,0,6,1,2,0,1,0,1,6,5,6,5,1,2,3,2,2,0,6,2,6,2,2,6,6,0,0,2,1,0,1,2,2,5,2,1,0,6,6,0,0,6,4,5,6,0,0,0,0,0,0,0,0,0,0,0,0,0,0,0,0,0,0,0,0,0,0,0,0,0,0,0,0,0,0,0,0,0,0,0,0,0,0,0,0,0,0,0,0,0,0,0,0,0,0,0,0,0,0,0,0,0,0,0,0,0,0,0,0],"split_type":[0,0,0,0,0,0,0,0,0,0,0,0,0,0,0,0,0,0,0,0,0,0,0,0,0,0,0,0,0,0,0,0,0,0,0,0,0,0,0,0,0,0,0,0,0,0,0,0,0,0,0,0,0,0,0,0,0,0,0,0,0,0,0,0,0,0,0,0,0,0,0,0,0,0,0,0,0,0,0,0,0,0,0,0,0,0,0,0,0,0,0,0,0,0,0,0,0,0,0,0,0,0,0,0,0,0,0,0,0,0,0,0,0,0,0,0,0,0,0,0,0,0,0,0,0,0,0],"sum_hessian":[8.9776E4,4.7459E4,4.2317E4,1.3234E4,3.4225E4,2.7611E4,1.4706E4,6.793E3,6.441E3,2.3462E4,1.0763E4,1.8876E4,8.735E3,6.657E3,8.049E3,2.792E3,4.001E3,3.098E3,3.343E3,1.8132E4,5.33E3,2.501E3,8.262E3,1.293E4,5.946E3,7.055E3,1.68E3,3.149E3,3.508E3,5.24E3,2.809E3,1.984E3,8.08E2,1.906E3,2.095E3,1.628E3,1.47E3,1.561E3,1.782E3,4.429E3,1.3703E4,3.887E3,1.443E3,2.342E3,1.59E2,3.02E3,5.242E3,5.544E3,7.386E3,5.331E3,6.15E2,1.332E3,5.723E3,1.046E3,6.34E2,1.069E3,2.08E3,3.263E3,2.45E2,3.247E3,1.993E3,1.4E3,1.409E3,1.534E3,4.5E2,3.54E2,4.54E2,7.32E2,1.174E3,1.83E3,2.65E2,8.97E2,7.31E2,6.71E2,7.99E2,5.4E2,1.021E3,1.487E3,2.95E2,3.419E3,1.01E3,9.938E3,3.765E3,3.669E3,2.18E2,8.81E2,5.62E2,6.54E2,1.688E3,1.12E2,4.7E1,1.58E3,1.44E3,2.693E3,2.549E3,4.12E3,1.424E3,3.895E3,3.491E3,1.04E2,5.227E3,2.88E2,3.27E2,3.65E2,9.67E2,1.81E3,3.913E3,4.08E2,6.38E2,3.46E2,2.88E2,1.002E3,6.7E1,2.037E3,4.3E1,2.497E3,7.66E2,1.08E2,1.37E2,9.69E2,2.278E3,2.52E2,1.741E3,6.53E2,7.47E2,1.24E3,1.69E2],"tree_param":{"num_deleted":"0","num_feature":"7","num_nodes":"127","size_leaf_vector":"1"}},{"base_weights":[9.7337015E-6,-2.9609108E-1,3.3731306E-1,-9.436077E-1,-5.316373E-2,2.0491242E-1,5.827269E-1,-1.3876429E0,-4.8797852E-1,-2.0129749E-1,2.4671641E-1,1.4326282E-1,3.356403E-1,4.5936206E-1,6.513463E-1,-2.0796723E0,-8.9956033E-1,-7.86446E-1,-2.087361E-1,-1.1968978E-1,-4.8086417E-1,5.8280244E-2,4.956321E-1,1.21703476E-1,2.523315E-1,3.3125463E-1,7.036269E-1,5.2009666E-1,4.1289932E-1,6.07841E-1,7.5390166E-1,-2.343104E0,-1.414179E0,-1.2048436E0,-5.242818E-1,-1.1137459E0,-4.4290954E-1,-2.8225932E-1,-9.425664E-2,-5.772696E-1,-1.0049684E-1,-5.634367E-1,-2.535794E-1,-3.6827177E-2,6.5783775E-1,3.6081487E-1,6.060883E-1,3.7234664E-2,1.6148491E-1,1.19142145E-1,5.8862394E-1,3.7207767E-1,2.9607528E-1,3.8487926E-2,5.34909E-1,5.089781E-1,3.536763E-2,3.7527984E-1,4.7910064E-1,6.638006E-1,5.7326806E-1,7.1183723E-1,7.951629E-1,-1.3078907E-1,-7.139879E-2,-7.423603E-2,-5.5830693E-3,-9.3671076E-2,-3.772601E-2,-2.9299349E-2,2.0220397E-2,-6.838343E-2,-3.692092E-2,-3.165431E-2,-1.5683992E-2,-1.8085968E-2,-3.5238953E-3,-8.4513435E-3,1.546891E-2,-2.3506066E-2,-4.6485946E-2,-3.194083E-3,-1.1603344E-2,-5.82662E-2,-2.6492218E-2,-7.943797E-3,-1.6321959E-2,-9.498749E-3,7.5687445E-3,3.6017478E-2,1.723241E-2,2.1564785E-2,7.6235346E-3,3.4503907E-2,2.6978418E-2,6.3390925E-4,8.944338E-3,1.0697226E-2,6.89516E-3,2.1471977E-3,1.1919288E-2,3.3546288E-2,2.6059119E-2,1.7859844E-2,2.7355302E-2,1.1791884E-2,1.6415436E-2,1.8070212E-2,3.2488957E-2,2.3031285E-2,2.6334658E-2,1.8044917E-2,2.2795627E-2,2.3027861E-2,3.0314896E-2,3.1524986E-2,3.437585E-2,2.777846E-2,3.282773E-2,3.525953E-2,4.0263455E-2,3.719731E-2,4.1081633E-2],"categories":[],"categories_nodes":[],"categories_segments":[],"categories_sizes":[],"default_left":[0,0,0,0,0,0,0,0,0,0,0,0,0,0,0,0,0,0,0,0,0,0,0,0,0,0,0,0,0,0,0,0,0,0,0,0,0,0,0,0,0,0,0,0,0,0,0,0,0,0,0,0,0,0,0,0,0,0,0,0,0,0,0,0,0,0,0,0,0,0,0,0,0,0,0,0,0,0,0,0,0,0,0,0,0,0,0,0,0,0,0,0,0,0,0,0,0,0,0,0,0,0,0,0,0,0,0,0,0,0,0,0,0,0,0,0,0,0,0,0,0,0,0],"id":7,"left_children":[1,3,5,7,9,11,13,15,17,19,21,23,25,27,29,31,33,35,37,39,41,43,45,47,49,51,53,55,57,59,61,63,65,67,69,71,73,75,77,79,81,83,85,87,89,91,93,95,97,99,101,103,105,-1,107,109,-1,111,113,115,117,119,121,-1,-1,-1,-1,-1,-1,-1,-1,-1,-1,-1,-1,-1,-1,-1,-1,-1,-1,-1,-1,-1,-1,-1,-1,-1,-1,-1,-1,-1,-1,-1,-1,-1,-1,-1,-1,-1,-1,-1,-1,-1,-1,-1,-1,-1,-1,-1,-1,-1,-1,-1,-1,-1,-1,-1,-1,-1,-1,-1,-1],"loss_changes":[8.966648E3,7.5202812E3,1.3635771E3,2.638122E3,1.5444823E3,2.1967322E2,1.2419922E2,2.229084E3,5.364929E2,5.308885E2,5.3918774E2,4.3536957E1,1.3865662E1,1.4628418E1,4.16958E1,4.754619E2,4.433125E2,3.4941833E2,2.7984833E1,1.5815509E2,9.85365E1,3.7317862E2,7.353845E1,5.1984406E1,1.3685466E2,1.22908325E1,7.263222E-1,4.378662E0,7.254242E0,1.2463867E1,4.311157E0,4.8410547E2,7.1226074E1,6.416853E2,9.994766E1,1.5080981E2,3.7157654E1,3.406836E1,3.9376663E1,2.6942062E1,8.3283905E1,7.7346436E1,9.628937E0,1.6284837E2,1.729367E1,3.2724213E1,1.4829956E1,1.7233583E1,1.2982178E1,1.9897512E1,4.462677E0,1.020459E1,8.937714E0,0E0,4.029436E-1,1.600708E0,0E0,2.0480042E0,2.2633972E0,1.5638428E0,5.6951904E0,3.0218506E-1,1.3002319E0,0E0,0E0,0E0,0E0,0E0,0E0,0E0,0E0,0E0,0E0,0E0,0E0,0E0,0E0,0E0,0E0,0E0,0E0,0E0,0E0,0E0,0E0,0E0,0E0,0E0,0E0,0E0,0E0,0E0,0E0,0E0,0E0,0E0,0E0,0E0,0E0,0E0,0E0,0E0,0E0,0E0,0E0,0E0,0E0,0E0,0E0,0E0,0E0,0E0,0E0,0E0,0E0,0E0,0E0,0E0,0E0,0E0,0E0,0E0,0E0],"parents":[2147483647,0,0,1,1,2,2,3,3,4,4,5,5,6,6,7,7,8,8,9,9,10,10,11,11,12,12,13,13,14,14,15,15,16,16,17,17,18,18,19,19,20,20,21,21,22,22,23,23,24,24,25,25,26,26,27,27,28,28,29,29,30,30,31,31,32,32,33,33,34,34,35,35,36,36,37,37,38,38,39,39,40,40,41,41,42,42,43,43,44,44,45,45,46,46,47,47,48,48,49,49,50,50,51,51,52,52,54,54,55,55,57,57,58,58,59,59,60,60,61,61,62,62],"right_children":[2,4,6,8,10,12,14,16,18,20,22,24,26,28,30,32,34,36,38,40,42,44,46,48,50,52,54,56,58,60,62,64,66,68,70,72,74,76,78,80,82,84,86,88,90,92,94,96,98,100,102,104,106,-1,108,110,-1,112,114,116,118,120,122,-1,-1,-1,-1,-1,-1,-1,-1,-1,-1,-1,-1,-1,-1,-1,-1,-1,-1,-1,-1,-1,-1,-1,-1,-1,-1,-1,-1,-1,-1,-1,-1,-1,-1,-1,-1,-1,-1,-1,-1,-1,-1,-1,-1,-1,-1,-1,-1,-1,-1,-1,-1,-1,-1,-1,-1,-1,-1,-1,-1],"split_conditions":[7.9317E2,6.955081E4,1.2182E3,3.6919E2,6.6960365E-1,1.05999E3,1.35633E3,7.4106324E-1,1.13E0,-4E-1,7.751754E4,1.4204533E0,8.148495E4,6.98E0,1.53427E3,6.4713188E4,6.405763E4,5.7405E2,1.1935996E0,7.172764E4,5.4017E2,1.11E0,1.0957536E0,9.5384E2,7.277411E4,6.1E0,-5E-2,7.9236016E4,1.25651E3,5.68E0,1.63612E3,1.41E0,1.08E0,1.29E0,1.31E0,6.5460156E4,6.8396E2,5.13E0,6.307727E4,-1.2E0,-9.6E-1,7.201586E4,3.69E0,2.003452E0,2.2489914E1,-4.2E-1,1.603E2,7.844097E4,6.77E0,1.06E0,-3.1E-1,7.847702E4,1.11766E3,3.8487926E-2,8.7484765E-1,6.703882E4,3.536763E-2,5.248879E1,7.8977766E4,7.456261E4,2.5255334E0,8.148495E4,7.506361E4,-1.3078907E-1,-7.139879E-2,-7.423603E-2,-5.5830693E-3,-9.3671076E-2,-3.772601E-2,-2.9299349E-2,2.0220397E-2,-6.838343E-2,-3.692092E-2,-3.165431E-2,-1.5683992E-2,-1.8085968E-2,-3.5238953E-3,-8.4513435E-3,1.546891E-2,-2.3506066E-2,-4.6485946E-2,-3.194083E-3,-1.1603344E-2,-5.82662E-2,-2.6492218E-2,-7.943797E-3,-1.6321959E-2,-9.498749E-3,7.5687445E-3,3.6017478E-2,1.723241E-2,2.1564785E-2,7.6235346E-3,3.4503907E-2,2.6978418E-2,6.3390925E-4,8.944338E-3,1.0697226E-2,6.89516E-3,2.1471977E-3,1.1919288E-2,3.3546288E-2,2.6059119E-2,1.7859844E-2,2.7355302E-2,1.1791884E-2,1.6415436E-2,1.8070212E-2,3.2488957E-2,2.3031285E-2,2.6334658E-2,1.8044917E-2,2.2795627E-2,2.3027861E-2,3.0314896E-2,3.1524986E-2,3.437585E-2,2.777846E-2,3.282773E-2,3.525953E-2,4.0263455E-2,3.719731E-2,4.1081633E-2],"split_indices":[1,6,1,1,0,1,1,0,2,2,6,0,6,5,1,6,6,1,0,6,1,2,0,1,6,5,2,6,1,5,1,2,2,2,2,6,1,4,6,2,2,6,4,0,3,2,1,6,5,2,2,6,1,0,0,6,0,3,6,6,0,6,6,0,0,0,0,0,0,0,0,0,0,0,0,0,0,0,0,0,0,0,0,0,0,0,0,0,0,0,0,0,0,0,0,0,0,0,0,0,0,0,0,0,0,0,0,0,0,0,0,0,0,0,0,0,0,0,0,0,0,0,0],"split_type":[0,0,0,0,0,0,0,0,0,0,0,0,0,0,0,0,0,0,0,0,0,0,0,0,0,0,0,0,0,0,0,0,0,0,0,0,0,0,0,0,0,0,0,0,0,0,0,0,0,0,0,0,0,0,0,0,0,0,0,0,0,0,0,0,0,0,0,0,0,0,0,0,0,0,0,0,0,0,0,0,0,0,0,0,0,0,0,0,0,0,0,0,0,0,0,0,0,0,0,0,0,0,0,0,0,0,0,0,0,0,0,0,0,0,0,0,0,0,0,0,0,0,0],"sum_hessian":[8.9776E4,4.7808E4,4.1968E4,1.3042E4,3.4766E4,2.7262E4,1.4706E4,6.604E3,6.438E3,2.3271E4,1.1495E4,1.8527E4,8.735E3,5.259E3,9.447E3,2.73E3,3.874E3,3.111E3,3.327E3,1.8014E4,5.257E3,6.543E3,4.952E3,1.5471E4,3.056E3,8.634E3,1.01E2,2.275E3,2.984E3,6.638E3,2.809E3,1.954E3,7.76E2,2.135E3,1.739E3,1.592E3,1.519E3,2.025E3,1.302E3,7.24E2,1.729E4,3.855E3,1.402E3,5.648E3,8.95E2,2.232E3,2.72E3,4.954E3,1.0517E4,2.19E3,8.66E2,3.992E3,4.642E3,7E1,3.1E1,2.151E3,1.24E2,1.907E3,1.077E3,2.528E3,4.11E3,1.4E3,1.409E3,1.504E3,4.5E2,7.36E2,4E1,8.58E2,1.277E3,1.631E3,1.08E2,9.48E2,6.44E2,6.13E2,9.06E2,1.472E3,5.53E2,1.099E3,2.03E2,5.57E2,1.67E2,1.3527E4,3.763E3,2.02E2,3.653E3,6.11E2,7.91E2,3.114E3,2.534E3,7.45E2,1.5E2,1.667E3,5.65E2,1.198E3,1.522E3,4.223E3,7.31E2,3.259E3,7.258E3,1.337E3,8.53E2,3.86E2,4.8E2,3.682E3,3.1E2,1.621E3,3.021E3,1.4E1,1.7E1,5.84E2,1.567E3,1.623E3,2.84E2,9.44E2,1.33E2,1.063E3,1.465E3,3.396E3,7.14E2,1.315E3,8.5E1,4.9E2,9.19E2],"tree_param":{"num_deleted":"0","num_feature":"7","num_nodes":"123","size_leaf_vector":"1"}},{"base_weights":[1.0143601E-5,-2.8354734E-1,3.1802228E-1,-8.672139E-1,-3.6204968E-2,1.7837681E-1,5.302488E-1,-1.217261E0,-4.2603058E-1,-1.7235796E-1,3.01177E-1,1.3089779E-1,2.9594424E-1,4.058108E-1,6.114813E-1,-1.8283871E0,-7.86843E-1,-6.532429E-1,-2.0541519E-1,-9.653542E-2,-4.4058675E-1,1.4930329E-1,4.987775E-1,9.860971E-2,2.0319334E-1,3.396265E-1,2.5555873E-1,3.8021502E-1,5.1037884E-1,5.7133937E-1,7.162613E-1,-2.0599477E0,-1.2305757E0,-1.0868946E0,-4.4892332E-1,-8.839819E-1,-3.8269266E-1,-2.8335756E-1,-8.8707775E-2,-2.2366253E-1,-3.643681E-2,-5.058206E-1,-2.4755803E-1,4.923911E-2,6.7197007E-1,3.6998338E-1,5.79955E-1,3.467192E-2,1.4904176E-1,1.5993178E-1,5.6103456E-1,2.7599156E-1,3.7674436E-1,2.3538336E-1,4.1740805E-1,4.5935377E-1,3.5688964E-1,4.577308E-1,6.393042E-1,6.224557E-1,5.3963715E-1,6.851944E-1,7.6705915E-1,-1.1923958E-1,-5.3165287E-2,-3.7041344E-2,-6.780242E-2,-8.374636E-2,-3.3531077E-2,-2.445973E-2,2.5608191E-2,-5.8324374E-2,-2.8850168E-2,-2.3751264E-2,-1.2356547E-2,-2.547361E-2,-1.2362177E-2,-8.291242E-3,1.5215628E-2,-6.4932145E-3,-1.685779E-2,-3.304229E-3,1.4992471E-2,-2.6212294E-2,1.0447091E-2,-7.3138215E-3,-1.551153E-2,-7.1335505E-3,1.1611635E-2,8.929796E-3,3.431693E-2,1.497037E-2,2.796118E-2,3.1205082E-2,2.3075204E-2,-2.6898694E-3,3.8083573E-3,6.505271E-3,1.0836034E-2,7.601866E-3,2.7906647E-2,2.1938747E-2,3.1129787E-2,1.2280195E-2,1.6526325E-2,1.745285E-2,2.9043753E-2,1.0315602E-2,1.44264465E-2,1.8223051E-2,3.4873955E-2,1.822203E-2,2.4732E-2,1.587945E-2,1.9275704E-2,2.0552127E-2,2.624386E-2,2.8942266E-2,3.317469E-2,2.9162575E-2,3.2479636E-2,3.382184E-2,2.6495565E-2,3.3842504E-2,3.9422765E-2,4.1024256E-2,3.6640074E-2],"categories":[],"categories_nodes":[],"categories_segments":[],"categories_sizes":[],"default_left":[0,0,0,0,0,0,0,0,0,0,0,0,0,0,0,0,0,0,0,0,0,0,0,0,0,0,0,0,0,0,0,0,0,0,0,0,0,0,0,0,0,0,0,0,0,0,0,0,0,0,0,0,0,0,0,0,0,0,0,0,0,0,0,0,0,0,0,0,0,0,0,0,0,0,0,0,0,0,0,0,0,0,0,0,0,0,0,0,0,0,0,0,0,0,0,0,0,0,0,0,0,0,0,0,0,0,0,0,0,0,0,0,0,0,0,0,0,0,0,0,0,0,0,0,0,0,0],"id":8,"left_children":[1,3,5,7,9,11,13,15,17,19,21,23,25,27,29,31,33,35,37,39,41,43,45,47,49,51,53,55,57,59,61,63,65,67,69,71,73,75,77,79,81,83,85,87,89,91,93,95,97,99,101,103,105,107,109,111,113,115,117,119,121,123,125,-1,-1,-1,-1,-1,-1,-1,-1,-1,-1,-1,-1,-1,-1,-1,-1,-1,-1,-1,-1,-1,-1,-1,-1,-1,-1,-1,-1,-1,-1,-1,-1,-1,-1,-1,-1,-1,-1,-1,-1,-1,-1,-1,-1,-1,-1,-1,-1,-1,-1,-1,-1,-1,-1,-1,-1,-1,-1,-1,-1,-1,-1,-1,-1],"loss_changes":[8.095706E3,6.851555E3,1.2540615E3,2.1810273E3,1.531314E3,1.424414E2,1.695127E2,2.0702617E3,3.1320667E2,4.830003E2,2.8757434E2,4.2426605E1,1.28654785E1,1.756726E1,4.2320557E1,4.4791504E2,4.6825366E2,1.9187292E2,2.8837921E1,1.4147238E2,6.578131E1,2.8348645E2,4.333142E1,4.0533417E1,8.680385E1,8.219666E0,1.2372192E1,9.684143E0,8.544922E0,1.1574707E1,3.9090576E0,7.563418E2,5.497644E1,5.981033E2,8.447095E1,1.4337402E2,1.7643906E1,1.5405594E1,3.8602966E1,6.323285E1,1.2539427E2,5.1616272E1,8.358818E0,1.5985658E2,6.0519714E0,2.1375488E1,1.3062134E1,2.036009E1,8.978821E0,1.5661331E1,4.280319E0,2.0764847E0,1.2361267E1,5.1904144E0,6.003601E0,3.8755035E0,4.5180054E0,2.6934967E0,1.6436768E-1,2.6072998E0,5.687256E0,9.767456E-1,1.335144E0,0E0,0E0,0E0,0E0,0E0,0E0,0E0,0E0,0E0,0E0,0E0,0E0,0E0,0E0,0E0,0E0,0E0,0E0,0E0,0E0,0E0,0E0,0E0,0E0,0E0,0E0,0E0,0E0,0E0,0E0,0E0,0E0,0E0,0E0,0E0,0E0,0E0,0E0,0E0,0E0,0E0,0E0,0E0,0E0,0E0,0E0,0E0,0E0,0E0,0E0,0E0,0E0,0E0,0E0,0E0,0E0,0E0,0E0,0E0,0E0,0E0,0E0,0E0,0E0],"parents":[2147483647,0,0,1,1,2,2,3,3,4,4,5,5,6,6,7,7,8,8,9,9,10,10,11,11,12,12,13,13,14,14,15,15,16,16,17,17,18,18,19,19,20,20,21,21,22,22,23,23,24,24,25,25,26,26,27,27,28,28,29,29,30,30,31,31,32,32,33,33,34,34,35,35,36,36,37,37,38,38,39,39,40,40,41,41,42,42,43,43,44,44,45,45,46,46,47,47,48,48,49,49,50,50,51,51,52,52,53,53,54,54,55,55,56,56,57,57,58,58,59,59,60,60,61,61,62,62],"right_children":[2,4,6,8,10,12,14,16,18,20,22,24,26,28,30,32,34,36,38,40,42,44,46,48,50,52,54,56,58,60,62,64,66,68,70,72,74,76,78,80,82,84,86,88,90,92,94,96,98,100,102,104,106,108,110,112,114,116,118,120,122,124,126,-1,-1,-1,-1,-1,-1,-1,-1,-1,-1,-1,-1,-1,-1,-1,-1,-1,-1,-1,-1,-1,-1,-1,-1,-1,-1,-1,-1,-1,-1,-1,-1,-1,-1,-1,-1,-1,-1,-1,-1,-1,-1,-1,-1,-1,-1,-1,-1,-1,-1,-1,-1,-1,-1,-1,-1,-1,-1,-1,-1,-1,-1,-1,-1],"split_conditions":[7.7912E2,7.0753336E4,1.17397E3,3.9721E2,6.973874E-1,1.05171E3,1.32404E3,7.619873E-1,1.06E0,-3.6E-1,7.7776625E4,7.806021E4,6.48E0,2.003452E0,1.53427E3,6.570324E4,6.497836E4,6.1632E2,1.1935996E0,7.518283E4,5.3103E2,1.1E0,1.0957536E0,9.4953E2,9.989264E-1,7.2427625E4,8.0378445E4,5.38E0,7.4092516E4,5.68E0,1.66725E3,1.41E0,-1.18E0,1.19E0,1.31E0,1.4711858E0,2.8502512E0,1.6037903E1,6.405763E4,-1.72E0,5.5455047E-1,7.918197E4,3.69E0,1.4204533E0,9.5447344E-1,7.964972E4,4.028998E1,6.955081E4,3.552372E1,3.552372E1,2.133503E0,1.5312557E0,9.004498E-1,9.38E0,8.514547E-1,6.570324E4,3E0,1.04E0,7.657676E4,7.359916E4,1E0,8.148495E4,4.35E0,-1.1923958E-1,-5.3165287E-2,-3.7041344E-2,-6.780242E-2,-8.374636E-2,-3.3531077E-2,-2.445973E-2,2.5608191E-2,-5.8324374E-2,-2.8850168E-2,-2.3751264E-2,-1.2356547E-2,-2.547361E-2,-1.2362177E-2,-8.291242E-3,1.5215628E-2,-6.4932145E-3,-1.685779E-2,-3.304229E-3,1.4992471E-2,-2.6212294E-2,1.0447091E-2,-7.3138215E-3,-1.551153E-2,-7.1335505E-3,1.1611635E-2,8.929796E-3,3.431693E-2,1.497037E-2,2.796118E-2,3.1205082E-2,2.3075204E-2,-2.6898694E-3,3.8083573E-3,6.505271E-3,1.0836034E-2,7.601866E-3,2.7906647E-2,2.1938747E-2,3.1129787E-2,1.2280195E-2,1.6526325E-2,1.745285E-2,2.9043753E-2,1.0315602E-2,1.44264465E-2,1.8223051E-2,3.4873955E-2,1.822203E-2,2.4732E-2,1.587945E-2,1.9275704E-2,2.0552127E-2,2.624386E-2,2.8942266E-2,3.317469E-2,2.9162575E-2,3.2479636E-2,3.382184E-2,2.6495565E-2,3.3842504E-2,3.9422765E-2,4.1024256E-2,3.6640074E-2],"split_indices":[1,6,1,1,0,1,1,0,2,2,6,6,5,0,1,6,6,1,0,6,1,2,0,1,0,6,6,5,6,5,1,2,2,2,2,0,0,3,6,2,0,6,4,0,0,6,3,6,3,3,0,0,0,5,0,6,4,2,6,6,4,6,5,0,0,0,0,0,0,0,0,0,0,0,0,0,0,0,0,0,0,0,0,0,0,0,0,0,0,0,0,0,0,0,0,0,0,0,0,0,0,0,0,0,0,0,0,0,0,0,0,0,0,0,0,0,0,0,0,0,0,0,0,0,0,0,0],"split_type":[0,0,0,0,0,0,0,0,0,0,0,0,0,0,0,0,0,0,0,0,0,0,0,0,0,0,0,0,0,0,0,0,0,0,0,0,0,0,0,0,0,0,0,0,0,0,0,0,0,0,0,0,0,0,0,0,0,0,0,0,0,0,0,0,0,0,0,0,0,0,0,0,0,0,0,0,0,0,0,0,0,0,0,0,0,0,0,0,0,0,0,0,0,0,0,0,0,0,0,0,0,0,0,0,0,0,0,0,0,0,0,0,0,0,0,0,0,0,0,0,0,0,0,0,0,0,0],"sum_hessian":[8.9776E4,4.7459E4,4.2317E4,1.4125E4,3.3334E4,2.5524E4,1.6793E4,7.875E3,6.25E3,2.375E4,9.584E3,1.8183E4,7.341E3,6.635E3,1.0158E4,3.253E3,4.622E3,3.078E3,3.172E3,1.8517E4,5.233E3,5.42E3,4.164E3,1.2571E4,5.612E3,3.523E3,3.818E3,5.334E3,1.301E3,7.349E3,2.809E3,2.343E3,9.1E2,2.447E3,2.175E3,1.66E3,1.418E3,1.901E3,1.271E3,5.943E3,1.2574E4,3.91E3,1.323E3,4.55E3,8.7E2,1.612E3,2.552E3,5.544E3,7.027E3,5.008E3,6.04E2,1.301E3,2.222E3,3.397E3,4.21E2,1.21E3,4.124E3,9.27E2,3.74E2,2.806E3,4.543E3,1.752E3,1.057E3,1.766E3,5.77E2,1.87E2,7.23E2,1.013E3,1.434E3,2.088E3,8.7E1,8.63E2,7.97E2,8.42E2,5.76E2,2.6E2,1.641E3,1.063E3,2.08E2,3.255E3,2.688E3,1.1556E4,1.018E3,3.812E3,9.8E1,5.07E2,8.16E2,2.221E3,2.329E3,2.5E1,8.45E2,1.176E3,4.36E2,1.856E3,6.96E2,1.77E3,3.774E3,5.493E3,1.534E3,4.912E3,9.6E1,2.05E2,3.99E2,8.39E2,4.62E2,1.959E3,2.63E2,2.199E3,1.198E3,3.56E2,6.5E1,3.31E2,8.79E2,1.743E3,2.381E3,5.51E2,3.76E2,1.14E2,2.6E2,1.157E3,1.649E3,2.97E2,4.246E3,1.628E3,1.24E2,4.04E2,6.53E2],"tree_param":{"num_deleted":"0","num_feature":"7","num_nodes":"127","size_leaf_vector":"1"}},{"base_weights":[1.2617296E-5,-2.693795E-1,3.0213818E-1,-8.678048E-1,-5.1393494E-2,1.6946816E-1,5.037638E-1,-1.2656747E0,-4.4871825E-1,-1.8443234E-1,2.1828869E-1,9.538209E-2,2.3767658E-1,3.952842E-1,5.8806694E-1,-1.8956791E0,-8.223428E-1,-7.274834E-1,-1.7357582E-1,-7.80747E-2,-3.655484E-1,-1.3151638E-1,3.3510864E-1,-2.0748682E-2,1.2120646E-1,1.8939638E-1,2.9726824E-1,3.7206694E-1,4.9125823E-1,5.4885465E-1,6.805019E-1,-2.2223573E0,-1.4593134E0,-1.135334E0,-5.095764E-1,-1.0969821E0,-4.856721E-1,-2.569572E-1,-9.7518794E-2,-2.2758012E-1,-1.8130971E-2,-4.932399E-1,-1.8857297E-1,-1.8368357E-1,6.422552E-1,1.3883132E-1,4.502469E-1,-1.406656E-1,1.0070355E-1,8.548714E-2,4.021396E-1,1.5931655E-1,2.9832602E-1,2.8745544E-1,4.206195E-1,3.399474E-1,4.4890705E-1,4.3383503E-1,6.020134E-1,5.9886044E-1,5.1724386E-1,6.421421E-1,7.181342E-1,-1.2578583E-1,-6.0433894E-2,-8.1025854E-2,-2.9729004E-3,-9.475701E-2,-3.3018906E-2,-3.370767E-2,-7.873179E-3,-7.696768E-2,-4.018974E-2,-3.2645877E-2,-1.5081284E-2,-1.7518958E-2,-2.8464699E-3,-9.62343E-3,2.9314233E-3,-2.0031175E-2,-7.468898E-3,-1.5469602E-3,2.0827776E-2,-5.3967625E-2,-2.2399988E-2,-1.344608E-2,-6.8163173E-3,-2.3469431E-2,-3.7906175E-3,3.2529738E-2,1.0845791E-2,1.9051423E-2,-7.5599956E-3,2.8422454E-2,1.6437262E-2,-1.2841038E-2,-1.4565053E-3,2.512293E-3,1.2302893E-2,6.388971E-3,1.7424567E-3,1.0686244E-2,2.7108693E-2,1.04363365E-2,6.78868E-3,1.1808568E-2,2.7741486E-2,1.654345E-2,1.2894608E-2,1.8131552E-2,3.3514474E-2,2.05131E-2,1.6216153E-2,2.1959785E-2,2.8658167E-2,1.9470364E-2,2.513118E-2,2.6709104E-2,3.1306263E-2,2.8835973E-2,3.1575494E-2,2.5440592E-2,3.4076244E-2,3.3658154E-2,3.119809E-2,3.5079226E-2,3.985422E-2],"categories":[],"categories_nodes":[],"categories_segments":[],"categories_sizes":[],"default_left":[0,0,0,0,0,0,0,0,0,0,0,0,0,0,0,0,0,0,0,0,0,0,0,0,0,0,0,0,0,0,0,0,0,0,0,0,0,0,0,0,0,0,0,0,0,0,0,0,0,0,0,0,0,0,0,0,0,0,0,0,0,0,0,0,0,0,0,0,0,0,0,0,0,0,0,0,0,0,0,0,0,0,0,0,0,0,0,0,0,0,0,0,0,0,0,0,0,0,0,0,0,0,0,0,0,0,0,0,0,0,0,0,0,0,0,0,0,0,0,0,0,0,0,0,0,0,0],"id":9,"left_children":[1,3,5,7,9,11,13,15,17,19,21,23,25,27,29,31,33,35,37,39,41,43,45,47,49,51,53,55,57,59,61,63,65,67,69,71,73,75,77,79,81,83,85,87,89,91,93,95,97,99,101,103,105,107,109,111,113,115,117,119,121,123,125,-1,-1,-1,-1,-1,-1,-1,-1,-1,-1,-1,-1,-1,-1,-1,-1,-1,-1,-1,-1,-1,-1,-1,-1,-1,-1,-1,-1,-1,-1,-1,-1,-1,-1,-1,-1,-1,-1,-1,-1,-1,-1,-1,-1,-1,-1,-1,-1,-1,-1,-1,-1,-1,-1,-1,-1,-1,-1,-1,-1,-1,-1,-1,-1],"loss_changes":[7.307054E3,6.191034E3,1.1319072E3,2.1123848E3,1.2482073E3,1.2896259E2,1.5335156E2,1.8138984E3,4.733435E2,4.487434E2,4.6969647E2,3.670134E1,3.817743E1,1.6188232E1,3.3871582E1,3.7936426E2,3.7307983E2,2.7341125E2,1.9685066E1,1.3154776E2,1.946814E2,1.1628984E2,1.946507E2,3.2448593E1,1.00423416E2,2.4015717E1,7.076294E0,1.4458313E1,8.82077E0,1.0184814E1,3.595337E0,4.5283105E2,2.5986646E2,6.8693604E2,1.1063568E2,1.5595618E2,5.6901672E1,2.767418E1,2.4133429E1,5.6789627E1,5.835541E1,1.3225464E2,1.5134705E1,8.30842E1,5.0445557E-1,2.2392758E2,7.7797485E1,1.4515545E1,8.106644E0,1.9019356E1,2.9672241E1,6.668564E0,2.5186295E1,6.9877014E0,6.0693283E0,4.458069E0,1.8503723E0,2.68927E0,4.587555E-1,1.4900513E0,5.2978516E0,3.701172E-1,1.2831421E0,0E0,0E0,0E0,0E0,0E0,0E0,0E0,0E0,0E0,0E0,0E0,0E0,0E0,0E0,0E0,0E0,0E0,0E0,0E0,0E0,0E0,0E0,0E0,0E0,0E0,0E0,0E0,0E0,0E0,0E0,0E0,0E0,0E0,0E0,0E0,0E0,0E0,0E0,0E0,0E0,0E0,0E0,0E0,0E0,0E0,0E0,0E0,0E0,0E0,0E0,0E0,0E0,0E0,0E0,0E0,0E0,0E0,0E0,0E0,0E0,0E0,0E0,0E0,0E0],"parents":[2147483647,0,0,1,1,2,2,3,3,4,4,5,5,6,6,7,7,8,8,9,9,10,10,11,11,12,12,13,13,14,14,15,15,16,16,17,17,18,18,19,19,20,20,21,21,22,22,23,23,24,24,25,25,26,26,27,27,28,28,29,29,30,30,31,31,32,32,33,33,34,34,35,35,36,36,37,37,38,38,39,39,40,40,41,41,42,42,43,43,44,44,45,45,46,46,47,47,48,48,49,49,50,50,51,51,52,52,53,53,54,54,55,55,56,56,57,57,58,58,59,59,60,60,61,61,62,62],"right_children":[2,4,6,8,10,12,14,16,18,20,22,24,26,28,30,32,34,36,38,40,42,44,46,48,50,52,54,56,58,60,62,64,66,68,70,72,74,76,78,80,82,84,86,88,90,92,94,96,98,100,102,104,106,108,110,112,114,116,118,120,122,124,126,-1,-1,-1,-1,-1,-1,-1,-1,-1,-1,-1,-1,-1,-1,-1,-1,-1,-1,-1,-1,-1,-1,-1,-1,-1,-1,-1,-1,-1,-1,-1,-1,-1,-1,-1,-1,-1,-1,-1,-1,-1,-1,-1,-1,-1,-1,-1,-1,-1,-1,-1,-1,-1,-1,-1,-1,-1,-1,-1,-1,-1,-1,-1,-1],"split_conditions":[7.7912E2,6.935884E4,1.17397E3,3.6919E2,6.6960365E-1,9.9865E2,1.35633E3,7.4106324E-1,1.22E0,-8.8E-1,7.372937E4,6.8330266E4,1.07474E3,2.0769067E0,1.53427E3,6.1388703E4,6.276442E4,5.211E2,7.7305335E-1,7.402348E4,5.4017E2,1.19E0,9.989264E-1,1.15E0,1.329852E0,7.857998E-1,8.0378445E4,1.25651E3,7.265959E4,5.78E0,1.63612E3,1.48E0,1.21E0,1.44E0,9.7E-1,6.307727E4,6.592637E4,5.16E0,5.5412613E4,3.7166494E-1,6.071389E-1,7.2240875E4,7.46E0,1.1294183E0,5.79E0,-6.6E-1,2.5326E2,8.8382E2,6.307727E4,6E-2,7.34212E4,6.87E0,7.5778055E4,-5.2E-1,8.7484765E-1,5.38E0,7.942646E4,1.11E0,7.5421445E4,1.49199E3,8.148495E4,5.68E0,7.988859E4,-1.2578583E-1,-6.0433894E-2,-8.1025854E-2,-2.9729004E-3,-9.475701E-2,-3.3018906E-2,-3.370767E-2,-7.873179E-3,-7.696768E-2,-4.018974E-2,-3.2645877E-2,-1.5081284E-2,-1.7518958E-2,-2.8464699E-3,-9.62343E-3,2.9314233E-3,-2.0031175E-2,-7.468898E-3,-1.5469602E-3,2.0827776E-2,-5.3967625E-2,-2.2399988E-2,-1.344608E-2,-6.8163173E-3,-2.3469431E-2,-3.7906175E-3,3.2529738E-2,1.0845791E-2,1.9051423E-2,-7.5599956E-3,2.8422454E-2,1.6437262E-2,-1.2841038E-2,-1.4565053E-3,2.512293E-3,1.2302893E-2,6.388971E-3,1.7424567E-3,1.0686244E-2,2.7108693E-2,1.04363365E-2,6.78868E-3,1.1808568E-2,2.7741486E-2,1.654345E-2,1.2894608E-2,1.8131552E-2,3.3514474E-2,2.05131E-2,1.6216153E-2,2.1959785E-2,2.8658167E-2,1.9470364E-2,2.513118E-2,2.6709104E-2,3.1306263E-2,2.8835973E-2,3.1575494E-2,2.5440592E-2,3.4076244E-2,3.3658154E-2,3.119809E-2,3.5079226E-2,3.985422E-2],"split_indices":[1,6,1,1,0,1,1,0,2,2,6,6,1,0,1,6,6,1,0,6,1,2,0,2,0,0,6,1,6,5,1,2,2,2,2,6,6,4,6,0,0,6,5,0,4,2,1,1,6,2,6,5,6,2,0,5,6,2,6,1,6,5,6,0,0,0,0,0,0,0,0,0,0,0,0,0,0,0,0,0,0,0,0,0,0,0,0,0,0,0,0,0,0,0,0,0,0,0,0,0,0,0,0,0,0,0,0,0,0,0,0,0,0,0,0,0,0,0,0,0,0,0,0,0,0,0,0],"split_type":[0,0,0,0,0,0,0,0,0,0,0,0,0,0,0,0,0,0,0,0,0,0,0,0,0,0,0,0,0,0,0,0,0,0,0,0,0,0,0,0,0,0,0,0,0,0,0,0,0,0,0,0,0,0,0,0,0,0,0,0,0,0,0,0,0,0,0,0,0,0,0,0,0,0,0,0,0,0,0,0,0,0,0,0,0,0,0,0,0,0,0,0,0,0,0,0,0,0,0,0,0,0,0,0,0,0,0,0,0,0,0,0,0,0,0,0,0,0,0,0,0,0,0,0,0,0,0],"sum_hessian":[8.9776E4,4.7459E4,4.2317E4,1.2671E4,3.4788E4,2.5524E4,1.6793E4,6.499E3,6.172E3,2.3296E4,1.1492E4,1.2236E4,1.3288E4,7.346E3,9.447E3,2.683E3,3.816E3,3.065E3,3.107E3,1.4678E4,8.618E3,2.877E3,8.615E3,2.226E3,1.001E4,7.343E3,5.945E3,5.919E3,1.427E3,6.638E3,2.809E3,1.532E3,1.151E3,1.906E3,1.91E3,1.211E3,1.854E3,1.481E3,1.626E3,4.2E3,1.0478E4,5.005E3,3.613E3,2.696E3,1.81E2,3.186E3,5.429E3,1.12E3,1.106E3,8.882E3,1.128E3,5.756E3,1.587E3,5.51E3,4.35E2,4.178E3,1.741E3,9.43E2,4.84E2,2.564E3,4.074E3,1.4E3,1.409E3,1.187E3,3.45E2,1.032E3,1.19E2,7.32E2,1.174E3,1.301E3,6.09E2,4.81E2,7.3E2,9.7E2,8.84E2,1.009E3,4.72E2,1.011E3,6.15E2,1.306E3,2.894E3,1.0179E4,2.99E2,3.57E2,4.648E3,1.422E3,2.191E3,7.38E2,1.958E3,1.77E2,4E0,1.736E3,1.45E3,2.75E3,2.679E3,5.48E2,5.72E2,8.22E2,2.84E2,4.839E3,4.043E3,4.82E2,6.46E2,1.855E3,3.901E3,1.279E3,3.08E2,2.228E3,3.282E3,3.55E2,8E1,7.55E2,3.423E3,1.619E3,1.22E2,5.77E2,3.66E2,1.33E2,3.51E2,1.539E3,1.025E3,3.879E3,1.95E2,5.04E2,8.96E2,1.173E3,2.36E2],"tree_param":{"num_deleted":"0","num_feature":"7","num_nodes":"127","size_leaf_vector":"1"}},{"base_weights":[1.1651613E-5,-2.5999722E-1,2.8257483E-1,-8.267075E-1,-4.4728298E-2,1.5705559E-1,4.7860238E-1,-1.1737537E0,-4.3864244E-1,-1.4077456E-1,3.0568203E-1,8.645268E-2,2.258031E-1,3.6092743E-1,5.4887307E-1,-1.7623068E0,-7.518518E-1,-7.2660804E-1,-1.8316254E-1,-2.9325694E-2,-3.1400347E-1,-2.1364823E-2,4.3792877E-1,5.2236814E-2,1.9599314E-1,1.7993428E-1,2.824185E-1,3.376002E-1,4.5933542E-1,5.0995404E-1,6.395593E-1,-2.1098273E0,-1.3394077E0,-1.0712974E0,-4.6305308E-1,-1.0312037E0,-4.9864802E-1,-2.964745E-1,-1.2762627E-1,-8.201418E-2,3.4915122E-1,-4.1144264E-1,-1.5764216E-1,-9.947349E-2,4.5689154E-1,5.4619E-1,3.2198498E-1,-2.7339958E-2,8.527023E-2,1.3984361E-1,5.13871E-1,1.5135369E-1,2.8343457E-1,2.786795E-1,5.7941025E-1,3.159614E-1,3.973663E-1,4.036142E-1,5.646737E-1,5.4911983E-1,4.8033002E-1,6.046528E-1,6.8228084E-1,-1.19375646E-1,-5.7525396E-2,-7.437991E-2,-2.9367001E-3,-8.988769E-2,-3.1326875E-2,-2.6682273E-2,1.0362047E-2,-6.9386184E-2,-3.49724E-2,-3.2261815E-2,-1.6926123E-2,-5.5241805E-2,-9.207444E-3,-2.8356273E-2,-5.546029E-3,-1.0672603E-2,-1.491191E-3,4.126576E-3,1.9149119E-2,-2.3274137E-2,-3.7977504E-4,-8.3093075E-3,2.7454782E-2,-7.477666E-3,1.7140191E-2,1.2576239E-2,2.796697E-2,2.29892E-2,3.166115E-2,6.8249064E-3,2.180398E-2,-6.590366E-3,4.7717807E-3,2.9186078E-3,1.9475257E-2,6.1268406E-3,2.544479E-2,9.3713645E-3,2.6968276E-2,9.914802E-3,6.4493306E-3,1.1218597E-2,2.6358902E-2,1.5905922E-2,1.2703515E-2,3.2148924E-2,2.1582011E-2,1.4256482E-2,1.7247174E-2,1.6044786E-2,2.1179035E-2,1.7729579E-2,2.3662128E-2,2.5531638E-2,2.987592E-2,2.5215939E-2,2.9313488E-2,2.3195244E-2,2.7768353E-2,3.153913E-2,2.9044468E-2,3.640927E-2,3.278504E-2],"categories":[],"categories_nodes":[],"categories_segments":[],"categories_sizes":[],"default_left":[0,0,0,0,0,0,0,0,0,0,0,0,0,0,0,0,0,0,0,0,0,0,0,0,0,0,0,0,0,0,0,0,0,0,0,0,0,0,0,0,0,0,0,0,0,0,0,0,0,0,0,0,0,0,0,0,0,0,0,0,0,0,0,0,0,0,0,0,0,0,0,0,0,0,0,0,0,0,0,0,0,0,0,0,0,0,0,0,0,0,0,0,0,0,0,0,0,0,0,0,0,0,0,0,0,0,0,0,0,0,0,0,0,0,0,0,0,0,0,0,0,0,0,0,0,0,0],"id":10,"left_children":[1,3,5,7,9,11,13,15,17,19,21,23,25,27,29,31,33,35,37,39,41,43,45,47,49,51,53,55,57,59,61,63,65,67,69,71,73,75,77,79,81,83,85,87,89,91,93,95,97,99,101,103,105,107,109,111,113,115,117,119,121,123,125,-1,-1,-1,-1,-1,-1,-1,-1,-1,-1,-1,-1,-1,-1,-1,-1,-1,-1,-1,-1,-1,-1,-1,-1,-1,-1,-1,-1,-1,-1,-1,-1,-1,-1,-1,-1,-1,-1,-1,-1,-1,-1,-1,-1,-1,-1,-1,-1,-1,-1,-1,-1,-1,-1,-1,-1,-1,-1,-1,-1,-1,-1,-1,-1],"loss_changes":[6.595894E3,5.7038447E3,1.0585154E3,1.7329062E3,1.1404631E3,1.2729498E2,1.386731E2,1.6857051E3,4.4702173E2,5.1345764E2,3.153083E2,4.849665E1,3.4459167E1,1.4265808E1,3.6778564E1,4.139707E2,3.6474316E2,1.9786353E2,2.023796E1,3.227798E2,1.5856946E2,7.849299E1,6.4982605E1,2.5929134E1,5.49021E1,2.1681396E1,6.441284E0,6.4467773E0,6.821472E0,8.276733E0,4.2894287E0,4.1148828E2,2.4321509E2,6.059758E2,9.8578674E1,1.4356458E2,3.8182617E1,9.595344E1,1.5825474E1,9.745752E1,1.7810028E1,1.399751E2,2.4238602E1,4.0052666E1,6.0659294E0,1.988556E1,5.3038574E1,3.7131138E1,5.7015106E1,1.6665497E1,3.743927E0,6.0190735E0,2.2742775E1,5.6202393E0,4.0818787E-1,3.2400208E0,2.564331E0,2.5253296E0,4.27948E-1,4.96875E0,4.9175415E0,7.1655273E-1,1.2429199E0,0E0,0E0,0E0,0E0,0E0,0E0,0E0,0E0,0E0,0E0,0E0,0E0,0E0,0E0,0E0,0E0,0E0,0E0,0E0,0E0,0E0,0E0,0E0,0E0,0E0,0E0,0E0,0E0,0E0,0E0,0E0,0E0,0E0,0E0,0E0,0E0,0E0,0E0,0E0,0E0,0E0,0E0,0E0,0E0,0E0,0E0,0E0,0E0,0E0,0E0,0E0,0E0,0E0,0E0,0E0,0E0,0E0,0E0,0E0,0E0,0E0,0E0,0E0,0E0],"parents":[2147483647,0,0,1,1,2,2,3,3,4,4,5,5,6,6,7,7,8,8,9,9,10,10,11,11,12,12,13,13,14,14,15,15,16,16,17,17,18,18,19,19,20,20,21,21,22,22,23,23,24,24,25,25,26,26,27,27,28,28,29,29,30,30,31,31,32,32,33,33,34,34,35,35,36,36,37,37,38,38,39,39,40,40,41,41,42,42,43,43,44,44,45,45,46,46,47,47,48,48,49,49,50,50,51,51,52,52,53,53,54,54,55,55,56,56,57,57,58,58,59,59,60,60,61,61,62,62],"right_children":[2,4,6,8,10,12,14,16,18,20,22,24,26,28,30,32,34,36,38,40,42,44,46,48,50,52,54,56,58,60,62,64,66,68,70,72,74,76,78,80,82,84,86,88,90,92,94,96,98,100,102,104,106,108,110,112,114,116,118,120,122,124,126,-1,-1,-1,-1,-1,-1,-1,-1,-1,-1,-1,-1,-1,-1,-1,-1,-1,-1,-1,-1,-1,-1,-1,-1,-1,-1,-1,-1,-1,-1,-1,-1,-1,-1,-1,-1,-1,-1,-1,-1,-1,-1,-1,-1,-1,-1,-1,-1,-1,-1,-1,-1,-1,-1,-1,-1,-1,-1,-1,-1,-1,-1,-1,-1],"split_conditions":[7.631E2,6.9886766E4,1.17397E3,3.6919E2,9.989264E-1,9.9865E2,1.3101E3,7.619873E-1,1.08E0,-8.8E-1,7.402348E4,7.810428E4,1.07474E3,2.003452E0,1.52231E3,6.1388703E4,6.276442E4,5.211E2,1.48E0,6.071389E-1,5.4017E2,1.02E0,2.5326E2,6.973136E4,3.0593744E1,7.857998E-1,8.148495E4,4.028998E1,7.277411E4,6.19E0,1.63612E3,1.48E0,1.21E0,1.44E0,1.26E0,6.435058E4,6.5831E2,5.915639E4,3.8251777E4,7.402348E4,7.595548E4,7.824874E4,7.988859E4,7.9164596E0,7.1502086E4,9.2E-1,1.5911175E0,1.15E0,2.0769067E0,1.1935996E0,6.1020374E-1,6.87E0,7.5778055E4,-5.2E-1,-4E-2,3E0,6.920585E4,1.11E0,7.657676E4,7.4092516E4,2.5255334E0,7.44E0,4.35E0,-1.19375646E-1,-5.7525396E-2,-7.437991E-2,-2.9367001E-3,-8.988769E-2,-3.1326875E-2,-2.6682273E-2,1.0362047E-2,-6.9386184E-2,-3.49724E-2,-3.2261815E-2,-1.6926123E-2,-5.5241805E-2,-9.207444E-3,-2.8356273E-2,-5.546029E-3,-1.0672603E-2,-1.491191E-3,4.126576E-3,1.9149119E-2,-2.3274137E-2,-3.7977504E-4,-8.3093075E-3,2.7454782E-2,-7.477666E-3,1.7140191E-2,1.2576239E-2,2.796697E-2,2.29892E-2,3.166115E-2,6.8249064E-3,2.180398E-2,-6.590366E-3,4.7717807E-3,2.9186078E-3,1.9475257E-2,6.1268406E-3,2.544479E-2,9.3713645E-3,2.6968276E-2,9.914802E-3,6.4493306E-3,1.1218597E-2,2.6358902E-2,1.5905922E-2,1.2703515E-2,3.2148924E-2,2.1582011E-2,1.4256482E-2,1.7247174E-2,1.6044786E-2,2.1179035E-2,1.7729579E-2,2.3662128E-2,2.5531638E-2,2.987592E-2,2.5215939E-2,2.9313488E-2,2.3195244E-2,2.7768353E-2,3.153913E-2,2.9044468E-2,3.640927E-2,3.278504E-2],"split_indices":[1,6,1,1,0,1,1,0,2,2,6,6,1,0,1,6,6,1,2,0,1,2,1,6,3,0,6,3,6,5,1,2,2,2,2,6,1,6,6,6,6,6,6,0,6,2,0,2,0,0,0,5,6,2,2,4,6,2,6,6,0,5,5,0,0,0,0,0,0,0,0,0,0,0,0,0,0,0,0,0,0,0,0,0,0,0,0,0,0,0,0,0,0,0,0,0,0,0,0,0,0,0,0,0,0,0,0,0,0,0,0,0,0,0,0,0,0,0,0,0,0,0,0,0,0,0,0],"split_type":[0,0,0,0,0,0,0,0,0,0,0,0,0,0,0,0,0,0,0,0,0,0,0,0,0,0,0,0,0,0,0,0,0,0,0,0,0,0,0,0,0,0,0,0,0,0,0,0,0,0,0,0,0,0,0,0,0,0,0,0,0,0,0,0,0,0,0,0,0,0,0,0,0,0,0,0,0,0,0,0,0,0,0,0,0,0,0,0,0,0,0,0,0,0,0,0,0,0,0,0,0,0,0,0,0,0,0,0,0,0,0,0,0,0,0,0,0,0,0,0,0,0,0,0,0,0,0],"sum_hessian":[8.9776E4,4.6754E4,4.3022E4,1.287E4,3.3884E4,2.6229E4,1.6793E4,6.793E3,6.077E3,2.6595E4,7.289E3,1.2941E4,1.3288E4,6.281E3,1.0512E4,2.835E3,3.958E3,2.856E3,3.221E3,1.6184E4,1.0411E4,2.099E3,5.19E3,9.862E3,3.079E3,7.343E3,5.945E3,5.081E3,1.2E3,7.36E3,3.152E3,1.554E3,1.281E3,1.878E3,2.08E3,1.221E3,1.635E3,1.058E3,2.163E3,1.4207E4,1.977E3,6.413E3,3.998E3,1.805E3,2.94E2,2.682E3,2.508E3,2.893E3,6.969E3,2.618E3,4.61E2,5.756E3,1.587E3,5.873E3,7.2E1,3.735E3,1.346E3,7.88E2,4.12E2,3.162E3,4.198E3,1.743E3,1.409E3,1.204E3,3.5E2,1.148E3,1.33E2,7.12E2,1.166E3,1.882E3,1.98E2,5.87E2,6.34E2,8.52E2,7.83E2,1.28E2,9.3E2,7.8E1,2.085E3,4.037E3,1.017E4,2.23E2,1.754E3,5.656E3,7.57E2,3.951E3,4.7E1,1.622E3,1.83E2,9.9E1,1.95E2,1.349E3,1.333E3,9.56E2,1.552E3,1.563E3,1.33E3,6.404E3,5.65E2,2.502E3,1.16E2,3.4E1,4.27E2,1.855E3,3.901E3,1.279E3,3.08E2,2.252E3,3.621E3,4.8E1,2.4E1,1.815E3,1.92E3,3.47E2,9.99E2,4.66E2,3.22E2,1.62E2,2.5E2,1.44E3,1.722E3,3.45E3,7.48E2,8.18E2,9.25E2,5.07E2,9.02E2],"tree_param":{"num_deleted":"0","num_feature":"7","num_nodes":"127","size_leaf_vector":"1"}},{"base_weights":[1.244252E-5,-2.3941769E-1,2.77079E-1,-7.268574E-1,-2.6274763E-2,1.7272879E-1,4.8289758E-1,-1.0337206E0,-3.4269524E-1,-1.462188E-1,2.6661512E-1,1.20227985E-1,2.7979732E-1,4.0386587E-1,5.474804E-1,-1.5590272E0,-6.689915E-1,-5.201262E-1,-1.649953E-1,-5.000774E-2,-3.0764145E-1,1.4235602E-1,4.4244143E-1,1.0100843E-1,2.20664E-1,2.62274E-1,3.515744E-1,3.9075062E-1,5.776495E-1,5.1545984E-1,6.322642E-1,-1.7666856E0,-1.0353986E0,-9.080492E-1,-3.5517243E-1,-7.4126184E-1,-3.214838E-1,-2.3903918E-1,-5.5968724E-2,-7.2705396E-2,3.2470912E-1,-3.9779657E-1,-1.3872343E-1,5.4801393E-2,5.907799E-1,3.062061E-1,4.9838343E-1,2.8492773E-2,1.3290463E-1,1.1334447E-1,4.980066E-1,2.5979674E-1,5.522814E-1,2.5551173E-1,4.6946663E-1,3.4472045E-1,4.296631E-1,5.11485E-1,3.1271636E-2,5.45572E-1,4.6027777E-1,5.966543E-1,6.633508E-1,-1.0282292E-1,-4.4598576E-2,-2.9858503E-2,-5.7536263E-2,-7.060586E-2,-2.7788272E-2,-2.0594997E-2,1.4452877E-2,-4.992205E-2,-2.2874754E-2,-2.057589E-2,-1.0924588E-2,-1.5045497E-2,-7.2641145E-3,-6.341345E-3,1.451737E-2,-9.500166E-3,-1.4001172E-3,2.9309576E-3,1.9800102E-2,-2.2012217E-2,-5.862089E-3,-7.0706517E-3,3.13611E-2,-5.5263336E-3,1.0706234E-2,3.150369E-2,2.2840438E-2,1.3350682E-2,2.7670473E-2,2.7353836E-2,2.0556608E-2,-3.0910198E-4,4.794621E-3,8.974469E-3,5.611789E-3,2.2607325E-3,1.1133882E-2,2.853002E-2,2.1846125E-2,1.0769586E-2,1.3804577E-2,3.195515E-2,1.90525E-2,8.811518E-3,1.4287389E-2,2.043247E-2,2.6953269E-2,1.9811923E-2,1.5569563E-2,2.285639E-2,2.0489493E-2,2.9707795E-2,2.1637684E-2,2.574647E-2,2.7993882E-2,2.0277182E-2,2.7117534E-2,3.1203402E-2,2.9073352E-2,3.0991483E-2,3.573899E-2],"categories":[],"categories_nodes":[],"categories_segments":[],"categories_sizes":[],"default_left":[0,0,0,0,0,0,0,0,0,0,0,0,0,0,0,0,0,0,0,0,0,0,0,0,0,0,0,0,0,0,0,0,0,0,0,0,0,0,0,0,0,0,0,0,0,0,0,0,0,0,0,0,0,0,0,0,0,0,0,0,0,0,0,0,0,0,0,0,0,0,0,0,0,0,0,0,0,0,0,0,0,0,0,0,0,0,0,0,0,0,0,0,0,0,0,0,0,0,0,0,0,0,0,0,0,0,0,0,0,0,0,0,0,0,0,0,0,0,0,0,0,0,0,0,0],"id":11,"left_children":[1,3,5,7,9,11,13,15,17,19,21,23,25,27,29,31,33,35,37,39,41,43,45,47,49,51,53,55,57,59,61,63,65,67,69,71,73,75,77,79,81,83,85,87,89,91,93,95,97,99,101,103,105,107,109,111,113,115,-1,117,119,121,123,-1,-1,-1,-1,-1,-1,-1,-1,-1,-1,-1,-1,-1,-1,-1,-1,-1,-1,-1,-1,-1,-1,-1,-1,-1,-1,-1,-1,-1,-1,-1,-1,-1,-1,-1,-1,-1,-1,-1,-1,-1,-1,-1,-1,-1,-1,-1,-1,-1,-1,-1,-1,-1,-1,-1,-1,-1,-1,-1,-1,-1,-1],"loss_changes":[5.9556997E3,5.0035312E3,8.937551E2,1.7268999E3,1.1772235E3,1.5521228E2,7.1241455E1,1.5594951E3,2.0510797E2,3.6921017E2,2.1264929E2,3.5752594E1,1.1335876E1,1.4133301E1,2.0583496E1,3.6102197E2,3.6045288E2,1.4278778E2,2.6247284E1,1.26725494E2,1.351463E2,2.2399423E2,3.0568848E1,3.5981476E1,8.852203E1,5.1060486E0,2.003862E1,1.03498535E1,1.0711823E0,9.047363E0,1.9366455E0,6.034487E2,4.732538E1,4.8381738E2,7.617035E1,1.11930664E2,1.5831467E1,1.11924515E1,3.235512E1,7.3651184E1,1.6120552E1,6.88772E1,6.456436E0,1.2580007E2,4.6184387E0,1.1245911E1,1.1908936E1,1.1111023E1,1.0383469E1,1.5982611E1,3.4311981E0,5.184265E0,6.633301E-1,2.3060455E0,3.157486E0,4.4954834E0,1.5440063E0,9.795418E-1,0E0,1.2965088E0,8.683563E0,5.014038E-2,2.05484E0,0E0,0E0,0E0,0E0,0E0,0E0,0E0,0E0,0E0,0E0,0E0,0E0,0E0,0E0,0E0,0E0,0E0,0E0,0E0,0E0,0E0,0E0,0E0,0E0,0E0,0E0,0E0,0E0,0E0,0E0,0E0,0E0,0E0,0E0,0E0,0E0,0E0,0E0,0E0,0E0,0E0,0E0,0E0,0E0,0E0,0E0,0E0,0E0,0E0,0E0,0E0,0E0,0E0,0E0,0E0,0E0,0E0,0E0,0E0,0E0,0E0,0E0],"parents":[2147483647,0,0,1,1,2,2,3,3,4,4,5,5,6,6,7,7,8,8,9,9,10,10,11,11,12,12,13,13,14,14,15,15,16,16,17,17,18,18,19,19,20,20,21,21,22,22,23,23,24,24,25,25,26,26,27,27,28,28,29,29,30,30,31,31,32,32,33,33,34,34,35,35,36,36,37,37,38,38,39,39,40,40,41,41,42,42,43,43,44,44,45,45,46,46,47,47,48,48,49,49,50,50,51,51,52,52,53,53,54,54,55,55,56,56,57,57,59,59,60,60,61,61,62,62],"right_children":[2,4,6,8,10,12,14,16,18,20,22,24,26,28,30,32,34,36,38,40,42,44,46,48,50,52,54,56,58,60,62,64,66,68,70,72,74,76,78,80,82,84,86,88,90,92,94,96,98,100,102,104,106,108,110,112,114,116,-1,118,120,122,124,-1,-1,-1,-1,-1,-1,-1,-1,-1,-1,-1,-1,-1,-1,-1,-1,-1,-1,-1,-1,-1,-1,-1,-1,-1,-1,-1,-1,-1,-1,-1,-1,-1,-1,-1,-1,-1,-1,-1,-1,-1,-1,-1,-1,-1,-1,-1,-1,-1,-1,-1,-1,-1,-1,-1,-1,-1,-1,-1,-1,-1,-1],"split_conditions":[8.0753E2,7.086226E4,1.22838E3,4.1082E2,6.973874E-1,1.06604E3,1.41204E3,7.619873E-1,1.04E0,-8.8E-1,7.798009E4,1.4204533E0,3.8357117E1,7.937837E4,1.59004E3,6.570324E4,6.570324E4,6.1632E2,1.1935996E0,5.976486E-1,6.5831E2,1.1E0,1.493976E1,9.5384E2,7.288516E4,8.148495E4,7.250946E4,1.28375E3,1.1294183E0,8.23E0,7.564514E4,1.41E0,-1.18E0,1.01E0,7.9164596E0,1.4711858E0,1.7861303E0,1.76E0,6.405763E4,7.402348E4,7.587066E4,7.798009E4,7.988859E4,1.4204533E0,8.64E0,8.0923914E4,4.115655E1,6.1020374E-1,6.77E0,1.06E0,-3.1E-1,1.11428E3,-5E-2,1.11019E3,1.5312557E0,7.09E0,6.19E0,-4E-1,3.1271636E-2,7.30046E4,1.66E0,6.19E0,1.5911175E0,-1.0282292E-1,-4.4598576E-2,-2.9858503E-2,-5.7536263E-2,-7.060586E-2,-2.7788272E-2,-2.0594997E-2,1.4452877E-2,-4.992205E-2,-2.2874754E-2,-2.057589E-2,-1.0924588E-2,-1.5045497E-2,-7.2641145E-3,-6.341345E-3,1.451737E-2,-9.500166E-3,-1.4001172E-3,2.9309576E-3,1.9800102E-2,-2.2012217E-2,-5.862089E-3,-7.0706517E-3,3.13611E-2,-5.5263336E-3,1.0706234E-2,3.150369E-2,2.2840438E-2,1.3350682E-2,2.7670473E-2,2.7353836E-2,2.0556608E-2,-3.0910198E-4,4.794621E-3,8.974469E-3,5.611789E-3,2.2607325E-3,1.1133882E-2,2.853002E-2,2.1846125E-2,1.0769586E-2,1.3804577E-2,3.195515E-2,1.90525E-2,8.811518E-3,1.4287389E-2,2.043247E-2,2.6953269E-2,1.9811923E-2,1.5569563E-2,2.285639E-2,2.0489493E-2,2.9707795E-2,2.1637684E-2,2.574647E-2,2.7993882E-2,2.0277182E-2,2.7117534E-2,3.1203402E-2,2.9073352E-2,3.0991483E-2,3.573899E-2],"split_indices":[1,6,1,1,0,1,1,0,2,2,6,0,3,6,1,6,6,1,0,0,1,2,3,1,6,6,6,1,0,5,6,2,2,2,0,0,0,2,6,6,6,6,6,0,5,6,3,0,5,2,2,1,2,1,0,5,5,2,0,6,4,5,0,0,0,0,0,0,0,0,0,0,0,0,0,0,0,0,0,0,0,0,0,0,0,0,0,0,0,0,0,0,0,0,0,0,0,0,0,0,0,0,0,0,0,0,0,0,0,0,0,0,0,0,0,0,0,0,0,0,0,0,0,0,0],"split_type":[0,0,0,0,0,0,0,0,0,0,0,0,0,0,0,0,0,0,0,0,0,0,0,0,0,0,0,0,0,0,0,0,0,0,0,0,0,0,0,0,0,0,0,0,0,0,0,0,0,0,0,0,0,0,0,0,0,0,0,0,0,0,0,0,0,0,0,0,0,0,0,0,0,0,0,0,0,0,0,0,0,0,0,0,0,0,0,0,0,0,0,0,0,0,0,0,0,0,0,0,0,0,0,0,0,0,0,0,0,0,0,0,0,0,0,0,0,0,0,0,0,0,0,0,0],"sum_hessian":[8.9776E4,4.8159E4,4.1617E4,1.4651E4,3.3508E4,2.7617E4,1.4E4,8.144E3,6.507E3,2.3773E4,9.735E3,1.8532E4,9.085E3,6.299E3,7.701E3,3.336E3,4.808E3,3.255E3,3.252E3,1.4896E4,8.877E3,5.705E3,4.03E3,1.5557E4,2.975E3,7.306E3,1.779E3,5.86E3,4.39E2,5.595E3,2.106E3,2.387E3,9.49E2,2.728E3,2.08E3,1.539E3,1.716E3,1.936E3,1.316E3,1.4046E4,8.5E2,5.787E3,3.09E3,4.774E3,9.31E2,1.175E3,2.855E3,4.753E3,1.0804E4,2.146E3,8.29E2,7.246E3,6E1,9.82E2,7.97E2,2.689E3,3.171E3,1.89E2,2.5E2,3.614E3,1.981E3,9.91E2,1.115E3,1.792E3,5.95E2,1.99E2,7.5E2,1.121E3,1.607E3,1.912E3,1.68E2,8.06E2,7.33E2,9.14E2,8.02E2,1.165E3,7.71E2,1.093E3,2.23E2,3.875E3,1.0171E4,1.8E2,6.7E2,5.026E3,7.61E2,3.08E3,1E1,2.343E3,2.431E3,7.17E2,2.14E2,1.016E3,1.59E2,1.829E3,1.026E3,3.139E3,1.614E3,3.318E3,7.486E3,1.323E3,8.23E2,3.75E2,4.54E2,1.949E3,5.297E3,3.8E1,2.2E1,2.73E2,7.09E2,4.29E2,3.68E2,1.052E3,1.637E3,1.322E3,1.849E3,8.9E1,1E2,1.162E3,2.452E3,1.192E3,7.89E2,3.39E2,6.52E2,6.11E2,5.04E2],"tree_param":{"num_deleted":"0","num_feature":"7","num_nodes":"125","size_leaf_vector":"1"}},{"base_weights":[1.5374062E-5,-2.3481357E-1,2.552144E-1,-7.9328984E-1,-5.5027142E-2,1.25691E-1,4.1005307E-1,-1.145044E0,-4.1264588E-1,-1.7041472E-1,1.7132764E-1,7.459043E-2,1.8165685E-1,3.0730665E-1,4.9272725E-1,-1.6013467E0,-6.537689E-1,-7.155519E-1,-1.4865325E-1,-1.0055657E-1,-4.0289098E-1,-1.2419275E-1,2.8337353E-1,4.062765E-2,1.7171352E-1,1.5206553E-1,2.5580093E-1,2.8723565E-1,3.9642093E-1,4.577998E-1,5.779234E-1,-1.8929251E0,-1.1263177E0,-4.6614584E-1,-1.2626393E0,-1.0093886E0,-4.9255317E-1,-2.2370677E-1,-8.270537E-2,-5.4549414E-1,-7.8465834E-2,-9.296994E-1,-3.5689947E-1,-1.7994513E-1,5.502172E-1,1.10015206E-1,3.8485467E-1,-3.3061866E-2,7.1887E-2,1.2429779E-1,4.6750736E-1,2.010442E-1,1.2453317E-1,1.5848917E-1,3.3046445E-1,2.7253407E-1,3.4750015E-1,3.4302226E-1,5.150151E-1,4.9526006E-1,4.3432713E-1,5.530783E-1,6.265977E-1,-1.07689284E-1,-5.7127506E-2,-7.401629E-2,-1.4172536E-2,-3.8138587E-2,1.4434772E-2,-8.612528E-2,-2.331299E-2,-6.786328E-2,-3.800921E-2,-3.4017894E-2,-1.9356392E-2,-8.33252E-3,-2.7693076E-2,-8.200161E-3,2.6768593E-3,-2.1893902E-2,-4.0904533E-2,-8.1426455E-3,-1.9469949E-3,-5.6219228E-2,-1.3410357E-2,-2.1002552E-2,-9.500912E-3,3.25135E-3,-1.5566637E-2,6.497089E-3,2.9806644E-2,1.5898231E-2,-7.5365626E-3,2.429831E-2,1.3997209E-2,-6.6723265E-3,3.7248244E-3,2.1937524E-3,1.7091608E-2,5.410138E-3,2.3122964E-2,1.7404197E-2,2.6584297E-2,1.3705927E-2,8.737508E-3,5.194874E-3,7.1962173E-3,4.687132E-3,1.3834576E-2,1.32451495E-2,2.2262154E-2,1.07128965E-2,1.4173954E-2,1.3516726E-2,1.914253E-2,1.4994862E-2,2.0533992E-2,2.309352E-2,2.746817E-2,2.17603E-2,2.579361E-2,2.134881E-2,2.951308E-2,2.730048E-2,3.247077E-2,3.3631075E-2,2.9856933E-2],"categories":[],"categories_nodes":[],"categories_segments":[],"categories_sizes":[],"default_left":[0,0,0,0,0,0,0,0,0,0,0,0,0,0,0,0,0,0,0,0,0,0,0,0,0,0,0,0,0,0,0,0,0,0,0,0,0,0,0,0,0,0,0,0,0,0,0,0,0,0,0,0,0,0,0,0,0,0,0,0,0,0,0,0,0,0,0,0,0,0,0,0,0,0,0,0,0,0,0,0,0,0,0,0,0,0,0,0,0,0,0,0,0,0,0,0,0,0,0,0,0,0,0,0,0,0,0,0,0,0,0,0,0,0,0,0,0,0,0,0,0,0,0,0,0,0,0],"id":12,"left_children":[1,3,5,7,9,11,13,15,17,19,21,23,25,27,29,31,33,35,37,39,41,43,45,47,49,51,53,55,57,59,61,63,65,67,69,71,73,75,77,79,81,83,85,87,89,91,93,95,97,99,101,103,105,107,109,111,113,115,117,119,121,123,125,-1,-1,-1,-1,-1,-1,-1,-1,-1,-1,-1,-1,-1,-1,-1,-1,-1,-1,-1,-1,-1,-1,-1,-1,-1,-1,-1,-1,-1,-1,-1,-1,-1,-1,-1,-1,-1,-1,-1,-1,-1,-1,-1,-1,-1,-1,-1,-1,-1,-1,-1,-1,-1,-1,-1,-1,-1,-1,-1,-1,-1,-1,-1,-1],"loss_changes":[5.3802266E3,4.69446E3,8.627844E2,1.5240342E3,9.2384155E2,6.6987915E1,1.663064E2,1.3253677E3,4.3730188E2,3.8043866E2,3.9549005E2,4.0393906E1,2.4492432E1,1.5518616E1,3.204248E1,4.2267236E2,3.2510425E2,1.6639551E2,1.44541855E1,1.7703639E2,1.308183E2,1.2357726E2,1.5230963E2,2.0908821E1,4.4444107E1,1.0754868E1,2.3110489E1,6.2285767E0,9.98111E0,6.5598145E0,3.4665527E0,3.6925586E2,3.4838855E2,4.8855804E2,2.4493591E2,9.4156494E1,2.8445679E1,2.5658478E1,1.7265545E1,2.4635864E1,5.7247154E1,5.559015E1,5.2403442E1,9.767347E1,4.766144E0,1.7350433E2,5.780298E1,2.9205597E1,4.817566E1,1.4841248E1,3.1719437E0,5.476181E0,2.0338135E0,1.0581383E1,1.3449722E1,3.6016846E0,3.7045746E0,3.1126099E0,6.5167236E-1,3.4407349E0,5.1870117E0,1.0726929E0,1.0328064E0,0E0,0E0,0E0,0E0,0E0,0E0,0E0,0E0,0E0,0E0,0E0,0E0,0E0,0E0,0E0,0E0,0E0,0E0,0E0,0E0,0E0,0E0,0E0,0E0,0E0,0E0,0E0,0E0,0E0,0E0,0E0,0E0,0E0,0E0,0E0,0E0,0E0,0E0,0E0,0E0,0E0,0E0,0E0,0E0,0E0,0E0,0E0,0E0,0E0,0E0,0E0,0E0,0E0,0E0,0E0,0E0,0E0,0E0,0E0,0E0,0E0,0E0,0E0,0E0],"parents":[2147483647,0,0,1,1,2,2,3,3,4,4,5,5,6,6,7,7,8,8,9,9,10,10,11,11,12,12,13,13,14,14,15,15,16,16,17,17,18,18,19,19,20,20,21,21,22,22,23,23,24,24,25,25,26,26,27,27,28,28,29,29,30,30,31,31,32,32,33,33,34,34,35,35,36,36,37,37,38,38,39,39,40,40,41,41,42,42,43,43,44,44,45,45,46,46,47,47,48,48,49,49,50,50,51,51,52,52,53,53,54,54,55,55,56,56,57,57,58,58,59,59,60,60,61,61,62,62],"right_children":[2,4,6,8,10,12,14,16,18,20,22,24,26,28,30,32,34,36,38,40,42,44,46,48,50,52,54,56,58,60,62,64,66,68,70,72,74,76,78,80,82,84,86,88,90,92,94,96,98,100,102,104,106,108,110,112,114,116,118,120,122,124,126,-1,-1,-1,-1,-1,-1,-1,-1,-1,-1,-1,-1,-1,-1,-1,-1,-1,-1,-1,-1,-1,-1,-1,-1,-1,-1,-1,-1,-1,-1,-1,-1,-1,-1,-1,-1,-1,-1,-1,-1,-1,-1,-1,-1,-1,-1,-1,-1,-1,-1,-1,-1,-1,-1,-1,-1,-1,-1,-1,-1,-1,-1,-1,-1],"split_conditions":[7.631E2,6.847554E4,1.1255E3,3.6919E2,6.6568685E-1,9.9307E2,1.297E3,1.5312557E0,1.24E0,-4.3E-1,7.35151E4,7.794167E4,7.251369E-1,1.951121E0,1.52231E3,6.1754332E4,8.21969E1,5.211E2,7.305475E-1,7.1626555E4,7.185032E4,1.19E0,9.989264E-1,6.935884E4,3.1073246E1,6.44E0,6.8198875E4,4.028998E1,7.277411E4,5.43E0,1.66725E3,1.48E0,1.04E0,1.44E0,5.683291E4,6.276442E4,6.245498E4,8.75E0,5.5412613E4,-1.16E0,7.526409E4,7.9E-1,5.3103E2,-6.6E-1,8.7484765E-1,-5.8E-1,2.5326E2,9.9E-1,1.9027101E0,1.1935996E0,7.9236016E4,-5.7E-1,1.04026E3,1.29E0,1.9027101E0,2.01E0,6.9886766E4,1.04E0,7.657676E4,1.37177E3,8.148495E4,8.148495E4,4.35E0,-1.07689284E-1,-5.7127506E-2,-7.401629E-2,-1.4172536E-2,-3.8138587E-2,1.4434772E-2,-8.612528E-2,-2.331299E-2,-6.786328E-2,-3.800921E-2,-3.4017894E-2,-1.9356392E-2,-8.33252E-3,-2.7693076E-2,-8.200161E-3,2.6768593E-3,-2.1893902E-2,-4.0904533E-2,-8.1426455E-3,-1.9469949E-3,-5.6219228E-2,-1.3410357E-2,-2.1002552E-2,-9.500912E-3,3.25135E-3,-1.5566637E-2,6.497089E-3,2.9806644E-2,1.5898231E-2,-7.5365626E-3,2.429831E-2,1.3997209E-2,-6.6723265E-3,3.7248244E-3,2.1937524E-3,1.7091608E-2,5.410138E-3,2.3122964E-2,1.7404197E-2,2.6584297E-2,1.3705927E-2,8.737508E-3,5.194874E-3,7.1962173E-3,4.687132E-3,1.3834576E-2,1.32451495E-2,2.2262154E-2,1.07128965E-2,1.4173954E-2,1.3516726E-2,1.914253E-2,1.4994862E-2,2.0533992E-2,2.309352E-2,2.746817E-2,2.17603E-2,2.579361E-2,2.134881E-2,2.951308E-2,2.730048E-2,3.247077E-2,3.3631075E-2,2.9856933E-2],"split_indices":[1,6,1,1,0,1,1,0,2,2,6,6,0,0,1,6,3,1,0,6,6,2,0,6,3,5,6,3,6,5,1,2,2,2,6,6,6,5,6,2,6,2,1,2,0,2,1,2,0,0,6,2,1,2,0,4,6,2,6,1,6,6,5,0,0,0,0,0,0,0,0,0,0,0,0,0,0,0,0,0,0,0,0,0,0,0,0,0,0,0,0,0,0,0,0,0,0,0,0,0,0,0,0,0,0,0,0,0,0,0,0,0,0,0,0,0,0,0,0,0,0,0,0,0,0,0,0],"split_type":[0,0,0,0,0,0,0,0,0,0,0,0,0,0,0,0,0,0,0,0,0,0,0,0,0,0,0,0,0,0,0,0,0,0,0,0,0,0,0,0,0,0,0,0,0,0,0,0,0,0,0,0,0,0,0,0,0,0,0,0,0,0,0,0,0,0,0,0,0,0,0,0,0,0,0,0,0,0,0,0,0,0,0,0,0,0,0,0,0,0,0,0,0,0,0,0,0,0,0,0,0,0,0,0,0,0,0,0,0,0,0,0,0,0,0,0,0,0,0,0,0,0,0,0,0,0,0],"sum_hessian":[8.9776E4,4.6754E4,4.3022E4,1.1385E4,3.5369E4,2.3427E4,1.9595E4,5.916E3,5.469E3,2.3427E4,1.1942E4,1.2247E4,1.118E4,8.739E3,1.0856E4,3.066E3,2.85E3,2.546E3,2.923E3,1.8015E4,5.412E3,3.283E3,8.659E3,9.075E3,3.172E3,7.993E3,3.187E3,7.136E3,1.603E3,7.704E3,3.152E3,1.898E3,1.168E3,2.18E3,6.7E2,1.097E3,1.449E3,1.366E3,1.557E3,8.51E2,1.7164E4,4.33E2,4.979E3,3.033E3,2.5E2,3.198E3,5.461E3,2.703E3,6.372E3,2.735E3,4.37E2,2.874E3,5.119E3,1.385E3,1.802E3,5.741E3,1.395E3,1.108E3,4.95E2,2.96E3,4.744E3,2.095E3,1.057E3,1.407E3,4.91E2,8.22E2,3.46E2,1.565E3,6.15E2,4.24E2,2.46E2,4.56E2,6.41E2,5.19E2,9.3E2,1.166E3,2E2,9.75E2,5.82E2,6.12E2,2.39E2,5.474E3,1.169E4,3.34E2,9.9E1,3.611E3,1.368E3,1.059E3,1.974E3,2.5E1,2.25E2,1.779E3,1.419E3,2.779E3,2.682E3,1.398E3,1.305E3,5.774E3,5.98E2,2.612E3,1.23E2,1.55E2,2.82E2,7.58E2,2.116E3,2.483E3,2.636E3,8.96E2,4.89E2,1.149E3,6.53E2,9.11E2,4.83E3,4.41E2,9.54E2,6.8E2,4.28E2,2E2,2.95E2,7.62E2,2.198E3,4.534E3,2.1E2,1.958E3,1.37E2,4.04E2,6.53E2],"tree_param":{"num_deleted":"0","num_feature":"7","num_nodes":"127","size_leaf_vector":"1"}},{"base_weights":[1.29688E-5,-2.2308764E-1,2.4246627E-1,-7.536769E-1,-5.227868E-2,1.4547224E-1,4.2920303E-1,-1.087857E0,-3.920503E-1,-1.3542189E-1,2.3242183E-1,9.7887486E-2,2.4078278E-1,3.5736406E-1,4.9449447E-1,-1.4991221E0,-5.9527856E-1,-6.7983687E-1,-1.4123484E-1,-2.7099129E-2,-2.8915432E-1,-3.7309274E-2,3.781285E-1,6.8406045E-2,1.6554606E-1,2.7922243E-1,2.1058919E-1,3.4542578E-1,5.2340466E-1,4.6551514E-1,5.712263E-1,-1.7543105E0,-1.0632111E0,-7.2936577E-1,1.08505376E-1,-9.590156E-1,-4.679623E-1,-2.5535423E-1,-1.0103794E-1,-7.58769E-2,2.9580033E-1,-5.6027734E-1,-2.2425145E-1,-1.1128295E-1,4.3361852E-1,4.7027364E-1,2.794423E-1,1.1631176E-2,1.144715E-1,1.2948516E-1,4.632034E-1,2.645522E-1,4.3366826E-1,1.9797298E-1,3.4375954E-1,3.0256665E-1,3.828976E-1,4.4819936E-1,2.794307E-2,4.9353608E-1,4.1476852E-1,6.1288744E-1,5.482254E-1,-1.0278558E-1,-5.097254E-2,-6.965177E-2,-1.3241296E-2,-6.1156422E-2,-2.2952598E-2,-2.49142E-2,3.504728E-2,-6.447755E-2,-3.6111716E-2,-2.8720507E-2,-1.4763412E-2,-5.130839E-2,-6.656772E-3,-1.3740646E-2,-3.0556982E-3,-2.0787137E-2,-2.7943307E-3,2.701651E-3,1.6944006E-2,-4.121467E-2,-1.7382188E-2,-1.813807E-2,-6.889533E-3,1.2566562E-2,-9.7128395E-3,1.542939E-2,2.9599486E-2,1.9582888E-2,2.7474E-2,5.4619047E-3,1.920734E-2,-2.632303E-3,3.4662958E-3,4.9113585E-3,8.682972E-3,6.0317437E-3,2.2269044E-2,2.620562E-2,1.9126585E-2,1.2488439E-2,1.6718322E-2,1.37084965E-2,2.4350112E-2,7.955804E-3,1.1564729E-2,1.4617264E-2,2.8734678E-2,1.8063938E-2,1.3575258E-2,1.8505666E-2,2.1148195E-2,2.6545217E-2,1.9367704E-2,2.3763664E-2,2.5863755E-2,1.8180983E-2,2.4590345E-2,2.8226573E-2,3.228028E-2,2.677828E-2,3.2331385E-2],"categories":[],"categories_nodes":[],"categories_segments":[],"categories_sizes":[],"default_left":[0,0,0,0,0,0,0,0,0,0,0,0,0,0,0,0,0,0,0,0,0,0,0,0,0,0,0,0,0,0,0,0,0,0,0,0,0,0,0,0,0,0,0,0,0,0,0,0,0,0,0,0,0,0,0,0,0,0,0,0,0,0,0,0,0,0,0,0,0,0,0,0,0,0,0,0,0,0,0,0,0,0,0,0,0,0,0,0,0,0,0,0,0,0,0,0,0,0,0,0,0,0,0,0,0,0,0,0,0,0,0,0,0,0,0,0,0,0,0,0,0,0,0,0,0],"id":13,"left_children":[1,3,5,7,9,11,13,15,17,19,21,23,25,27,29,31,33,35,37,39,41,43,45,47,49,51,53,55,57,59,61,63,65,67,69,71,73,75,77,79,81,83,85,87,89,91,93,95,97,99,101,103,105,107,109,111,113,115,-1,117,119,121,123,-1,-1,-1,-1,-1,-1,-1,-1,-1,-1,-1,-1,-1,-1,-1,-1,-1,-1,-1,-1,-1,-1,-1,-1,-1,-1,-1,-1,-1,-1,-1,-1,-1,-1,-1,-1,-1,-1,-1,-1,-1,-1,-1,-1,-1,-1,-1,-1,-1,-1,-1,-1,-1,-1,-1,-1,-1,-1,-1,-1,-1,-1],"loss_changes":[4.8562246E3,4.2373384E3,7.791853E2,1.3755537E3,8.372716E2,1.2840338E2,6.880591E1,1.1977754E3,3.9473566E2,4.5587704E2,3.1423053E2,3.766603E1,1.0884705E1,1.3706726E1,1.6860474E1,3.567705E2,2.5430762E2,1.502085E2,1.3387306E1,2.5298827E2,1.9899823E2,9.776396E1,4.707263E1,3.441158E1,6.146611E1,9.276825E0,8.81131E0,1.0385803E1,9.974518E-1,7.7526855E0,1.6829834E0,4.479663E2,3.1378003E2,3.0148315E2,1.556474E2,8.5003174E1,2.6485626E1,7.155559E1,1.4996574E1,9.478043E1,2.1937103E1,1.22376526E2,1.0931192E2,7.301099E1,7.361603E0,1.6491516E1,4.4671265E1,2.1865013E1,6.9670486E0,1.4243813E1,2.8410492E0,3.8260498E0,2.9118805E0,6.2169495E0,5.246216E0,5.4732666E0,1.62854E0,5.7434654E-1,0E0,1.3149414E0,7.6901855E0,8.0789185E-1,1.3566589E0,0E0,0E0,0E0,0E0,0E0,0E0,0E0,0E0,0E0,0E0,0E0,0E0,0E0,0E0,0E0,0E0,0E0,0E0,0E0,0E0,0E0,0E0,0E0,0E0,0E0,0E0,0E0,0E0,0E0,0E0,0E0,0E0,0E0,0E0,0E0,0E0,0E0,0E0,0E0,0E0,0E0,0E0,0E0,0E0,0E0,0E0,0E0,0E0,0E0,0E0,0E0,0E0,0E0,0E0,0E0,0E0,0E0,0E0,0E0,0E0,0E0,0E0],"parents":[2147483647,0,0,1,1,2,2,3,3,4,4,5,5,6,6,7,7,8,8,9,9,10,10,11,11,12,12,13,13,14,14,15,15,16,16,17,17,18,18,19,19,20,20,21,21,22,22,23,23,24,24,25,25,26,26,27,27,28,28,29,29,30,30,31,31,32,32,33,33,34,34,35,35,36,36,37,37,38,38,39,39,40,40,41,41,42,42,43,43,44,44,45,45,46,46,47,47,48,48,49,49,50,50,51,51,52,52,53,53,54,54,55,55,56,56,57,57,59,59,60,60,61,61,62,62],"right_children":[2,4,6,8,10,12,14,16,18,20,22,24,26,28,30,32,34,36,38,40,42,44,46,48,50,52,54,56,58,60,62,64,66,68,70,72,74,76,78,80,82,