{"learner":{"attributes":{"scikit_learn":"{\"_estimator_type\": \"regressor\"}"},"feature_names":["mass_Mj","T_irr","Met","core","f_sed","kzz","S_physical"],"feature_types":["float","float","float","float","float","float","float"],"gradient_booster":{"model":{"gbtree_model_param":{"num_parallel_tree":"1","num_trees":"200"},"iteration_indptr":[0,1,2,3,4,5,6,7,8,9,10,11,12,13,14,15,16,17,18,19,20,21,22,23,24,25,26,27,28,29,30,31,32,33,34,35,36,37,38,39,40,41,42,43,44,45,46,47,48,49,50,51,52,53,54,55,56,57,58,59,60,61,62,63,64,65,66,67,68,69,70,71,72,73,74,75,76,77,78,79,80,81,82,83,84,85,86,87,88,89,90,91,92,93,94,95,96,97,98,99,100,101,102,103,104,105,106,107,108,109,110,111,112,113,114,115,116,117,118,119,120,121,122,123,124,125,126,127,128,129,130,131,132,133,134,135,136,137,138,139,140,141,142,143,144,145,146,147,148,149,150,151,152,153,154,155,156,157,158,159,160,161,162,163,164,165,166,167,168,169,170,171,172,173,174,175,176,177,178,179,180,181,182,183,184,185,186,187,188,189,190,191,192,193,194,195,196,197,198,199,200],"tree_info":[0,0,0,0,0,0,0,0,0,0,0,0,0,0,0,0,0,0,0,0,0,0,0,0,0,0,0,0,0,0,0,0,0,0,0,0,0,0,0,0,0,0,0,0,0,0,0,0,0,0,0,0,0,0,0,0,0,0,0,0,0,0,0,0,0,0,0,0,0,0,0,0,0,0,0,0,0,0,0,0,0,0,0,0,0,0,0,0,0,0,0,0,0,0,0,0,0,0,0,0,0,0,0,0,0,0,0,0,0,0,0,0,0,0,0,0,0,0,0,0,0,0,0,0,0,0,0,0,0,0,0,0,0,0,0,0,0,0,0,0,0,0,0,0,0,0,0,0,0,0,0,0,0,0,0,0,0,0,0,0,0,0,0,0,0,0,0,0,0,0,0,0,0,0,0,0,0,0,0,0,0,0,0,0,0,0,0,0,0,0,0,0,0,0,0,0,0,0,0,0],"trees":[{"base_weights":[-7.200599E-8,-2.722532E-1,3.0533415E-1,-8.8113207E-1,-4.584946E-2,1.8847576E-1,5.50669E-1,-1.3206588E0,-4.1724145E-1,-1.652086E-1,3.801735E-1,1.2950298E-1,3.155252E-1,5.0246257E-1,7.365054E-1,-1.9953231E0,-8.31922E-1,-7.281684E-1,-1.3326131E-1,-1.5367762E-2,-3.9976102E-1,1.7212686E-1,5.730322E-1,9.996252E-2,2.7187163E-1,4.017625E-1,2.4416652E-1,6.039252E-1,4.5751414E-1,6.862906E-1,7.8587735E-1,-2.2600572E0,-1.2856756E0,-1.1562757E0,-4.9838057E-1,-9.971234E-1,-4.2073753E-1,-2.3026963E-1,-4.192435E-2,-6.236487E-2,3.144648E-1,-5.251318E-1,-2.0751008E-1,9.246159E-2,6.7638063E-1,6.749157E-1,4.459179E-1,7.188516E-2,1.9754305E-1,1.5318522E-1,5.8418727E-1,3.823845E-1,6.033297E-1,2.0233946E-1,3.7926486E-1,5.5339617E-1,6.535194E-1,4.3469113E-1,5.784119E-1,6.7482185E-1,4.0049657E-2,7.673684E-1,4.460741E-2,-1.2405857E-1,-7.578861E-2,-4.8996788E-2,-7.652782E-2,-8.867499E-2,-3.7374876E-2,-2.9419512E-2,5.579814E-3,-6.3325524E-2,-3.432282E-2,-2.7785942E-2,-1.0790474E-2,-2.7423963E-2,-8.630388E-3,-4.7337003E-3,7.370015E-3,6.6533047E-3,-4.6738773E-3,1.3554545E-2,3.178181E-2,-3.0142775E-2,-1.0216305E-2,-1.5063937E-2,-2.917736E-3,-6.5996507E-3,9.238876E-3,3.741767E-2,2.5325352E-2,1.7915271E-2,3.4293786E-2,1.2778289E-2,2.8759623E-2,8.508288E-3,1.2052304E-3,4.0479153E-3,1.1116975E-2,3.8905859E-3,1.3844984E-2,2.3914788E-2,3.3315297E-2,1.8314997E-2,2.3056803E-2,2.3525849E-2,3.5569027E-2,7.30063E-3,1.5485494E-2,1.7904146E-2,3.323584E-2,2.5295744E-2,3.0160347E-2,3.19404E-2,3.764833E-2,3.2717288E-2,2.1207454E-2,2.7169023E-2,3.8481947E-2,3.0510563E-2,3.4248784E-2,4.261477E-2,3.7395593E-2],"categories":[],"categories_nodes":[],"categories_segments":[],"categories_sizes":[],"default_left":[0,0,0,0,0,0,0,0,0,0,0,0,0,0,0,0,0,0,0,0,0,0,0,0,0,0,0,0,0,0,0,0,0,0,0,0,0,0,0,0,0,0,0,0,0,0,0,0,0,0,0,0,0,0,0,0,0,0,0,0,0,0,0,0,0,0,0,0,0,0,0,0,0,0,0,0,0,0,0,0,0,0,0,0,0,0,0,0,0,0,0,0,0,0,0,0,0,0,0,0,0,0,0,0,0,0,0,0,0,0,0,0,0,0,0,0,0,0,0,0,0,0,0],"id":0,"left_children":[1,3,5,7,9,11,13,15,17,19,21,23,25,27,29,31,33,35,37,39,41,43,45,47,49,51,53,55,57,59,61,63,65,67,69,71,73,75,77,79,81,83,85,87,89,91,93,95,97,99,101,103,105,107,109,111,113,115,117,119,-1,121,-1,-1,-1,-1,-1,-1,-1,-1,-1,-1,-1,-1,-1,-1,-1,-1,-1,-1,-1,-1,-1,-1,-1,-1,-1,-1,-1,-1,-1,-1,-1,-1,-1,-1,-1,-1,-1,-1,-1,-1,-1,-1,-1,-1,-1,-1,-1,-1,-1,-1,-1,-1,-1,-1,-1,-1,-1,-1,-1,-1,-1],"loss_changes":[7.463083E3,6.542436E3,1.2131296E3,2.6223193E3,1.759311E3,2.1473804E2,1.2194043E2,2.1762295E3,5.526427E2,9.4983704E2,3.0371716E2,8.2319214E1,5.582135E1,4.917871E1,6.427246E0,5.1823926E2,4.1399023E2,2.4664343E2,2.8990578E1,2.5566502E2,2.5381238E2,1.4632248E2,5.0583008E1,4.441719E1,1.2460599E2,1.5834534E1,2.8035828E1,7.9731445E0,2.0495361E1,1.3024902E0,2.0888672E0,3.2850977E2,5.5101685E1,4.8865625E2,1.0388876E2,1.3244824E2,3.8495453E1,2.9024506E1,1.6861704E1,8.7788795E1,2.8482635E1,1.5885718E2,5.8164597E1,6.525327E1,5.6973877E0,7.3154907E0,4.294107E1,5.9140785E1,1.0455673E1,2.2721615E1,7.7335205E0,4.5874634E0,4.817108E0,2.2942612E1,6.8665314E0,3.606659E0,1.9666138E0,1.4378052E1,7.560272E0,4.2175293E-1,0E0,1.3585815E0,0E0,0E0,0E0,0E0,0E0,0E0,0E0,0E0,0E0,0E0,0E0,0E0,0E0,0E0,0E0,0E0,0E0,0E0,0E0,0E0,0E0,0E0,0E0,0E0,0E0,0E0,0E0,0E0,0E0,0E0,0E0,0E0,0E0,0E0,0E0,0E0,0E0,0E0,0E0,0E0,0E0,0E0,0E0,0E0,0E0,0E0,0E0,0E0,0E0,0E0,0E0,0E0,0E0,0E0,0E0,0E0,0E0,0E0,0E0,0E0,0E0],"parents":[2147483647,0,0,1,1,2,2,3,3,4,4,5,5,6,6,7,7,8,8,9,9,10,10,11,11,12,12,13,13,14,14,15,15,16,16,17,17,18,18,19,19,20,20,21,21,22,22,23,23,24,24,25,25,26,26,27,27,28,28,29,29,30,30,31,31,32,32,33,33,34,34,35,35,36,36,37,37,38,38,39,39,40,40,41,41,42,42,43,43,44,44,45,45,46,46,47,47,48,48,49,49,50,50,51,51,52,52,53,53,54,54,55,55,56,56,57,57,58,58,59,59,61,61],"right_children":[2,4,6,8,10,12,14,16,18,20,22,24,26,28,30,32,34,36,38,40,42,44,46,48,50,52,54,56,58,60,62,64,66,68,70,72,74,76,78,80,82,84,86,88,90,92,94,96,98,100,102,104,106,108,110,112,114,116,118,120,-1,122,-1,-1,-1,-1,-1,-1,-1,-1,-1,-1,-1,-1,-1,-1,-1,-1,-1,-1,-1,-1,-1,-1,-1,-1,-1,-1,-1,-1,-1,-1,-1,-1,-1,-1,-1,-1,-1,-1,-1,-1,-1,-1,-1,-1,-1,-1,-1,-1,-1,-1,-1,-1,-1,-1,-1,-1,-1,-1,-1,-1,-1],"split_conditions":[7.7912E2,6.955081E4,1.23313E3,3.6919E2,9.989264E-1,1.07474E3,1.53427E3,7.619873E-1,1.13E0,-8.5E-1,7.610422E4,1.4204533E0,6.15E0,4.67E0,1.63612E3,6.497836E4,6.307727E4,5.7405E2,7.930687E-1,6.071389E-1,5.4017E2,1.1E0,2.5326E2,8.92E0,7.288516E4,7.847702E4,3.36E0,7.418195E4,2.5255334E0,8.0567445E4,8.10861E4,1.41E0,-7.7E-1,1.44E0,1.22E0,6.4713188E4,2.4659858E0,1.6037903E1,6.307727E4,1E0,7.958701E4,6.9299185E-1,8.36E0,1.9027101E0,1.329852E0,1.0644844E0,1.6581881E0,6.31E0,7.315873E4,1.06E0,7.759304E4,2.003452E0,8.8776004E-1,9.5E0,7.9327766E4,1.37177E3,2.3266773E0,1E0,7.928413E4,6.3579375E-1,4.0049657E-2,1.02E0,4.460741E-2,-1.2405857E-1,-7.578861E-2,-4.8996788E-2,-7.652782E-2,-8.867499E-2,-3.7374876E-2,-2.9419512E-2,5.579814E-3,-6.3325524E-2,-3.432282E-2,-2.7785942E-2,-1.0790474E-2,-2.7423963E-2,-8.630388E-3,-4.7337003E-3,7.370015E-3,6.6533047E-3,-4.6738773E-3,1.3554545E-2,3.178181E-2,-3.0142775E-2,-1.0216305E-2,-1.5063937E-2,-2.917736E-3,-6.5996507E-3,9.238876E-3,3.741767E-2,2.5325352E-2,1.7915271E-2,3.4293786E-2,1.2778289E-2,2.8759623E-2,8.508288E-3,1.2052304E-3,4.0479153E-3,1.1116975E-2,3.8905859E-3,1.3844984E-2,2.3914788E-2,3.3315297E-2,1.8314997E-2,2.3056803E-2,2.3525849E-2,3.5569027E-2,7.30063E-3,1.5485494E-2,1.7904146E-2,3.323584E-2,2.5295744E-2,3.0160347E-2,3.19404E-2,3.764833E-2,3.2717288E-2,2.1207454E-2,2.7169023E-2,3.8481947E-2,3.0510563E-2,3.4248784E-2,4.261477E-2,3.7395593E-2],"split_indices":[1,6,1,1,0,1,1,0,2,2,6,0,5,5,1,6,6,1,0,0,1,2,1,5,6,6,4,6,0,6,6,2,2,2,2,6,0,3,6,4,6,0,5,0,0,0,0,5,6,2,6,0,0,5,6,1,0,4,6,0,0,4,0,0,0,0,0,0,0,0,0,0,0,0,0,0,0,0,0,0,0,0,0,0,0,0,0,0,0,0,0,0,0,0,0,0,0,0,0,0,0,0,0,0,0,0,0,0,0,0,0,0,0,0,0,0,0,0,0,0,0,0,0],"split_type":[0,0,0,0,0,0,0,0,0,0,0,0,0,0,0,0,0,0,0,0,0,0,0,0,0,0,0,0,0,0,0,0,0,0,0,0,0,0,0,0,0,0,0,0,0,0,0,0,0,0,0,0,0,0,0,0,0,0,0,0,0,0,0,0,0,0,0,0,0,0,0,0,0,0,0,0,0,0,0,0,0,0,0,0,0,0,0,0,0,0,0,0,0,0,0,0,0,0,0,0,0,0,0,0,0,0,0,0,0,0,0,0,0,0,0,0,0,0,0,0,0,0,0],"sum_hessian":[8.9776E4,4.7459E4,4.2317E4,1.2863E4,3.4596E4,2.8665E4,1.3652E4,6.604E3,6.259E3,2.7025E4,7.571E3,1.9579E4,9.086E3,1.0843E4,2.809E3,2.773E3,3.831E3,2.987E3,3.272E3,1.6491E4,1.0534E4,3.643E3,3.928E3,1.6216E4,3.363E3,4.112E3,4.974E3,3.325E3,7.518E3,1.4E3,1.409E3,2.018E3,7.55E2,1.941E3,1.89E3,1.592E3,1.395E3,1.586E3,1.686E3,1.4435E4,2.056E3,6.375E3,4.159E3,3.147E3,4.96E2,2.178E3,1.75E3,1.2594E4,3.622E3,2.438E3,9.25E2,3.754E3,3.58E2,3.8E3,1.174E3,1.653E3,1.672E3,6.328E3,1.19E3,1.279E3,1.21E2,1.207E3,2.02E2,1.554E3,4.64E2,3.38E2,4.17E2,7.72E2,1.169E3,1.647E3,2.43E2,8.51E2,7.41E2,8.4E2,5.55E2,2.42E2,1.344E3,1.319E3,3.67E2,1.982E3,1.2453E4,1.813E3,2.43E2,5.131E3,1.244E3,2.553E3,1.606E3,9.17E2,2.23E3,3.46E2,1.5E2,7.4E1,2.104E3,7.09E2,1.041E3,4.119E3,8.475E3,6.36E2,2.986E3,1.516E3,9.22E2,4.07E2,5.18E2,3.122E3,6.32E2,1.63E2,1.95E2,2.494E3,1.306E3,1.095E3,7.9E1,8.52E2,8.01E2,1.463E3,2.09E2,2.87E2,6.041E3,1.009E3,1.81E2,1.82E2,1.097E3,2.17E2,9.9E2],"tree_param":{"num_deleted":"0","num_feature":"7","num_nodes":"123","size_leaf_vector":"1"}},{"base_weights":[2.764051E-6,-2.58651E-1,2.9008517E-1,-8.259315E-1,-3.9279256E-2,1.7906158E-1,5.2317035E-1,-1.2340665E0,-3.9536723E-1,-1.5361987E-1,3.773224E-1,1.23032965E-1,2.997682E-1,4.7736204E-1,6.997618E-1,-1.8774889E0,-7.72844E-1,-6.823208E-1,-1.293193E-1,-5.2477278E-2,-4.679305E-1,1.8654606E-1,5.4440457E-1,9.496596E-2,2.583004E-1,3.8169888E-1,2.319731E-1,5.639864E-1,4.2948171E-1,6.5205085E-1,7.466719E-1,-2.2653322E0,-1.4055902E0,-1.0985267E0,-4.5904383E-1,-9.3854153E-1,-3.9811555E-1,-2.247276E-1,-4.0604122E-2,-9.347533E-2,2.251223E-1,-5.3153956E-1,-1.0445482E-1,1.1147354E-1,6.441812E-1,6.41194E-1,4.236458E-1,6.829172E-2,1.876701E-1,1.4553328E-1,5.5503976E-1,3.632764E-1,5.733278E-1,1.9222856E-1,3.60345E-1,4.9195996E-1,6.051956E-1,4.0719408E-1,5.478994E-1,6.4113134E-1,3.8063597E-2,7.2906625E-1,4.2388014E-2,-1.2679568E-1,-6.6498004E-2,-7.5549304E-2,-1.5624515E-2,-8.424698E-2,-3.5507724E-2,-2.6982073E-2,5.7861283E-3,-6.0357004E-2,-3.2446433E-2,-2.5338335E-2,-1.0155323E-2,-2.63344E-2,-8.41737E-3,-4.500138E-3,7.749469E-3,-1.1332183E-3,-1.022976E-2,-3.4751014E-3,1.5962644E-2,-3.238344E-2,-1.8389706E-2,-7.480108E-3,3.7589543E-2,-5.437003E-3,1.024444E-2,3.4853682E-2,2.112977E-2,2.9272282E-2,3.5078727E-2,1.2140274E-2,2.7323028E-2,8.019521E-3,1.113083E-3,3.8458395E-3,1.0561312E-2,3.6961883E-3,1.3153485E-2,2.2721978E-2,3.1652745E-2,1.5911078E-2,1.9439342E-2,1.8449925E-2,3.1866327E-2,6.687554E-3,1.4310722E-2,1.7009748E-2,3.159481E-2,2.390592E-2,3.4839626E-2,2.8380174E-2,3.145876E-2,3.1098982E-2,1.981163E-2,2.563784E-2,3.6514174E-2,2.8993377E-2,3.2537904E-2,4.012615E-2,3.5428446E-2],"categories":[],"categories_nodes":[],"categories_segments":[],"categories_sizes":[],"default_left":[0,0,0,0,0,0,0,0,0,0,0,0,0,0,0,0,0,0,0,0,0,0,0,0,0,0,0,0,0,0,0,0,0,0,0,0,0,0,0,0,0,0,0,0,0,0,0,0,0,0,0,0,0,0,0,0,0,0,0,0,0,0,0,0,0,0,0,0,0,0,0,0,0,0,0,0,0,0,0,0,0,0,0,0,0,0,0,0,0,0,0,0,0,0,0,0,0,0,0,0,0,0,0,0,0,0,0,0,0,0,0,0,0,0,0,0,0,0,0,0,0,0,0],"id":1,"left_children":[1,3,5,7,9,11,13,15,17,19,21,23,25,27,29,31,33,35,37,39,41,43,45,47,49,51,53,55,57,59,61,63,65,67,69,71,73,75,77,79,81,83,85,87,89,91,93,95,97,99,101,103,105,107,109,111,113,115,117,119,-1,121,-1,-1,-1,-1,-1,-1,-1,-1,-1,-1,-1,-1,-1,-1,-1,-1,-1,-1,-1,-1,-1,-1,-1,-1,-1,-1,-1,-1,-1,-1,-1,-1,-1,-1,-1,-1,-1,-1,-1,-1,-1,-1,-1,-1,-1,-1,-1,-1,-1,-1,-1,-1,-1,-1,-1,-1,-1,-1,-1,-1,-1],"loss_changes":[6.736124E3,5.9061416E3,1.0950093E3,2.3252754E3,1.6303961E3,1.9383197E2,1.1011011E2,2.0147422E3,4.9171594E2,8.5373303E2,2.3485156E2,7.431198E1,5.0385193E1,4.4734375E1,5.802246E0,5.1586914E2,4.0410254E2,2.2529333E2,2.8295033E1,2.3127243E2,1.5110522E2,1.1821528E2,4.5651E1,4.008879E1,1.1248686E2,1.4311707E1,2.5313599E1,1.1150513E1,1.8219849E1,1.1828003E0,1.8912964E0,3.90188E2,1.4722461E2,4.410874E2,9.354587E1,1.2593591E2,3.106459E1,2.7337952E1,1.676795E1,1.3930725E2,7.254436E1,1.055647E2,3.7803253E1,6.0892788E1,5.38974E0,6.924011E0,3.8756805E1,5.3390522E1,9.435875E0,2.0508945E1,6.979889E0,4.1921997E0,4.459404E0,2.085225E1,6.2143555E0,3.6616821E0,1.8505249E0,1.3609009E1,6.701599E0,3.7756348E-1,0E0,1.2502441E0,0E0,0E0,0E0,0E0,0E0,0E0,0E0,0E0,0E0,0E0,0E0,0E0,0E0,0E0,0E0,0E0,0E0,0E0,0E0,0E0,0E0,0E0,0E0,0E0,0E0,0E0,0E0,0E0,0E0,0E0,0E0,0E0,0E0,0E0,0E0,0E0,0E0,0E0,0E0,0E0,0E0,0E0,0E0,0E0,0E0,0E0,0E0,0E0,0E0,0E0,0E0,0E0,0E0,0E0,0E0,0E0,0E0,0E0,0E0,0E0,0E0],"parents":[2147483647,0,0,1,1,2,2,3,3,4,4,5,5,6,6,7,7,8,8,9,9,10,10,11,11,12,12,13,13,14,14,15,15,16,16,17,17,18,18,19,19,20,20,21,21,22,22,23,23,24,24,25,25,26,26,27,27,28,28,29,29,30,30,31,31,32,32,33,33,34,34,35,35,36,36,37,37,38,38,39,39,40,40,41,41,42,42,43,43,44,44,45,45,46,46,47,47,48,48,49,49,50,50,51,51,52,52,53,53,54,54,55,55,56,56,57,57,58,58,59,59,61,61],"right_children":[2,4,6,8,10,12,14,16,18,20,22,24,26,28,30,32,34,36,38,40,42,44,46,48,50,52,54,56,58,60,62,64,66,68,70,72,74,76,78,80,82,84,86,88,90,92,94,96,98,100,102,104,106,108,110,112,114,116,118,120,-1,122,-1,-1,-1,-1,-1,-1,-1,-1,-1,-1,-1,-1,-1,-1,-1,-1,-1,-1,-1,-1,-1,-1,-1,-1,-1,-1,-1,-1,-1,-1,-1,-1,-1,-1,-1,-1,-1,-1,-1,-1,-1,-1,-1,-1,-1,-1,-1,-1,-1,-1,-1,-1,-1,-1,-1,-1,-1,-1,-1,-1,-1],"split_conditions":[7.7912E2,6.9886766E4,1.23313E3,3.6919E2,9.989264E-1,1.07474E3,1.53427E3,7.619873E-1,1.08E0,-3.4E-1,7.610422E4,1.4204533E0,6.15E0,5.43E0,1.63612E3,6.1388703E4,6.307727E4,5.7405E2,7.930687E-1,6.24052E-1,7.4106324E-1,1.1E0,2.5326E2,8.92E0,7.288516E4,7.847702E4,3.36E0,1.35633E3,2.5255334E0,8.0567445E4,8.10861E4,1.48E0,1.26E0,1.44E0,1.22E0,6.4713188E4,3.1289527E0,1.6037903E1,6.405763E4,-1.21E0,7.667271E4,4.3529E2,1.19E0,1.9027101E0,8.95E0,9.2E-1,1.6581881E0,6.35E0,7.315873E4,1.06E0,7.759304E4,6.9886766E4,4.96297E-1,9.38E0,7.9327766E4,7.9070695E4,7.418195E4,1E0,7.928413E4,6.3579375E-1,3.8063597E-2,1.33E0,4.2388014E-2,-1.2679568E-1,-6.6498004E-2,-7.5549304E-2,-1.5624515E-2,-8.424698E-2,-3.5507724E-2,-2.6982073E-2,5.7861283E-3,-6.0357004E-2,-3.2446433E-2,-2.5338335E-2,-1.0155323E-2,-2.63344E-2,-8.41737E-3,-4.500138E-3,7.749469E-3,-1.1332183E-3,-1.022976E-2,-3.4751014E-3,1.5962644E-2,-3.238344E-2,-1.8389706E-2,-7.480108E-3,3.7589543E-2,-5.437003E-3,1.024444E-2,3.4853682E-2,2.112977E-2,2.9272282E-2,3.5078727E-2,1.2140274E-2,2.7323028E-2,8.019521E-3,1.113083E-3,3.8458395E-3,1.0561312E-2,3.6961883E-3,1.3153485E-2,2.2721978E-2,3.1652745E-2,1.5911078E-2,1.9439342E-2,1.8449925E-2,3.1866327E-2,6.687554E-3,1.4310722E-2,1.7009748E-2,3.159481E-2,2.390592E-2,3.4839626E-2,2.8380174E-2,3.145876E-2,3.1098982E-2,1.981163E-2,2.563784E-2,3.6514174E-2,2.8993377E-2,3.2537904E-2,4.012615E-2,3.5428446E-2],"split_indices":[1,6,1,1,0,1,1,0,2,2,6,0,5,5,1,6,6,1,0,0,0,2,1,5,6,6,4,1,0,6,6,2,2,2,2,6,0,3,6,2,6,1,2,0,5,2,0,5,6,2,6,6,0,5,6,6,6,4,6,0,0,5,0,0,0,0,0,0,0,0,0,0,0,0,0,0,0,0,0,0,0,0,0,0,0,0,0,0,0,0,0,0,0,0,0,0,0,0,0,0,0,0,0,0,0,0,0,0,0,0,0,0,0,0,0,0,0,0,0,0,0,0,0],"split_type":[0,0,0,0,0,0,0,0,0,0,0,0,0,0,0,0,0,0,0,0,0,0,0,0,0,0,0,0,0,0,0,0,0,0,0,0,0,0,0,0,0,0,0,0,0,0,0,0,0,0,0,0,0,0,0,0,0,0,0,0,0,0,0,0,0,0,0,0,0,0,0,0,0,0,0,0,0,0,0,0,0,0,0,0,0,0,0,0,0,0,0,0,0,0,0,0,0,0,0,0,0,0,0,0,0,0,0,0,0,0,0,0,0,0,0,0,0,0,0,0,0,0,0],"sum_hessian":[8.9776E4,4.7459E4,4.2317E4,1.3234E4,3.4225E4,2.8665E4,1.3652E4,6.793E3,6.441E3,2.6855E4,7.37E3,1.9579E4,9.086E3,1.0843E4,2.809E3,2.835E3,3.958E3,3.098E3,3.343E3,2.0318E4,6.537E3,3.442E3,3.928E3,1.6216E4,3.363E3,4.112E3,4.974E3,3.856E3,6.987E3,1.4E3,1.409E3,1.554E3,1.281E3,1.941E3,2.017E3,1.628E3,1.47E3,1.61E3,1.733E3,1.7704E4,2.614E3,5.563E3,9.74E2,2.958E3,4.84E2,2.178E3,1.75E3,1.2594E4,3.622E3,2.438E3,9.25E2,3.754E3,3.58E2,3.8E3,1.174E3,1.408E3,2.448E3,5.884E3,1.103E3,1.279E3,1.21E2,1.207E3,2.02E2,1.204E3,3.5E2,1.168E3,1.13E2,7.72E2,1.169E3,1.769E3,2.48E2,8.43E2,7.85E2,9.43E2,5.27E2,2.52E2,1.358E3,1.384E3,3.49E2,1.0814E4,6.89E3,6.33E2,1.981E3,3.253E3,2.31E3,9.26E2,4.8E1,8.81E2,2.077E3,3.89E2,9.5E1,1.138E3,1.04E3,7.09E2,1.041E3,4.196E3,8.398E3,6.36E2,2.986E3,1.516E3,9.22E2,4.07E2,5.18E2,1.362E3,2.392E3,8.7E1,2.71E2,2.344E3,1.456E3,1.095E3,7.9E1,1.322E3,8.6E1,9.63E2,1.485E3,2.83E2,5.601E3,9.28E2,1.75E2,1.82E2,1.097E3,2.55E2,9.52E2],"tree_param":{"num_deleted":"0","num_feature":"7","num_nodes":"123","size_leaf_vector":"1"}},{"base_weights":[5.5093674E-6,-2.4572769E-1,2.755974E-1,-7.955606E-1,-4.127943E-2,1.7217317E-1,5.0145876E-1,-1.1924964E0,-3.7662184E-1,-1.4904939E-1,3.433788E-1,1.1831724E-1,2.9007986E-1,4.576089E-1,6.6485107E-1,-1.8014927E0,-7.5133044E-1,-6.5753496E-1,-1.2005448E-1,-1.1836717E-2,-3.601318E-1,1.5585704E-1,5.172108E-1,9.082338E-2,2.472949E-1,3.6168042E-1,2.2733085E-1,5.3735197E-1,4.121418E-1,6.1951935E-1,7.094219E-1,-2.0576954E0,-1.1788249E0,-1.0436622E0,-4.5071724E-1,-9.004869E-1,-3.7982723E-1,-2.0763478E-1,-3.759451E-2,-5.3835597E-2,2.9033422E-1,-4.731701E-1,-1.854779E-1,8.387697E-2,6.114656E-1,6.09164E-1,4.0248594E-1,6.782907E-2,1.8548721E-1,1.2845156E-1,5.0115955E-1,3.4485313E-1,5.414121E-1,1.8292437E-1,3.4906766E-1,4.689832E-1,5.749601E-1,3.9071614E-1,5.207094E-1,6.0912275E-1,3.617602E-2,6.9110495E-1,3.9858155E-2,-1.1351613E-1,-6.836883E-2,-4.252575E-2,-6.944348E-2,-8.004008E-2,-3.3733856E-2,-2.6054407E-2,9.857546E-3,-5.884404E-2,-3.2185078E-2,-2.515102E-2,-9.640167E-3,-2.4747116E-2,-7.7786394E-3,-4.2723524E-3,6.707632E-3,6.3886815E-3,-4.147103E-3,1.2487036E-2,2.9846838E-2,-2.623981E-2,-3.224376E-3,-1.3831237E-2,-2.3748705E-3,-5.9548654E-3,8.367907E-3,3.393514E-2,2.2645198E-2,5.0937994E-3,3.076214E-2,1.1534115E-2,2.5958179E-2,7.762436E-3,1.3819815E-3,3.4445E-3,1.0574992E-2,2.553772E-3,1.2562901E-2,1.970268E-2,2.9564945E-2,1.64289E-2,2.1362208E-2,2.0787971E-2,3.2404087E-2,6.558084E-3,1.3724769E-2,1.4800146E-2,2.2670936E-2,2.2799635E-2,3.300568E-2,2.6962627E-2,2.9886875E-2,2.9655242E-2,1.8995907E-2,2.435531E-2,3.4698833E-2,2.755162E-2,3.0912489E-2,3.852759E-2,3.3624507E-2],"categories":[],"categories_nodes":[],"categories_segments":[],"categories_sizes":[],"default_left":[0,0,0,0,0,0,0,0,0,0,0,0,0,0,0,0,0,0,0,0,0,0,0,0,0,0,0,0,0,0,0,0,0,0,0,0,0,0,0,0,0,0,0,0,0,0,0,0,0,0,0,0,0,0,0,0,0,0,0,0,0,0,0,0,0,0,0,0,0,0,0,0,0,0,0,0,0,0,0,0,0,0,0,0,0,0,0,0,0,0,0,0,0,0,0,0,0,0,0,0,0,0,0,0,0,0,0,0,0,0,0,0,0,0,0,0,0,0,0,0,0,0,0],"id":2,"left_children":[1,3,5,7,9,11,13,15,17,19,21,23,25,27,29,31,33,35,37,39,41,43,45,47,49,51,53,55,57,59,61,63,65,67,69,71,73,75,77,79,81,83,85,87,89,91,93,95,97,99,101,103,105,107,109,111,113,115,117,119,-1,121,-1,-1,-1,-1,-1,-1,-1,-1,-1,-1,-1,-1,-1,-1,-1,-1,-1,-1,-1,-1,-1,-1,-1,-1,-1,-1,-1,-1,-1,-1,-1,-1,-1,-1,-1,-1,-1,-1,-1,-1,-1,-1,-1,-1,-1,-1,-1,-1,-1,-1,-1,-1,-1,-1,-1,-1,-1,-1,-1,-1,-1],"loss_changes":[6.079953E3,5.3350586E3,9.884426E2,2.138729E3,1.434256E3,1.8429266E2,9.4921875E1,1.7732021E3,4.5109882E2,7.827546E2,2.4674597E2,7.0644104E1,4.0807373E1,3.778296E1,5.238159E0,4.4010742E2,3.3628125E2,2.012572E2,2.3629375E1,2.078916E2,2.1011145E2,1.1945273E2,4.1203125E1,3.574672E1,1.0556122E2,1.266394E1,2.617099E1,9.508789E0,1.5335083E1,1.0740967E0,1.7151489E0,2.8517285E2,5.4745117E1,3.9814868E2,8.631543E1,1.1230383E2,3.206697E1,2.3661026E1,1.3876136E1,7.603388E1,2.4730621E1,1.3632703E2,5.2619446E1,5.3361313E1,4.9912567E0,6.6566772E0,3.4980164E1,4.6438652E1,9.721359E0,2.265963E1,1.0541382E1,5.073181E0,4.5825653E0,1.6828781E1,7.0421906E0,3.0632935E0,1.6694946E0,1.1975769E1,6.054901E0,3.3798218E-1,0E0,1.2180176E0,0E0,0E0,0E0,0E0,0E0,0E0,0E0,0E0,0E0,0E0,0E0,0E0,0E0,0E0,0E0,0E0,0E0,0E0,0E0,0E0,0E0,0E0,0E0,0E0,0E0,0E0,0E0,0E0,0E0,0E0,0E0,0E0,0E0,0E0,0E0,0E0,0E0,0E0,0E0,0E0,0E0,0E0,0E0,0E0,0E0,0E0,0E0,0E0,0E0,0E0,0E0,0E0,0E0,0E0,0E0,0E0,0E0,0E0,0E0,0E0,0E0],"parents":[2147483647,0,0,1,1,2,2,3,3,4,4,5,5,6,6,7,7,8,8,9,9,10,10,11,11,12,12,13,13,14,14,15,15,16,16,17,17,18,18,19,19,20,20,21,21,22,22,23,23,24,24,25,25,26,26,27,27,28,28,29,29,30,30,31,31,32,32,33,33,34,34,35,35,36,36,37,37,38,38,39,39,40,40,41,41,42,42,43,43,44,44,45,45,46,46,47,47,48,48,49,49,50,50,51,51,52,52,53,53,54,54,55,55,56,56,57,57,58,58,59,59,61,61],"right_children":[2,4,6,8,10,12,14,16,18,20,22,24,26,28,30,32,34,36,38,40,42,44,46,48,50,52,54,56,58,60,62,64,66,68,70,72,74,76,78,80,82,84,86,88,90,92,94,96,98,100,102,104,106,108,110,112,114,116,118,120,-1,122,-1,-1,-1,-1,-1,-1,-1,-1,-1,-1,-1,-1,-1,-1,-1,-1,-1,-1,-1,-1,-1,-1,-1,-1,-1,-1,-1,-1,-1,-1,-1,-1,-1,-1,-1,-1,-1,-1,-1,-1,-1,-1,-1,-1,-1,-1,-1,-1,-1,-1,-1,-1,-1,-1,-1,-1,-1,-1,-1,-1,-1],"split_conditions":[7.7912E2,6.955081E4,1.23761E3,3.6919E2,9.989264E-1,1.08436E3,1.53427E3,7.619873E-1,1.13E0,-8.7E-1,7.610422E4,1.4204533E0,6.4E0,5.43E0,1.63612E3,6.435058E4,6.307727E4,5.7405E2,7.930687E-1,6.1743593E-1,5.4017E2,1.1E0,2.5326E2,9.1E0,7.1502086E4,7.847702E4,3.0152925E1,1.35633E3,2.5255334E0,8.0567445E4,7.988859E4,1.41E0,-8.2E-1,1.44E0,1.26E0,1.0809948E0,2.4659858E0,1.6037903E1,6.307727E4,1E0,7.958701E4,7.824874E4,8.31E0,1.9027101E0,1.329852E0,1.0290699E0,1.6581881E0,6.31E0,7.277411E4,1.08E0,7.678479E4,2.003452E0,8.8776004E-1,9.38E0,7.34212E4,7.9070695E4,7.418195E4,1E0,7.928413E4,6.3579375E-1,3.617602E-2,1.02E0,3.9858155E-2,-1.1351613E-1,-6.836883E-2,-4.252575E-2,-6.944348E-2,-8.004008E-2,-3.3733856E-2,-2.6054407E-2,9.857546E-3,-5.884404E-2,-3.2185078E-2,-2.515102E-2,-9.640167E-3,-2.4747116E-2,-7.7786394E-3,-4.2723524E-3,6.707632E-3,6.3886815E-3,-4.147103E-3,1.2487036E-2,2.9846838E-2,-2.623981E-2,-3.224376E-3,-1.3831237E-2,-2.3748705E-3,-5.9548654E-3,8.367907E-3,3.393514E-2,2.2645198E-2,5.0937994E-3,3.076214E-2,1.1534115E-2,2.5958179E-2,7.762436E-3,1.3819815E-3,3.4445E-3,1.0574992E-2,2.553772E-3,1.2562901E-2,1.970268E-2,2.9564945E-2,1.64289E-2,2.1362208E-2,2.0787971E-2,3.2404087E-2,6.558084E-3,1.3724769E-2,1.4800146E-2,2.2670936E-2,2.2799635E-2,3.300568E-2,2.6962627E-2,2.9886875E-2,2.9655242E-2,1.8995907E-2,2.435531E-2,3.4698833E-2,2.755162E-2,3.0912489E-2,3.852759E-2,3.3624507E-2],"split_indices":[1,6,1,1,0,1,1,0,2,2,6,0,5,5,1,6,6,1,0,0,1,2,1,5,6,6,3,1,0,6,6,2,2,2,2,0,0,3,6,4,6,6,5,0,0,0,0,5,6,2,6,0,0,5,6,6,6,4,6,0,0,4,0,0,0,0,0,0,0,0,0,0,0,0,0,0,0,0,0,0,0,0,0,0,0,0,0,0,0,0,0,0,0,0,0,0,0,0,0,0,0,0,0,0,0,0,0,0,0,0,0,0,0,0,0,0,0,0,0,0,0,0,0],"split_type":[0,0,0,0,0,0,0,0,0,0,0,0,0,0,0,0,0,0,0,0,0,0,0,0,0,0,0,0,0,0,0,0,0,0,0,0,0,0,0,0,0,0,0,0,0,0,0,0,0,0,0,0,0,0,0,0,0,0,0,0,0,0,0,0,0,0,0,0,0,0,0,0,0,0,0,0,0,0,0,0,0,0,0,0,0,0,0,0,0,0,0,0,0,0,0,0,0,0,0,0,0,0,0,0,0,0,0,0,0,0,0,0,0,0,0,0,0,0,0,0,0,0,0],"sum_hessian":[8.9776E4,4.7459E4,4.2317E4,1.2863E4,3.4596E4,2.9027E4,1.329E4,6.604E3,6.259E3,2.7025E4,7.571E3,1.9927E4,9.1E3,1.0481E4,2.809E3,2.773E3,3.831E3,2.987E3,3.272E3,1.6379E4,1.0646E4,3.643E3,3.928E3,1.6427E4,3.5E3,4.248E3,4.852E3,3.802E3,6.679E3,1.4E3,1.409E3,1.963E3,8.1E2,1.941E3,1.89E3,1.592E3,1.395E3,1.586E3,1.686E3,1.4381E4,1.998E3,6.462E3,4.184E3,3.147E3,4.96E2,2.178E3,1.75E3,1.3218E4,3.209E3,2.385E3,1.115E3,3.887E3,3.61E2,3.557E3,1.295E3,1.354E3,2.448E3,5.582E3,1.097E3,1.279E3,1.21E2,1.173E3,2.36E2,1.499E3,4.64E2,3.18E2,4.92E2,7.72E2,1.169E3,1.705E3,1.85E2,7.65E2,8.27E2,8.4E2,5.55E2,2.42E2,1.344E3,1.319E3,3.67E2,1.986E3,1.2395E4,1.766E3,2.32E2,5.737E3,7.25E2,2.519E3,1.665E3,9.17E2,2.23E3,3.46E2,1.5E2,2.6E1,2.152E3,7.09E2,1.041E3,4.162E3,9.056E3,5.86E2,2.623E3,1.464E3,9.21E2,5.12E2,6.03E2,3.25E3,6.37E2,1.68E2,1.93E2,2.274E3,1.283E3,8.61E2,4.34E2,1.271E3,8.3E1,9.63E2,1.485E3,2.8E2,5.302E3,9.22E2,1.75E2,1.82E2,1.097E3,2.15E2,9.58E2],"tree_param":{"num_deleted":"0","num_feature":"7","num_nodes":"123","size_leaf_vector":"1"}},{"base_weights":[7.646878E-6,-2.3345077E-1,2.6183328E-1,-7.459345E-1,-3.5269417E-2,1.615897E-1,4.7228667E-1,-1.1143302E0,-3.5729325E-1,-1.6057035E-1,2.7642888E-1,1.1240585E-1,2.7372772E-1,4.309391E-1,6.3168204E-1,-1.6953729E0,-6.9782317E-1,-6.170324E-1,-1.1647716E-1,-6.783259E-2,-4.8895222E-1,1.345729E-1,4.6467486E-1,8.628371E-2,2.349486E-1,3.5163453E-1,2.1835741E-1,5.1295054E-1,3.897033E-1,5.88611E-1,6.740301E-1,-2.0512023E0,-1.2624478E0,-9.6950924E-1,-3.891456E-1,-8.1843615E-1,-3.1846127E-1,-2.0267907E-1,-3.6322746E-2,-3.498998E-3,-1.8510923E-1,-5.6240416E-1,-2.6168945E-1,4.995915E-2,5.974942E-1,3.067556E-1,5.531972E-1,6.2182173E-2,1.6857237E-1,1.2203541E-1,4.7614565E-1,3.344874E-1,5.315968E-1,1.8199213E-1,3.318557E-1,4.4887576E-1,5.471888E-1,3.794854E-1,5.940874E-1,5.787124E-1,3.4382034E-2,6.594754E-1,3.8815726E-2,-1.1493804E-1,-5.977387E-2,-6.820037E-2,-1.04970755E-2,-5.885264E-2,-1.1850897E-2,-2.241786E-2,1.1002092E-2,-5.2538455E-2,-2.695255E-2,-3.5269086E-3,-1.961379E-2,-1.9592421E-2,-6.1971764E-3,-3.834134E-3,8.371581E-3,-7.52137E-3,2.4721865E-3,-2.5833875E-2,-8.2172E-3,-3.0970251E-2,-1.710185E-2,-1.6556827E-2,-6.212124E-3,-6.3387104E-3,1.0829581E-2,3.2092135E-2,1.6490823E-2,1.12106195E-2,2.6453773E-2,2.9266E-2,2.3166204E-2,7.3744073E-3,1.0309963E-3,3.4923751E-3,9.425903E-3,2.521255E-3,1.2106651E-2,1.8605074E-2,2.7999654E-2,1.6006388E-2,2.0571686E-2,1.7642409E-2,2.976724E-2,7.182604E-3,1.4376948E-2,1.4286667E-2,2.1502389E-2,2.1784252E-2,3.14808E-2,2.5825163E-2,2.8450891E-2,1.8042106E-2,2.2991268E-2,2.39301E-2,3.317593E-2,2.6181564E-2,2.9368276E-2,3.62571E-2,3.206661E-2],"categories":[],"categories_nodes":[],"categories_segments":[],"categories_sizes":[],"default_left":[0,0,0,0,0,0,0,0,0,0,0,0,0,0,0,0,0,0,0,0,0,0,0,0,0,0,0,0,0,0,0,0,0,0,0,0,0,0,0,0,0,0,0,0,0,0,0,0,0,0,0,0,0,0,0,0,0,0,0,0,0,0,0,0,0,0,0,0,0,0,0,0,0,0,0,0,0,0,0,0,0,0,0,0,0,0,0,0,0,0,0,0,0,0,0,0,0,0,0,0,0,0,0,0,0,0,0,0,0,0,0,0,0,0,0,0,0,0,0,0,0,0,0],"id":3,"left_children":[1,3,5,7,9,11,13,15,17,19,21,23,25,27,29,31,33,35,37,39,41,43,45,47,49,51,53,55,57,59,61,63,65,67,69,71,73,75,77,79,81,83,85,87,89,91,93,95,97,99,101,103,105,107,109,111,113,115,117,119,-1,121,-1,-1,-1,-1,-1,-1,-1,-1,-1,-1,-1,-1,-1,-1,-1,-1,-1,-1,-1,-1,-1,-1,-1,-1,-1,-1,-1,-1,-1,-1,-1,-1,-1,-1,-1,-1,-1,-1,-1,-1,-1,-1,-1,-1,-1,-1,-1,-1,-1,-1,-1,-1,-1,-1,-1,-1,-1,-1,-1,-1,-1],"loss_changes":[5.487716E3,4.8202344E3,8.9268994E2,1.8945073E3,1.336778E3,1.5807306E2,8.970923E1,1.6430215E3,4.0287128E2,7.434257E2,2.620088E2,6.377083E1,3.762085E1,3.6472412E1,4.7286377E0,4.3428906E2,3.3163782E2,1.8609253E2,2.3097874E1,1.4363779E2,8.959375E1,2.1924106E2,5.878125E1,3.2570892E1,9.528929E1,1.1020691E1,2.1034744E1,7.7070312E0,1.4852661E1,9.7540283E-1,1.5871582E0,3.266665E2,1.3674951E2,3.197312E2,6.7010254E1,1.1951782E2,2.284774E1,2.3946236E1,1.4272409E1,9.5647675E1,4.6348175E1,5.08114E1,1.2510918E1,1.3944145E2,1.0056793E1,2.7719833E1,7.5265503E0,4.5053276E1,7.31398E0,2.050793E1,9.527405E0,3.532196E0,3.36792E0,1.5631439E1,5.4883575E0,2.7487335E0,1.2855225E0,1.0137451E1,2.4246979E0,3.0252075E-1,0E0,1.0134888E0,0E0,0E0,0E0,0E0,0E0,0E0,0E0,0E0,0E0,0E0,0E0,0E0,0E0,0E0,0E0,0E0,0E0,0E0,0E0,0E0,0E0,0E0,0E0,0E0,0E0,0E0,0E0,0E0,0E0,0E0,0E0,0E0,0E0,0E0,0E0,0E0,0E0,0E0,0E0,0E0,0E0,0E0,0E0,0E0,0E0,0E0,0E0,0E0,0E0,0E0,0E0,0E0,0E0,0E0,0E0,0E0,0E0,0E0,0E0,0E0,0E0],"parents":[2147483647,0,0,1,1,2,2,3,3,4,4,5,5,6,6,7,7,8,8,9,9,10,10,11,11,12,12,13,13,14,14,15,15,16,16,17,17,18,18,19,19,20,20,21,21,22,22,23,23,24,24,25,25,26,26,27,27,28,28,29,29,30,30,31,31,32,32,33,33,34,34,35,35,36,36,37,37,38,38,39,39,40,40,41,41,42,42,43,43,44,44,45,45,46,46,47,47,48,48,49,49,50,50,51,51,52,52,53,53,54,54,55,55,56,56,57,57,58,58,59,59,61,61],"right_children":[2,4,6,8,10,12,14,16,18,20,22,24,26,28,30,32,34,36,38,40,42,44,46,48,50,52,54,56,58,60,62,64,66,68,70,72,74,76,78,80,82,84,86,88,90,92,94,96,98,100,102,104,106,108,110,112,114,116,118,120,-1,122,-1,-1,-1,-1,-1,-1,-1,-1,-1,-1,-1,-1,-1,-1,-1,-1,-1,-1,-1,-1,-1,-1,-1,-1,-1,-1,-1,-1,-1,-1,-1,-1,-1,-1,-1,-1,-1,-1,-1,-1,-1,-1,-1,-1,-1,-1,-1,-1,-1,-1,-1,-1,-1,-1,-1,-1,-1,-1,-1,-1,-1],"split_conditions":[7.7912E2,6.9886766E4,1.23313E3,3.6919E2,7.1086836E-1,1.08436E3,1.53427E3,7.619873E-1,1.08E0,-3.4E-1,7.751754E4,1.4204533E0,5.73E0,5.12E0,1.63612E3,6.1388703E4,6.405763E4,6.1632E2,7.930687E-1,-1.17E0,5.3103E2,1.11E0,1.0957536E0,8.92E0,7.1502086E4,7.847702E4,3.4E0,1.35633E3,8.10861E4,8.0567445E4,8.183366E4,1.48E0,1.26E0,9.9E0,1.26E0,6.497836E4,-1.57E0,1.48E0,6.518798E4,7.34212E4,7.359916E4,8.26E0,7.79E0,1.7861303E0,2.315744E1,7.964972E4,4.189989E1,6.31E0,7.277411E4,1.13E0,7.667271E4,2.003452E0,6.4274025E-1,9.71E0,7.512406E4,7.892156E4,7.466903E4,2.0769067E0,2.5290213E1,6.3579375E-1,3.4382034E-2,1.33E0,3.8815726E-2,-1.1493804E-1,-5.977387E-2,-6.820037E-2,-1.04970755E-2,-5.885264E-2,-1.1850897E-2,-2.241786E-2,1.1002092E-2,-5.2538455E-2,-2.695255E-2,-3.5269086E-3,-1.961379E-2,-1.9592421E-2,-6.1971764E-3,-3.834134E-3,8.371581E-3,-7.52137E-3,2.4721865E-3,-2.5833875E-2,-8.2172E-3,-3.0970251E-2,-1.710185E-2,-1.6556827E-2,-6.212124E-3,-6.3387104E-3,1.0829581E-2,3.2092135E-2,1.6490823E-2,1.12106195E-2,2.6453773E-2,2.9266E-2,2.3166204E-2,7.3744073E-3,1.0309963E-3,3.4923751E-3,9.425903E-3,2.521255E-3,1.2106651E-2,1.8605074E-2,2.7999654E-2,1.6006388E-2,2.0571686E-2,1.7642409E-2,2.976724E-2,7.182604E-3,1.4376948E-2,1.4286667E-2,2.1502389E-2,2.1784252E-2,3.14808E-2,2.5825163E-2,2.8450891E-2,1.8042106E-2,2.2991268E-2,2.39301E-2,3.317593E-2,2.6181564E-2,2.9368276E-2,3.62571E-2,3.206661E-2],"split_indices":[1,6,1,1,0,1,1,0,2,2,6,0,5,5,1,6,6,1,0,2,1,2,0,5,6,6,4,1,6,6,6,2,2,5,2,6,2,2,6,6,6,5,5,0,3,6,3,5,6,2,6,0,0,5,6,6,6,0,3,0,0,5,0,0,0,0,0,0,0,0,0,0,0,0,0,0,0,0,0,0,0,0,0,0,0,0,0,0,0,0,0,0,0,0,0,0,0,0,0,0,0,0,0,0,0,0,0,0,0,0,0,0,0,0,0,0,0,0,0,0,0,0,0],"split_type":[0,0,0,0,0,0,0,0,0,0,0,0,0,0,0,0,0,0,0,0,0,0,0,0,0,0,0,0,0,0,0,0,0,0,0,0,0,0,0,0,0,0,0,0,0,0,0,0,0,0,0,0,0,0,0,0,0,0,0,0,0,0,0,0,0,0,0,0,0,0,0,0,0,0,0,0,0,0,0,0,0,0,0,0,0,0,0,0,0,0,0,0,0,0,0,0,0,0,0,0,0,0,0,0,0,0,0,0,0,0,0,0,0,0,0,0,0,0,0,0,0,0,0],"sum_hessian":[8.9776E4,4.7459E4,4.2317E4,1.3234E4,3.4225E4,2.8665E4,1.3652E4,6.793E3,6.441E3,2.4412E4,9.813E3,1.9927E4,8.738E3,1.0843E4,2.809E3,2.835E3,3.958E3,3.098E3,3.343E3,1.9037E4,5.375E3,5.597E3,4.216E3,1.6427E4,3.5E3,3.628E3,5.11E3,3.624E3,7.219E3,1.4E3,1.409E3,1.554E3,1.281E3,2.104E3,1.854E3,1.849E3,1.249E3,1.61E3,1.733E3,1.2294E4,6.743E3,4.061E3,1.314E3,4.733E3,8.64E2,1.516E3,2.7E3,1.2707E4,3.72E3,2.385E3,1.115E3,3.315E3,3.13E2,3.872E3,1.238E3,1.267E3,2.357E3,6.878E3,3.41E2,1.279E3,1.21E2,1.24E3,1.69E2,1.204E3,3.5E2,1.168E3,1.13E2,1.639E3,4.65E2,1.69E3,1.64E2,1.008E3,8.41E2,2.87E2,9.62E2,4.72E2,1.138E3,1.447E3,2.86E2,3.256E3,9.038E3,3.96E2,6.347E3,3.225E3,8.36E2,8.72E2,4.42E2,2.297E3,2.436E3,7.4E2,1.24E2,1.107E3,4.09E2,1.985E3,7.15E2,4.162E3,8.545E3,6.26E2,3.094E3,1.495E3,8.9E2,5E2,6.15E2,2.798E3,5.17E2,8.4E1,2.29E2,2.842E3,1.03E3,8.45E2,3.93E2,1.184E3,8.3E1,9.9E2,1.367E3,5.587E3,1.291E3,1.31E2,2.1E2,1.82E2,1.097E3,2.6E2,9.8E2],"tree_param":{"num_deleted":"0","num_feature":"7","num_nodes":"123","size_leaf_vector":"1"}},{"base_weights":[9.49843E-6,-2.2687331E-1,2.4326204E-1,-7.4544954E-1,-4.1814517E-2,1.5223564E-1,4.5667115E-1,-1.0864066E0,-3.577324E-1,-1.4025365E-1,3.0703267E-1,1.0086865E-1,2.6028708E-1,4.1687986E-1,6.0016793E-1,-1.644878E0,-6.90421E-1,-6.505287E-1,-1.10425524E-1,-5.077512E-2,-4.210797E-1,5.6518402E-2,4.2232627E-1,6.2336233E-2,1.7701645E-1,3.277232E-1,2.0400997E-1,4.865103E-1,3.7602463E-1,5.639662E-1,6.4681864E-1,-2.229952E0,-1.4110875E0,-9.583065E-1,-4.2329726E-1,-8.457202E-1,-4.1881698E-1,-1.892533E-1,-3.3336036E-2,-8.4438436E-2,1.8893775E-1,-4.929641E-1,-1.7120999E-1,9.032126E-3,4.8305884E-1,5.370532E-1,2.9793772E-1,-2.957842E-2,9.58895E-2,1.2044374E-1,3.5652882E-1,3.1238633E-1,4.9116713E-1,1.5878455E-1,3.1643763E-1,4.2855626E-1,5.21397E-1,3.6635256E-1,5.7488E-1,5.238454E-1,5.828093E-1,6.00919E-1,3.526653E-2,-1.297662E-1,-5.715062E-2,-7.800708E-2,-2.4472767E-2,-7.687331E-2,-2.992694E-2,-2.521941E-2,4.9644033E-3,-5.5671293E-2,-2.926856E-2,-1.28654335E-2,-2.6899625E-2,-2.327783E-2,-6.9183195E-3,-4.210804E-3,6.2492755E-3,-1.5609048E-3,-1.0009462E-2,-2.8672006E-3,1.3522449E-2,-2.960428E-2,-1.7279271E-2,-1.0273713E-2,3.327785E-2,8.78608E-3,-6.7642475E-3,1.554119E-2,2.9378304E-2,2.3725506E-2,2.9997198E-2,4.6194415E-3,2.0796627E-2,-8.488736E-3,2.450134E-6,9.157227E-3,3.428235E-3,3.5584674E-3,1.0887693E-2,1.0149828E-2,2.528078E-2,1.4844528E-2,1.9168666E-2,1.8978827E-2,2.9279036E-2,6.079349E-3,1.3141564E-2,1.3596344E-2,2.0618035E-2,2.0769987E-2,2.9269028E-2,2.4551267E-2,2.6979778E-2,2.6944099E-2,1.7878031E-2,2.2099238E-2,3.1417053E-2,2.7497793E-2,2.494794E-2,2.8252024E-2,3.0072981E-2,3.1283878E-2,2.5168775E-2],"categories":[],"categories_nodes":[],"categories_segments":[],"categories_sizes":[],"default_left":[0,0,0,0,0,0,0,0,0,0,0,0,0,0,0,0,0,0,0,0,0,0,0,0,0,0,0,0,0,0,0,0,0,0,0,0,0,0,0,0,0,0,0,0,0,0,0,0,0,0,0,0,0,0,0,0,0,0,0,0,0,0,0,0,0,0,0,0,0,0,0,0,0,0,0,0,0,0,0,0,0,0,0,0,0,0,0,0,0,0,0,0,0,0,0,0,0,0,0,0,0,0,0,0,0,0,0,0,0,0,0,0,0,0,0,0,0,0,0,0,0,0,0,0,0],"id":4,"left_children":[1,3,5,7,9,11,13,15,17,19,21,23,25,27,29,31,33,35,37,39,41,43,45,47,49,51,53,55,57,59,61,63,65,67,69,71,73,75,77,79,81,83,85,87,89,91,93,95,97,99,101,103,105,107,109,111,113,115,117,119,121,123,-1,-1,-1,-1,-1,-1,-1,-1,-1,-1,-1,-1,-1,-1,-1,-1,-1,-1,-1,-1,-1,-1,-1,-1,-1,-1,-1,-1,-1,-1,-1,-1,-1,-1,-1,-1,-1,-1,-1,-1,-1,-1,-1,-1,-1,-1,-1,-1,-1,-1,-1,-1,-1,-1,-1,-1,-1,-1,-1,-1,-1,-1,-1],"loss_changes":[4.9548315E3,4.457832E3,8.4157544E2,1.6146367E3,1.1757147E3,1.685523E2,7.3716064E1,1.4363169E3,4.1397162E2,6.709438E2,2.1760718E2,6.03974E1,3.7072083E1,2.8677246E1,4.3809204E0,3.65625E2,2.7187476E2,1.1805322E2,1.8837826E1,1.63432E2,1.1580469E2,4.8121082E1,7.347693E1,4.216779E1,7.020268E1,1.1001495E1,2.7086182E1,7.35437E0,1.2094971E1,8.9675903E-1,2.8553772E0,3.020349E2,2.6422852E2,3.94761E2,8.0862885E1,9.831775E1,2.2939713E1,2.1489899E1,1.264946E1,1.0938828E2,5.008188E1,7.29834E1,4.1509285E1,5.1479847E1,4.101326E0,1.0268616E1,6.0062225E1,1.5189923E1,2.3867859E1,2.521045E1,3.7825455E1,4.364258E0,3.7812881E0,1.4706093E1,6.4203644E0,2.674286E0,1.0256348E0,9.066284E0,1.8181763E0,6.2179565E-2,1.574707E-2,1.3538208E0,0E0,0E0,0E0,0E0,0E0,0E0,0E0,0E0,0E0,0E0,0E0,0E0,0E0,0E0,0E0,0E0,0E0,0E0,0E0,0E0,0E0,0E0,0E0,0E0,0E0,0E0,0E0,0E0,0E0,0E0,0E0,0E0,0E0,0E0,0E0,0E0,0E0,0E0,0E0,0E0,0E0,0E0,0E0,0E0,0E0,0E0,0E0,0E0,0E0,0E0,0E0,0E0,0E0,0E0,0E0,0E0,0E0,0E0,0E0,0E0,0E0,0E0,0E0],"parents":[2147483647,0,0,1,1,2,2,3,3,4,4,5,5,6,6,7,7,8,8,9,9,10,10,11,11,12,12,13,13,14,14,15,15,16,16,17,17,18,18,19,19,20,20,21,21,22,22,23,23,24,24,25,25,26,26,27,27,28,28,29,29,30,30,31,31,32,32,33,33,34,34,35,35,36,36,37,37,38,38,39,39,40,40,41,41,42,42,43,43,44,44,45,45,46,46,47,47,48,48,49,49,50,50,51,51,52,52,53,53,54,54,55,55,56,56,57,57,58,58,59,59,60,60,61,61],"right_children":[2,4,6,8,10,12,14,16,18,20,22,24,26,28,30,32,34,36,38,40,42,44,46,48,50,52,54,56,58,60,62,64,66,68,70,72,74,76,78,80,82,84,86,88,90,92,94,96,98,100,102,104,106,108,110,112,114,116,118,120,122,124,-1,-1,-1,-1,-1,-1,-1,-1,-1,-1,-1,-1,-1,-1,-1,-1,-1,-1,-1,-1,-1,-1,-1,-1,-1,-1,-1,-1,-1,-1,-1,-1,-1,-1,-1,-1,-1,-1,-1,-1,-1,-1,-1,-1,-1,-1,-1,-1,-1,-1,-1,-1,-1,-1,-1,-1,-1,-1,-1,-1,-1,-1,-1],"split_conditions":[7.5708E2,6.935884E4,1.24146E3,3.6919E2,9.989264E-1,1.07474E3,1.53427E3,7.4709284E-1,1.13E0,-3.4E-1,7.402348E4,6.81069E-1,6.4E0,5.43E0,7.681606E4,5.6171637E4,6.276442E4,5.5346E2,7.930687E-1,6.24052E-1,6.852346E-1,1.08E0,2.5326E2,9.4627E2,7.708305E4,7.847702E4,2.9213964E1,1.37177E3,8.12546E4,1.59004E3,1.5911175E0,1.66E0,1.26E0,1.44E0,1.22E0,1.1686591E0,-1.12E0,1.6037903E1,9.71E0,-1.12E0,7.66393E4,4.3529E2,1.19E0,-5.8E-1,1.19E0,9.2E-1,1.5312557E0,7.133951E4,6.31E0,9.882E2,2.8691338E1,2.003452E0,8.8776004E-1,9.71E0,7.34212E4,7.844097E4,7.418195E4,1E0,1.44E0,5.28E0,6.885553E4,-2.4E-1,3.526653E-2,-1.297662E-1,-5.715062E-2,-7.800708E-2,-2.4472767E-2,-7.687331E-2,-2.992694E-2,-2.521941E-2,4.9644033E-3,-5.5671293E-2,-2.926856E-2,-1.28654335E-2,-2.6899625E-2,-2.327783E-2,-6.9183195E-3,-4.210804E-3,6.2492755E-3,-1.5609048E-3,-1.0009462E-2,-2.8672006E-3,1.3522449E-2,-2.960428E-2,-1.7279271E-2,-1.0273713E-2,3.327785E-2,8.78608E-3,-6.7642475E-3,1.554119E-2,2.9378304E-2,2.3725506E-2,2.9997198E-2,4.6194415E-3,2.0796627E-2,-8.488736E-3,2.450134E-6,9.157227E-3,3.428235E-3,3.5584674E-3,1.0887693E-2,1.0149828E-2,2.528078E-2,1.4844528E-2,1.9168666E-2,1.8978827E-2,2.9279036E-2,6.079349E-3,1.3141564E-2,1.3596344E-2,2.0618035E-2,2.0769987E-2,2.9269028E-2,2.4551267E-2,2.6979778E-2,2.6944099E-2,1.7878031E-2,2.2099238E-2,3.1417053E-2,2.7497793E-2,2.494794E-2,2.8252024E-2,3.0072981E-2,3.1283878E-2,2.5168775E-2],"split_indices":[1,6,1,1,0,1,1,0,2,2,6,0,5,5,6,6,6,1,0,0,0,2,1,1,6,6,3,1,6,1,0,2,2,2,2,0,2,3,5,2,6,1,2,2,2,2,0,6,5,1,3,0,0,5,6,6,6,4,4,5,6,2,0,0,0,0,0,0,0,0,0,0,0,0,0,0,0,0,0,0,0,0,0,0,0,0,0,0,0,0,0,0,0,0,0,0,0,0,0,0,0,0,0,0,0,0,0,0,0,0,0,0,0,0,0,0,0,0,0,0,0,0,0,0,0],"split_type":[0,0,0,0,0,0,0,0,0,0,0,0,0,0,0,0,0,0,0,0,0,0,0,0,0,0,0,0,0,0,0,0,0,0,0,0,0,0,0,0,0,0,0,0,0,0,0,0,0,0,0,0,0,0,0,0,0,0,0,0,0,0,0,0,0,0,0,0,0,0,0,0,0,0,0,0,0,0,0,0,0,0,0,0,0,0,0,0,0,0,0,0,0,0,0,0,0,0,0,0,0,0,0,0,0,0,0,0,0,0,0,0,0,0,0,0,0,0,0,0,0,0,0,0,0],"sum_hessian":[8.9776E4,4.6451E4,4.3325E4,1.2216E4,3.4235E4,3.0372E4,1.2953E4,6.499E3,5.717E3,2.6701E4,7.534E3,2.0587E4,9.785E3,1.0144E4,2.809E3,2.695E3,3.804E3,2.617E3,3.1E3,2.025E4,6.451E3,2.375E3,5.159E3,1.3671E4,6.916E3,4.449E3,5.336E3,3.747E3,6.397E3,1.589E3,1.22E3,7.67E2,1.928E3,1.898E3,1.906E3,1.419E3,1.198E3,1.532E3,1.568E3,1.7757E4,2.493E3,5.009E3,1.442E3,2.138E3,2.37E2,2.682E3,2.477E3,3.656E3,1.0015E4,5.26E3,1.656E3,4.07E3,3.79E2,3.807E3,1.529E3,1.413E3,2.334E3,6.103E3,2.94E2,5.17E2,1.072E3,6.9E2,5.3E2,5.73E2,1.94E2,1.659E3,2.69E2,7.26E2,1.172E3,1.65E3,2.56E2,6.98E2,7.21E2,5.1E2,6.88E2,2.37E2,1.295E3,1.187E3,3.81E2,1.2165E4,5.592E3,6.2E2,1.873E3,2.993E3,2.016E3,1.386E3,5.6E1,9.92E2,1.146E3,9.1E1,1.46E2,1.349E3,1.333E3,9.04E2,1.573E3,6.37E2,3.019E3,2.387E3,7.628E3,3.493E3,1.767E3,8.17E2,8.39E2,3.345E3,7.25E2,1.76E2,2.03E2,2.806E3,1.001E3,1.047E3,4.82E2,1.307E3,1.06E2,8.85E2,1.449E3,2.93E2,5.81E3,8.7E1,2.07E2,2.42E2,2.75E2,5.65E2,5.07E2,5.46E2,1.44E2],"tree_param":{"num_deleted":"0","num_feature":"7","num_nodes":"125","size_leaf_vector":"1"}},{"base_weights":[1.0389631E-5,-2.1075758E-1,2.3638847E-1,-6.740751E-1,-3.158917E-2,1.4926456E-1,4.3386862E-1,-1.0065286E0,-3.2335117E-1,-1.4845772E-1,2.4171898E-1,1.0151048E-1,2.5007978E-1,3.9605552E-1,5.7023156E-1,-1.5315788E0,-6.301587E-1,-5.586953E-1,-1.0515297E-1,-6.518525E-2,-4.4588554E-1,1.17949784E-1,4.2257497E-1,7.691845E-2,2.118656E-1,1.9160005E-1,3.0712348E-1,4.6221176E-1,3.5723877E-1,5.308389E-1,6.089683E-1,-1.7680013E0,-9.4616455E-1,-8.686499E-1,-3.4156948E-1,-7.7682436E-1,-3.280454E-1,-1.8276863E-1,-3.2982286E-2,-1.7385464E-3,-1.6088182E-1,-5.147381E-1,-2.359582E-1,3.9709646E-2,5.3948534E-1,2.4677435E-1,4.9182385E-1,5.598322E-2,1.6339707E-1,9.520055E-2,4.1363332E-1,2.88519E-1,1.4855567E-1,2.952598E-1,5.446659E-1,3.9987966E-1,4.916989E-1,3.3786732E-1,4.5115852E-1,5.2171946E-1,3.1108338E-2,5.9264207E-1,3.4363624E-2,-1.00277424E-1,-6.379159E-2,-3.3857834E-2,-5.9605636E-2,-5.2932452E-2,-1.0112231E-2,-1.9686522E-2,1.1207658E-2,-5.419253E-2,-2.8409917E-2,-2.7483946E-2,-5.2841436E-3,-1.7961642E-2,-5.466336E-3,-3.906243E-3,6.6823186E-3,-6.8403757E-3,2.789347E-3,-2.2431547E-2,-7.0636137E-3,-2.8348247E-2,-1.5409665E-2,-1.4986879E-2,-5.509529E-3,-5.6131543E-3,1.005614E-2,2.9522702E-2,1.6516449E-2,9.927838E-3,2.3480466E-2,2.6698997E-2,2.1831628E-2,6.6137398E-3,1.0142174E-3,2.9652282E-3,9.326632E-3,7.2815607E-4,1.0971689E-2,1.6229125E-2,2.5558745E-2,1.0837667E-2,1.6325552E-2,4.5999633E-3,1.2293382E-2,1.4064227E-2,1.8224547E-2,2.2784935E-2,3.0117357E-2,1.9417375E-2,2.7784063E-2,2.3082254E-2,2.5702247E-2,2.594833E-2,1.6385851E-2,2.1104308E-2,3.0097375E-2,2.3498667E-2,2.6493434E-2,3.3109307E-2,2.8818017E-2],"categories":[],"categories_nodes":[],"categories_segments":[],"categories_sizes":[],"default_left":[0,0,0,0,0,0,0,0,0,0,0,0,0,0,0,0,0,0,0,0,0,0,0,0,0,0,0,0,0,0,0,0,0,0,0,0,0,0,0,0,0,0,0,0,0,0,0,0,0,0,0,0,0,0,0,0,0,0,0,0,0,0,0,0,0,0,0,0,0,0,0,0,0,0,0,0,0,0,0,0,0,0,0,0,0,0,0,0,0,0,0,0,0,0,0,0,0,0,0,0,0,0,0,0,0,0,0,0,0,0,0,0,0,0,0,0,0,0,0,0,0,0,0],"id":5,"left_children":[1,3,5,7,9,11,13,15,17,19,21,23,25,27,29,31,33,35,37,39,41,43,45,47,49,51,53,55,57,59,61,63,65,67,69,71,73,75,77,79,81,83,85,87,89,91,93,95,97,99,101,103,105,107,109,111,113,115,117,119,-1,121,-1,-1,-1,-1,-1,-1,-1,-1,-1,-1,-1,-1,-1,-1,-1,-1,-1,-1,-1,-1,-1,-1,-1,-1,-1,-1,-1,-1,-1,-1,-1,-1,-1,-1,-1,-1,-1,-1,-1,-1,-1,-1,-1,-1,-1,-1,-1,-1,-1,-1,-1,-1,-1,-1,-1,-1,-1,-1,-1,-1,-1],"loss_changes":[4.472823E3,3.9397222E3,7.2802686E2,1.5428677E3,1.0932529E3,1.4134766E2,6.656885E1,1.3416182E3,3.3074866E2,5.9377295E2,2.2943506E2,5.406543E1,3.1425415E1,2.5886963E1,3.9645996E0,3.9084375E2,2.721853E2,1.556604E2,1.872564E1,1.13733505E2,7.567554E1,2.0076688E2,5.0583313E1,2.9497574E1,8.5431595E1,1.9410324E1,1.3298584E1,6.6921387E0,1.1487915E1,8.4225464E-1,1.3952637E0,2.3349023E2,5.331317E1,2.7416394E2,5.2997192E1,1.01357544E2,7.4260666E1,2.083907E1,1.3053669E1,8.7535645E1,4.207576E1,4.2413086E1,1.0370697E1,1.2601069E2,9.964386E0,1.2574593E1,6.7165527E0,3.5738113E1,7.637497E0,2.3057892E1,1.1386673E1,3.8363342E0,1.775956E1,4.300659E0,8.852768E-1,1.9564362E0,1.4685669E0,9.587097E0,4.5286407E0,2.9074097E-1,0E0,9.4766235E-1,0E0,0E0,0E0,0E0,0E0,0E0,0E0,0E0,0E0,0E0,0E0,0E0,0E0,0E0,0E0,0E0,0E0,0E0,0E0,0E0,0E0,0E0,0E0,0E0,0E0,0E0,0E0,0E0,0E0,0E0,0E0,0E0,0E0,0E0,0E0,0E0,0E0,0E0,0E0,0E0,0E0,0E0,0E0,0E0,0E0,0E0,0E0,0E0,0E0,0E0,0E0,0E0,0E0,0E0,0E0,0E0,0E0,0E0,0E0,0E0,0E0],"parents":[2147483647,0,0,1,1,2,2,3,3,4,4,5,5,6,6,7,7,8,8,9,9,10,10,11,11,12,12,13,13,14,14,15,15,16,16,17,17,18,18,19,19,20,20,21,21,22,22,23,23,24,24,25,25,26,26,27,27,28,28,29,29,30,30,31,31,32,32,33,33,34,34,35,35,36,36,37,37,38,38,39,39,40,40,41,41,42,42,43,43,44,44,45,45,46,46,47,47,48,48,49,49,50,50,51,51,52,52,53,53,54,54,55,55,56,56,57,57,58,58,59,59,61,61],"right_children":[2,4,6,8,10,12,14,16,18,20,22,24,26,28,30,32,34,36,38,40,42,44,46,48,50,52,54,56,58,60,62,64,66,68,70,72,74,76,78,80,82,84,86,88,90,92,94,96,98,100,102,104,106,108,110,112,114,116,118,120,-1,122,-1,-1,-1,-1,-1,-1,-1,-1,-1,-1,-1,-1,-1,-1,-1,-1,-1,-1,-1,-1,-1,-1,-1,-1,-1,-1,-1,-1,-1,-1,-1,-1,-1,-1,-1,-1,-1,-1,-1,-1,-1,-1,-1,-1,-1,-1,-1,-1,-1,-1,-1,-1,-1,-1,-1,-1,-1,-1,-1,-1,-1],"split_conditions":[7.7912E2,6.9886766E4,1.24146E3,3.6919E2,6.973874E-1,1.08436E3,1.53427E3,7.619873E-1,1.08E0,-3.4E-1,7.7776625E4,1.329852E0,3E0,5.43E0,1.63612E3,6.497836E4,6.435058E4,6.570324E4,7.930687E-1,-1.22E0,5.3103E2,1.1E0,1.37927475E1,9.1E0,7.025888E4,6.44E0,7.918197E4,1.34054E3,2.5255334E0,8.0567445E4,7.988859E4,3.83E0,-7.4E-1,9.9E0,1.26E0,5E2,1.5312557E0,1.48E0,6.375134E4,7.35151E4,7.38347E4,8.26E0,7.77E0,1.7861303E0,8.81E0,7.9724305E4,2.7051E2,6.35E0,7.309166E4,1.13E0,7.667271E4,6.5460156E4,9.5E0,1.951121E0,1.3744081E0,7.844097E4,7.466903E4,1E0,7.928413E4,6.3579375E-1,3.1108338E-2,1.02E0,3.4363624E-2,-1.00277424E-1,-6.379159E-2,-3.3857834E-2,-5.9605636E-2,-5.2932452E-2,-1.0112231E-2,-1.9686522E-2,1.1207658E-2,-5.419253E-2,-2.8409917E-2,-2.7483946E-2,-5.2841436E-3,-1.7961642E-2,-5.466336E-3,-3.906243E-3,6.6823186E-3,-6.8403757E-3,2.789347E-3,-2.2431547E-2,-7.0636137E-3,-2.8348247E-2,-1.5409665E-2,-1.4986879E-2,-5.509529E-3,-5.6131543E-3,1.005614E-2,2.9522702E-2,1.6516449E-2,9.927838E-3,2.3480466E-2,2.6698997E-2,2.1831628E-2,6.6137398E-3,1.0142174E-3,2.9652282E-3,9.326632E-3,7.2815607E-4,1.0971689E-2,1.6229125E-2,2.5558745E-2,1.0837667E-2,1.6325552E-2,4.5999633E-3,1.2293382E-2,1.4064227E-2,1.8224547E-2,2.2784935E-2,3.0117357E-2,1.9417375E-2,2.7784063E-2,2.3082254E-2,2.5702247E-2,2.594833E-2,1.6385851E-2,2.1104308E-2,3.0097375E-2,2.3498667E-2,2.6493434E-2,3.3109307E-2,2.8818017E-2],"split_indices":[1,6,1,1,0,1,1,0,2,2,6,0,4,5,1,6,6,6,0,2,1,2,3,5,6,5,6,1,0,6,6,4,2,5,2,1,0,2,6,6,6,5,5,0,5,6,1,5,6,2,6,6,5,0,0,6,6,4,6,0,0,4,0,0,0,0,0,0,0,0,0,0,0,0,0,0,0,0,0,0,0,0,0,0,0,0,0,0,0,0,0,0,0,0,0,0,0,0,0,0,0,0,0,0,0,0,0,0,0,0,0,0,0,0,0,0,0,0,0,0,0,0,0],"split_type":[0,0,0,0,0,0,0,0,0,0,0,0,0,0,0,0,0,0,0,0,0,0,0,0,0,0,0,0,0,0,0,0,0,0,0,0,0,0,0,0,0,0,0,0,0,0,0,0,0,0,0,0,0,0,0,0,0,0,0,0,0,0,0,0,0,0,0,0,0,0,0,0,0,0,0,0,0,0,0,0,0,0,0,0,0,0,0,0,0,0,0,0,0,0,0,0,0,0,0,0,0,0,0,0,0,0,0,0,0,0,0,0,0,0,0,0,0,0,0,0,0,0,0],"sum_hessian":[8.9776E4,4.7459E4,4.2317E4,1.3234E4,3.4225E4,2.9364E4,1.2953E4,6.793E3,6.441E3,2.3974E4,1.0251E4,1.9927E4,9.437E3,1.0144E4,2.809E3,2.835E3,3.958E3,3.098E3,3.343E3,1.8731E4,5.243E3,6.087E3,4.164E3,1.6297E4,3.63E3,4.662E3,4.775E3,3.747E3,6.397E3,1.4E3,1.409E3,2.018E3,8.17E2,2.166E3,1.792E3,1.591E3,1.507E3,1.61E3,1.733E3,1.1264E4,7.467E3,3.947E3,1.296E3,5.135E3,9.52E2,1.178E3,2.986E3,1.3122E4,3.175E3,2.301E3,1.329E3,1.432E3,3.23E3,4.55E3,2.25E2,1.208E3,2.539E3,5.307E3,1.09E3,1.279E3,1.21E2,1.173E3,2.36E2,1.359E3,6.59E2,3.92E2,4.25E2,1.685E3,4.81E2,1.641E3,1.51E2,6.42E2,9.49E2,7.54E2,7.53E2,4.72E2,1.138E3,1.364E3,3.69E2,3.364E3,7.9E3,4.75E2,6.992E3,3.149E3,7.98E2,8.59E2,4.37E2,2.645E3,2.49E3,7.64E2,1.88E2,9.7E2,2.08E2,1.688E3,1.298E3,4.182E3,8.94E3,5.78E2,2.597E3,1.396E3,9.05E2,6.97E2,6.32E2,4.98E2,9.34E2,2.044E3,1.186E3,3.79E3,7.6E2,9.2E1,1.33E2,1.128E3,8E1,1.092E3,1.447E3,2.79E2,5.028E3,9.17E2,1.73E2,1.82E2,1.097E3,2.15E2,9.58E2],"tree_param":{"num_deleted":"0","num_feature":"7","num_nodes":"123","size_leaf_vector":"1"}},{"base_weights":[1.1409996E-5,-2.0490366E-1,2.1971124E-1,-6.9917554E-1,-4.6161797E-2,1.327297E-1,4.0188405E-1,-1.0318052E0,-3.329425E-1,-1.3627289E-1,2.550006E-1,9.13001E-2,2.3031749E-1,3.667234E-1,5.4178303E-1,-1.5618984E0,-6.6272265E-1,-6.162959E-1,-8.7155595E-2,-1.4431494E-2,-3.2275325E-1,1.2353505E-2,3.7636676E-1,5.2226584E-2,1.5441069E-1,2.9753837E-1,1.7590326E-1,4.3614072E-1,3.2943448E-1,5.0869846E-1,5.844224E-1,-2.141597E0,-1.3820873E0,-7.6584256E-1,-1.1129745E-1,-8.075843E-1,-4.0686834E-1,-1.5539403E-1,-1.9093206E-2,-4.7798537E-2,2.3334727E-1,-4.1692463E-1,-1.6177653E-1,-4.6476353E-2,3.8899192E-1,4.8220322E-1,2.650413E-1,-3.999954E-2,8.5643694E-2,1.1821743E-1,3.514649E-1,2.828296E-1,4.491058E-1,1.4358576E-1,2.7011827E-1,3.9093846E-1,4.758828E-1,2.987697E-1,3.906158E-1,4.7170502E-1,5.2608323E-1,5.421889E-1,3.191405E-2,-9.2520975E-2,-1.9966014E-1,-7.9055116E-2,-2.2160526E-2,-5.607092E-2,-2.5145555E-2,-2.7482672E-2,1.5901523E-2,-5.039072E-2,-2.681987E-2,-1.1821325E-2,-2.4541672E-2,-2.0532588E-2,-5.6310776E-3,-3.5358232E-3,6.7345724E-3,-1.3170983E-2,-1.2678345E-3,1.0568803E-2,2.5116298E-2,-2.3193652E-2,-2.1575342E-3,-1.2828084E-2,-1.5664162E-3,8.438717E-3,-1.1248671E-2,1.295203E-2,2.9446155E-2,2.1093527E-2,2.721332E-2,3.7042703E-3,1.8275656E-2,-7.3433877E-3,-3.2043568E-4,2.9076599E-3,8.202041E-3,2.9717286E-3,8.672576E-3,8.956317E-3,2.4811992E-2,1.2491604E-2,1.579083E-2,1.407803E-2,2.5150228E-2,5.30272E-3,1.18692E-2,1.2618522E-2,2.5649069E-2,1.9053528E-2,2.8001348E-2,2.3291238E-2,2.6625324E-2,2.4477243E-2,1.4395854E-2,1.8195387E-2,2.7281305E-2,2.4827208E-2,2.2406334E-2,2.5473952E-2,2.7177382E-2,2.8276553E-2,2.2519669E-2],"categories":[],"categories_nodes":[],"categories_segments":[],"categories_sizes":[],"default_left":[0,0,0,0,0,0,0,0,0,0,0,0,0,0,0,0,0,0,0,0,0,0,0,0,0,0,0,0,0,0,0,0,0,0,0,0,0,0,0,0,0,0,0,0,0,0,0,0,0,0,0,0,0,0,0,0,0,0,0,0,0,0,0,0,0,0,0,0,0,0,0,0,0,0,0,0,0,0,0,0,0,0,0,0,0,0,0,0,0,0,0,0,0,0,0,0,0,0,0,0,0,0,0,0,0,0,0,0,0,0,0,0,0,0,0,0,0,0,0,0,0,0,0,0,0],"id":6,"left_children":[1,3,5,7,9,11,13,15,17,19,21,23,25,27,29,31,33,35,37,39,41,43,45,47,49,51,53,55,57,59,61,63,65,67,69,71,73,75,77,79,81,83,85,87,89,91,93,95,97,99,101,103,105,107,109,111,113,115,117,119,121,123,-1,-1,-1,-1,-1,-1,-1,-1,-1,-1,-1,-1,-1,-1,-1,-1,-1,-1,-1,-1,-1,-1,-1,-1,-1,-1,-1,-1,-1,-1,-1,-1,-1,-1,-1,-1,-1,-1,-1,-1,-1,-1,-1,-1,-1,-1,-1,-1,-1,-1,-1,-1,-1,-1,-1,-1,-1,-1,-1,-1,-1,-1,-1],"loss_changes":[4.0417883E3,3.6446675E3,6.864763E2,1.375248E3,9.542365E2,1.1854462E2,6.867139E1,1.1566147E3,3.7435535E2,6.149171E2,2.3847455E2,5.0760956E1,3.1912964E1,2.8826782E1,3.666748E0,2.5012549E2,1.9836633E2,9.970386E1,1.3373112E1,1.3535251E2,1.6206238E2,5.986572E1,6.3473022E1,3.919634E1,5.610182E1,8.585327E0,1.467366E1,6.8344116E0,1.3550781E1,7.7438354E-1,2.431305E0,3.015415E2,3.4609375E2,2.7430273E2,1.0387215E2,7.026642E1,1.6971497E1,1.5653847E1,1.1465306E1,6.9809494E1,1.13765335E1,1.1837695E2,4.8819572E1,8.982929E1,9.330627E0,1.0127563E1,5.0488846E1,1.2143322E1,2.0109024E1,2.1587532E1,3.0375443E1,3.8015747E0,2.964859E0,1.264817E1,5.185135E0,2.8467102E0,9.337158E-1,9.915009E0,9.857574E0,8.085632E-2,3.427124E-2,1.2259064E0,0E0,0E0,0E0,0E0,0E0,0E0,0E0,0E0,0E0,0E0,0E0,0E0,0E0,0E0,0E0,0E0,0E0,0E0,0E0,0E0,0E0,0E0,0E0,0E0,0E0,0E0,0E0,0E0,0E0,0E0,0E0,0E0,0E0,0E0,0E0,0E0,0E0,0E0,0E0,0E0,0E0,0E0,0E0,0E0,0E0,0E0,0E0,0E0,0E0,0E0,0E0,0E0,0E0,0E0,0E0,0E0,0E0,0E0,0E0,0E0,0E0,0E0,0E0],"parents":[2147483647,0,0,1,1,2,2,3,3,4,4,5,5,6,6,7,7,8,8,9,9,10,10,11,11,12,12,13,13,14,14,15,15,16,16,17,17,18,18,19,19,20,20,21,21,22,22,23,23,24,24,25,25,26,26,27,27,28,28,29,29,30,30,31,31,32,32,33,33,34,34,35,35,36,36,37,37,38,38,39,39,40,40,41,41,42,42,43,43,44,44,45,45,46,46,47,47,48,48,49,49,50,50,51,51,52,52,53,53,54,54,55,55,56,56,57,57,58,58,59,59,60,60,61,61],"right_children":[2,4,6,8,10,12,14,16,18,20,22,24,26,28,30,32,34,36,38,40,42,44,46,48,50,52,54,56,58,60,62,64,66,68,70,72,74,76,78,80,82,84,86,88,90,92,94,96,98,100,102,104,106,108,110,112,114,116,118,120,122,124,-1,-1,-1,-1,-1,-1,-1,-1,-1,-1,-1,-1,-1,-1,-1,-1,-1,-1,-1,-1,-1,-1,-1,-1,-1,-1,-1,-1,-1,-1,-1,-1,-1,-1,-1,-1,-1,-1,-1,-1,-1,-1,-1,-1,-1,-1,-1,-1,-1,-1,-1,-1,-1,-1,-1,-1,-1,-1,-1,-1,-1,-1,-1],"split_conditions":[7.5708E2,6.847554E4,1.22838E3,3.6919E2,9.8425967E-1,1.07474E3,1.53427E3,7.4106324E-1,1.24E0,-8.8E-1,7.372937E4,6.388648E-1,6.01E0,5.43E0,7.681606E4,5.35003E4,1.026E1,5.4727E2,7.930687E-1,6.071389E-1,5.4017E2,1.04E0,2.5326E2,9.4627E2,7.844097E4,7.847702E4,3.21E0,1.41204E3,9.989264E-1,1.59004E3,1.5911175E0,9.71E0,1.26E0,6.01447E4,1.31E0,6.435058E4,-1.23E0,1.6037903E1,9.62E0,7.233616E4,7.964972E4,7.820346E4,8.14E0,-6.3E-1,1.24E0,9.2E-1,1.4204533E0,8.4006E2,8.78E0,6.935884E4,2.568504E1,7.38347E4,4.96297E-1,9.71E0,7.9327766E4,7.964972E4,2.6868687E0,1E0,7.964972E4,5.28E0,6.885553E4,-2.4E-1,3.191405E-2,-9.2520975E-2,-1.9966014E-1,-7.9055116E-2,-2.2160526E-2,-5.607092E-2,-2.5145555E-2,-2.7482672E-2,1.5901523E-2,-5.039072E-2,-2.681987E-2,-1.1821325E-2,-2.4541672E-2,-2.0532588E-2,-5.6310776E-3,-3.5358232E-3,6.7345724E-3,-1.3170983E-2,-1.2678345E-3,1.0568803E-2,2.5116298E-2,-2.3193652E-2,-2.1575342E-3,-1.2828084E-2,-1.5664162E-3,8.438717E-3,-1.1248671E-2,1.295203E-2,2.9446155E-2,2.1093527E-2,2.721332E-2,3.7042703E-3,1.8275656E-2,-7.3433877E-3,-3.2043568E-4,2.9076599E-3,8.202041E-3,2.9717286E-3,8.672576E-3,8.956317E-3,2.4811992E-2,1.2491604E-2,1.579083E-2,1.407803E-2,2.5150228E-2,5.30272E-3,1.18692E-2,1.2618522E-2,2.5649069E-2,1.9053528E-2,2.8001348E-2,2.3291238E-2,2.6625324E-2,2.4477243E-2,1.4395854E-2,1.8195387E-2,2.7281305E-2,2.4827208E-2,2.2406334E-2,2.5473952E-2,2.7177382E-2,2.8276553E-2,2.2519669E-2],"split_indices":[1,6,1,1,0,1,1,0,2,2,6,0,5,5,6,6,5,1,0,0,1,2,1,1,6,6,4,1,0,1,0,5,2,6,2,6,2,3,5,6,6,6,5,2,2,2,0,1,5,6,3,6,0,5,6,6,0,4,6,5,6,2,0,0,0,0,0,0,0,0,0,0,0,0,0,0,0,0,0,0,0,0,0,0,0,0,0,0,0,0,0,0,0,0,0,0,0,0,0,0,0,0,0,0,0,0,0,0,0,0,0,0,0,0,0,0,0,0,0,0,0,0,0,0,0],"split_type":[0,0,0,0,0,0,0,0,0,0,0,0,0,0,0,0,0,0,0,0,0,0,0,0,0,0,0,0,0,0,0,0,0,0,0,0,0,0,0,0,0,0,0,0,0,0,0,0,0,0,0,0,0,0,0,0,0,0,0,0,0,0,0,0,0,0,0,0,0,0,0,0,0,0,0,0,0,0,0,0,0,0,0,0,0,0,0,0,0,0,0,0,0,0,0,0,0,0,0,0,0,0,0,0,0,0,0,0,0,0,0,0,0,0,0,0,0,0,0,0,0,0,0,0,0],"sum_hessian":[8.9776E4,4.6451E4,4.3325E4,1.1291E4,3.516E4,2.9325E4,1.4E4,5.916E3,5.375E3,2.7063E4,8.097E3,2.0587E4,8.738E3,1.1191E4,2.809E3,2.427E3,3.489E3,2.496E3,2.879E3,1.6369E4,1.0694E4,2.7E3,5.397E3,1.2716E4,7.871E3,3.907E3,4.831E3,3.907E3,7.284E3,1.589E3,1.22E3,5.72E2,1.855E3,2.939E3,5.5E2,1.303E3,1.193E3,1.437E3,1.442E3,1.4427E4,1.942E3,6.746E3,3.948E3,2.336E3,3.64E2,2.765E3,2.632E3,3.382E3,9.334E3,6.651E3,1.22E3,3.564E3,3.43E2,3.599E3,1.232E3,1.833E3,2.074E3,4.856E3,2.428E3,5.17E2,1.072E3,6.9E2,5.3E2,4.96E2,7.6E1,1.53E3,3.25E2,1.248E3,1.691E3,2.72E2,2.78E2,7.48E2,5.55E2,3.95E2,7.98E2,2.05E2,1.232E3,1.08E3,3.62E2,1.359E3,1.3068E4,1.797E3,1.45E2,5.993E3,7.53E2,2.286E3,1.662E3,1.059E3,1.277E3,2.22E2,1.42E2,1.406E3,1.359E3,9.08E2,1.724E3,8.08E2,2.574E3,6.912E3,2.422E3,3.223E3,3.428E3,5.58E2,6.62E2,1.786E3,1.778E3,8.5E1,2.58E2,2.572E3,1.027E3,1.15E3,8.2E1,1.735E3,9.8E1,1.769E3,3.05E2,2.59E2,4.597E3,2.074E3,3.54E2,2.42E2,2.75E2,5.65E2,5.07E2,5.46E2,1.44E2],"tree_param":{"num_deleted":"0","num_feature":"7","num_nodes":"125","size_leaf_vector":"1"}},{"base_weights":[1.0903201E-5,-1.946699E-1,2.0873806E-1,-6.279122E-1,-3.0677957E-2,1.2609904E-1,3.8181594E-1,-9.098113E-1,-3.0656862E-1,-1.1581122E-1,2.7968594E-1,8.673748E-2,2.1881555E-1,3.4580252E-1,5.056116E-1,-1.3853041E0,-5.689659E-1,-5.4660326E-1,-9.5837206E-2,-3.739148E-2,-3.495186E-1,1.3269588E-1,4.082537E-1,4.3214086E-2,1.3854511E-1,2.8267863E-1,1.6711941E-1,4.1210386E-1,3.1042042E-1,4.6928775E-1,5.501812E-1,-1.6021248E0,-8.4845024E-1,-7.947183E-1,-3.124819E-1,-7.321788E-1,-3.328486E-1,-1.6789076E-1,-2.9180907E-2,-6.7402914E-2,1.8327351E-1,-4.1391677E-1,-1.3653634E-1,7.8081675E-2,4.8884973E-1,4.756842E-1,3.2112226E-1,-5.153293E-2,7.488541E-2,1.0876093E-1,3.1916147E-1,2.6869598E-1,4.2676446E-1,1.3854086E-1,2.6383883E-1,3.693891E-1,4.5386136E-1,2.8981325E-1,3.964564E-1,4.341327E-1,4.8829308E-1,5.3754187E-1,3.196061E-2,-8.7538235E-2,-4.5023482E-2,-2.9765075E-2,-5.399986E-2,-6.005956E-2,-2.4179047E-2,-1.833515E-2,9.862286E-3,-4.9134996E-2,-2.5844593E-2,-3.2856334E-2,-9.13754E-3,-1.6894186E-2,-4.8129237E-3,-3.317197E-3,7.458683E-3,6.3727447E-3,-4.6246937E-3,-3.1230839E-3,1.2083091E-2,-2.2283258E-2,1.6686786E-3,-2.2671944E-2,-4.465589E-3,-4.797712E-3,7.56301E-3,2.6926124E-2,1.4065866E-2,1.0324861E-2,2.4252461E-2,6.994746E-3,1.9747267E-2,-7.4588605E-3,-7.870695E-4,2.3333614E-3,7.7854185E-3,2.4897773E-3,7.146274E-3,8.170231E-3,2.3457766E-2,1.176793E-2,1.4914147E-2,1.742328E-2,2.6784668E-2,4.709036E-3,1.0502378E-2,1.0909393E-2,1.7957775E-2,1.6506141E-2,2.0139232E-2,2.1960039E-2,2.7430138E-2,2.3110962E-2,1.4101912E-2,1.8608274E-2,2.7374292E-2,2.389661E-2,1.8845987E-2,2.3328064E-2,2.7048562E-2,2.962999E-2,2.6117275E-2],"categories":[],"categories_nodes":[],"categories_segments":[],"categories_sizes":[],"default_left":[0,0,0,0,0,0,0,0,0,0,0,0,0,0,0,0,0,0,0,0,0,0,0,0,0,0,0,0,0,0,0,0,0,0,0,0,0,0,0,0,0,0,0,0,0,0,0,0,0,0,0,0,0,0,0,0,0,0,0,0,0,0,0,0,0,0,0,0,0,0,0,0,0,0,0,0,0,0,0,0,0,0,0,0,0,0,0,0,0,0,0,0,0,0,0,0,0,0,0,0,0,0,0,0,0,0,0,0,0,0,0,0,0,0,0,0,0,0,0,0,0,0,0,0,0],"id":7,"left_children":[1,3,5,7,9,11,13,15,17,19,21,23,25,27,29,31,33,35,37,39,41,43,45,47,49,51,53,55,57,59,61,63,65,67,69,71,73,75,77,79,81,83,85,87,89,91,93,95,97,99,101,103,105,107,109,111,113,115,117,119,121,123,-1,-1,-1,-1,-1,-1,-1,-1,-1,-1,-1,-1,-1,-1,-1,-1,-1,-1,-1,-1,-1,-1,-1,-1,-1,-1,-1,-1,-1,-1,-1,-1,-1,-1,-1,-1,-1,-1,-1,-1,-1,-1,-1,-1,-1,-1,-1,-1,-1,-1,-1,-1,-1,-1,-1,-1,-1,-1,-1,-1,-1,-1,-1],"loss_changes":[3.6481443E3,3.300314E3,6.196432E2,1.1551519E3,8.9041077E2,1.0700528E2,6.224585E1,1.100312E3,3.0152246E2,4.8465167E2,1.3703326E2,4.6416733E1,2.8804321E1,2.532251E1,4.8463745E0,3.287539E2,2.289851E2,1.1031E2,1.5248865E1,1.3115056E2,9.107031E1,6.582311E1,2.2578796E1,3.3582405E1,5.0527313E1,7.758789E0,1.3319595E1,6.5603027E0,1.2434143E1,9.532471E-1,1.243042E0,2.0899316E2,4.730475E1,2.656361E2,5.1340805E1,7.990753E1,6.300934E1,1.8549557E1,1.0953051E1,8.5239784E1,3.4034348E1,7.245288E1,2.3066362E1,3.7419235E1,4.4874268E0,5.3930054E0,2.2568222E1,9.79718E0,1.9120773E1,1.6250107E1,3.0995544E1,3.446167E0,2.7473106E0,1.1818298E1,4.71241E0,2.3191986E0,2.4022522E0,7.5289917E0,4.80394E0,1.3760147E0,1.0343628E0,7.2875977E-1,0E0,0E0,0E0,0E0,0E0,0E0,0E0,0E0,0E0,0E0,0E0,0E0,0E0,0E0,0E0,0E0,0E0,0E0,0E0,0E0,0E0,0E0,0E0,0E0,0E0,0E0,0E0,0E0,0E0,0E0,0E0,0E0,0E0,0E0,0E0,0E0,0E0,0E0,0E0,0E0,0E0,0E0,0E0,0E0,0E0,0E0,0E0,0E0,0E0,0E0,0E0,0E0,0E0,0E0,0E0,0E0,0E0,0E0,0E0,0E0,0E0,0E0,0E0],"parents":[2147483647,0,0,1,1,2,2,3,3,4,4,5,5,6,6,7,7,8,8,9,9,10,10,11,11,12,12,13,13,14,14,15,15,16,16,17,17,18,18,19,19,20,20,21,21,22,22,23,23,24,24,25,25,26,26,27,27,28,28,29,29,30,30,31,31,32,32,33,33,34,34,35,35,36,36,37,37,38,38,39,39,40,40,41,41,42,42,43,43,44,44,45,45,46,46,47,47,48,48,49,49,50,50,51,51,52,52,53,53,54,54,55,55,56,56,57,57,58,58,59,59,60,60,61,61],"right_children":[2,4,6,8,10,12,14,16,18,20,22,24,26,28,30,32,34,36,38,40,42,44,46,48,50,52,54,56,58,60,62,64,66,68,70,72,74,76,78,80,82,84,86,88,90,92,94,96,98,100,102,104,106,108,110,112,114,116,118,120,122,124,-1,-1,-1,-1,-1,-1,-1,-1,-1,-1,-1,-1,-1,-1,-1,-1,-1,-1,-1,-1,-1,-1,-1,-1,-1,-1,-1,-1,-1,-1,-1,-1,-1,-1,-1,-1,-1,-1,-1,-1,-1,-1,-1,-1,-1,-1,-1,-1,-1,-1,-1,-1,-1,-1,-1,-1,-1,-1,-1,-1,-1,-1,-1],"split_conditions":[7.5708E2,6.9886766E4,1.22838E3,3.6919E2,9.989264E-1,1.07474E3,1.52231E3,7.619873E-1,1.08E0,-4E-1,7.610422E4,5.910601E-1,6.01E0,5.43E0,1.63612E3,6.497836E4,6.405763E4,1.5312557E0,7.7305335E-1,6.24052E-1,8.41E0,1.13E0,2.5326E2,9.4185E2,7.844097E4,7.847702E4,3.4E0,7.359916E4,2.0769067E0,8.7484765E-1,8.183366E4,1.48E0,-7.4E-1,1.41E0,7.9164596E0,5E2,6.276442E4,1.48E0,6.518798E4,1E0,7.587066E4,7.847702E4,7.172764E4,1.9027101E0,8.89E0,1.0644844E0,1.2511427E0,8.4006E2,8.81E0,6.8037375E4,2.568504E1,7.277411E4,1.7861303E0,9.38E0,7.512406E4,1.32404E3,2.3266773E0,1E0,7.928413E4,-2.9E-1,7.5490195E4,1.33E0,3.196061E-2,-8.7538235E-2,-4.5023482E-2,-2.9765075E-2,-5.399986E-2,-6.005956E-2,-2.4179047E-2,-1.833515E-2,9.862286E-3,-4.9134996E-2,-2.5844593E-2,-3.2856334E-2,-9.13754E-3,-1.6894186E-2,-4.8129237E-3,-3.317197E-3,7.458683E-3,6.3727447E-3,-4.6246937E-3,-3.1230839E-3,1.2083091E-2,-2.2283258E-2,1.6686786E-3,-2.2671944E-2,-4.465589E-3,-4.797712E-3,7.56301E-3,2.6926124E-2,1.4065866E-2,1.0324861E-2,2.4252461E-2,6.994746E-3,1.9747267E-2,-7.4588605E-3,-7.870695E-4,2.3333614E-3,7.7854185E-3,2.4897773E-3,7.146274E-3,8.170231E-3,2.3457766E-2,1.176793E-2,1.4914147E-2,1.742328E-2,2.6784668E-2,4.709036E-3,1.0502378E-2,1.0909393E-2,1.7957775E-2,1.6506141E-2,2.0139232E-2,2.1960039E-2,2.7430138E-2,2.3110962E-2,1.4101912E-2,1.8608274E-2,2.7374292E-2,2.389661E-2,1.8845987E-2,2.3328064E-2,2.7048562E-2,2.962999E-2,2.6117275E-2],"split_indices":[1,6,1,1,0,1,1,0,2,2,6,0,5,5,1,6,6,0,0,0,5,2,1,1,6,6,4,6,0,0,6,2,2,2,0,1,6,2,6,4,6,6,6,0,5,0,0,1,5,6,3,6,0,5,6,1,0,4,6,2,6,5,0,0,0,0,0,0,0,0,0,0,0,0,0,0,0,0,0,0,0,0,0,0,0,0,0,0,0,0,0,0,0,0,0,0,0,0,0,0,0,0,0,0,0,0,0,0,0,0,0,0,0,0,0,0,0,0,0,0,0,0,0,0,0],"split_type":[0,0,0,0,0,0,0,0,0,0,0,0,0,0,0,0,0,0,0,0,0,0,0,0,0,0,0,0,0,0,0,0,0,0,0,0,0,0,0,0,0,0,0,0,0,0,0,0,0,0,0,0,0,0,0,0,0,0,0,0,0,0,0,0,0,0,0,0,0,0,0,0,0,0,0,0,0,0,0,0,0,0,0,0,0,0,0,0,0,0,0,0,0,0,0,0,0,0,0,0,0,0,0,0,0,0,0,0,0,0,0,0,0,0,0,0,0,0,0,0,0,0,0,0,0],"sum_hessian":[8.9776E4,4.6451E4,4.3325E4,1.2754E4,3.3697E4,2.9325E4,1.4E4,6.793E3,5.961E3,2.6444E4,7.253E3,2.0587E4,8.738E3,1.0848E4,3.152E3,2.835E3,3.958E3,2.786E3,3.175E3,1.9801E4,6.643E3,3.385E3,3.868E3,1.1189E4,9.398E3,3.907E3,4.831E3,3.771E3,7.077E3,1.743E3,1.409E3,2.018E3,8.17E2,2.104E3,1.854E3,1.49E3,1.296E3,1.525E3,1.65E3,1.7431E4,2.37E3,5.1E3,1.543E3,2.936E3,4.49E2,2.178E3,1.69E3,2.803E3,8.386E3,8.069E3,1.329E3,3.564E3,3.43E2,3.731E3,1.1E3,1.869E3,1.902E3,5.713E3,1.364E3,6.2E2,1.123E3,1.24E3,1.69E2,1.664E3,3.54E2,3.92E2,4.25E2,9.11E2,1.193E3,1.676E3,1.78E2,6.87E2,8.03E2,4.09E2,8.87E2,4.51E2,1.074E3,1.366E3,2.84E2,1.988E3,1.5443E4,4.55E2,1.915E3,4.762E3,3.38E2,1.99E2,1.344E3,8.69E2,2.067E3,3.61E2,8.8E1,7.4E1,2.104E3,4.9E2,1.2E3,7.51E2,2.052E3,6.217E3,2.169E3,2.961E3,5.108E3,6.53E2,6.76E2,1.68E3,1.884E3,2.02E2,1.41E2,2.304E3,1.427E3,7.46E2,3.54E2,8.64E2,1.005E3,1.652E3,2.5E2,2.44E2,5.469E3,1.178E3,1.86E2,3.47E2,2.73E2,8.02E2,3.21E2,2.6E2,9.8E2],"tree_param":{"num_deleted":"0","num_feature":"7","num_nodes":"125","size_leaf_vector":"1"}},{"base_weights":[1.18308035E-5,-1.8640056E-1,1.9677857E-1,-6.012753E-1,-2.9871909E-2,1.2271578E-1,3.7241808E-1,-8.643663E-1,-2.948941E-1,-1.10947765E-1,2.657412E-1,8.3215594E-2,2.1680003E-1,3.400451E-1,4.891624E-1,-1.3206344E0,-5.433898E-1,-5.3069955E-1,-9.072151E-2,-7.2796354E-3,-2.7559042E-1,1.5686989E-1,4.2490166E-1,6.0718495E-2,1.8398426E-1,1.9583936E-1,3.4215543E-1,4.0158868E-1,3.0957672E-1,4.589313E-1,5.2812904E-1,-1.8586634E0,-1.1172354E0,-7.889702E-1,-3.2020593E-1,-7.126844E-1,-3.268144E-1,-1.597426E-1,-2.7149506E-2,-3.69192E-2,2.1093158E-1,-3.5573888E-1,-1.18322715E-1,8.578699E-2,4.70299E-1,4.5412782E-1,3.5357836E-1,4.7910786E-3,8.656488E-2,7.6394185E-2,3.5568205E-1,1.4786799E-1,2.4657482E-1,2.6661468E-1,5.026059E-1,3.6768895E-1,4.370891E-1,3.008647E-1,4.7244996E-1,4.24815E-1,4.749735E-1,4.8929957E-1,2.8850166E-2,-8.173183E-2,-1.6957611E-1,-6.2101245E-2,-1.4774777E-2,-6.572821E-2,-2.3127293E-2,-1.941057E-2,7.7102683E-3,-4.6702866E-2,-2.5451371E-2,-2.8090185E-2,-6.97426E-3,-1.6273974E-2,-4.5319553E-3,-3.5723385E-3,5.838598E-3,6.07135E-3,-3.1299244E-3,9.6108485E-3,2.37406E-2,-1.998205E-2,-1.2286538E-3,-1.0732963E-2,-1.2097263E-3,-3.9183614E-3,8.559353E-3,2.6191443E-2,1.3280018E-2,1.6646767E-2,2.3624448E-2,2.3524236E-2,1.5629156E-2,-7.731487E-3,2.4325803E-3,8.292059E-3,3.0338706E-3,1.5726422E-4,9.933003E-3,1.4195164E-2,2.2482196E-2,1.17618255E-2,6.0661086E-3,1.213658E-2,2.0446053E-2,1.0177132E-2,1.776273E-2,2.1282611E-2,2.6190732E-2,1.6717596E-2,2.0068852E-2,2.1196207E-2,2.6364747E-2,1.4187592E-2,1.8423928E-2,1.8665666E-2,2.6560163E-2,2.2425232E-2,2.014571E-2,2.3300238E-2,2.5335232E-2,2.555486E-2,2.0140152E-2],"categories":[],"categories_nodes":[],"categories_segments":[],"categories_sizes":[],"default_left":[0,0,0,0,0,0,0,0,0,0,0,0,0,0,0,0,0,0,0,0,0,0,0,0,0,0,0,0,0,0,0,0,0,0,0,0,0,0,0,0,0,0,0,0,0,0,0,0,0,0,0,0,0,0,0,0,0,0,0,0,0,0,0,0,0,0,0,0,0,0,0,0,0,0,0,0,0,0,0,0,0,0,0,0,0,0,0,0,0,0,0,0,0,0,0,0,0,0,0,0,0,0,0,0,0,0,0,0,0,0,0,0,0,0,0,0,0,0,0,0,0,0,0,0,0],"id":8,"left_children":[1,3,5,7,9,11,13,15,17,19,21,23,25,27,29,31,33,35,37,39,41,43,45,47,49,51,53,55,57,59,61,63,65,67,69,71,73,75,77,79,81,83,85,87,89,91,93,95,97,99,101,103,105,107,109,111,113,115,117,119,121,123,-1,-1,-1,-1,-1,-1,-1,-1,-1,-1,-1,-1,-1,-1,-1,-1,-1,-1,-1,-1,-1,-1,-1,-1,-1,-1,-1,-1,-1,-1,-1,-1,-1,-1,-1,-1,-1,-1,-1,-1,-1,-1,-1,-1,-1,-1,-1,-1,-1,-1,-1,-1,-1,-1,-1,-1,-1,-1,-1,-1,-1,-1,-1],"loss_changes":[3.2930356E3,2.9938364E3,5.681072E2,1.0177197E3,8.023037E2,1.1415924E2,4.8791504E1,9.9427295E2,2.8092612E2,4.4837952E2,1.2478165E2,4.9046783E1,2.3801483E1,1.8898926E1,3.06781E0,3.048872E2,2.1843762E2,1.0024475E2,1.3725117E1,1.04273346E2,1.2789618E2,9.5315704E1,5.9387207E0,2.5573761E1,7.292261E1,1.8911041E1,1.5622711E1,3.8780518E0,9.492615E0,6.684265E-1,2.034851E0,2.5818823E2,2.0861841E2,3.2519702E2,6.755315E1,6.3994812E1,5.6223648E1,1.7149994E1,1.0400127E1,5.772351E1,9.430008E0,9.773511E1,3.1079857E1,4.893895E1,8.528229E0,4.453369E0,3.9506073E0,3.9115353E1,2.4822319E1,2.1753113E1,1.0130676E1,9.25782E0,2.2604675E0,4.88105E0,4.5436096E-1,1.800827E0,1.7169495E0,7.356201E0,1.7995377E0,8.805084E-2,6.9229126E-2,1.0894165E0,0E0,0E0,0E0,0E0,0E0,0E0,0E0,0E0,0E0,0E0,0E0,0E0,0E0,0E0,0E0,0E0,0E0,0E0,0E0,0E0,0E0,0E0,0E0,0E0,0E0,0E0,0E0,0E0,0E0,0E0,0E0,0E0,0E0,0E0,0E0,0E0,0E0,0E0,0E0,0E0,0E0,0E0,0E0,0E0,0E0,0E0,0E0,0E0,0E0,0E0,0E0,0E0,0E0,0E0,0E0,0E0,0E0,0E0,0E0,0E0,0E0,0E0,0E0],"parents":[2147483647,0,0,1,1,2,2,3,3,4,4,5,5,6,6,7,7,8,8,9,9,10,10,11,11,12,12,13,13,14,14,15,15,16,16,17,17,18,18,19,19,20,20,21,21,22,22,23,23,24,24,25,25,26,26,27,27,28,28,29,29,30,30,31,31,32,32,33,33,34,34,35,35,36,36,37,37,38,38,39,39,40,40,41,41,42,42,43,43,44,44,45,45,46,46,47,47,48,48,49,49,50,50,51,51,52,52,53,53,54,54,55,55,56,56,57,57,58,58,59,59,60,60,61,61],"right_children":[2,4,6,8,10,12,14,16,18,20,22,24,26,28,30,32,34,36,38,40,42,44,46,48,50,52,54,56,58,60,62,64,66,68,70,72,74,76,78,80,82,84,86,88,90,92,94,96,98,100,102,104,106,108,110,112,114,116,118,120,122,124,-1,-1,-1,-1,-1,-1,-1,-1,-1,-1,-1,-1,-1,-1,-1,-1,-1,-1,-1,-1,-1,-1,-1,-1,-1,-1,-1,-1,-1,-1,-1,-1,-1,-1,-1,-1,-1,-1,-1,-1,-1,-1,-1,-1,-1,-1,-1,-1,-1,-1,-1,-1,-1,-1,-1,-1,-1,-1,-1,-1,-1,-1,-1],"split_conditions":[7.5043E2,6.9886766E4,1.24146E3,3.6919E2,9.989264E-1,1.09263E3,1.53427E3,7.4709284E-1,1.08E0,-8.8E-1,7.751754E4,1.4204533E0,1.951121E0,4.84E0,7.681606E4,5.6171637E4,6.276442E4,1.4711858E0,7.619873E-1,6.071389E-1,8.14E0,1.1E0,4.189989E1,9.4627E2,6.9886766E4,3E0,7.328757E4,7.444701E4,8.10861E4,1.59004E3,1.5312557E0,9.71E0,1.26E0,1.44E0,1.22E0,5E2,6.4713188E4,1.48E0,9.71E0,1E0,7.983866E4,7.820346E4,5E2,2.003452E0,8.81E0,1.4341183E1,-1.3E-1,7.099262E4,6.31E0,1.13E0,7.678479E4,5.78E0,7.9327766E4,8.6E-1,7.560264E4,1.37177E3,2.3266773E0,1.016E1,2.5290213E1,5.12E0,4.614495E0,-2.4E-1,2.8850166E-2,-8.173183E-2,-1.6957611E-1,-6.2101245E-2,-1.4774777E-2,-6.572821E-2,-2.3127293E-2,-1.941057E-2,7.7102683E-3,-4.6702866E-2,-2.5451371E-2,-2.8090185E-2,-6.97426E-3,-1.6273974E-2,-4.5319553E-3,-3.5723385E-3,5.838598E-3,6.07135E-3,-3.1299244E-3,9.6108485E-3,2.37406E-2,-1.998205E-2,-1.2286538E-3,-1.0732963E-2,-1.2097263E-3,-3.9183614E-3,8.559353E-3,2.6191443E-2,1.3280018E-2,1.6646767E-2,2.3624448E-2,2.3524236E-2,1.5629156E-2,-7.731487E-3,2.4325803E-3,8.292059E-3,3.0338706E-3,1.5726422E-4,9.933003E-3,1.4195164E-2,2.2482196E-2,1.17618255E-2,6.0661086E-3,1.213658E-2,2.0446053E-2,1.0177132E-2,1.776273E-2,2.1282611E-2,2.6190732E-2,1.6717596E-2,2.0068852E-2,2.1196207E-2,2.6364747E-2,1.4187592E-2,1.8423928E-2,1.8665666E-2,2.6560163E-2,2.2425232E-2,2.014571E-2,2.3300238E-2,2.5335232E-2,2.555486E-2,2.0140152E-2],"split_indices":[1,6,1,1,0,1,1,0,2,2,6,0,0,5,6,6,6,0,0,0,5,2,3,1,6,4,6,6,6,1,0,5,2,2,2,1,6,2,5,4,6,6,1,0,5,3,2,6,5,2,6,5,6,2,6,1,0,5,3,5,0,2,0,0,0,0,0,0,0,0,0,0,0,0,0,0,0,0,0,0,0,0,0,0,0,0,0,0,0,0,0,0,0,0,0,0,0,0,0,0,0,0,0,0,0,0,0,0,0,0,0,0,0,0,0,0,0,0,0,0,0,0,0,0,0],"split_type":[0,0,0,0,0,0,0,0,0,0,0,0,0,0,0,0,0,0,0,0,0,0,0,0,0,0,0,0,0,0,0,0,0,0,0,0,0,0,0,0,0,0,0,0,0,0,0,0,0,0,0,0,0,0,0,0,0,0,0,0,0,0,0,0,0,0,0,0,0,0,0,0,0,0,0,0,0,0,0,0,0,0,0,0,0,0,0,0,0,0,0,0,0,0,0,0,0,0,0,0,0,0,0,0,0,0,0,0,0,0,0,0,0,0,0,0,0,0,0,0,0,0,0,0,0],"sum_hessian":[8.9776E4,4.6101E4,4.3675E4,1.2628E4,3.3473E4,3.0722E4,1.2953E4,6.793E3,5.835E3,2.6269E4,7.204E3,2.1639E4,9.083E3,1.0144E4,2.809E3,2.804E3,3.989E3,2.707E3,3.128E3,1.612E4,1.0149E4,4.279E3,2.925E3,1.7691E4,3.948E3,7.784E3,1.299E3,3.355E3,6.789E3,1.589E3,1.22E3,7.67E2,2.037E3,1.898E3,2.091E3,1.429E3,1.278E3,1.499E3,1.629E3,1.4193E4,1.927E3,6.722E3,3.427E3,3.489E3,7.9E2,2.071E3,8.54E2,5.592E3,1.2099E4,2.428E3,1.52E3,4.003E3,3.781E3,8.85E2,4.14E2,1.722E3,1.633E3,6.447E3,3.42E2,5.17E2,1.072E3,6.86E2,5.34E2,6.71E2,9.6E1,1.768E3,2.69E2,7.26E2,1.172E3,1.829E3,2.62E2,6.83E2,7.46E2,5.66E2,7.12E2,4.4E2,1.059E3,1.246E3,3.83E2,1.98E3,1.2213E4,1.801E3,1.26E2,5.935E3,7.87E2,1.693E3,1.734E3,1.194E3,2.295E3,6.25E2,1.65E2,2.75E2,1.796E3,2.19E2,6.35E2,1.206E3,4.386E3,2.977E3,9.122E3,1.519E3,9.09E2,8.64E2,6.56E2,9.31E2,3.072E3,3.696E3,8.5E1,5.19E2,3.66E2,9.4E1,3.2E2,8.71E2,8.51E2,1.43E3,2.03E2,5.149E3,1.298E3,1.3E2,2.12E2,2.39E2,2.78E2,8.48E2,2.24E2,5.44E2,1.42E2],"tree_param":{"num_deleted":"0","num_feature":"7","num_nodes":"125","size_leaf_vector":"1"}},{"base_weights":[1.2137093E-5,-1.7571409E-1,1.8841714E-1,-6.4277667E-1,-5.0360944E-2,1.1786604E-1,3.538224E-1,-9.722212E-1,-2.975529E-1,-1.4573374E-1,1.3690071E-1,8.026672E-2,2.0597388E-1,3.2067102E-1,4.5677078E-1,-1.3482023E0,-5.467802E-1,-5.983676E-1,-7.846492E-2,-6.533232E-2,-4.120456E-1,-1.11992285E-1,2.356773E-1,4.7434475E-2,1.424652E-1,1.8605386E-1,3.2510567E-1,3.745207E-1,2.8875855E-1,4.2389688E-1,4.9710786E-1,-1.8362103E0,-1.169716E0,-3.695156E-1,-9.4232696E-1,-7.667097E-1,-3.870403E-1,-1.7959253E-1,-4.719459E-2,-3.0950624E-1,-4.1142855E-2,-7.972106E-1,-3.624561E-1,1.1567815E-1,-2.0458387E-1,1.6497043E-1,3.984342E-1,-2.8166534E-2,7.4324116E-2,5.580472E-2,2.1613984E-1,1.4047892E-1,2.3425482E-1,2.533155E-1,4.7758996E-1,3.341588E-1,4.0702105E-1,2.6127174E-1,3.400736E-1,4.1725734E-1,5.134822E-1,4.828937E-1,2.8271077E-2,-1.1471901E-1,-5.424666E-2,-7.3138624E-2,-1.6878916E-2,-3.535295E-2,1.0231997E-2,-6.314709E-2,-2.312809E-2,-4.9391862E-2,-2.9347211E-2,-2.4256904E-2,-1.2800179E-2,-4.1029952E-2,-3.0731177E-3,-8.426695E-3,-3.1174126E-4,-1.2031265E-2,-2.9852156E-2,1.3950149E-3,-5.8850353E-3,-4.768035E-2,-9.917774E-3,-2.2737682E-2,-1.1688701E-2,3.933976E-3,2.2143649E-2,-1.8146412E-2,3.4555998E-3,5.1564504E-3,2.3338454E-2,1.3587621E-2,2.1326296E-2,-6.9332244E-3,-1.8030635E-4,7.4947313E-3,2.4208461E-3,-1.2415965E-3,8.909459E-3,7.5029247E-3,1.8253265E-2,1.0424408E-2,5.4623275E-3,1.1551959E-2,2.0590195E-2,9.669254E-3,1.6877016E-2,2.0229679E-2,2.4885273E-2,1.5362213E-2,1.859113E-2,1.970807E-2,2.4396516E-2,2.1306576E-2,1.25893075E-2,1.4387718E-2,2.0380063E-2,1.9330688E-2,2.1728162E-2,2.6602283E-2,1.9535422E-2,2.7043102E-2,2.3466684E-2],"categories":[],"categories_nodes":[],"categories_segments":[],"categories_sizes":[],"default_left":[0,0,0,0,0,0,0,0,0,0,0,0,0,0,0,0,0,0,0,0,0,0,0,0,0,0,0,0,0,0,0,0,0,0,0,0,0,0,0,0,0,0,0,0,0,0,0,0,0,0,0,0,0,0,0,0,0,0,0,0,0,0,0,0,0,0,0,0,0,0,0,0,0,0,0,0,0,0,0,0,0,0,0,0,0,0,0,0,0,0,0,0,0,0,0,0,0,0,0,0,0,0,0,0,0,0,0,0,0,0,0,0,0,0,0,0,0,0,0,0,0,0,0,0,0],"id":9,"left_children":[1,3,5,7,9,11,13,15,17,19,21,23,25,27,29,31,33,35,37,39,41,43,45,47,49,51,53,55,57,59,61,63,65,67,69,71,73,75,77,79,81,83,85,87,89,91,93,95,97,99,101,103,105,107,109,111,113,115,117,119,121,123,-1,-1,-1,-1,-1,-1,-1,-1,-1,-1,-1,-1,-1,-1,-1,-1,-1,-1,-1,-1,-1,-1,-1,-1,-1,-1,-1,-1,-1,-1,-1,-1,-1,-1,-1,-1,-1,-1,-1,-1,-1,-1,-1,-1,-1,-1,-1,-1,-1,-1,-1,-1,-1,-1,-1,-1,-1,-1,-1,-1,-1,-1,-1],"loss_changes":[2.9723433E3,2.7196284E3,5.05552E2,1.1175835E3,6.541124E2,1.00602936E2,4.4063965E1,8.0368994E2,3.1636237E2,5.195532E2,3.0386993E2,4.3469894E1,2.1496857E1,1.673639E1,3.9702759E0,2.3032959E2,1.6519678E2,7.167206E1,8.779541E0,1.1008324E2,1.071875E2,7.405791E1,1.01757355E2,2.8332365E1,4.694725E1,1.7068817E1,1.4109955E1,4.644104E0,8.598328E0,8.230896E-1,1.0960999E0,2.4293433E2,4.7674683E2,3.1643018E2,1.1170422E2,4.4140198E1,1.1431915E1,4.9623333E1,1.0555292E1,3.3130096E1,8.9655655E1,5.98461E1,5.912445E1,1.2264607E1,1.0824058E2,1.1510661E2,9.417877E0,9.924139E0,2.0119133E1,3.3370407E1,3.906398E1,8.482079E0,2.0641327E0,4.4069214E0,4.079895E-1,1.5391083E0,1.9031982E0,6.171356E0,7.4609833E0,6.9589233E-1,5.649948E-2,6.6897583E-1,0E0,0E0,0E0,0E0,0E0,0E0,0E0,0E0,0E0,0E0,0E0,0E0,0E0,0E0,0E0,0E0,0E0,0E0,0E0,0E0,0E0,0E0,0E0,0E0,0E0,0E0,0E0,0E0,0E0,0E0,0E0,0E0,0E0,0E0,0E0,0E0,0E0,0E0,0E0,0E0,0E0,0E0,0E0,0E0,0E0,0E0,0E0,0E0,0E0,0E0,0E0,0E0,0E0,0E0,0E0,0E0,0E0,0E0,0E0,0E0,0E0,0E0,0E0],"parents":[2147483647,0,0,1,1,2,2,3,3,4,4,5,5,6,6,7,7,8,8,9,9,10,10,11,11,12,12,13,13,14,14,15,15,16,16,17,17,18,18,19,19,20,20,21,21,22,22,23,23,24,24,25,25,26,26,27,27,28,28,29,29,30,30,31,31,32,32,33,33,34,34,35,35,36,36,37,37,38,38,39,39,40,40,41,41,42,42,43,43,44,44,45,45,46,46,47,47,48,48,49,49,50,50,51,51,52,52,53,53,54,54,55,55,56,56,57,57,58,58,59,59,60,60,61,61],"right_children":[2,4,6,8,10,12,14,16,18,20,22,24,26,28,30,32,34,36,38,40,42,44,46,48,50,52,54,56,58,60,62,64,66,68,70,72,74,76,78,80,82,84,86,88,90,92,94,96,98,100,102,104,106,108,110,112,114,116,118,120,122,124,-1,-1,-1,-1,-1,-1,-1,-1,-1,-1,-1,-1,-1,-1,-1,-1,-1,-1,-1,-1,-1,-1,-1,-1,-1,-1,-1,-1,-1,-1,-1,-1,-1,-1,-1,-1,-1,-1,-1,-1,-1,-1,-1,-1,-1,-1,-1,-1,-1,-1,-1,-1,-1,-1,-1,-1,-1,-1,-1,-1,-1,-1,-1],"split_conditions":[7.5708E2,6.703882E4,1.24146E3,3.6919E2,6.81069E-1,1.09263E3,1.52231E3,1.5312557E0,1.26E0,-4E-1,7.2427625E4,6.81069E-1,1.951121E0,5.49E0,1.63612E3,5.35003E4,7.8386246E1,5.5346E2,1.48E0,7.2240875E4,7.1626555E4,-7.2E-1,7.8814984E4,9.4627E2,6.955081E4,3E0,7.328757E4,7.257625E4,9.989264E-1,8.10861E4,7.988859E4,1.66E0,1.21E0,1.44E0,5.683291E4,9.272837E-1,6.7066E2,5.915639E4,4.2010406E4,-9.3E-1,-1.29E0,9.4E-1,4.3529E2,6.1093516E0,9.9E-1,1.06E0,1.3531282E1,7.185032E4,6.44E0,1.15E0,2.185292E0,7.15E0,7.978535E4,8.6E-1,7.560264E4,1.37177E3,2.3266773E0,1E0,7.277411E4,8.7484765E-1,2.7E-1,1.02E0,2.8271077E-2,-1.1471901E-1,-5.424666E-2,-7.3138624E-2,-1.6878916E-2,-3.535295E-2,1.0231997E-2,-6.314709E-2,-2.312809E-2,-4.9391862E-2,-2.9347211E-2,-2.4256904E-2,-1.2800179E-2,-4.1029952E-2,-3.0731177E-3,-8.426695E-3,-3.1174126E-4,-1.2031265E-2,-2.9852156E-2,1.3950149E-3,-5.8850353E-3,-4.768035E-2,-9.917774E-3,-2.2737682E-2,-1.1688701E-2,3.933976E-3,2.2143649E-2,-1.8146412E-2,3.4555998E-3,5.1564504E-3,2.3338454E-2,1.3587621E-2,2.1326296E-2,-6.9332244E-3,-1.8030635E-4,7.4947313E-3,2.4208461E-3,-1.2415965E-3,8.909459E-3,7.5029247E-3,1.8253265E-2,1.0424408E-2,5.4623275E-3,1.1551959E-2,2.0590195E-2,9.669254E-3,1.6877016E-2,2.0229679E-2,2.4885273E-2,1.5362213E-2,1.859113E-2,1.970807E-2,2.4396516E-2,2.1306576E-2,1.25893075E-2,1.4387718E-2,2.0380063E-2,1.9330688E-2,2.1728162E-2,2.6602283E-2,1.9535422E-2,2.7043102E-2,2.3466684E-2],"split_indices":[1,6,1,1,0,1,1,0,2,2,6,0,0,5,1,6,3,1,2,6,6,2,6,1,6,4,6,6,0,6,6,2,2,2,6,0,1,6,6,2,2,2,1,0,2,2,3,6,5,2,0,5,6,2,6,1,0,4,6,0,2,4,0,0,0,0,0,0,0,0,0,0,0,0,0,0,0,0,0,0,0,0,0,0,0,0,0,0,0,0,0,0,0,0,0,0,0,0,0,0,0,0,0,0,0,0,0,0,0,0,0,0,0,0,0,0,0,0,0,0,0,0,0,0,0],"split_type":[0,0,0,0,0,0,0,0,0,0,0,0,0,0,0,0,0,0,0,0,0,0,0,0,0,0,0,0,0,0,0,0,0,0,0,0,0,0,0,0,0,0,0,0,0,0,0,0,0,0,0,0,0,0,0,0,0,0,0,0,0,0,0,0,0,0,0,0,0,0,0,0,0,0,0,0,0,0,0,0,0,0,0,0,0,0,0,0,0,0,0,0,0,0,0,0,0,0,0,0,0,0,0,0,0,0,0,0,0,0,0,0,0,0,0,0,0,0,0,0,0,0,0,0,0],"sum_hessian":[8.9776E4,4.6451E4,4.3325E4,9.828E3,3.6623E4,3.0372E4,1.2953E4,5.028E3,4.8E3,2.4265E4,1.2358E4,2.1289E4,9.083E3,9.801E3,3.152E3,2.668E3,2.36E3,2.022E3,2.778E3,1.8639E4,5.626E3,3.511E3,8.847E3,1.3935E4,7.354E3,7.784E3,1.299E3,3.643E3,6.158E3,1.743E3,1.409E3,7.12E2,1.956E3,1.631E3,7.29E2,1.124E3,8.98E2,6.55E2,2.123E3,1.679E3,1.696E4,6.4E2,4.986E3,1.015E3,2.496E3,6.169E3,2.678E3,3.656E3,1.0279E4,3.38E3,3.974E3,4.003E3,3.781E3,8.85E2,4.14E2,1.63E3,2.013E3,4.014E3,2.144E3,1.628E3,1.15E2,1.173E3,2.36E2,4.41E2,2.71E2,1.446E3,5.1E2,1.027E3,6.04E2,4.36E2,2.93E2,5.02E2,6.22E2,5.12E2,3.86E2,1.01E2,5.54E2,5.35E2,1.588E3,1.356E3,3.23E2,8.918E3,8.042E3,5.07E2,1.33E2,2.902E3,2.084E3,9.13E2,1.02E2,1.581E3,9.15E2,5.121E3,1.048E3,4.88E2,2.19E3,6.64E2,2.992E3,2.623E3,7.656E3,2.038E3,1.342E3,2.754E3,1.22E3,1.258E3,2.745E3,3.716E3,6.5E1,5.19E2,3.66E2,9.4E1,3.2E2,9.56E2,6.74E2,1.742E3,2.71E2,2.16E2,3.798E3,1.211E3,9.33E2,5.96E2,1.032E3,9.7E1,1.8E1,2.15E2,9.58E2],"tree_param":{"num_deleted":"0","num_feature":"7","num_nodes":"125","size_leaf_vector":"1"}},{"base_weights":[1.0048761E-5,-1.6829015E-1,1.7765854E-1,-6.4512265E-1,-5.579801E-2,1.0694568E-1,3.2752624E-1,-9.984185E-1,-2.693979E-1,-1.259113E-1,1.5139593E-1,7.3210895E-2,1.8775949E-1,2.9655638E-1,4.33985E-1,-1.8980976E0,-8.745412E-1,-5.207007E-1,-3.2967303E-3,-1.0906605E-2,-2.84195E-1,-1.07367106E-1,2.898274E-1,2.931972E-2,1.1561553E-1,2.4818113E-1,1.4530422E-1,3.478809E-1,2.6193804E-1,4.0275216E-1,4.7230843E-1,-3.0156755E0,-1.5877211E0,-1.2643672E0,-6.803243E-1,-2.0622797E0,-2.7165186E-1,-3.4601906E-1,6.628338E-2,-1.6954298E-1,2.614736E-2,-3.6349753E-1,-1.3819419E-1,-1.6305244E-1,3.3764812E-1,2.0204593E-1,3.8427478E-1,-7.3976144E-2,5.5042963E-2,9.5778674E-2,3.13008E-1,2.3549823E-1,3.8035926E-1,1.2283884E-1,2.355951E-1,3.0599678E-1,3.8828698E-1,2.3898922E-1,3.339018E-1,3.9125028E-1,4.4926798E-1,4.6105555E-1,2.7583817E-2,-1.0733259E-1,-1.9241576E-1,-8.370529E-2,-3.2513324E-2,-7.18044E-2,-2.9869227E-2,-3.873168E-2,-1.2697117E-2,-1.509895E-1,-7.5332984E-2,-3.481827E-2,-3.4842254E-3,-4.9966067E-2,-8.361878E-3,-5.679505E-4,1.529305E-2,-1.7009191E-2,-6.947718E-3,-1.1510765E-4,1.0245202E-2,-2.0441424E-2,-2.4391264E-3,-1.0379203E-2,-4.9678737E-4,4.496647E-3,-1.6161626E-2,1.3389421E-2,2.3120526E-2,6.612306E-3,2.2629581E-2,2.221679E-2,1.76178E-2,-8.338734E-3,-1.878078E-3,1.1937887E-3,6.8945573E-3,3.6093001E-3,7.995498E-3,2.2943089E-2,7.4159377E-3,9.934634E-3,1.2779536E-2,1.1540682E-2,2.1115785E-2,4.337753E-3,9.587644E-3,9.1287065E-3,1.3123149E-2,1.434529E-2,1.7723368E-2,1.8763723E-2,2.3345646E-2,9.773847E-3,1.3813165E-2,1.4626841E-2,2.1298027E-2,2.076435E-2,1.7726082E-2,2.053917E-2,2.4299735E-2,2.5467152E-2,2.2386922E-2],"categories":[],"categories_nodes":[],"categories_segments":[],"categories_sizes":[],"default_left":[0,0,0,0,0,0,0,0,0,0,0,0,0,0,0,0,0,0,0,0,0,0,0,0,0,0,0,0,0,0,0,0,0,0,0,0,0,0,0,0,0,0,0,0,0,0,0,0,0,0,0,0,0,0,0,0,0,0,0,0,0,0,0,0,0,0,0,0,0,0,0,0,0,0,0,0,0,0,0,0,0,0,0,0,0,0,0,0,0,0,0,0,0,0,0,0,0,0,0,0,0,0,0,0,0,0,0,0,0,0,0,0,0,0,0,0,0,0,0,0,0,0,0,0,0],"id":10,"left_children":[1,3,5,7,9,11,13,15,17,19,21,23,25,27,29,31,33,35,37,39,41,43,45,47,49,51,53,55,57,59,61,63,65,67,69,71,73,75,77,79,81,83,85,87,89,91,93,95,97,99,101,103,105,107,109,111,113,115,117,119,121,123,-1,-1,-1,-1,-1,-1,-1,-1,-1,-1,-1,-1,-1,-1,-1,-1,-1,-1,-1,-1,-1,-1,-1,-1,-1,-1,-1,-1,-1,-1,-1,-1,-1,-1,-1,-1,-1,-1,-1,-1,-1,-1,-1,-1,-1,-1,-1,-1,-1,-1,-1,-1,-1,-1,-1,-1,-1,-1,-1,-1,-1,-1,-1],"loss_changes":[2.6842075E3,2.4728716E3,4.628247E2,1.1678606E3,5.4192145E2,8.0890076E1,4.6032837E1,5.0376465E2,2.8527408E2,5.0736124E2,3.3789435E2,3.8966194E1,2.2381378E1,1.9185059E1,3.5838013E0,1.8529675E2,3.0107446E2,8.4177875E2,4.9457058E1,9.490058E1,1.3575085E2,8.153439E1,5.0868896E1,2.734568E1,4.1667755E1,5.953842E0,1.0386986E1,7.2717285E0,1.062677E1,7.572937E-1,1.0049133E0,7.712195E1,3.3814575E1,1.5090063E2,1.0692737E2,1.5771375E2,1.620724E2,4.07123E1,3.2072247E1,1.5909256E1,6.656003E1,1.0840411E2,3.675425E1,1.1847846E2,3.0661812E0,5.567453E1,5.5160522E0,6.9278936E0,2.1270998E1,1.4631546E1,2.3279915E1,2.3837128E0,1.8726921E0,1.0213562E1,1.4079819E0,1.8868866E0,2.0950928E0,7.9240417E0,5.8349304E0,1.0940704E0,2.795105E-1,5.699768E-1,0E0,0E0,0E0,0E0,0E0,0E0,0E0,0E0,0E0,0E0,0E0,0E0,0E0,0E0,0E0,0E0,0E0,0E0,0E0,0E0,0E0,0E0,0E0,0E0,0E0,0E0,0E0,0E0,0E0,0E0,0E0,0E0,0E0,0E0,0E0,0E0,0E0,0E0,0E0,0E0,0E0,0E0,0E0,0E0,0E0,0E0,0E0,0E0,0E0,0E0,0E0,0E0,0E0,0E0,0E0,0E0,0E0,0E0,0E0,0E0,0E0,0E0,0E0],"parents":[2147483647,0,0,1,1,2,2,3,3,4,4,5,5,6,6,7,7,8,8,9,9,10,10,11,11,12,12,13,13,14,14,15,15,16,16,17,17,18,18,19,19,20,20,21,21,22,22,23,23,24,24,25,25,26,26,27,27,28,28,29,29,30,30,31,31,32,32,33,33,34,34,35,35,36,36,37,37,38,38,39,39,40,40,41,41,42,42,43,43,44,44,45,45,46,46,47,47,48,48,49,49,50,50,51,51,52,52,53,53,54,54,55,55,56,56,57,57,58,58,59,59,60,60,61,61],"right_children":[2,4,6,8,10,12,14,16,18,20,22,24,26,28,30,32,34,36,38,40,42,44,46,48,50,52,54,56,58,60,62,64,66,68,70,72,74,76,78,80,82,84,86,88,90,92,94,96,98,100,102,104,106,108,110,112,114,116,118,120,122,124,-1,-1,-1,-1,-1,-1,-1,-1,-1,-1,-1,-1,-1,-1,-1,-1,-1,-1,-1,-1,-1,-1,-1,-1,-1,-1,-1,-1,-1,-1,-1,-1,-1,-1,-1,-1,-1,-1,-1,-1,-1,-1,-1,-1,-1,-1,-1,-1,-1,-1,-1,-1,-1,-1,-1,-1,-1,-1,-1,-1,-1,-1,-1],"split_conditions":[7.5043E2,6.570324E4,1.22838E3,1.36E0,9.8425967E-1,1.07474E3,1.52231E3,5.5412613E4,5.0325484E4,-9.3E-1,7.2240875E4,5.63098E-1,5.68E0,6.15E0,1.63612E3,2.2165E2,6.1020374E-1,1.71E0,4.656549E-1,7.315873E4,5.3103E2,1.1E0,7.751754E4,9.3169E2,7.9236016E4,7.847702E4,1.005E1,7.277411E4,1.2511427E0,3.782349E0,8.183366E4,-5.4E-1,4.803E2,3.573E2,5.3548017E0,5.857538E1,3.2172E2,2.08E0,1.66E0,7.0753336E4,6.071389E-1,7.815379E4,8.36E0,-7.2E-1,1.29E0,1.1E0,-7E-2,7.233616E4,8.72E0,1.00472E3,6E-2,7.011115E4,4.96297E-1,3E0,1.99E0,1.41204E3,2.3266773E0,3.36E0,7.5778055E4,-2.3E-1,7.233616E4,1.33E0,2.7583817E-2,-1.0733259E-1,-1.9241576E-1,-8.370529E-2,-3.2513324E-2,-7.18044E-2,-2.9869227E-2,-3.873168E-2,-1.2697117E-2,-1.509895E-1,-7.5332984E-2,-3.481827E-2,-3.4842254E-3,-4.9966067E-2,-8.361878E-3,-5.679505E-4,1.529305E-2,-1.7009191E-2,-6.947718E-3,-1.1510765E-4,1.0245202E-2,-2.0441424E-2,-2.4391264E-3,-1.0379203E-2,-4.9678737E-4,4.496647E-3,-1.6161626E-2,1.3389421E-2,2.3120526E-2,6.612306E-3,2.2629581E-2,2.221679E-2,1.76178E-2,-8.338734E-3,-1.878078E-3,1.1937887E-3,6.8945573E-3,3.6093001E-3,7.995498E-3,2.2943089E-2,7.4159377E-3,9.934634E-3,1.2779536E-2,1.1540682E-2,2.1115785E-2,4.337753E-3,9.587644E-3,9.1287065E-3,1.3123149E-2,1.434529E-2,1.7723368E-2,1.8763723E-2,2.3345646E-2,9.773847E-3,1.3813165E-2,1.4626841E-2,2.1298027E-2,2.076435E-2,1.7726082E-2,2.053917E-2,2.4299735E-2,2.5467152E-2,2.2386922E-2],"split_indices":[1,6,1,2,0,1,1,6,6,2,6,0,5,5,1,1,0,2,0,6,1,2,6,1,6,6,5,6,0,0,6,2,1,1,0,3,1,5,2,6,0,6,5,2,2,2,2,6,5,1,2,6,0,4,4,1,0,4,6,2,6,5,0,0,0,0,0,0,0,0,0,0,0,0,0,0,0,0,0,0,0,0,0,0,0,0,0,0,0,0,0,0,0,0,0,0,0,0,0,0,0,0,0,0,0,0,0,0,0,0,0,0,0,0,0,0,0,0,0,0,0,0,0,0,0],"split_type":[0,0,0,0,0,0,0,0,0,0,0,0,0,0,0,0,0,0,0,0,0,0,0,0,0,0,0,0,0,0,0,0,0,0,0,0,0,0,0,0,0,0,0,0,0,0,0,0,0,0,0,0,0,0,0,0,0,0,0,0,0,0,0,0,0,0,0,0,0,0,0,0,0,0,0,0,0,0,0,0,0,0,0,0,0,0,0,0,0,0,0,0,0,0,0,0,0,0,0,0,0,0,0,0,0,0,0,0,0,0,0,0,0,0,0,0,0,0,0,0,0,0,0,0,0],"sum_hessian":[8.9776E4,4.6101E4,4.3675E4,8.799E3,3.7302E4,2.9675E4,1.4E4,4.534E3,4.265E3,2.7871E4,9.431E3,2.0937E4,8.738E3,1.0848E4,3.152E3,5.47E2,3.987E3,2.193E3,2.072E3,1.6143E4,1.1728E4,3.287E3,6.144E3,1.0289E4,1.0648E4,3.604E3,5.134E3,4.366E3,6.482E3,1.743E3,1.409E3,1.17E2,4.3E2,1.324E3,2.663E3,3.04E2,1.889E3,3.49E2,1.723E3,3.056E3,1.3087E4,7.599E3,4.129E3,2.922E3,3.65E2,3.186E3,2.958E3,2.051E3,8.238E3,9.677E3,9.71E2,3.291E3,3.13E2,4.113E3,1.021E3,2.148E3,2.218E3,4.918E3,1.564E3,1.405E3,3.38E2,1.24E3,1.69E2,5.9E1,5.8E1,3.93E2,3.7E1,1.052E3,2.72E2,2.18E3,4.83E2,1.1E2,1.94E2,6.08E2,1.281E3,7.4E1,2.75E2,1.302E3,4.21E2,4.63E2,2.593E3,1.1291E4,1.796E3,6.642E3,9.57E2,2.679E3,1.45E3,1.133E3,1.789E3,2.36E2,1.29E2,2.493E3,6.93E2,1.022E3,1.936E3,5.77E2,1.474E3,5.987E3,2.251E3,7.076E3,2.601E3,5.14E2,4.57E2,1.166E3,2.125E3,7E1,2.43E2,2.701E3,1.412E3,3.46E2,6.75E2,1.546E3,6.02E2,1.908E3,3.1E2,2.272E3,2.646E3,1.082E3,4.82E2,8.43E2,5.62E2,1.71E2,1.67E2,2.6E2,9.8E2],"tree_param":{"num_deleted":"0","num_feature":"7","num_nodes":"125","size_leaf_vector":"1"}},{"base_weights":[5.02291E-6,-1.5396588E-1,1.7540102E-1,-5.9391123E-1,-4.9582746E-2,1.1350229E-1,3.256299E-1,-9.290822E-1,-2.4647579E-1,-1.363731E-1,1.0843634E-1,7.785606E-2,1.9004059E-1,2.9757532E-1,4.1973135E-1,-1.1908909E0,-5.19028E-1,-5.524168E-1,-5.36094E-2,-6.1359845E-2,-3.7041077E-1,-1.3622074E-1,2.0962514E-1,5.789461E-2,1.6788922E-1,1.7159882E-1,3.0753037E-1,3.4235203E-1,2.6822406E-1,3.9201486E-1,4.5303166E-1,-1.6793255E0,-9.287851E-1,-7.6959354E-1,-3.879738E-1,-1.085865E0,-4.6799537E-3,-1.8821602E-1,-2.6148817E-2,-2.9527286E-1,-3.5931814E-2,-4.7045887E-1,-2.1108294E-1,-1.7936389E-1,3.2249194E-1,1.4503863E-1,3.6540037E-1,4.1385654E-2,1.3504264E-1,9.328476E-2,3.674617E-1,1.2688923E-1,2.14972E-1,2.4713737E-1,4.5539662E-1,2.9469806E-1,3.649225E-1,2.5033885E-1,3.5559714E-1,3.6039746E-1,4.068994E-1,4.1971678E-1,4.946545E-1,-6.4149134E-2,-9.756357E-2,-5.9282925E-2,-2.4313249E-2,-4.3843254E-2,-2.2107905E-2,-2.4288852E-2,-1.1966393E-2,-1.334892E-1,-3.7488762E-2,-3.4390923E-2,5.78578E-3,-2.714079E-2,-6.534909E-3,-2.487545E-3,9.783978E-3,-1.1321104E-2,-2.7351985E-2,1.5756754E-3,-5.2519883E-3,-4.4063963E-2,-1.9704519E-2,-1.3575236E-2,-4.1685076E-3,2.4406312E-3,-1.355011E-2,1.2560655E-2,2.564667E-2,4.4582463E-3,2.0831788E-2,1.2395522E-2,1.9584473E-2,5.723569E-3,5.469538E-4,3.6823836E-3,8.207787E-3,1.9196091E-3,9.461852E-3,2.0960463E-2,1.6221944E-2,9.482039E-3,4.8819087E-3,1.0559166E-2,1.8459879E-2,9.471911E-3,1.6291507E-2,1.9376542E-2,2.3215486E-2,1.4117906E-2,1.8793318E-2,1.7366057E-2,1.9603467E-2,1.2079891E-2,2.0804936E-2,1.3655469E-2,1.9543808E-2,1.9158667E-2,1.6970398E-2,1.9909482E-2,2.1868749E-2,2.1978933E-2,1.70859E-2,2.5186528E-2,2.1981217E-2],"categories":[],"categories_nodes":[],"categories_segments":[],"categories_sizes":[],"default_left":[0,0,0,0,0,0,0,0,0,0,0,0,0,0,0,0,0,0,0,0,0,0,0,0,0,0,0,0,0,0,0,0,0,0,0,0,0,0,0,0,0,0,0,0,0,0,0,0,0,0,0,0,0,0,0,0,0,0,0,0,0,0,0,0,0,0,0,0,0,0,0,0,0,0,0,0,0,0,0,0,0,0,0,0,0,0,0,0,0,0,0,0,0,0,0,0,0,0,0,0,0,0,0,0,0,0,0,0,0,0,0,0,0,0,0,0,0,0,0,0,0,0,0,0,0,0,0],"id":11,"left_children":[1,3,5,7,9,11,13,15,17,19,21,23,25,27,29,31,33,35,37,39,41,43,45,47,49,51,53,55,57,59,61,63,65,67,69,71,73,75,77,79,81,83,85,87,89,91,93,95,97,99,101,103,105,107,109,111,113,115,117,119,121,123,125,-1,-1,-1,-1,-1,-1,-1,-1,-1,-1,-1,-1,-1,-1,-1,-1,-1,-1,-1,-1,-1,-1,-1,-1,-1,-1,-1,-1,-1,-1,-1,-1,-1,-1,-1,-1,-1,-1,-1,-1,-1,-1,-1,-1,-1,-1,-1,-1,-1,-1,-1,-1,-1,-1,-1,-1,-1,-1,-1,-1,-1,-1,-1,-1],"loss_changes":[2.424534E3,2.195497E3,3.9023157E2,1.0673877E3,5.299718E2,8.108124E1,3.2204346E1,5.0030396E2,2.6567322E2,4.3787485E2,3.3919336E2,3.6439125E1,2.0409698E1,1.231073E1,2.415924E0,3.6291748E2,5.9466003E1,5.0869635E2,1.0208166E1,1.12346115E2,9.640411E1,7.939721E1,9.745801E1,2.1139278E1,5.4757233E1,1.5806274E1,1.1317963E1,3.9075623E0,8.82608E0,5.785675E-1,1.5534668E0,1.0452612E2,2.102843E2,2.1529968E1,1.7285797E1,4.6752112E2,7.0811874E1,9.474295E0,1.2030699E1,3.197934E1,7.942223E1,1.1630023E2,1.8011139E1,7.664731E1,4.554329E0,1.03958084E2,8.674805E0,3.0432945E1,5.2178307E0,1.4108477E1,2.0925446E0,7.365898E0,2.3428497E0,4.0746765E0,4.386902E-2,1.1008148E0,1.0722351E0,6.7658997E0,2.7072983E0,1.09931946E-1,1.01882935E-1,9.5282745E-1,5.7724E-2,0E0,0E0,0E0,0E0,0E0,0E0,0E0,0E0,0E0,0E0,0E0,0E0,0E0,0E0,0E0,0E0,0E0,0E0,0E0,0E0,0E0,0E0,0E0,0E0,0E0,0E0,0E0,0E0,0E0,0E0,0E0,0E0,0E0,0E0,0E0,0E0,0E0,0E0,0E0,0E0,0E0,0E0,0E0,0E0,0E0,0E0,0E0,0E0,0E0,0E0,0E0,0E0,0E0,0E0,0E0,0E0,0E0,0E0,0E0,0E0,0E0,0E0,0E0,0E0],"parents":[2147483647,0,0,1,1,2,2,3,3,4,4,5,5,6,6,7,7,8,8,9,9,10,10,11,11,12,12,13,13,14,14,15,15,16,16,17,17,18,18,19,19,20,20,21,21,22,22,23,23,24,24,25,25,26,26,27,27,28,28,29,29,30,30,31,31,32,32,33,33,34,34,35,35,36,36,37,37,38,38,39,39,40,40,41,41,42,42,43,43,44,44,45,45,46,46,47,47,48,48,49,49,50,50,51,51,52,52,53,53,54,54,55,55,56,56,57,57,58,58,59,59,60,60,61,61,62,62],"right_children":[2,4,6,8,10,12,14,16,18,20,22,24,26,28,30,32,34,36,38,40,42,44,46,48,50,52,54,56,58,60,62,64,66,68,70,72,74,76,78,80,82,84,86,88,90,92,94,96,98,100,102,104,106,108,110,112,114,116,118,120,122,124,126,-1,-1,-1,-1,-1,-1,-1,-1,-1,-1,-1,-1,-1,-1,-1,-1,-1,-1,-1,-1,-1,-1,-1,-1,-1,-1,-1,-1,-1,-1,-1,-1,-1,-1,-1,-1,-1,-1,-1,-1,-1,-1,-1,-1,-1,-1,-1,-1,-1,-1,-1,-1,-1,-1,-1,-1,-1,-1,-1,-1,-1,-1,-1,-1],"split_conditions":[7.9317E2,6.570324E4,1.25022E3,1.36E0,6.81069E-1,1.09963E3,1.53427E3,3.8196E2,3.4767E2,-4E-1,7.1626555E4,1.329852E0,2.003452E0,5.68E0,7.649064E4,5.864293E4,5E2,5.0325484E4,4.1065004E4,7.2240875E4,5E2,7.9164596E0,7.8814984E4,9.24E0,7.288516E4,3E0,7.466903E4,1.35633E3,1.032E1,1.59004E3,1.5312557E0,-6.9E-1,2.2498252E0,6.405763E4,6.5831E2,1.66E0,4.656549E-1,1.94E0,6.4218173E0,-9.3E-1,-1.31E0,7.233616E4,7.674516E4,-8.2E-1,9.4E-1,1.04E0,1.3531282E1,6.15E0,3E0,1.04E0,-3.1E-1,7.15E0,7.9327766E4,8.6E-1,2.6000912E0,7.654841E4,7.6255516E4,8.12546E4,1.28375E3,5.28E0,4.614495E0,-2.4E-1,1.7E-1,-6.4149134E-2,-9.756357E-2,-5.9282925E-2,-2.4313249E-2,-4.3843254E-2,-2.2107905E-2,-2.4288852E-2,-1.1966393E-2,-1.334892E-1,-3.7488762E-2,-3.4390923E-2,5.78578E-3,-2.714079E-2,-6.534909E-3,-2.487545E-3,9.783978E-3,-1.1321104E-2,-2.7351985E-2,1.5756754E-3,-5.2519883E-3,-4.4063963E-2,-1.9704519E-2,-1.3575236E-2,-4.1685076E-3,2.4406312E-3,-1.355011E-2,1.2560655E-2,2.564667E-2,4.4582463E-3,2.0831788E-2,1.2395522E-2,1.9584473E-2,5.723569E-3,5.469538E-4,3.6823836E-3,8.207787E-3,1.9196091E-3,9.461852E-3,2.0960463E-2,1.6221944E-2,9.482039E-3,4.8819087E-3,1.0559166E-2,1.8459879E-2,9.471911E-3,1.6291507E-2,1.9376542E-2,2.3215486E-2,1.4117906E-2,1.8793318E-2,1.7366057E-2,1.9603467E-2,1.2079891E-2,2.0804936E-2,1.3655469E-2,1.9543808E-2,1.9158667E-2,1.6970398E-2,1.9909482E-2,2.1868749E-2,2.1978933E-2,1.70859E-2,2.5186528E-2,2.1981217E-2],"split_indices":[1,6,1,2,0,1,1,1,1,2,6,0,0,5,6,6,1,6,6,6,1,0,6,5,6,4,6,1,5,1,0,2,0,6,1,2,0,2,0,2,2,6,6,2,2,2,3,5,4,2,2,5,6,2,0,6,6,6,1,5,0,2,2,0,0,0,0,0,0,0,0,0,0,0,0,0,0,0,0,0,0,0,0,0,0,0,0,0,0,0,0,0,0,0,0,0,0,0,0,0,0,0,0,0,0,0,0,0,0,0,0,0,0,0,0,0,0,0,0,0,0,0,0,0,0,0,0],"split_type":[0,0,0,0,0,0,0,0,0,0,0,0,0,0,0,0,0,0,0,0,0,0,0,0,0,0,0,0,0,0,0,0,0,0,0,0,0,0,0,0,0,0,0,0,0,0,0,0,0,0,0,0,0,0,0,0,0,0,0,0,0,0,0,0,0,0,0,0,0,0,0,0,0,0,0,0,0,0,0,0,0,0,0,0,0,0,0,0,0,0,0,0,0,0,0,0,0,0,0,0,0,0,0,0,0,0,0,0,0,0,0,0,0,0,0,0,0,0,0,0,0,0,0,0,0,0,0],"sum_hessian":[8.9776E4,4.7808E4,4.1968E4,9.167E3,3.8641E4,2.9723E4,1.2245E4,4.665E3,4.502E3,2.4942E4,1.3699E4,2.028E4,9.443E3,9.436E3,2.809E3,2.846E3,1.819E3,1.74E3,2.762E3,1.8889E4,6.053E3,4.008E3,9.691E3,1.6601E4,3.679E3,8.164E3,1.279E3,3.732E3,5.704E3,1.54E3,1.269E3,9.92E2,1.854E3,6.23E2,1.196E3,8.81E2,8.59E2,4.67E2,2.295E3,1.851E3,1.7038E4,3.717E3,2.336E3,3.664E3,3.44E2,6.852E3,2.839E3,1.3676E4,2.925E3,2.679E3,1E3,4.022E3,4.142E3,9.1E2,3.69E2,1.204E3,2.528E3,4.738E3,9.66E2,5.01E2,1.039E3,7.11E2,5.58E2,4.06E2,5.86E2,1.172E3,6.82E2,4.68E2,1.55E2,7.2E2,4.76E2,1.53E2,7.28E2,1.28E2,7.31E2,6.4E1,4.03E2,2.075E3,2.2E2,1.455E3,3.96E2,8.623E3,8.415E3,5.81E2,3.136E3,1.585E3,7.51E2,1.05E3,2.614E3,2.52E2,9.2E1,5.684E3,1.168E3,5.21E2,2.318E3,4.021E3,9.655E3,9.42E2,1.983E3,1.705E3,9.74E2,4.5E2,5.5E2,1.277E3,2.745E3,4.045E3,9.7E1,5.27E2,3.83E2,4.8E1,3.21E2,1.049E3,1.55E2,1.542E3,9.86E2,4.503E3,2.35E2,2.92E2,6.74E2,2.32E2,2.69E2,8.19E2,2.2E2,5.63E2,1.48E2,4.72E2,8.6E1],"tree_param":{"num_deleted":"0","num_feature":"7","num_nodes":"127","size_leaf_vector":"1"}},{"base_weights":[3.2895375E-6,-1.5205158E-1,1.605041E-1,-5.220184E-1,-3.3356845E-2,1.0134345E-1,3.065046E-1,-7.66913E-1,-2.4758375E-1,-1.1029823E-1,1.6681169E-1,6.807049E-2,1.7757443E-1,2.7996752E-1,3.988032E-1,-1.1325417E0,-4.667289E-1,-4.6568012E-1,-5.8884937E-2,-4.312258E-2,-3.4000668E-1,-1.3949833E-2,2.5911042E-1,5.045881E-2,1.6107315E-1,1.5986718E-1,2.8262055E-1,3.229322E-1,2.5142768E-1,3.740387E-1,4.3259555E-1,-1.642278E0,-9.763733E-1,-5.602421E-1,3.001307E-2,-6.6072184E-1,-3.4086028E-1,-1.1964486E-1,-4.1941204E-3,-4.7001587E-3,-1.4849772E-1,-7.2242236E-1,-3.0979162E-1,-5.3980794E-2,4.1979334E-1,1.7192209E-1,3.2791328E-1,3.1899072E-3,7.292978E-2,6.490914E-2,3.2226744E-1,1.1894595E-1,2.0126817E-1,2.2133209E-1,4.180041E-1,2.8695145E-1,3.5273078E-1,2.3425937E-1,3.2513776E-1,3.4434858E-1,3.8780636E-1,4.0032747E-1,2.3673404E-2,-7.117181E-2,-1.5779607E-1,-5.8845174E-2,-1.5666554E-2,-4.15689E-2,-1.7856918E-2,-2.056297E-2,1.6954768E-2,-4.3923073E-2,-2.1225268E-2,-9.263751E-3,-2.130155E-2,-1.759096E-2,-3.9933235E-3,-3.2845836E-3,4.7698054E-3,-5.0036437E-3,2.25956E-3,-2.343694E-2,-6.0314215E-3,-4.4753965E-2,-1.0043004E-2,-1.7943649E-2,-4.667344E-3,7.16568E-3,-8.297082E-3,1.3387973E-2,2.6383508E-2,5.4010097E-3,2.0057587E-2,9.831237E-3,1.7791862E-2,-6.802042E-3,2.1204357E-3,7.215157E-3,2.5001185E-3,1.0865251E-4,8.387689E-3,1.1559354E-2,1.917584E-2,4.892341E-3,9.84803E-3,9.91062E-3,1.8297328E-2,8.319616E-3,1.4895325E-2,1.711814E-2,2.1666115E-2,1.3941552E-2,2.066474E-2,1.7202344E-2,2.0047596E-2,1.9264905E-2,1.1240153E-2,1.2633197E-2,1.8568072E-2,1.8281944E-2,1.6144343E-2,2.0579992E-2,1.8806858E-2,2.0713776E-2,1.5254438E-2],"categories":[],"categories_nodes":[],"categories_segments":[],"categories_sizes":[],"default_left":[0,0,0,0,0,0,0,0,0,0,0,0,0,0,0,0,0,0,0,0,0,0,0,0,0,0,0,0,0,0,0,0,0,0,0,0,0,0,0,0,0,0,0,0,0,0,0,0,0,0,0,0,0,0,0,0,0,0,0,0,0,0,0,0,0,0,0,0,0,0,0,0,0,0,0,0,0,0,0,0,0,0,0,0,0,0,0,0,0,0,0,0,0,0,0,0,0,0,0,0,0,0,0,0,0,0,0,0,0,0,0,0,0,0,0,0,0,0,0,0,0,0,0,0,0],"id":12,"left_children":[1,3,5,7,9,11,13,15,17,19,21,23,25,27,29,31,33,35,37,39,41,43,45,47,49,51,53,55,57,59,61,63,65,67,69,71,73,75,77,79,81,83,85,87,89,91,93,95,97,99,101,103,105,107,109,111,113,115,117,119,121,123,-1,-1,-1,-1,-1,-1,-1,-1,-1,-1,-1,-1,-1,-1,-1,-1,-1,-1,-1,-1,-1,-1,-1,-1,-1,-1,-1,-1,-1,-1,-1,-1,-1,-1,-1,-1,-1,-1,-1,-1,-1,-1,-1,-1,-1,-1,-1,-1,-1,-1,-1,-1,-1,-1,-1,-1,-1,-1,-1,-1,-1,-1,-1],"loss_changes":[2.191026E3,2.0244647E3,3.7721985E2,7.524004E2,5.375988E2,7.882776E1,3.073523E1,6.4889746E2,2.173508E2,3.890579E2,1.6170557E2,3.543676E1,1.7521362E1,1.1917236E1,2.1897583E0,2.1070215E2,1.5103204E2,5.9420227E1,9.413586E0,7.899077E1,6.56958E1,5.6921722E1,3.8431976E1,1.9327156E1,5.3380325E1,1.3671814E1,1.1200317E1,4.0824585E0,7.3699036E0,5.323181E-1,1.3693695E0,2.0220667E2,2.7140137E2,1.503711E2,7.051644E1,4.8746246E1,1.974504E1,1.2365974E1,9.144103E0,6.803832E1,4.6468918E1,3.7371613E1,5.6153625E1,6.6313614E1,4.4017677E0,4.14404E1,1.3072968E1,3.2025925E1,2.0174583E1,1.3929654E1,7.0910187E0,6.6768227E0,1.9489136E0,3.9007835E0,3.41774E-1,1.7037964E0,7.539673E-1,6.7348022E0,3.621338E0,1.2182999E-1,1.519928E-1,7.5964355E-1,0E0,0E0,0E0,0E0,0E0,0E0,0E0,0E0,0E0,0E0,0E0,0E0,0E0,0E0,0E0,0E0,0E0,0E0,0E0,0E0,0E0,0E0,0E0,0E0,0E0,0E0,0E0,0E0,0E0,0E0,0E0,0E0,0E0,0E0,0E0,0E0,0E0,0E0,0E0,0E0,0E0,0E0,0E0,0E0,0E0,0E0,0E0,0E0,0E0,0E0,0E0,0E0,0E0,0E0,0E0,0E0,0E0,0E0,0E0,0E0,0E0,0E0,0E0],"parents":[2147483647,0,0,1,1,2,2,3,3,4,4,5,5,6,6,7,7,8,8,9,9,10,10,11,11,12,12,13,13,14,14,15,15,16,16,17,17,18,18,19,19,20,20,21,21,22,22,23,23,24,24,25,25,26,26,27,27,28,28,29,29,30,30,31,31,32,32,33,33,34,34,35,35,36,36,37,37,38,38,39,39,40,40,41,41,42,42,43,43,44,44,45,45,46,46,47,47,48,48,49,49,50,50,51,51,52,52,53,53,54,54,55,55,56,56,57,57,58,58,59,59,60,60,61,61],"right_children":[2,4,6,8,10,12,14,16,18,20,22,24,26,28,30,32,34,36,38,40,42,44,46,48,50,52,54,56,58,60,62,64,66,68,70,72,74,76,78,80,82,84,86,88,90,92,94,96,98,100,102,104,106,108,110,112,114,116,118,120,122,124,-1,-1,-1,-1,-1,-1,-1,-1,-1,-1,-1,-1,-1,-1,-1,-1,-1,-1,-1,-1,-1,-1,-1,-1,-1,-1,-1,-1,-1,-1,-1,-1,-1,-1,-1,-1,-1,-1,-1,-1,-1,-1,-1,-1,-1,-1,-1,-1,-1,-1,-1,-1,-1,-1,-1,-1,-1,-1,-1,-1,-1,-1,-1],"split_conditions":[7.5043E2,6.847554E4,1.24569E3,3.6919E2,7.4106324E-1,1.09263E3,1.53427E3,8.7484765E-1,1.24E0,-3.7E-1,7.372937E4,1.951121E0,1.951121E0,5.78E0,7.692595E4,5.35003E4,1.026E1,4.94E2,7.305475E-1,-1.06E0,7.1626555E4,1.17E0,7.751754E4,9.4627E2,6.9886766E4,3E0,7.328757E4,1.41204E3,1.032E1,1.59004E3,1.5911175E0,9.71E0,1.19E0,6.01447E4,7.9E-1,6.405763E4,-1.09E0,1.6037903E1,5.5412613E4,7.482217E4,7.335883E4,7.9E-1,8.41E0,-6.3E-1,1.26E0,1.1E0,1.37927475E1,7.043895E4,6.19E0,1.13E0,7.4256516E4,9.71E0,7.978535E4,8.6E-1,2.6868687E0,7.942646E4,2.6868687E0,1E0,1.28375E3,5.68E0,5.59E0,4E-2,2.3673404E-2,-7.117181E-2,-1.5779607E-1,-5.8845174E-2,-1.5666554E-2,-4.15689E-2,-1.7856918E-2,-2.056297E-2,1.6954768E-2,-4.3923073E-2,-2.1225268E-2,-9.263751E-3,-2.130155E-2,-1.759096E-2,-3.9933235E-3,-3.2845836E-3,4.7698054E-3,-5.0036437E-3,2.25956E-3,-2.343694E-2,-6.0314215E-3,-4.4753965E-2,-1.0043004E-2,-1.7943649E-2,-4.667344E-3,7.16568E-3,-8.297082E-3,1.3387973E-2,2.6383508E-2,5.4010097E-3,2.0057587E-2,9.831237E-3,1.7791862E-2,-6.802042E-3,2.1204357E-3,7.215157E-3,2.5001185E-3,1.0865251E-4,8.387689E-3,1.1559354E-2,1.917584E-2,4.892341E-3,9.84803E-3,9.91062E-3,1.8297328E-2,8.319616E-3,1.4895325E-2,1.711814E-2,2.1666115E-2,1.3941552E-2,2.066474E-2,1.7202344E-2,2.0047596E-2,1.9264905E-2,1.1240153E-2,1.2633197E-2,1.8568072E-2,1.8281944E-2,1.6144343E-2,2.0579992E-2,1.8806858E-2,2.0713776E-2,1.5254438E-2],"split_indices":[1,6,1,1,0,1,1,0,2,2,6,0,0,5,6,6,5,1,0,2,6,2,6,1,6,4,6,1,5,1,0,5,2,6,2,6,2,3,6,6,6,2,5,2,2,2,3,6,5,2,6,5,6,2,0,6,0,4,1,5,5,2,0,0,0,0,0,0,0,0,0,0,0,0,0,0,0,0,0,0,0,0,0,0,0,0,0,0,0,0,0,0,0,0,0,0,0,0,0,0,0,0,0,0,0,0,0,0,0,0,0,0,0,0,0,0,0,0,0,0,0,0,0,0,0],"split_type":[0,0,0,0,0,0,0,0,0,0,0,0,0,0,0,0,0,0,0,0,0,0,0,0,0,0,0,0,0,0,0,0,0,0,0,0,0,0,0,0,0,0,0,0,0,0,0,0,0,0,0,0,0,0,0,0,0,0,0,0,0,0,0,0,0,0,0,0,0,0,0,0,0,0,0,0,0,0,0,0,0,0,0,0,0,0,0,0,0,0,0,0,0,0,0,0,0,0,0,0,0,0,0,0,0,0,0,0,0,0,0,0,0,0,0,0,0,0,0,0,0,0,0,0,0],"sum_hessian":[8.9776E4,4.6101E4,4.3675E4,1.1197E4,3.4904E4,3.1082E4,1.2593E4,5.916E3,5.281E3,2.5213E4,9.691E3,2.1639E4,9.443E3,9.784E3,2.809E3,2.666E3,3.25E3,2.449E3,2.832E3,1.9509E4,5.704E3,3.276E3,6.415E3,1.8195E4,3.444E3,8.083E3,1.36E3,3.901E3,5.883E3,1.628E3,1.181E3,6.23E2,2.043E3,2.735E3,5.15E2,9.54E2,1.495E3,1.341E3,1.491E3,1.4297E4,5.212E3,4.16E2,5.288E3,3E3,2.76E2,2.831E3,3.584E3,5.863E3,1.2332E4,2.158E3,1.286E3,4.067E3,4.016E3,9.38E2,4.22E2,1.772E3,2.129E3,4.775E3,1.108E3,5.24E2,1.104E3,6.66E2,5.15E2,5.46E2,7.7E1,1.568E3,4.75E2,1.17E3,1.565E3,2.12E2,3.03E2,4.95E2,4.59E2,5.3E2,9.65E2,1.95E2,1.146E3,9.22E2,5.69E2,4.91E3,9.387E3,4.16E2,4.796E3,3.12E2,1.04E2,4.31E3,9.78E2,1.086E3,1.914E3,1.16E2,1.6E2,2.215E3,6.16E2,6.3E2,2.954E3,1.288E3,4.575E3,2.997E3,9.335E3,1.341E3,8.17E2,5.19E2,7.67E2,3.203E3,8.64E2,3.945E3,7.1E1,5.48E2,3.9E2,7.5E1,3.47E2,1.668E3,1.04E2,1.811E3,3.18E2,2.79E2,4.496E3,4.34E2,6.74E2,2.55E2,2.69E2,3.52E2,7.52E2,5.78E2,8.8E1],"tree_param":{"num_deleted":"0","num_feature":"7","num_nodes":"125","size_leaf_vector":"1"}},{"base_weights":[2.2036356E-6,-1.4445984E-1,1.5248846E-1,-5.5558306E-1,-4.746956E-2,9.73491E-2,2.9399854E-1,-8.653897E-1,-2.2611079E-1,-1.0825718E-1,1.3216574E-1,6.5476574E-2,1.7154601E-1,2.6868367E-1,3.789105E-1,-1.300137E0,-6.641347E-1,-4.3488935E-1,2.6573207E-2,-6.5972456E-3,-2.4313278E-1,-1.0649557E-1,2.4328068E-1,2.8891407E-2,1.0733176E-1,1.5484904E-1,2.779204E-1,3.103604E-1,2.4298385E-1,3.6954647E-1,4.6423027E-1,-1.4808077E0,-5.367408E-1,-1.1094478E0,-5.161127E-1,-1.6889496E0,-2.0706198E-1,-8.568299E-2,2.1676108E-1,-1.4825298E-1,2.6671235E-2,-4.4245303E-1,-1.9951308E-1,-1.6039643E-1,3.2229397E-1,1.6828403E-1,3.313493E-1,-4.833465E-2,5.530429E-2,9.0350844E-2,3.081843E-1,1.1447006E-1,1.9402109E-1,2.1870135E-1,4.02152E-1,2.7648517E-1,3.3488926E-1,2.2744317E-1,3.2109493E-1,3.5067028E-1,4.029676E-1,2.332647E-2,9.620356E-3,-4.7211897E-2,-8.426083E-2,-3.3631556E-2,-1.3537683E-2,-6.2017705E-2,-2.7874095E-2,-2.9233292E-2,3.3507515E-3,-1.2601835E-1,-6.6296294E-2,-5.4795886E-3,-4.665191E-2,-2.2824375E-2,-1.1215854E-3,5.1315348E-3,1.9419795E-2,-1.4928656E-2,-6.088914E-3,1.1547335E-5,9.155533E-3,-3.224253E-2,-6.052652E-3,-1.2735248E-2,-2.4006589E-4,-1.0482053E-2,1.5072057E-2,1.2721406E-2,2.50734E-2,5.4402538E-3,1.9354047E-2,1.9394165E-2,1.5066032E-2,-5.7099597E-3,-9.3025446E-4,1.4635134E-3,6.080394E-3,1.6249119E-3,5.991767E-3,2.2391338E-2,7.294012E-3,8.749172E-3,4.3132594E-3,9.528479E-3,1.6727012E-2,8.011074E-3,1.4676704E-2,1.5383132E-2,2.0602314E-2,1.3483963E-2,1.984351E-2,1.6320143E-2,1.9143239E-2,1.0970759E-2,1.9182794E-2,1.2345507E-2,1.7641045E-2,1.8727152E-2,1.680625E-2,2.180293E-2,1.9268397E-2],"categories":[],"categories_nodes":[],"categories_segments":[],"categories_sizes":[],"default_left":[0,0,0,0,0,0,0,0,0,0,0,0,0,0,0,0,0,0,0,0,0,0,0,0,0,0,0,0,0,0,0,0,0,0,0,0,0,0,0,0,0,0,0,0,0,0,0,0,0,0,0,0,0,0,0,0,0,0,0,0,0,0,0,0,0,0,0,0,0,0,0,0,0,0,0,0,0,0,0,0,0,0,0,0,0,0,0,0,0,0,0,0,0,0,0,0,0,0,0,0,0,0,0,0,0,0,0,0,0,0,0,0,0,0,0,0,0,0,0,0,0,0,0],"id":13,"left_children":[1,3,5,7,9,11,13,15,17,19,21,23,25,27,29,31,33,35,37,39,41,43,45,47,49,51,53,55,57,59,61,63,65,67,69,71,73,75,77,79,81,83,85,87,89,91,93,95,97,99,101,103,105,107,109,111,113,115,117,119,121,-1,-1,-1,-1,-1,-1,-1,-1,-1,-1,-1,-1,-1,-1,-1,-1,-1,-1,-1,-1,-1,-1,-1,-1,-1,-1,-1,-1,-1,-1,-1,-1,-1,-1,-1,-1,-1,-1,-1,-1,-1,-1,-1,-1,-1,-1,-1,-1,-1,-1,-1,-1,-1,-1,-1,-1,-1,-1,-1,-1,-1,-1],"loss_changes":[1.9776726E3,1.8382888E3,3.4076544E2,8.9804443E2,4.073482E2,7.4318146E1,2.6221436E1,3.959265E2,2.250644E2,3.8216382E2,2.501516E2,3.366665E1,1.6730743E1,1.003241E1,2.0734863E0,1.9698706E2,2.0389929E2,6.670671E2,4.1244965E1,7.490714E1,1.0406067E2,6.9318726E1,4.2453094E1,2.3937252E1,3.494847E1,1.2892593E1,9.328842E0,2.8954163E0,7.0185547E0,1.4591675E0,8.1474304E-2,1.2552759E2,9.793915E0,5.516217E1,9.318152E1,1.0501306E2,1.398631E2,2.8486197E1,1.4005272E1,1.1994217E1,5.324246E1,1.3978067E2,1.0563693E2,6.0627876E1,3.945942E0,4.5219917E1,4.9064026E0,5.8546247E0,1.508989E1,1.6127434E1,1.8043633E1,6.8512497E0,1.9456177E0,3.7558937E0,2.5841522E-1,1.1350784E0,7.223053E-1,6.0306854E0,2.1888046E0,4.3974304E-1,3.6135864E-1,0E0,0E0,0E0,0E0,0E0,0E0,0E0,0E0,0E0,0E0,0E0,0E0,0E0,0E0,0E0,0E0,0E0,0E0,0E0,0E0,0E0,0E0,0E0,0E0,0E0,0E0,0E0,0E0,0E0,0E0,0E0,0E0,0E0,0E0,0E0,0E0,0E0,0E0,0E0,0E0,0E0,0E0,0E0,0E0,0E0,0E0,0E0,0E0,0E0,0E0,0E0,0E0,0E0,0E0,0E0,0E0,0E0,0E0,0E0,0E0,0E0,0E0],"parents":[2147483647,0,0,1,1,2,2,3,3,4,4,5,5,6,6,7,7,8,8,9,9,10,10,11,11,12,12,13,13,14,14,15,15,16,16,17,17,18,18,19,19,20,20,21,21,22,22,23,23,24,24,25,25,26,26,27,27,28,28,29,29,30,30,31,31,32,32,33,33,34,34,35,35,36,36,37,37,38,38,39,39,40,40,41,41,42,42,43,43,44,44,45,45,46,46,47,47,48,48,49,49,50,50,51,51,52,52,53,53,54,54,55,55,56,56,57,57,58,58,59,59,60,60],"right_children":[2,4,6,8,10,12,14,16,18,20,22,24,26,28,30,32,34,36,38,40,42,44,46,48,50,52,54,56,58,60,62,64,66,68,70,72,74,76,78,80,82,84,86,88,90,92,94,96,98,100,102,104,106,108,110,112,114,116,118,120,122,-1,-1,-1,-1,-1,-1,-1,-1,-1,-1,-1,-1,-1,-1,-1,-1,-1,-1,-1,-1,-1,-1,-1,-1,-1,-1,-1,-1,-1,-1,-1,-1,-1,-1,-1,-1,-1,-1,-1,-1,-1,-1,-1,-1,-1,-1,-1,-1,-1,-1,-1,-1,-1,-1,-1,-1,-1,-1,-1,-1,-1,-1],"split_conditions":[7.5043E2,6.570324E4,1.25022E3,1.36E0,9.8425967E-1,1.09963E3,1.53427E3,5.915639E4,5.119941E4,-9.6E-1,7.1626555E4,5.941474E-1,2.003452E0,5.49E0,8.148495E4,4.2938E2,4.7936425E-1,1.71E0,1.951121E0,7.315873E4,7.250946E4,7.9164596E0,7.751754E4,9.4185E2,7.964972E4,3E0,7.328757E4,1.41204E3,1.032E1,1.66725E3,6.7E-1,-1.14E0,6.4479E2,3.573E2,9.888678E0,1.54E0,8.487668E1,2.08E0,5.747468E4,3.2470408E-1,5.8118707E-1,9.7E-1,8.64E0,1.13E0,9.4E-1,1.08E0,-7E-2,8.4006E2,8.72E0,6.7631484E4,7E-2,7.15E0,7.9327766E4,8.6E-1,7.466903E4,7.964972E4,2.6868687E0,8.12546E4,1.28375E3,5.68E0,4.17E0,2.332647E-2,9.620356E-3,-4.7211897E-2,-8.426083E-2,-3.3631556E-2,-1.3537683E-2,-6.2017705E-2,-2.7874095E-2,-2.9233292E-2,3.3507515E-3,-1.2601835E-1,-6.6296294E-2,-5.4795886E-3,-4.665191E-2,-2.2824375E-2,-1.1215854E-3,5.1315348E-3,1.9419795E-2,-1.4928656E-2,-6.088914E-3,1.1547335E-5,9.155533E-3,-3.224253E-2,-6.052652E-3,-1.2735248E-2,-2.4006589E-4,-1.0482053E-2,1.5072057E-2,1.2721406E-2,2.50734E-2,5.4402538E-3,1.9354047E-2,1.9394165E-2,1.5066032E-2,-5.7099597E-3,-9.3025446E-4,1.4635134E-3,6.080394E-3,1.6249119E-3,5.991767E-3,2.2391338E-2,7.294012E-3,8.749172E-3,4.3132594E-3,9.528479E-3,1.6727012E-2,8.011074E-3,