{"learner":{"attributes":{"scikit_learn":"{\"_estimator_type\": \"regressor\"}"},"feature_names":["mass_Mj","T_irr","Met","core","f_sed","kzz","S_physical"],"feature_types":["float","float","float","float","float","float","float"],"gradient_booster":{"model":{"gbtree_model_param":{"num_parallel_tree":"1","num_trees":"200"},"iteration_indptr":[0,1,2,3,4,5,6,7,8,9,10,11,12,13,14,15,16,17,18,19,20,21,22,23,24,25,26,27,28,29,30,31,32,33,34,35,36,37,38,39,40,41,42,43,44,45,46,47,48,49,50,51,52,53,54,55,56,57,58,59,60,61,62,63,64,65,66,67,68,69,70,71,72,73,74,75,76,77,78,79,80,81,82,83,84,85,86,87,88,89,90,91,92,93,94,95,96,97,98,99,100,101,102,103,104,105,106,107,108,109,110,111,112,113,114,115,116,117,118,119,120,121,122,123,124,125,126,127,128,129,130,131,132,133,134,135,136,137,138,139,140,141,142,143,144,145,146,147,148,149,150,151,152,153,154,155,156,157,158,159,160,161,162,163,164,165,166,167,168,169,170,171,172,173,174,175,176,177,178,179,180,181,182,183,184,185,186,187,188,189,190,191,192,193,194,195,196,197,198,199,200],"tree_info":[0,0,0,0,0,0,0,0,0,0,0,0,0,0,0,0,0,0,0,0,0,0,0,0,0,0,0,0,0,0,0,0,0,0,0,0,0,0,0,0,0,0,0,0,0,0,0,0,0,0,0,0,0,0,0,0,0,0,0,0,0,0,0,0,0,0,0,0,0,0,0,0,0,0,0,0,0,0,0,0,0,0,0,0,0,0,0,0,0,0,0,0,0,0,0,0,0,0,0,0,0,0,0,0,0,0,0,0,0,0,0,0,0,0,0,0,0,0,0,0,0,0,0,0,0,0,0,0,0,0,0,0,0,0,0,0,0,0,0,0,0,0,0,0,0,0,0,0,0,0,0,0,0,0,0,0,0,0,0,0,0,0,0,0,0,0,0,0,0,0,0,0,0,0,0,0,0,0,0,0,0,0,0,0,0,0,0,0,0,0,0,0,0,0,0,0,0,0,0,0],"trees":[{"base_weights":[2.4976627E-9,-1.5664868E-1,1.7568284E-1,-4.535322E-1,-4.4125646E-2,1.1507838E-1,2.8945416E-1,-6.514733E-1,-2.0271656E-1,-1.18650585E-1,1.0898906E-1,6.9805704E-2,1.5110119E-1,2.4384451E-1,3.3090463E-1,-9.7308475E-1,-4.2262223E-1,-3.2821363E-1,-9.610189E-2,-2.4412611E-1,-8.0896206E-2,1.9457243E-2,2.2487874E-1,5.048711E-2,1.279793E-1,1.2536274E-1,1.8201876E-1,2.1317749E-1,2.6882696E-1,3.116744E-1,3.8182142E-1,-1.2646602E0,-7.130777E-1,-6.317409E-1,-2.5629398E-1,-4.6719253E-1,-1.8665215E-1,-1.4660423E-1,-5.1579837E-2,-4.036874E-1,-2.1079758E-1,-5.0008327E-2,-1.8863674E-1,-2.3702674E-2,2.8957868E-1,1.752002E-1,2.6546165E-1,2.682056E-2,8.285701E-2,1.06233835E-1,2.5845778E-1,1.4136153E-1,1.08660184E-1,1.7550965E-1,2.1229081E-1,2.0034137E-1,2.5152892E-1,2.625828E-1,3.4675625E-1,2.934731E-1,3.217237E-1,3.5967985E-1,4.0101254E-1,-7.5012244E-2,-3.931674E-2,-4.1692548E-2,-1.968416E-2,-6.4008236E-2,-2.3369355E-2,-8.929754E-3,-2.3749394E-2,-2.8787035E-2,-1.6620329E-2,-1.34718595E-2,-6.603134E-3,-9.771841E-3,-3.8322948E-3,-3.3751682E-3,1.2956562E-3,-3.8597733E-2,-1.9459074E-2,-1.5979731E-2,-8.209123E-3,-1.1023297E-2,-1.7785085E-3,-1.09361885E-2,-3.2946393E-3,-4.657469E-3,2.4087548E-3,1.5766783E-2,7.293276E-3,1.020734E-2,4.672417E-3,1.4949813E-2,1.0580777E-2,-6.405261E-4,2.304802E-3,2.1545046E-3,4.416272E-3,1.133982E-2,5.0973664E-3,1.5244426E-2,1.1240079E-2,6.8751606E-3,1.2162775E-2,5.060933E-3,7.5318306E-3,7.7664503E-3,9.001736E-3,8.781679E-3,1.3425213E-2,9.837012E-3,1.2538293E-2,1.2138342E-2,1.6239729E-2,1.279928E-2,1.4354551E-2,1.6076213E-2,1.9555362E-2,1.6260998E-2,1.4559281E-2,1.558733E-2,1.6570626E-2,1.7335884E-2,1.8562254E-2,1.91006E-2,2.1228766E-2],"categories":[],"categories_nodes":[],"categories_segments":[],"categories_sizes":[],"default_left":[0,0,0,0,0,0,0,0,0,0,0,0,0,0,0,0,0,0,0,0,0,0,0,0,0,0,0,0,0,0,0,0,0,0,0,0,0,0,0,0,0,0,0,0,0,0,0,0,0,0,0,0,0,0,0,0,0,0,0,0,0,0,0,0,0,0,0,0,0,0,0,0,0,0,0,0,0,0,0,0,0,0,0,0,0,0,0,0,0,0,0,0,0,0,0,0,0,0,0,0,0,0,0,0,0,0,0,0,0,0,0,0,0,0,0,0,0,0,0,0,0,0,0,0,0,0,0],"id":0,"left_children":[1,3,5,7,9,11,13,15,17,19,21,23,25,27,29,31,33,35,37,39,41,43,45,47,49,51,53,55,57,59,61,63,65,67,69,71,73,75,77,79,81,83,85,87,89,91,93,95,97,99,101,103,105,107,109,111,113,115,117,119,121,123,125,-1,-1,-1,-1,-1,-1,-1,-1,-1,-1,-1,-1,-1,-1,-1,-1,-1,-1,-1,-1,-1,-1,-1,-1,-1,-1,-1,-1,-1,-1,-1,-1,-1,-1,-1,-1,-1,-1,-1,-1,-1,-1,-1,-1,-1,-1,-1,-1,-1,-1,-1,-1,-1,-1,-1,-1,-1,-1,-1,-1,-1,-1,-1,-1],"loss_changes":[2.470734E3,1.58544E3,2.9175146E2,6.474597E2,3.9274063E2,4.5020447E1,2.7723389E1,5.361406E2,7.6969376E1,1.0964758E2,1.1691029E2,1.37458725E1,1.2212952E1,5.3102417E0,7.4223022E0,2.2880762E2,1.4804572E2,5.1911316E1,6.9919167E0,2.8387177E1,5.9216805E1,7.4131096E1,9.8545685E0,7.0365562E0,8.626354E0,2.2276917E0,1.3387146E0,1.5002899E0,1.7857971E0,9.291992E-1,7.510681E-1,1.5962354E2,6.154492E1,2.0050098E2,4.0271835E1,1.9311401E1,5.889076E0,4.965912E0,2.045189E0,4.63562E0,2.2419724E1,3.403646E1,1.4628357E1,2.737384E1,3.1966171E0,5.2131195E0,4.8139496E0,4.056178E0,8.3995056E-1,1.3288078E0,6.1122704E-1,1.6507721E0,1.268898E0,4.9739075E-1,2.489479E0,3.801117E-1,4.2573166E-1,5.0453186E-1,1.9094086E-1,5.067444E-2,2.4420166E-1,1.939392E-2,3.3924866E-1,0E0,0E0,0E0,0E0,0E0,0E0,0E0,0E0,0E0,0E0,0E0,0E0,0E0,0E0,0E0,0E0,0E0,0E0,0E0,0E0,0E0,0E0,0E0,0E0,0E0,0E0,0E0,0E0,0E0,0E0,0E0,0E0,0E0,0E0,0E0,0E0,0E0,0E0,0E0,0E0,0E0,0E0,0E0,0E0,0E0,0E0,0E0,0E0,0E0,0E0,0E0,0E0,0E0,0E0,0E0,0E0,0E0,0E0,0E0,0E0,0E0,0E0,0E0,0E0],"parents":[2147483647,0,0,1,1,2,2,3,3,4,4,5,5,6,6,7,7,8,8,9,9,10,10,11,11,12,12,13,13,14,14,15,15,16,16,17,17,18,18,19,19,20,20,21,21,22,22,23,23,24,24,25,25,26,26,27,27,28,28,29,29,30,30,31,31,32,32,33,33,34,34,35,35,36,36,37,37,38,38,39,39,40,40,41,41,42,42,43,43,44,44,45,45,46,46,47,47,48,48,49,49,50,50,51,51,52,52,53,53,54,54,55,55,56,56,57,57,58,58,59,59,60,60,61,61,62,62],"right_children":[2,4,6,8,10,12,14,16,18,20,22,24,26,28,30,32,34,36,38,40,42,44,46,48,50,52,54,56,58,60,62,64,66,68,70,72,74,76,78,80,82,84,86,88,90,92,94,96,98,100,102,104,106,108,110,112,114,116,118,120,122,124,126,-1,-1,-1,-1,-1,-1,-1,-1,-1,-1,-1,-1,-1,-1,-1,-1,-1,-1,-1,-1,-1,-1,-1,-1,-1,-1,-1,-1,-1,-1,-1,-1,-1,-1,-1,-1,-1,-1,-1,-1,-1,-1,-1,-1,-1,-1,-1,-1,-1,-1,-1,-1,-1,-1,-1,-1,-1,-1,-1,-1,-1,-1,-1,-1],"split_conditions":[7.7912E2,6.973136E4,1.2182E3,3.9721E2,6.6960365E-1,9.9865E2,1.41204E3,7.251369E-1,1.06E0,7.402348E4,7.751754E4,7.806021E4,1.09963E3,1.26736E3,1.59004E3,-3.9E-1,7.4E-1,5.8907E2,7.930687E-1,1E0,-3E-1,1.11E0,1.0957536E0,9.4627E2,9.989264E-1,7.68E0,3.926054E1,1.7861303E0,7.983866E4,1.51E0,7.560264E4,6.497836E4,1.48E0,6.100197E4,7.938998E1,6.497836E4,6.518798E4,1.76E0,6.518798E4,2.87534E-1,3.6048844E-1,1E0,3.66E0,1.5312557E0,2.337024E1,-4.5E-1,2.4936E2,6.973136E4,6.497836E4,-8.5E-1,-2.7E-1,7.964972E4,8.1E-1,2.01E0,7.418195E4,7.820346E4,7.5778055E4,7.720466E4,4.374448E0,-4.7E-1,1.49584E3,1.63612E3,1.9027101E0,-7.5012244E-2,-3.931674E-2,-4.1692548E-2,-1.968416E-2,-6.4008236E-2,-2.3369355E-2,-8.929754E-3,-2.3749394E-2,-2.8787035E-2,-1.6620329E-2,-1.34718595E-2,-6.603134E-3,-9.771841E-3,-3.8322948E-3,-3.3751682E-3,1.2956562E-3,-3.8597733E-2,-1.9459074E-2,-1.5979731E-2,-8.209123E-3,-1.1023297E-2,-1.7785085E-3,-1.09361885E-2,-3.2946393E-3,-4.657469E-3,2.4087548E-3,1.5766783E-2,7.293276E-3,1.020734E-2,4.672417E-3,1.4949813E-2,1.0580777E-2,-6.405261E-4,2.304802E-3,2.1545046E-3,4.416272E-3,1.133982E-2,5.0973664E-3,1.5244426E-2,1.1240079E-2,6.8751606E-3,1.2162775E-2,5.060933E-3,7.5318306E-3,7.7664503E-3,9.001736E-3,8.781679E-3,1.3425213E-2,9.837012E-3,1.2538293E-2,1.2138342E-2,1.6239729E-2,1.279928E-2,1.4354551E-2,1.6076213E-2,1.9555362E-2,1.6260998E-2,1.4559281E-2,1.558733E-2,1.6570626E-2,1.7335884E-2,1.8562254E-2,1.91006E-2,2.1228766E-2],"split_indices":[1,6,1,1,0,1,1,0,2,6,6,6,1,1,1,2,2,1,0,4,2,2,0,1,0,5,3,0,6,4,6,6,2,6,3,6,6,2,6,0,0,4,4,0,3,2,1,6,6,2,2,6,0,4,6,6,6,6,0,2,1,1,0,0,0,0,0,0,0,0,0,0,0,0,0,0,0,0,0,0,0,0,0,0,0,0,0,0,0,0,0,0,0,0,0,0,0,0,0,0,0,0,0,0,0,0,0,0,0,0,0,0,0,0,0,0,0,0,0,0,0,0,0,0,0,0,0],"split_type":[0,0,0,0,0,0,0,0,0,0,0,0,0,0,0,0,0,0,0,0,0,0,0,0,0,0,0,0,0,0,0,0,0,0,0,0,0,0,0,0,0,0,0,0,0,0,0,0,0,0,0,0,0,0,0,0,0,0,0,0,0,0,0,0,0,0,0,0,0,0,0,0,0,0,0,0,0,0,0,0,0,0,0,0,0,0,0,0,0,0,0,0,0,0,0,0,0,0,0,0,0,0,0,0,0,0,0,0,0,0,0,0,0,0,0,0,0,0,0,0,0,0,0,0,0,0,0],"sum_hessian":[8.9776E4,4.7459E4,4.2317E4,1.3043E4,3.4416E4,2.7611E4,1.4706E4,7.289E3,5.754E3,2.3149E4,1.1267E4,1.2236E4,1.5375E4,7.005E3,7.701E3,3.029E3,4.26E3,2.642E3,3.112E3,5.353E3,1.7796E4,6.357E3,4.91E3,9.187E3,3.049E3,8.393E3,6.982E3,3.149E3,3.856E3,5.595E3,2.106E3,1.426E3,1.603E3,1.886E3,2.374E3,1.332E3,1.31E3,1.457E3,1.655E3,9.23E2,4.43E3,1.3832E4,3.964E3,5.482E3,8.75E2,2.21E3,2.7E3,5.308E3,3.879E3,2.615E3,4.34E2,4.283E3,4.11E3,5.752E3,1.23E3,2.364E3,7.85E2,3.574E3,2.82E2,2.001E3,3.594E3,9.87E2,1.119E3,9.54E2,4.72E2,1.162E3,4.41E2,3.8E2,1.506E3,1.753E3,6.21E2,7.36E2,5.96E2,5.19E2,7.91E2,8.57E2,6E2,1.373E3,2.82E2,3.3E1,8.9E2,1.327E3,3.103E3,1.079E3,1.2753E4,3.183E3,7.81E2,2.788E3,2.694E3,7.41E2,1.34E2,1.631E3,5.79E2,1.661E3,1.039E3,1.737E3,3.571E3,4.7E2,3.409E3,8.8E1,2.527E3,1.79E2,2.55E2,4.129E3,1.54E2,3.494E3,6.16E2,1.06E3,4.692E3,7.47E2,4.83E2,2.211E3,1.53E2,7.05E2,8E1,2.825E3,7.49E2,1.85E2,9.7E1,1.25E2,1.876E3,1.787E3,1.807E3,4.8E2,5.07E2,6.29E2,4.9E2],"tree_param":{"num_deleted":"0","num_feature":"7","num_nodes":"127","size_leaf_vector":"1"}},{"base_weights":[-5.4095045E-7,-1.4882517E-1,1.6690755E-1,-4.3367755E-1,-4.2905867E-2,1.14500366E-1,2.856948E-1,-6.2354267E-1,-1.9373123E-1,-1.1369622E-1,1.01508714E-1,8.3160594E-2,1.7089146E-1,2.6700845E-1,3.5305694E-1,-9.300298E-1,-4.0528852E-1,-3.1558993E-1,-9.183779E-2,-2.3746254E-1,-7.767826E-2,1.6391577E-2,2.1364301E-1,4.469397E-2,1.04039274E-1,1.4913444E-1,1.8177511E-1,2.2852346E-1,2.8441826E-1,3.3027115E-1,3.7544686E-1,-1.2144938E0,-6.7984647E-1,-6.086819E-1,-2.4510278E-1,-4.5620507E-1,-1.8848415E-1,-1.3910034E-1,-4.9927354E-2,-3.8370854E-1,-2.0613687E-1,-4.803837E-2,-1.779812E-1,-2.4678415E-2,2.7329084E-1,1.6644683E-1,2.5219804E-1,2.6997892E-2,1.3745658E-1,1.1862272E-1,9.117083E-2,1.4627989E-1,2.6792443E-1,1.7498055E-1,2.194759E-1,2.2375578E-1,1.5411074E-2,2.6628935E-1,2.9210004E-1,1.6312303E-2,1.8489726E-2,3.684121E-1,2.122961E-2,-7.125866E-2,-3.797785E-2,-3.98395E-2,-1.8702185E-2,-6.0816225E-2,-2.2528088E-2,-8.524008E-3,-2.2646433E-2,-2.7988736E-2,-1.631202E-2,-1.3447719E-2,-6.463691E-3,-9.210399E-3,-3.536621E-3,-5.9036925E-3,-1.7214998E-3,-3.6724605E-2,-1.8493054E-2,-1.6247777E-2,-8.174216E-3,-1.0477939E-2,-1.7198989E-3,-1.052926E-2,-3.7979912E-3,-4.332149E-3,2.3316068E-3,1.4972306E-2,6.7100893E-3,9.697283E-3,4.4391933E-3,1.4192115E-2,1.0033287E-2,-5.259912E-4,2.2215073E-3,4.488933E-3,1.1892374E-2,3.5954174E-3,6.484419E-3,4.3781567E-3,7.6249526E-3,7.981601E-3,6.0737827E-3,1.613122E-2,1.0037218E-2,7.496831E-3,9.002064E-3,9.533845E-3,1.415735E-2,1.1933575E-2,1.02196345E-2,1.2995486E-2,1.7662331E-2,1.3885449E-2,1.5112491E-2,2.0300705E-2,1.8004602E-2],"categories":[],"categories_nodes":[],"categories_segments":[],"categories_sizes":[],"default_left":[0,0,0,0,0,0,0,0,0,0,0,0,0,0,0,0,0,0,0,0,0,0,0,0,0,0,0,0,0,0,0,0,0,0,0,0,0,0,0,0,0,0,0,0,0,0,0,0,0,0,0,0,0,0,0,0,0,0,0,0,0,0,0,0,0,0,0,0,0,0,0,0,0,0,0,0,0,0,0,0,0,0,0,0,0,0,0,0,0,0,0,0,0,0,0,0,0,0,0,0,0,0,0,0,0,0,0,0,0,0,0,0,0,0,0,0,0,0,0],"id":1,"left_children":[1,3,5,7,9,11,13,15,17,19,21,23,25,27,29,31,33,35,37,39,41,43,45,47,49,51,53,55,57,59,61,63,65,67,69,71,73,75,77,79,81,83,85,87,89,91,93,95,97,99,101,103,105,107,109,111,-1,113,115,-1,-1,117,-1,-1,-1,-1,-1,-1,-1,-1,-1,-1,-1,-1,-1,-1,-1,-1,-1,-1,-1,-1,-1,-1,-1,-1,-1,-1,-1,-1,-1,-1,-1,-1,-1,-1,-1,-1,-1,-1,-1,-1,-1,-1,-1,-1,-1,-1,-1,-1,-1,-1,-1,-1,-1,-1,-1,-1,-1],"loss_changes":[2.2300886E3,1.4319143E3,2.634099E2,5.859302E2,3.5370215E2,5.188205E1,1.6211548E1,4.799751E2,7.054701E1,1.03478516E2,1.08623024E2,1.5156082E1,2.4566345E0,6.732361E0,1.3096313E0,2.1168213E2,1.3655957E2,4.616931E1,6.127577E0,2.3894623E1,5.346029E1,6.82813E1,8.894318E0,1.0901002E1,2.2852936E0,1.1486435E0,1.7514038E0,1.133667E0,8.944092E-1,1.0223389E-1,3.3103943E-1,1.327185E2,5.6598816E1,1.7700879E2,3.635228E1,1.634674E1,6.4499435E0,4.4740696E0,1.7310915E0,4.206894E0,2.1799744E1,3.0582047E1,1.36285095E1,2.4660542E1,3.2048264E0,4.704685E0,4.3475647E0,3.6498885E0,5.0714073E0,2.953682E0,1.4256821E0,1.1142654E0,2.3288965E-1,7.23938E-1,1.895195E0,8.1477356E-1,0E0,1.0670776E0,6.307373E-1,0E0,0E0,2.4205017E-1,0E0,0E0,0E0,0E0,0E0,0E0,0E0,0E0,0E0,0E0,0E0,0E0,0E0,0E0,0E0,0E0,0E0,0E0,0E0,0E0,0E0,0E0,0E0,0E0,0E0,0E0,0E0,0E0,0E0,0E0,0E0,0E0,0E0,0E0,0E0,0E0,0E0,0E0,0E0,0E0,0E0,0E0,0E0,0E0,0E0,0E0,0E0,0E0,0E0,0E0,0E0,0E0,0E0,0E0,0E0,0E0,0E0],"parents":[2147483647,0,0,1,1,2,2,3,3,4,4,5,5,6,6,7,7,8,8,9,9,10,10,11,11,12,12,13,13,14,14,15,15,16,16,17,17,18,18,19,19,20,20,21,21,22,22,23,23,24,24,25,25,26,26,27,27,28,28,29,29,30,30,31,31,32,32,33,33,34,34,35,35,36,36,37,37,38,38,39,39,40,40,41,41,42,42,43,43,44,44,45,45,46,46,47,47,48,48,49,49,50,50,51,51,52,52,53,53,54,54,55,55,57,57,58,58,61,61],"right_children":[2,4,6,8,10,12,14,16,18,20,22,24,26,28,30,32,34,36,38,40,42,44,46,48,50,52,54,56,58,60,62,64,66,68,70,72,74,76,78,80,82,84,86,88,90,92,94,96,98,100,102,104,106,108,110,112,-1,114,116,-1,-1,118,-1,-1,-1,-1,-1,-1,-1,-1,-1,-1,-1,-1,-1,-1,-1,-1,-1,-1,-1,-1,-1,-1,-1,-1,-1,-1,-1,-1,-1,-1,-1,-1,-1,-1,-1,-1,-1,-1,-1,-1,-1,-1,-1,-1,-1,-1,-1,-1,-1,-1,-1,-1,-1,-1,-1,-1,-1],"split_conditions":[7.7912E2,6.955081E4,1.24146E3,3.9721E2,6.6960365E-1,1.05999E3,1.53427E3,7.251369E-1,1.06E0,7.394124E4,7.751754E4,9.4953E2,1.12144E3,1.34054E3,1.63612E3,-4E-1,7.4E-1,5.7405E2,7.930687E-1,1E0,-3.3E-1,1.11E0,1.0957536E0,7.810428E4,7.56E0,8.065922E4,1.951121E0,7.9527414E4,1.41204E3,8.0567445E4,8.183366E4,6.497836E4,1.48E0,6.100197E4,7.938998E1,6.497836E4,6.518798E4,1.79E0,4.2010406E4,2.87534E-1,3.490766E-1,1E0,5.3103E2,1.7861303E0,2.4233921E1,-4.5E-1,2.5326E2,6.955081E4,9.989264E-1,6.7631484E4,1.4204533E0,7.79E0,-3.1E-1,2.01E0,7.372937E4,7.39E0,1.5411074E-2,8.0699484E4,1.78E0,1.6312303E-2,1.8489726E-2,1.01E0,2.122961E-2,-7.125866E-2,-3.797785E-2,-3.98395E-2,-1.8702185E-2,-6.0816225E-2,-2.2528088E-2,-8.524008E-3,-2.2646433E-2,-2.7988736E-2,-1.631202E-2,-1.3447719E-2,-6.463691E-3,-9.210399E-3,-3.536621E-3,-5.9036925E-3,-1.7214998E-3,-3.6724605E-2,-1.8493054E-2,-1.6247777E-2,-8.174216E-3,-1.0477939E-2,-1.7198989E-3,-1.052926E-2,-3.7979912E-3,-4.332149E-3,2.3316068E-3,1.4972306E-2,6.7100893E-3,9.697283E-3,4.4391933E-3,1.4192115E-2,1.0033287E-2,-5.259912E-4,2.2215073E-3,4.488933E-3,1.1892374E-2,3.5954174E-3,6.484419E-3,4.3781567E-3,7.6249526E-3,7.981601E-3,6.0737827E-3,1.613122E-2,1.0037218E-2,7.496831E-3,9.002064E-3,9.533845E-3,1.415735E-2,1.1933575E-2,1.02196345E-2,1.2995486E-2,1.7662331E-2,1.3885449E-2,1.5112491E-2,2.0300705E-2,1.8004602E-2],"split_indices":[1,6,1,1,0,1,1,0,2,6,6,1,1,1,1,2,2,1,0,4,2,2,0,6,5,6,0,6,1,6,6,6,2,6,3,6,6,2,6,0,0,4,1,0,3,2,1,6,0,6,0,5,2,4,6,5,0,6,4,0,0,4,0,0,0,0,0,0,0,0,0,0,0,0,0,0,0,0,0,0,0,0,0,0,0,0,0,0,0,0,0,0,0,0,0,0,0,0,0,0,0,0,0,0,0,0,0,0,0,0,0,0,0,0,0,0,0,0,0],"split_type":[0,0,0,0,0,0,0,0,0,0,0,0,0,0,0,0,0,0,0,0,0,0,0,0,0,0,0,0,0,0,0,0,0,0,0,0,0,0,0,0,0,0,0,0,0,0,0,0,0,0,0,0,0,0,0,0,0,0,0,0,0,0,0,0,0,0,0,0,0,0,0,0,0,0,0,0,0,0,0,0,0,0,0,0,0,0,0,0,0,0,0,0,0,0,0,0,0,0,0,0,0,0,0,0,0,0,0,0,0,0,0,0,0,0,0,0,0,0,0],"sum_hessian":[8.9776E4,4.7459E4,4.2317E4,1.2863E4,3.4596E4,2.9364E4,1.2953E4,7.18E3,5.683E3,2.3216E4,1.138E4,1.8876E4,1.0488E4,1.0144E4,2.809E3,2.985E3,4.195E3,2.587E3,3.096E3,5.232E3,1.7984E4,6.47E3,4.91E3,6.642E3,1.2234E4,3.502E3,6.986E3,3.164E3,6.98E3,1.4E3,1.409E3,1.395E3,1.59E3,1.847E3,2.348E3,1.227E3,1.36E3,1.454E3,1.642E3,9.21E2,4.311E3,1.3883E4,4.101E3,5.579E3,8.91E2,2.21E3,2.7E3,5.579E3,1.063E3,5.731E3,6.503E3,3.422E3,8E1,5.924E3,1.062E3,2.989E3,1.75E2,2.088E3,4.892E3,1.279E3,1.21E2,1.24E3,1.69E2,9.52E2,4.43E2,1.149E3,4.41E2,3.8E2,1.467E3,1.729E3,6.19E2,6.81E2,5.46E2,5.75E2,7.85E2,8.75E2,5.79E2,3.03E2,1.339E3,3.3E1,8.88E2,1.137E3,3.174E3,1.08E3,1.2803E4,3.107E3,9.94E2,2.985E3,2.594E3,7.49E2,1.42E2,1.631E3,5.79E2,1.67E3,1.03E3,1.77E3,3.809E3,7.22E2,3.41E2,1.099E3,4.632E3,6.144E3,3.59E2,2.221E3,1.201E3,4.2E1,3.8E1,1.001E3,4.923E3,7.34E2,3.28E2,1.682E3,1.307E3,1.949E3,1.39E2,2.035E3,2.857E3,2.16E2,1.024E3],"tree_param":{"num_deleted":"0","num_feature":"7","num_nodes":"119","size_leaf_vector":"1"}},{"base_weights":[-1.6440198E-6,-1.4139263E-1,1.5856956E-1,-4.0947273E-1,-3.9786506E-2,1.0382586E-1,2.6133865E-1,-5.8818734E-1,-1.830194E-1,-1.0706395E-1,9.84379E-2,6.2739715E-2,1.3651754E-1,2.0881432E-1,2.905529E-1,-8.766164E-1,-3.8015082E-1,-2.9633328E-1,-8.675482E-2,-1.5000741E-1,-1.695628E-2,1.7681507E-2,2.0296869E-1,4.4337586E-2,1.1346331E-1,1.1236107E-1,1.6301139E-1,1.9249058E-1,2.3307341E-1,2.731421E-1,3.4006318E-1,-1.140769E0,-6.427032E-1,-5.661703E-1,-2.263467E-1,-4.2211872E-1,-1.6821098E-1,-1.3233456E-1,-4.6572454E-2,-2.228636E-1,-1.1419222E-1,-8.339653E-3,-1.0111159E-1,-2.1263823E-2,2.614253E-1,1.65081E-1,2.4814686E-1,2.3624485E-2,7.322468E-2,9.4401054E-2,2.3339517E-1,1.03903465E-1,1.3934739E-1,1.5714593E-1,1.9007638E-1,1.8070897E-1,2.2769545E-1,2.2817624E-1,1.4313917E-2,2.6621303E-1,2.9109818E-1,3.1726745E-1,3.5671672E-1,-6.83682E-2,-3.7014555E-2,-3.760317E-2,-1.767763E-2,-5.0107878E-2,-1.8022379E-2,-2.0514002E-2,-7.176938E-3,-2.7207946E-2,-1.6179314E-2,-1.2128468E-2,-5.9588715E-3,-9.739185E-3,-4.3078978E-3,-3.0744167E-3,1.3005269E-3,-1.8229155E-2,-9.6015055E-3,-4.084289E-3,-9.449529E-3,-8.421559E-4,7.0578903E-3,-6.163509E-3,-6.062459E-5,-4.208152E-3,2.1918586E-3,1.4231901E-2,6.5952386E-3,7.0004785E-3,1.4272324E-2,1.0487334E-2,1.3110647E-2,-5.2660104E-4,2.091585E-3,1.8549635E-3,3.919494E-3,1.0360784E-2,4.523308E-3,1.3962135E-2,1.0051335E-2,5.9726783E-3,4.492046E-3,5.5899904E-3,1.2111887E-2,6.8593374E-3,8.068962E-3,7.7737733E-3,1.2180485E-2,8.866987E-3,1.1396495E-2,1.0984317E-2,1.4734613E-2,1.1082441E-2,1.21339215E-2,1.2189789E-2,1.3668685E-2,1.4174494E-2,1.6871097E-2,1.5657006E-2,1.7784618E-2,1.7441465E-2,1.9824762E-2],"categories":[],"categories_nodes":[],"categories_segments":[],"categories_sizes":[],"default_left":[0,0,0,0,0,0,0,0,0,0,0,0,0,0,0,0,0,0,0,0,0,0,0,0,0,0,0,0,0,0,0,0,0,0,0,0,0,0,0,0,0,0,0,0,0,0,0,0,0,0,0,0,0,0,0,0,0,0,0,0,0,0,0,0,0,0,0,0,0,0,0,0,0,0,0,0,0,0,0,0,0,0,0,0,0,0,0,0,0,0,0,0,0,0,0,0,0,0,0,0,0,0,0,0,0,0,0,0,0,0,0,0,0,0,0,0,0,0,0,0,0,0,0,0,0],"id":2,"left_children":[1,3,5,7,9,11,13,15,17,19,21,23,25,27,29,31,33,35,37,39,41,43,45,47,49,51,53,55,57,59,61,63,65,67,69,71,73,75,77,79,81,83,85,87,89,91,93,95,97,99,101,103,105,107,109,111,113,115,-1,117,119,121,123,-1,-1,-1,-1,-1,-1,-1,-1,-1,-1,-1,-1,-1,-1,-1,-1,-1,-1,-1,-1,-1,-1,-1,-1,-1,-1,-1,-1,-1,-1,-1,-1,-1,-1,-1,-1,-1,-1,-1,-1,-1,-1,-1,-1,-1,-1,-1,-1,-1,-1,-1,-1,-1,-1,-1,-1,-1,-1,-1,-1,-1,-1],"loss_changes":[2.0128713E3,1.2927268E3,2.3805225E2,5.277898E2,3.2006744E2,3.7079193E1,2.2506653E1,4.3709424E2,6.275049E1,8.957718E1,9.511558E1,1.1417259E1,9.822266E0,2.0381012E0,8.051392E0,1.8796973E2,1.2109485E2,4.2523376E1,5.695303E0,4.0884094E1,5.418091E0,6.036003E1,8.365158E0,5.371975E0,7.4240303E0,1.8219299E0,1.1339264E0,1.2653809E0,4.847107E-1,7.928467E-1,8.184509E-1,1.290271E2,5.1024292E1,1.7157928E2,3.5292572E1,1.5853134E1,4.751068E0,4.1876335E0,1.7944496E0,2.2503906E1,2.5546158E1,8.621428E0,1.5361047E0,2.2455484E1,2.5961685E0,8.029457E0,1.1538391E0,3.254194E0,6.968231E-1,1.2295418E0,6.057339E-1,1.3297348E0,5.4064293E0,4.8744202E-1,2.3719673E0,3.3584595E-1,3.570137E-1,1.2966919E-1,0E0,7.4542236E-1,5.870514E-1,5.4344177E-2,3.0407715E-1,0E0,0E0,0E0,0E0,0E0,0E0,0E0,0E0,0E0,0E0,0E0,0E0,0E0,0E0,0E0,0E0,0E0,0E0,0E0,0E0,0E0,0E0,0E0,0E0,0E0,0E0,0E0,0E0,0E0,0E0,0E0,0E0,0E0,0E0,0E0,0E0,0E0,0E0,0E0,0E0,0E0,0E0,0E0,0E0,0E0,0E0,0E0,0E0,0E0,0E0,0E0,0E0,0E0,0E0,0E0,0E0,0E0,0E0,0E0,0E0,0E0,0E0],"parents":[2147483647,0,0,1,1,2,2,3,3,4,4,5,5,6,6,7,7,8,8,9,9,10,10,11,11,12,12,13,13,14,14,15,15,16,16,17,17,18,18,19,19,20,20,21,21,22,22,23,23,24,24,25,25,26,26,27,27,28,28,29,29,30,30,31,31,32,32,33,33,34,34,35,35,36,36,37,37,38,38,39,39,40,40,41,41,42,42,43,43,44,44,45,45,46,46,47,47,48,48,49,49,50,50,51,51,52,52,53,53,54,54,55,55,56,56,57,57,59,59,60,60,61,61,62,62],"right_children":[2,4,6,8,10,12,14,16,18,20,22,24,26,28,30,32,34,36,38,40,42,44,46,48,50,52,54,56,58,60,62,64,66,68,70,72,74,76,78,80,82,84,86,88,90,92,94,96,98,100,102,104,106,108,110,112,114,116,-1,118,120,122,124,-1,-1,-1,-1,-1,-1,-1,-1,-1,-1,-1,-1,-1,-1,-1,-1,-1,-1,-1,-1,-1,-1,-1,-1,-1,-1,-1,-1,-1,-1,-1,-1,-1,-1,-1,-1,-1,-1,-1,-1,-1,-1,-1,-1,-1,-1,-1,-1,-1,-1,-1,-1,-1,-1,-1,-1,-1,-1,-1,-1,-1,-1],"split_conditions":[7.7912E2,6.973136E4,1.2182E3,3.9721E2,6.6960365E-1,9.9865E2,1.35633E3,7.305475E-1,1.06E0,7.755739E4,7.751754E4,7.794167E4,1.09263E3,1.26736E3,1.5548E3,-3.9E-1,7.9E-1,5.8907E2,7.930687E-1,7.394124E4,-2.2E-1,1.11E0,7.937837E4,9.4627E2,9.989264E-1,7.857998E-1,3.926054E1,1.7861303E0,7.9236016E4,2.003452E0,1.63612E3,6.375134E4,1.48E0,6.276442E4,5.0325484E4,6.3374715E4,6.518798E4,3.12E0,6.518798E4,1E0,-2.8E-1,5.242656E-1,3.33E0,1.5312557E0,2.337024E1,9.4E-1,1.1294183E0,7.025888E4,6.497836E4,-8.5E-1,-2.7E-1,7.77E0,7.564514E4,1.99E0,7.418195E4,7.820346E4,7.5778055E4,7.5542195E4,1.4313917E-2,1.41204E3,7.847702E4,8.0567445E4,8.0326E4,-6.83682E-2,-3.7014555E-2,-3.760317E-2,-1.767763E-2,-5.0107878E-2,-1.8022379E-2,-2.0514002E-2,-7.176938E-3,-2.7207946E-2,-1.6179314E-2,-1.2128468E-2,-5.9588715E-3,-9.739185E-3,-4.3078978E-3,-3.0744167E-3,1.3005269E-3,-1.8229155E-2,-9.6015055E-3,-4.084289E-3,-9.449529E-3,-8.421559E-4,7.0578903E-3,-6.163509E-3,-6.062459E-5,-4.208152E-3,2.1918586E-3,1.4231901E-2,6.5952386E-3,7.0004785E-3,1.4272324E-2,1.0487334E-2,1.3110647E-2,-5.2660104E-4,2.091585E-3,1.8549635E-3,3.919494E-3,1.0360784E-2,4.523308E-3,1.3962135E-2,1.0051335E-2,5.9726783E-3,4.492046E-3,5.5899904E-3,1.2111887E-2,6.8593374E-3,8.068962E-3,7.7737733E-3,1.2180485E-2,8.866987E-3,1.1396495E-2,1.0984317E-2,1.4734613E-2,1.1082441E-2,1.21339215E-2,1.2189789E-2,1.3668685E-2,1.4174494E-2,1.6871097E-2,1.5657006E-2,1.7784618E-2,1.7441465E-2,1.9824762E-2],"split_indices":[1,6,1,1,0,1,1,0,2,6,6,6,1,1,1,2,2,1,0,6,2,2,6,1,0,0,3,0,6,0,1,6,2,6,6,6,6,4,6,4,2,0,4,0,3,2,0,6,6,2,2,5,6,4,6,6,6,6,0,1,6,6,6,0,0,0,0,0,0,0,0,0,0,0,0,0,0,0,0,0,0,0,0,0,0,0,0,0,0,0,0,0,0,0,0,0,0,0,0,0,0,0,0,0,0,0,0,0,0,0,0,0,0,0,0,0,0,0,0,0,0,0,0,0,0],"split_type":[0,0,0,0,0,0,0,0,0,0,0,0,0,0,0,0,0,0,0,0,0,0,0,0,0,0,0,0,0,0,0,0,0,0,0,0,0,0,0,0,0,0,0,0,0,0,0,0,0,0,0,0,0,0,0,0,0,0,0,0,0,0,0,0,0,0,0,0,0,0,0,0,0,0,0,0,0,0,0,0,0,0,0,0,0,0,0,0,0,0,0,0,0,0,0,0,0,0,0,0,0,0,0,0,0,0,0,0,0,0,0,0,0,0,0,0,0,0,0,0,0,0,0,0,0],"sum_hessian":[8.9776E4,4.7459E4,4.2317E4,1.3043E4,3.4416E4,2.7611E4,1.4706E4,7.289E3,5.754E3,2.3149E4,1.1267E4,1.2236E4,1.5375E4,5.259E3,9.447E3,3.053E3,4.236E3,2.642E3,3.112E3,1.5677E4,7.472E3,6.357E3,4.91E3,8.98E3,3.256E3,8.045E3,7.33E3,3.149E3,2.11E3,6.994E3,2.453E3,1.432E3,1.621E3,1.916E3,2.32E3,1.332E3,1.31E3,1.457E3,1.655E3,5.165E3,1.0512E4,6.779E3,6.93E2,5.482E3,8.75E2,2.673E3,2.237E3,5.231E3,3.749E3,2.811E3,4.45E2,6.129E3,1.916E3,6.03E3,1.3E3,2.364E3,7.85E2,1.937E3,1.73E2,5.058E3,1.936E3,1.044E3,1.409E3,9.13E2,5.19E2,1.175E3,4.46E2,6.13E2,1.303E3,7.19E2,1.601E3,5.93E2,7.39E2,5.19E2,7.91E2,6.18E2,8.39E2,1.373E3,2.82E2,9.21E2,4.244E3,7.329E3,3.183E3,6.415E3,3.64E2,5.67E2,1.26E2,2.788E3,2.694E3,7.41E2,1.34E2,2.214E3,4.59E2,6.04E2,1.633E3,1.819E3,3.412E3,4.7E2,3.279E3,9.3E1,2.718E3,1.81E2,2.64E2,2.907E3,3.222E3,1.513E3,4.03E2,1.061E3,4.969E3,7.92E2,5.08E2,2.211E3,1.53E2,7.05E2,8E1,1.347E3,5.9E2,1.233E3,3.825E3,1.669E3,2.67E2,9.51E2,9.3E1,1.184E3,2.25E2],"tree_param":{"num_deleted":"0","num_feature":"7","num_nodes":"125","size_leaf_vector":"1"}},{"base_weights":[-1.4716531E-6,-1.3329014E-1,1.5183435E-1,-3.8236743E-1,-3.6129173E-2,1.01691395E-1,2.5199124E-1,-5.7194656E-1,-1.8783581E-1,-1.00776E-1,9.6944414E-2,7.627905E-2,1.5154718E-1,2.1304834E-1,2.8381264E-1,-8.8095325E-1,-3.594056E-1,-3.0493286E-1,-7.681212E-2,-1.4117703E-1,-1.609216E-2,2.129349E-2,1.9305788E-1,4.1947816E-2,9.3933694E-2,1.3447638E-1,1.6158883E-1,1.8827002E-1,2.3282993E-1,2.6726753E-1,3.2762027E-1,-1.1094943E0,-6.715459E-1,-5.3328276E-1,-2.2486E-1,-4.484421E-1,-1.5817332E-1,-1.199877E-1,-3.634505E-2,-2.6993215E-1,-1.2302088E-1,-7.1490416E-3,-8.960219E-2,-1.583628E-2,2.467599E-1,1.618643E-1,2.4309583E-1,2.789378E-2,1.260383E-1,1.0744143E-1,8.201483E-2,1.31825E-1,2.4486163E-1,1.5621854E-1,2.020903E-1,1.761341E-1,2.1626306E-1,2.2774146E-1,3.04496E-1,2.5174162E-1,2.7666432E-1,3.079715E-1,3.4466073E-1,-6.677109E-2,-3.4090098E-2,-3.9514177E-2,-2.5661564E-2,-5.3638894E-2,-1.8485958E-2,-1.988268E-2,-7.4385786E-3,-3.0172486E-2,-1.7350255E-2,-1.18179815E-2,-5.4368004E-3,-9.084436E-3,-2.854052E-3,4.4098035E-3,-2.3885488E-3,-9.8309135E-3,-1.8090768E-2,-4.7490266E-3,-9.396568E-3,-7.833185E-4,7.7981325E-3,-5.6516584E-3,-2.5178437E-4,-3.9599524E-3,2.404874E-3,5.982694E-3,1.3427009E-2,6.9544623E-3,1.3616259E-2,1.0408542E-2,1.2734468E-2,-2.3355603E-4,2.0018697E-3,4.1199764E-3,1.1385926E-2,3.2025704E-3,5.886011E-3,3.9354805E-3,6.910263E-3,7.313613E-3,5.6265634E-3,1.4820938E-2,9.086906E-3,6.731479E-3,8.066848E-3,8.292447E-3,1.31205795E-2,8.569836E-3,1.1006711E-2,1.0316485E-2,1.3663821E-2,1.1043394E-2,1.2415937E-2,1.3967067E-2,1.7046323E-2,1.2421455E-2,1.3400845E-2,1.3304631E-2,1.4249739E-2,1.487575E-2,1.5863303E-2,1.6380396E-2,1.829196E-2],"categories":[],"categories_nodes":[],"categories_segments":[],"categories_sizes":[],"default_left":[0,0,0,0,0,0,0,0,0,0,0,0,0,0,0,0,0,0,0,0,0,0,0,0,0,0,0,0,0,0,0,0,0,0,0,0,0,0,0,0,0,0,0,0,0,0,0,0,0,0,0,0,0,0,0,0,0,0,0,0,0,0,0,0,0,0,0,0,0,0,0,0,0,0,0,0,0,0,0,0,0,0,0,0,0,0,0,0,0,0,0,0,0,0,0,0,0,0,0,0,0,0,0,0,0,0,0,0,0,0,0,0,0,0,0,0,0,0,0,0,0,0,0,0,0,0,0],"id":3,"left_children":[1,3,5,7,9,11,13,15,17,19,21,23,25,27,29,31,33,35,37,39,41,43,45,47,49,51,53,55,57,59,61,63,65,67,69,71,73,75,77,79,81,83,85,87,89,91,93,95,97,99,101,103,105,107,109,111,113,115,117,119,121,123,125,-1,-1,-1,-1,-1,-1,-1,-1,-1,-1,-1,-1,-1,-1,-1,-1,-1,-1,-1,-1,-1,-1,-1,-1,-1,-1,-1,-1,-1,-1,-1,-1,-1,-1,-1,-1,-1,-1,-1,-1,-1,-1,-1,-1,-1,-1,-1,-1,-1,-1,-1,-1,-1,-1,-1,-1,-1,-1,-1,-1,-1,-1,-1,-1],"loss_changes":[1.8169268E3,1.1569922E3,2.1074963E2,4.9466284E2,2.9589398E2,3.542383E1,1.7289734E1,4.4589014E2,8.607921E1,7.9197754E1,8.176637E1,1.1225975E1,1.5968018E0,3.044159E0,5.494934E0,1.3172656E2,9.408942E1,6.780975E1,5.93783E0,3.660318E1,4.915464E0,5.2694233E1,7.6916046E0,7.434799E0,1.9609985E0,9.9295425E-1,1.2603912E0,9.1381073E-1,1.2066193E0,7.467346E-1,5.9931946E-1,1.2683093E2,2.6794983E1,1.5455588E2,2.9812164E1,2.5404236E1,6.139488E0,6.3745403E0,2.5044203E0,1.2970352E1,2.4985031E1,9.266133E0,1.6064076E0,2.1899569E1,2.4317474E0,7.645233E0,7.1630096E-1,2.133274E0,3.9791546E0,2.548912E0,1.1970558E0,9.3767166E-1,2.0974112E-1,5.5830383E-1,1.4692764E0,3.7082672E-1,4.2103577E-1,4.078064E-1,1.1462021E-1,4.777527E-2,2.3028564E-1,1.6326904E-3,2.8463745E-1,0E0,0E0,0E0,0E0,0E0,0E0,0E0,0E0,0E0,0E0,0E0,0E0,0E0,0E0,0E0,0E0,0E0,0E0,0E0,0E0,0E0,0E0,0E0,0E0,0E0,0E0,0E0,0E0,0E0,0E0,0E0,0E0,0E0,0E0,0E0,0E0,0E0,0E0,0E0,0E0,0E0,0E0,0E0,0E0,0E0,0E0,0E0,0E0,0E0,0E0,0E0,0E0,0E0,0E0,0E0,0E0,0E0,0E0,0E0,0E0,0E0,0E0,0E0,0E0],"parents":[2147483647,0,0,1,1,2,2,3,3,4,4,5,5,6,6,7,7,8,8,9,9,10,10,11,11,12,12,13,13,14,14,15,15,16,16,17,17,18,18,19,19,20,20,21,21,22,22,23,23,24,24,25,25,26,26,27,27,28,28,29,29,30,30,31,31,32,32,33,33,34,34,35,35,36,36,37,37,38,38,39,39,40,40,41,41,42,42,43,43,44,44,45,45,46,46,47,47,48,48,49,49,50,50,51,51,52,52,53,53,54,54,55,55,56,56,57,57,58,58,59,59,60,60,61,61,62,62],"right_children":[2,4,6,8,10,12,14,16,18,20,22,24,26,28,30,32,34,36,38,40,42,44,46,48,50,52,54,56,58,60,62,64,66,68,70,72,74,76,78,80,82,84,86,88,90,92,94,96,98,100,102,104,106,108,110,112,114,116,118,120,122,124,126,-1,-1,-1,-1,-1,-1,-1,-1,-1,-1,-1,-1,-1,-1,-1,-1,-1,-1,-1,-1,-1,-1,-1,-1,-1,-1,-1,-1,-1,-1,-1,-1,-1,-1,-1,-1,-1,-1,-1,-1,-1,-1,-1,-1,-1,-1,-1,-1,-1,-1,-1,-1,-1,-1,-1,-1,-1,-1,-1,-1,-1,-1,-1,-1],"split_conditions":[7.9317E2,6.9886766E4,1.22838E3,3.6919E2,6.6960365E-1,1.05999E3,1.41204E3,7.305475E-1,1.08E0,7.755739E4,7.751754E4,9.4953E2,1.12144E3,1.28375E3,1.59004E3,-3.9E-1,7.4E-1,5.7405E2,3.41E0,1E0,-3.8E-1,1.1E0,7.978535E4,7.829826E4,7.56E0,8.065922E4,2.7597783E0,1.7861303E0,8.0214336E4,1.66E0,7.560264E4,6.497836E4,3.04E0,6.1754332E4,5.0325484E4,6.276442E4,6.518798E4,8.403202E-1,3.9721E2,1.414E2,-3.3E-1,5.242656E-1,3.25E0,1.4711858E0,7.1626555E4,9.6E-1,5.78E0,6.847554E4,1.0644844E0,6.7631484E4,1.4204533E0,6.83E0,-3.1E-1,2.01E0,7.402348E4,7.7776625E4,7.372937E4,7.681606E4,4.2536674E0,1.0452455E0,1.49199E3,1.63612E3,1.9027101E0,-6.677109E-2,-3.4090098E-2,-3.9514177E-2,-2.5661564E-2,-5.3638894E-2,-1.8485958E-2,-1.988268E-2,-7.4385786E-3,-3.0172486E-2,-1.7350255E-2,-1.18179815E-2,-5.4368004E-3,-9.084436E-3,-2.854052E-3,4.4098035E-3,-2.3885488E-3,-9.8309135E-3,-1.8090768E-2,-4.7490266E-3,-9.396568E-3,-7.833185E-4,7.7981325E-3,-5.6516584E-3,-2.5178437E-4,-3.9599524E-3,2.404874E-3,5.982694E-3,1.3427009E-2,6.9544623E-3,1.3616259E-2,1.0408542E-2,1.2734468E-2,-2.3355603E-4,2.0018697E-3,4.1199764E-3,1.1385926E-2,3.2025704E-3,5.886011E-3,3.9354805E-3,6.910263E-3,7.313613E-3,5.6265634E-3,1.4820938E-2,9.086906E-3,6.731479E-3,8.066848E-3,8.292447E-3,1.31205795E-2,8.569836E-3,1.1006711E-2,1.0316485E-2,1.3663821E-2,1.1043394E-2,1.2415937E-2,1.3967067E-2,1.7046323E-2,1.2421455E-2,1.3400845E-2,1.3304631E-2,1.4249739E-2,1.487575E-2,1.5863303E-2,1.6380396E-2,1.829196E-2],"split_indices":[1,6,1,1,0,1,1,0,2,6,6,1,1,1,1,2,2,1,4,4,2,2,6,6,5,6,0,0,6,4,6,6,4,6,6,6,6,0,1,1,2,0,4,0,6,2,5,6,0,6,0,5,2,4,6,6,6,6,0,0,1,1,0,0,0,0,0,0,0,0,0,0,0,0,0,0,0,0,0,0,0,0,0,0,0,0,0,0,0,0,0,0,0,0,0,0,0,0,0,0,0,0,0,0,0,0,0,0,0,0,0,0,0,0,0,0,0,0,0,0,0,0,0,0,0,0,0],"split_type":[0,0,0,0,0,0,0,0,0,0,0,0,0,0,0,0,0,0,0,0,0,0,0,0,0,0,0,0,0,0,0,0,0,0,0,0,0,0,0,0,0,0,0,0,0,0,0,0,0,0,0,0,0,0,0,0,0,0,0,0,0,0,0,0,0,0,0,0,0,0,0,0,0,0,0,0,0,0,0,0,0,0,0,0,0,0,0,0,0,0,0,0,0,0,0,0,0,0,0,0,0,0,0,0,0,0,0,0,0,0,0,0,0,0,0,0,0,0,0,0,0,0,0,0,0,0,0],"sum_hessian":[8.9776E4,4.7808E4,4.1968E4,1.3415E4,3.4393E4,2.7968E4,1.4E4,6.793E3,6.622E3,2.3148E4,1.1245E4,1.8527E4,9.441E3,6.299E3,7.701E3,2.767E3,4.026E3,3.222E3,3.4E3,1.5671E4,7.477E3,6.293E3,4.952E3,6.293E3,1.2234E4,3.502E3,5.939E3,2.801E3,3.498E3,5.595E3,2.106E3,1.321E3,1.446E3,1.755E3,2.271E3,1.628E3,1.594E3,1.644E3,1.756E3,1.935E3,1.3736E4,6.667E3,8.1E2,5.404E3,8.89E2,3.053E3,1.899E3,5.393E3,9E2,5.731E3,6.503E3,3.422E3,8E1,5.248E3,6.91E2,1.959E3,8.42E2,3.27E3,2.28E2,2.12E3,3.475E3,9.87E2,1.119E3,8.63E2,4.58E2,8.24E2,6.22E2,4.07E2,1.348E3,6.93E2,1.578E3,6.42E2,9.86E2,6.16E2,9.78E2,8.29E2,8.15E2,1.47E2,1.609E3,1.078E3,8.57E2,9.594E3,4.142E3,6.337E3,3.3E2,6.34E2,1.76E2,2.714E3,2.69E3,1.31E2,7.58E2,2.533E3,5.2E2,4.78E2,1.421E3,1.465E3,3.928E3,6.31E2,2.69E2,1.099E3,4.632E3,6.144E3,3.59E2,1.953E3,1.469E3,4.2E1,3.8E1,1.011E3,4.237E3,4.34E2,2.57E2,1.773E3,1.86E2,7.21E2,1.21E2,2.46E3,8.1E2,1.4E2,8.8E1,1.775E3,3.45E2,1.546E3,1.929E3,4.8E2,5.07E2,6.29E2,4.9E2],"tree_param":{"num_deleted":"0","num_feature":"7","num_nodes":"127","size_leaf_vector":"1"}},{"base_weights":[-1.3268751E-6,-1.3059074E-1,1.400102E-1,-3.832406E-1,-3.857729E-2,9.0723515E-2,2.3591316E-1,-5.9049755E-1,-2.0879245E-1,-9.833456E-2,8.517638E-2,5.1772073E-2,1.2262559E-1,1.8844874E-1,2.6231313E-1,-8.88382E-1,-3.882341E-1,-3.3478877E-1,-8.6057454E-2,-2.0831966E-1,-6.549205E-2,1.2662304E-2,1.8233858E-1,3.2408718E-2,1.07588746E-1,1.0214768E-1,1.4827067E-1,1.7382148E-1,2.1018602E-1,2.4501994E-1,3.0307722E-1,-1.1848446E0,-5.118667E-1,-5.8747137E-1,-2.8193066E-1,-5.775104E-1,-2.1079458E-1,-1.3074304E-1,-4.9636424E-2,-3.290514E-1,-1.8266796E-1,-3.9970443E-2,-1.5572055E-1,-2.3552617E-2,2.3519261E-1,1.3783744E-1,2.1650602E-1,-6.513133E-3,4.9049016E-2,8.844978E-2,2.1210232E-1,9.3909904E-2,1.2578015E-1,1.4340582E-1,1.785333E-1,2.0033716E-1,1.6044925E-1,2.0542015E-1,1.2785125E-2,2.3864649E-1,2.6198247E-1,2.8364277E-1,3.2217264E-1,-8.091782E-2,-5.3454954E-2,-3.8048726E-2,-1.8527165E-2,-3.5642587E-2,-1.7014205E-2,-2.0830637E-2,-1.0214356E-2,-3.8973432E-2,-1.8171009E-2,-1.8644204E-2,-6.8732128E-3,-9.180812E-3,-3.8606704E-3,-9.22279E-3,-1.7983889E-3,-3.3179797E-2,-1.5795806E-2,-1.3729155E-2,-6.4954213E-3,-9.3268715E-3,-1.3768103E-3,-9.108441E-3,-2.147256E-3,-2.8173267E-3,4.2828913E-3,1.2897325E-2,5.683896E-3,8.154346E-3,3.2015692E-3,1.2232989E-2,8.483306E-3,-2.9071216E-3,1.6491658E-3,1.0472268E-3,3.918173E-3,4.1082627E-3,1.0247598E-2,3.5749662E-3,1.1273454E-2,5.3067994E-3,4.084627E-3,5.3375545E-3,1.2100949E-2,6.978964E-3,8.371909E-3,7.249936E-3,1.2165654E-2,9.849115E-3,1.3471191E-2,7.911882E-3,1.3007253E-2,9.624706E-3,1.0554827E-2,1.1007846E-2,1.2245553E-2,1.2134145E-2,1.3958561E-2,1.4016594E-2,1.6152976E-2,1.5795467E-2,1.8299995E-2],"categories":[],"categories_nodes":[],"categories_segments":[],"categories_sizes":[],"default_left":[0,0,0,0,0,0,0,0,0,0,0,0,0,0,0,0,0,0,0,0,0,0,0,0,0,0,0,0,0,0,0,0,0,0,0,0,0,0,0,0,0,0,0,0,0,0,0,0,0,0,0,0,0,0,0,0,0,0,0,0,0,0,0,0,0,0,0,0,0,0,0,0,0,0,0,0,0,0,0,0,0,0,0,0,0,0,0,0,0,0,0,0,0,0,0,0,0,0,0,0,0,0,0,0,0,0,0,0,0,0,0,0,0,0,0,0,0,0,0,0,0,0,0,0,0],"id":4,"left_children":[1,3,5,7,9,11,13,15,17,19,21,23,25,27,29,31,33,35,37,39,41,43,45,47,49,51,53,55,57,59,61,63,65,67,69,71,73,75,77,79,81,83,85,87,89,91,93,95,97,99,101,103,105,107,109,111,113,115,-1,117,119,121,123,-1,-1,-1,-1,-1,-1,-1,-1,-1,-1,-1,-1,-1,-1,-1,-1,-1,-1,-1,-1,-1,-1,-1,-1,-1,-1,-1,-1,-1,-1,-1,-1,-1,-1,-1,-1,-1,-1,-1,-1,-1,-1,-1,-1,-1,-1,-1,-1,-1,-1,-1,-1,-1,-1,-1,-1,-1,-1,-1,-1,-1,-1],"loss_changes":[1.6415029E3,1.0798635E3,2.0476923E2,4.4824243E2,2.5182906E2,3.5557755E1,1.8379395E1,3.410984E2,1.04122284E2,8.2936615E1,7.812666E1,1.3925835E1,8.247162E0,1.6359253E0,6.5859985E0,2.5512122E2,7.135794E1,9.988751E1,5.548151E0,1.6291916E1,4.071837E1,5.118773E1,7.1757507E0,6.198532E0,6.6201744E0,1.6918182E0,1.0024567E0,1.0847626E0,4.053955E-1,6.552429E-1,9.5144653E-1,6.254663E1,3.531006E1,3.6142517E1,2.2962555E1,4.8272186E1,2.611E1,4.3218155E0,3.4615111E0,3.8507385E0,2.109317E1,2.512097E1,1.162178E1,1.9570223E1,2.4286957E0,3.8303604E0,3.4913406E0,5.848229E0,5.5215626E0,2.038334E0,9.480133E-1,9.611931E-1,4.970886E0,5.303192E-1,2.0567074E0,1.9075775E-1,4.216385E-1,9.99527E-2,0E0,5.0634766E-1,5.303726E-1,9.227753E-2,2.7142334E-1,0E0,0E0,0E0,0E0,0E0,0E0,0E0,0E0,0E0,0E0,0E0,0E0,0E0,0E0,0E0,0E0,0E0,0E0,0E0,0E0,0E0,0E0,0E0,0E0,0E0,0E0,0E0,0E0,0E0,0E0,0E0,0E0,0E0,0E0,0E0,0E0,0E0,0E0,0E0,0E0,0E0,0E0,0E0,0E0,0E0,0E0,0E0,0E0,0E0,0E0,0E0,0E0,0E0,0E0,0E0,0E0,0E0,0E0,0E0,0E0,0E0,0E0],"parents":[2147483647,0,0,1,1,2,2,3,3,4,4,5,5,6,6,7,7,8,8,9,9,10,10,11,11,12,12,13,13,14,14,15,15,16,16,17,17,18,18,19,19,20,20,21,21,22,22,23,23,24,24,25,25,26,26,27,27,28,28,29,29,30,30,31,31,32,32,33,33,34,34,35,35,36,36,37,37,38,38,39,39,40,40,41,41,42,42,43,43,44,44,45,45,46,46,47,47,48,48,49,49,50,50,51,51,52,52,53,53,54,54,55,55,56,56,57,57,59,59,60,60,61,61,62,62],"right_children":[2,4,6,8,10,12,14,16,18,20,22,24,26,28,30,32,34,36,38,40,42,44,46,48,50,52,54,56,58,60,62,64,66,68,70,72,74,76,78,80,82,84,86,88,90,92,94,96,98,100,102,104,106,108,110,112,114,116,-1,118,120,122,124,-1,-1,-1,-1,-1,-1,-1,-1,-1,-1,-1,-1,-1,-1,-1,-1,-1,-1,-1,-1,-1,-1,-1,-1,-1,-1,-1,-1,-1,-1,-1,-1,-1,-1,-1,-1,-1,-1,-1,-1,-1,-1,-1,-1,-1,-1,-1,-1,-1,-1,-1,-1,-1,-1,-1,-1,-1,-1,-1,-1,-1,-1],"split_conditions":[7.5708E2,6.955081E4,1.2182E3,7E-1,6.6960365E-1,9.9585E2,1.35633E3,6.276442E4,3.6919E2,7.402348E4,7.751754E4,7.794167E4,1.09963E3,1.26736E3,1.53427E3,3.3968E2,6.320866E-1,7.619873E-1,3.34E0,1E0,-3E-1,1.11E0,1.0957536E0,6.935884E4,3.0593744E1,2.3960245E1,2.003452E0,6.89E0,7.9070695E4,2.003452E0,1.63612E3,5.683291E4,4.5671E2,3.573E2,6.570324E4,5.35003E4,5.0325484E4,8.403202E-1,1.13E0,2.87534E-1,3.771328E-1,1E0,3.66E0,3.7041495E0,2.4233921E1,-4.5E-1,2.5326E2,4.5E-1,5.695485E-1,1.0290699E0,6.137067E-1,7.84E0,7.759304E4,7.928413E4,7.35151E4,7.9236016E4,7.983866E4,6.885553E4,1.2785125E-2,1.41204E3,7.359916E4,8.10861E4,8.183366E4,-8.091782E-2,-5.3454954E-2,-3.8048726E-2,-1.8527165E-2,-3.5642587E-2,-1.7014205E-2,-2.0830637E-2,-1.0214356E-2,-3.8973432E-2,-1.8171009E-2,-1.8644204E-2,-6.8732128E-3,-9.180812E-3,-3.8606704E-3,-9.22279E-3,-1.7983889E-3,-3.3179797E-2,-1.5795806E-2,-1.3729155E-2,-6.4954213E-3,-9.3268715E-3,-1.3768103E-3,-9.108441E-3,-2.147256E-3,-2.8173267E-3,4.2828913E-3,1.2897325E-2,5.683896E-3,8.154346E-3,3.2015692E-3,1.2232989E-2,8.483306E-3,-2.9071216E-3,1.6491658E-3,1.0472268E-3,3.918173E-3,4.1082627E-3,1.0247598E-2,3.5749662E-3,1.1273454E-2,5.3067994E-3,4.084627E-3,5.3375545E-3,1.2100949E-2,6.978964E-3,8.371909E-3,7.249936E-3,1.2165654E-2,9.849115E-3,1.3471191E-2,7.911882E-3,1.3007253E-2,9.624706E-3,1.0554827E-2,1.1007846E-2,1.2245553E-2,1.2134145E-2,1.3958561E-2,1.4016594E-2,1.6152976E-2,1.5795467E-2,1.8299995E-2],"split_indices":[1,6,1,2,0,1,1,6,1,6,6,6,1,1,1,1,0,0,4,4,2,2,0,6,3,3,0,5,6,0,1,6,1,1,6,6,6,0,2,0,0,4,4,0,3,2,1,2,0,0,0,5,6,6,6,6,6,6,0,1,6,6,6,0,0,0,0,0,0,0,0,0,0,0,0,0,0,0,0,0,0,0,0,0,0,0,0,0,0,0,0,0,0,0,0,0,0,0,0,0,0,0,0,0,0,0,0,0,0,0,0,0,0,0,0,0,0,0,0,0,0,0,0,0,0],"split_type":[0,0,0,0,0,0,0,0,0,0,0,0,0,0,0,0,0,0,0,0,0,0,0,0,0,0,0,0,0,0,0,0,0,0,0,0,0,0,0,0,0,0,0,0,0,0,0,0,0,0,0,0,0,0,0,0,0,0,0,0,0,0,0,0,0,0,0,0,0,0,0,0,0,0,0,0,0,0,0,0,0,0,0,0,0,0,0,0,0,0,0,0,0,0,0,0,0,0,0,0,0,0,0,0,0,0,0,0,0,0,0,0,0,0,0,0,0,0,0,0,0,0,0,0,0],"sum_hessian":[8.9776E4,4.6451E4,4.3325E4,1.24E4,3.4051E4,2.8619E4,1.4706E4,5.666E3,6.734E3,2.2963E4,1.1088E4,1.2887E4,1.5732E4,5.259E3,9.447E3,2.29E3,3.376E3,3.322E3,3.412E3,5.279E3,1.7684E4,6.35E3,4.738E3,9.569E3,3.318E3,8.75E3,6.982E3,3.149E3,2.11E3,6.638E3,2.809E3,1.28E3,1.01E3,1.173E3,2.203E3,1.122E3,2.2E3,1.531E3,1.881E3,9.23E2,4.356E3,1.3786E4,3.898E3,5.462E3,8.88E2,2.06E3,2.678E3,2.866E3,6.703E3,2.806E3,5.12E2,6.492E3,2.258E3,6.02E3,9.62E2,1.051E3,2.098E3,1.915E3,1.95E2,4.836E3,1.802E3,1.4E3,1.409E3,2.67E2,1.013E3,3.64E2,6.46E2,7.77E2,3.96E2,8.04E2,1.399E3,5.76E2,5.46E2,6.84E2,1.516E3,7.69E2,7.62E2,1.72E2,1.709E3,3.3E1,8.9E2,1.587E3,2.769E3,1.077E3,1.2709E4,3.157E3,7.41E2,4.201E3,1.261E3,7.47E2,1.41E2,1.534E3,5.26E2,1.67E3,1.008E3,1.242E3,1.624E3,3.423E3,3.28E3,2.664E3,1.42E2,4.5E1,4.67E2,3.241E3,3.251E3,1.942E3,3.16E2,5.199E3,8.21E2,6.36E2,3.26E2,1.006E3,4.5E1,2.055E3,4.3E1,5.95E2,1.32E3,1.233E3,3.603E3,8.56E2,9.46E2,1.299E3,1.01E2,1.24E3,1.69E2],"tree_param":{"num_deleted":"0","num_feature":"7","num_nodes":"125","size_leaf_vector":"1"}},{"base_weights":[-2.74542E-6,-1.2407023E-1,1.3301629E-1,-3.5962623E-1,-3.490645E-2,8.619068E-2,2.2413047E-1,-5.461887E-1,-1.9693696E-1,-9.056536E-2,8.8292696E-2,4.8290323E-2,1.1578626E-1,1.8884484E-1,2.5619835E-1,-8.308398E-1,-3.5017422E-1,-3.1512338E-1,-8.129993E-2,-1.2973748E-1,-1.1680484E-2,2.0789873E-2,1.7538287E-1,2.911037E-2,1.00491896E-1,9.5613666E-2,1.3982019E-1,1.6514444E-1,2.0815194E-1,2.395021E-1,2.918065E-1,-1.1015464E0,-4.651578E-1,-5.7670414E-1,-2.6092967E-1,-5.4774964E-1,-1.9830723E-1,-1.24104716E-1,-4.636412E-2,-1.9523673E-1,-9.854927E-2,-3.6045022E-3,-8.8469006E-2,-1.4446151E-2,2.2683324E-1,1.325823E-1,2.0568839E-1,-7.426175E-3,4.5261998E-2,8.2878664E-2,1.9917071E-1,8.764122E-2,1.19874455E-1,1.2267026E-1,1.4729355E-1,1.9047458E-1,1.5249719E-1,2.0279773E-1,2.6812798E-1,2.257384E-1,2.485151E-1,2.753144E-1,3.0955312E-1,-6.703054E-2,-4.5064807E-2,-3.5309713E-2,-1.7389035E-2,-3.3193704E-2,-1.7929591E-2,-2.0101167E-2,-1.0147299E-2,-3.702814E-2,-1.7223759E-2,-1.2802682E-2,-1.9135026E-4,-8.756012E-3,-3.6232534E-3,-8.5374275E-3,-1.6580102E-3,-1.558851E-2,-8.444804E-3,-3.469829E-3,-8.263198E-3,-7.021161E-4,6.418831E-3,-5.400892E-3,-9.3057315E-5,-3.5470221E-3,2.3188281E-3,1.2238603E-2,5.845927E-3,7.847714E-3,3.263088E-3,1.1340096E-2,7.4072774E-3,-2.3864093E-3,1.952195E-3,9.0813165E-4,3.701143E-3,3.866223E-3,1.0298898E-2,3.175741E-3,1.0656367E-2,4.9440456E-3,3.820622E-3,5.07276E-3,1.1575338E-2,6.8354583E-3,5.4736617E-3,6.903256E-3,1.0640217E-2,9.366579E-3,1.2807796E-2,7.5172572E-3,1.2385949E-2,9.887916E-3,1.120438E-2,1.241234E-2,1.5399623E-2,1.2260439E-2,1.1195906E-2,1.1890686E-2,1.2787163E-2,1.3485769E-2,1.4624818E-2,1.4644525E-2,1.6500885E-2],"categories":[],"categories_nodes":[],"categories_segments":[],"categories_sizes":[],"default_left":[0,0,0,0,0,0,0,0,0,0,0,0,0,0,0,0,0,0,0,0,0,0,0,0,0,0,0,0,0,0,0,0,0,0,0,0,0,0,0,0,0,0,0,0,0,0,0,0,0,0,0,0,0,0,0,0,0,0,0,0,0,0,0,0,0,0,0,0,0,0,0,0,0,0,0,0,0,0,0,0,0,0,0,0,0,0,0,0,0,0,0,0,0,0,0,0,0,0,0,0,0,0,0,0,0,0,0,0,0,0,0,0,0,0,0,0,0,0,0,0,0,0,0,0,0,0,0],"id":5,"left_children":[1,3,5,7,9,11,13,15,17,19,21,23,25,27,29,31,33,35,37,39,41,43,45,47,49,51,53,55,57,59,61,63,65,67,69,71,73,75,77,79,81,83,85,87,89,91,93,95,97,99,101,103,105,107,109,111,113,115,117,119,121,123,125,-1,-1,-1,-1,-1,-1,-1,-1,-1,-1,-1,-1,-1,-1,-1,-1,-1,-1,-1,-1,-1,-1,-1,-1,-1,-1,-1,-1,-1,-1,-1,-1,-1,-1,-1,-1,-1,-1,-1,-1,-1,-1,-1,-1,-1,-1,-1,-1,-1,-1,-1,-1,-1,-1,-1,-1,-1,-1,-1,-1,-1,-1,-1,-1],"loss_changes":[1.4816366E3,9.7562164E2,1.8483014E2,3.870287E2,2.3107957E2,3.209697E1,1.6593079E1,3.311914E2,9.31131E1,7.1725586E1,6.1647667E1,1.25634365E1,7.7777863E0,3.1714783E0,4.5091248E0,2.3924756E2,7.101181E1,9.146948E1,5.147461E0,3.1664642E1,4.776641E0,4.2903496E1,5.9121246E0,5.41768E0,5.844208E0,1.6799698E0,9.215393E-1,9.80072E-1,1.1841888E0,5.9503174E-1,6.3301086E-1,6.538269E1,2.8951904E1,1.8660675E1,2.0592133E1,4.387735E1,2.5211563E1,4.065399E0,3.113183E0,1.5301331E1,2.0427612E1,9.605018E0,1.240828E0,1.734547E1,1.6729927E0,3.1087952E0,3.2212067E0,5.273901E0,4.9603233E0,1.9415607E0,9.5204544E-1,8.231468E-1,4.4158173E0,3.9837646E-1,3.0544891E0,1.6773987E-1,3.9431763E-1,3.360138E-1,1.7160988E-1,1.9096375E-2,1.837616E-1,4.434967E-2,3.0366516E-1,0E0,0E0,0E0,0E0,0E0,0E0,0E0,0E0,0E0,0E0,0E0,0E0,0E0,0E0,0E0,0E0,0E0,0E0,0E0,0E0,0E0,0E0,0E0,0E0,0E0,0E0,0E0,0E0,0E0,0E0,0E0,0E0,0E0,0E0,0E0,0E0,0E0,0E0,0E0,0E0,0E0,0E0,0E0,0E0,0E0,0E0,0E0,0E0,0E0,0E0,0E0,0E0,0E0,0E0,0E0,0E0,0E0,0E0,0E0,0E0,0E0,0E0,0E0,0E0],"parents":[2147483647,0,0,1,1,2,2,3,3,4,4,5,5,6,6,7,7,8,8,9,9,10,10,11,11,12,12,13,13,14,14,15,15,16,16,17,17,18,18,19,19,20,20,21,21,22,22,23,23,24,24,25,25,26,26,27,27,28,28,29,29,30,30,31,31,32,32,33,33,34,34,35,35,36,36,37,37,38,38,39,39,40,40,41,41,42,42,43,43,44,44,45,45,46,46,47,47,48,48,49,49,50,50,51,51,52,52,53,53,54,54,55,55,56,56,57,57,58,58,59,59,60,60,61,61,62,62],"right_children":[2,4,6,8,10,12,14,16,18,20,22,24,26,28,30,32,34,36,38,40,42,44,46,48,50,52,54,56,58,60,62,64,66,68,70,72,74,76,78,80,82,84,86,88,90,92,94,96,98,100,102,104,106,108,110,112,114,116,118,120,122,124,126,-1,-1,-1,-1,-1,-1,-1,-1,-1,-1,-1,-1,-1,-1,-1,-1,-1,-1,-1,-1,-1,-1,-1,-1,-1,-1,-1,-1,-1,-1,-1,-1,-1,-1,-1,-1,-1,-1,-1,-1,-1,-1,-1,-1,-1,-1,-1,-1,-1,-1,-1,-1,-1,-1,-1,-1,-1,-1,-1,-1,-1,-1,-1,-1],"split_conditions":[7.5708E2,6.9886766E4,1.2182E3,7E-1,6.81069E-1,9.9307E2,1.41204E3,6.307727E4,3.6919E2,7.751754E4,7.751754E4,7.7874164E4,1.09263E3,1.26736E3,1.5548E3,3.4767E2,4.203893E-1,7.619873E-1,3.34E0,7.394124E4,-2.2E-1,1.11E0,1.0957536E0,6.935884E4,3.0593744E1,2.3960245E1,7.2240875E4,6.87E0,7.964972E4,1.78E0,7.649064E4,1.8269E2,4.5671E2,3.573E2,6.570324E4,5.35003E4,9.17E0,8.403202E-1,1.13E0,1E0,-2.8E-1,5.242656E-1,3.24E0,1.7150621E0,2.337024E1,-4.5E-1,4.028998E1,8.8382E2,5.695485E-1,1.1935996E0,6.137067E-1,7.84E0,7.7702555E4,5.12E0,9.004498E-1,7.9236016E4,7.983866E4,7.737178E4,4.374448E0,-4.3E-1,7.288516E4,1.66725E3,1.5911175E0,-6.703054E-2,-4.5064807E-2,-3.5309713E-2,-1.7389035E-2,-3.3193704E-2,-1.7929591E-2,-2.0101167E-2,-1.0147299E-2,-3.702814E-2,-1.7223759E-2,-1.2802682E-2,-1.9135026E-4,-8.756012E-3,-3.6232534E-3,-8.5374275E-3,-1.6580102E-3,-1.558851E-2,-8.444804E-3,-3.469829E-3,-8.263198E-3,-7.021161E-4,6.418831E-3,-5.400892E-3,-9.3057315E-5,-3.5470221E-3,2.3188281E-3,1.2238603E-2,5.845927E-3,7.847714E-3,3.263088E-3,1.1340096E-2,7.4072774E-3,-2.3864093E-3,1.952195E-3,9.0813165E-4,3.701143E-3,3.866223E-3,1.0298898E-2,3.175741E-3,1.0656367E-2,4.9440456E-3,3.820622E-3,5.07276E-3,1.1575338E-2,6.8354583E-3,5.4736617E-3,6.903256E-3,1.0640217E-2,9.366579E-3,1.2807796E-2,7.5172572E-3,1.2385949E-2,9.887916E-3,1.120438E-2,1.241234E-2,1.5399623E-2,1.2260439E-2,1.1195906E-2,1.1890686E-2,1.2787163E-2,1.3485769E-2,1.4624818E-2,1.4644525E-2,1.6500885E-2],"split_indices":[1,6,1,2,0,1,1,6,1,6,6,6,1,1,1,1,0,0,4,6,2,2,0,6,3,3,6,5,6,4,6,1,1,1,6,6,5,0,2,4,2,0,4,0,3,2,3,1,0,0,0,5,6,5,0,6,6,6,0,2,6,1,0,0,0,0,0,0,0,0,0,0,0,0,0,0,0,0,0,0,0,0,0,0,0,0,0,0,0,0,0,0,0,0,0,0,0,0,0,0,0,0,0,0,0,0,0,0,0,0,0,0,0,0,0,0,0,0,0,0,0,0,0,0,0,0,0],"split_type":[0,0,0,0,0,0,0,0,0,0,0,0,0,0,0,0,0,0,0,0,0,0,0,0,0,0,0,0,0,0,0,0,0,0,0,0,0,0,0,0,0,0,0,0,0,0,0,0,0,0,0,0,0,0,0,0,0,0,0,0,0,0,0,0,0,0,0,0,0,0,0,0,0,0,0,0,0,0,0,0,0,0,0,0,0,0,0,0,0,0,0,0,0,0,0,0,0,0,0,0,0,0,0,0,0,0,0,0,0,0,0,0,0,0,0,0,0,0,0,0,0,0,0,0,0,0,0],"sum_hessian":[8.9776E4,4.6451E4,4.3325E4,1.2754E4,3.3697E4,2.8619E4,1.4706E4,5.94E3,6.814E3,2.3211E4,1.0486E4,1.255E4,1.6069E4,7.005E3,7.701E3,2.421E3,3.519E3,3.369E3,3.445E3,1.5509E4,7.702E3,5.908E3,4.578E3,9.179E3,3.371E3,8.739E3,7.33E3,3.149E3,3.856E3,5.248E3,2.453E3,1.39E3,1.031E3,9.93E2,2.526E3,1.125E3,2.244E3,1.547E3,1.898E3,5.001E3,1.0508E4,6.97E3,7.32E2,5.046E3,8.62E2,1.9E3,2.678E3,2.814E3,6.365E3,2.862E3,5.09E2,6.581E3,2.158E3,2.23E3,5.1E3,1.044E3,2.105E3,3.544E3,3.12E2,2.087E3,3.161E3,1.28E3,1.173E3,6.31E2,7.59E2,3.36E2,6.95E2,7.08E2,2.85E2,7.34E2,1.792E3,5.76E2,5.49E2,1.73E3,5.14E2,7.77E2,7.7E2,1.81E2,1.717E3,9.2E2,4.081E3,7.314E3,3.194E3,6.46E3,5.1E2,5.97E2,1.35E2,2.616E3,2.43E3,7.4E2,1.22E2,1.394E3,5.06E2,1.957E3,7.21E2,1.507E3,1.307E3,3.278E3,3.087E3,2.74E3,1.22E2,4.8E1,4.61E2,3.285E3,3.296E3,1.854E3,3.04E2,1.076E3,1.154E3,4.473E3,6.27E2,1E3,4.4E1,2.061E3,4.4E1,2.874E3,6.7E2,2.13E2,9.9E1,1.67E2,1.92E3,1.288E3,1.873E3,9.78E2,3.02E2,6.55E2,5.18E2],"tree_param":{"num_deleted":"0","num_feature":"7","num_nodes":"127","size_leaf_vector":"1"}},{"base_weights":[-3.0446442E-6,-1.152577E-1,1.2925604E-1,-3.3616433E-1,-3.3115957E-2,8.468009E-2,2.1293741E-1,-4.9858195E-1,-1.6474187E-1,-8.801573E-2,7.888133E-2,5.1086638E-2,1.11409955E-1,1.6997492E-1,2.3683347E-1,-7.673649E-1,-3.1196004E-1,-2.8185958E-1,-7.290269E-2,-1.7251849E-1,-5.4342672E-2,1.3139897E-2,1.6548975E-1,3.664587E-2,9.457211E-2,9.2711754E-2,1.338704E-1,1.5690055E-1,1.8940379E-1,2.211998E-1,2.736858E-1,-9.748397E-1,-5.793393E-1,-4.659294E-1,-1.9190006E-1,-4.1051403E-1,-1.4686899E-1,-1.09957196E-1,-4.064341E-2,-8.299147E-2,-2.0276053E-1,-3.0087614E-2,-1.3478774E-1,-1.8739885E-2,2.125525E-1,1.3243155E-1,2.0491429E-1,1.9100359E-2,6.0643934E-2,7.812946E-2,1.9323736E-1,9.106007E-2,1.9700746E-1,1.2865476E-1,1.5813656E-1,1.4691211E-1,1.8675518E-1,1.85339E-1,1.1679422E-2,2.1503522E-1,2.3639491E-1,2.559529E-1,2.911114E-1,-5.793152E-2,-2.9811889E-2,-3.444972E-2,-2.1591062E-2,-6.210954E-2,-1.8796986E-2,-6.157618E-3,-1.877408E-2,-2.9165087E-2,-1.6983848E-2,-1.1276087E-2,-5.3246934E-3,-8.043047E-3,-3.055821E-3,3.6585217E-3,-2.549828E-3,-1.4125009E-2,-3.048E-3,-1.1388914E-2,-4.624968E-3,-8.457277E-3,-9.091184E-4,-8.183075E-3,-2.2295348E-3,-5.597129E-3,7.188373E-4,1.1643964E-2,5.267454E-3,5.5524823E-3,1.175511E-2,1.078589E-2,8.623304E-3,-4.2904654E-4,1.6892664E-3,1.4271484E-3,3.2530017E-3,9.102717E-3,3.7219909E-3,1.175381E-2,8.15323E-3,5.126963E-3,3.90302E-3,5.8419514E-3,1.1764399E-2,5.654867E-3,6.6558607E-3,6.4603663E-3,1.0148795E-2,7.1144453E-3,8.78497E-3,8.994226E-3,1.221673E-2,8.989511E-3,9.884077E-3,9.907882E-3,1.1033911E-2,1.1459046E-2,1.3944467E-2,1.2644499E-2,1.4624046E-2,1.4213726E-2,1.6283585E-2],"categories":[],"categories_nodes":[],"categories_segments":[],"categories_sizes":[],"default_left":[0,0,0,0,0,0,0,0,0,0,0,0,0,0,0,0,0,0,0,0,0,0,0,0,0,0,0,0,0,0,0,0,0,0,0,0,0,0,0,0,0,0,0,0,0,0,0,0,0,0,0,0,0,0,0,0,0,0,0,0,0,0,0,0,0,0,0,0,0,0,0,0,0,0,0,0,0,0,0,0,0,0,0,0,0,0,0,0,0,0,0,0,0,0,0,0,0,0,0,0,0,0,0,0,0,0,0,0,0,0,0,0,0,0,0,0,0,0,0,0,0,0,0,0,0],"id":6,"left_children":[1,3,5,7,9,11,13,15,17,19,21,23,25,27,29,31,33,35,37,39,41,43,45,47,49,51,53,55,57,59,61,63,65,67,69,71,73,75,77,79,81,83,85,87,89,91,93,95,97,99,101,103,105,107,109,111,113,115,-1,117,119,121,123,-1,-1,-1,-1,-1,-1,-1,-1,-1,-1,-1,-1,-1,-1,-1,-1,-1,-1,-1,-1,-1,-1,-1,-1,-1,-1,-1,-1,-1,-1,-1,-1,-1,-1,-1,-1,-1,-1,-1,-1,-1,-1,-1,-1,-1,-1,-1,-1,-1,-1,-1,-1,-1,-1,-1,-1,-1,-1,-1,-1,-1,-1],"loss_changes":[1.3374868E3,8.6118164E2,1.5783563E2,3.5807776E2,2.1273096E2,2.4788467E1,1.5058472E1,3.3107263E2,6.731198E1,6.605379E1,6.4798515E1,7.6809216E0,6.445053E0,1.3064423E0,5.3828125E0,1.049978E2,7.200424E1,4.771672E1,4.1912155E0,1.7893158E1,3.2391716E1,4.114162E1,6.373398E0,3.867526E0,4.932974E0,1.4280396E0,8.6344147E-1,9.1189575E-1,3.3583832E-1,5.710449E-1,7.937927E-1,8.8724E1,2.2704895E1,1.1884625E2,2.7631187E1,1.7035461E1,4.244009E0,4.0501003E0,2.2166393E0,7.3320093E0,1.3616882E1,2.1118034E1,1.0008949E1,1.7224611E1,1.9192238E0,5.8441124E0,7.4733734E-1,2.1583924E0,5.4817677E-1,9.8954296E-1,5.1080704E-1,1.2253418E0,3.7146473E-1,3.84346E-1,1.5705853E0,2.8975677E-1,2.6699638E-1,9.719086E-2,0E0,4.0716553E-1,5.203781E-1,8.278656E-2,2.405777E-1,0E0,0E0,0E0,0E0,0E0,0E0,0E0,0E0,0E0,0E0,0E0,0E0,0E0,0E0,0E0,0E0,0E0,0E0,0E0,0E0,0E0,0E0,0E0,0E0,0E0,0E0,0E0,0E0,0E0,0E0,0E0,0E0,0E0,0E0,0E0,0E0,0E0,0E0,0E0,0E0,0E0,0E0,0E0,0E0,0E0,0E0,0E0,0E0,0E0,0E0,0E0,0E0,0E0,0E0,0E0,0E0,0E0,0E0,0E0,0E0,0E0,0E0],"parents":[2147483647,0,0,1,1,2,2,3,3,4,4,5,5,6,6,7,7,8,8,9,9,10,10,11,11,12,12,13,13,14,14,15,15,16,16,17,17,18,18,19,19,20,20,21,21,22,22,23,23,24,24,25,25,26,26,27,27,28,28,29,29,30,30,31,31,32,32,33,33,34,34,35,35,36,36,37,37,38,38,39,39,40,40,41,41,42,42,43,43,44,44,45,45,46,46,47,47,48,48,49,49,50,50,51,51,52,52,53,53,54,54,55,55,56,56,57,57,59,59,60,60,61,61,62,62],"right_children":[2,4,6,8,10,12,14,16,18,20,22,24,26,28,30,32,34,36,38,40,42,44,46,48,50,52,54,56,58,60,62,64,66,68,70,72,74,76,78,80,82,84,86,88,90,92,94,96,98,100,102,104,106,108,110,112,114,116,-1,118,120,122,124,-1,-1,-1,-1,-1,-1,-1,-1,-1,-1,-1,-1,-1,-1,-1,-1,-1,-1,-1,-1,-1,-1,-1,-1,-1,-1,-1,-1,-1,-1,-1,-1,-1,-1,-1,-1,-1,-1,-1,-1,-1,-1,-1,-1,-1,-1,-1,-1,-1,-1,-1,-1,-1,-1,-1,-1,-1,-1,-1,-1,-1,-1],"split_conditions":[7.7912E2,6.955081E4,1.2182E3,3.6919E2,6.6960365E-1,9.9865E2,1.35633E3,7.305475E-1,7.8E-1,7.4758914E4,7.751754E4,7.806021E4,1.09963E3,1.26736E3,1.53427E3,-3.9E-1,7.9E-1,5.6128E2,3.34E0,1.2347E2,-3.4E-1,1.11E0,7.937837E4,9.4627E2,9.989264E-1,8.0744414E4,3.926054E1,1.7861303E0,7.9236016E4,1.7150621E0,1.63612E3,6.497836E4,3.1E0,5.864293E4,7.938998E1,6.100197E4,6.5831E2,8.403202E-1,3.9721E2,3.950381E-1,5.8907E2,1E0,5.3103E2,7.201586E4,2.337024E1,9.4E-1,4.115655E1,7.043895E4,6.497836E4,-8.5E-1,-2.7E-1,7.77E0,7.0101494E-1,7.133951E4,7.4256516E4,4.64E0,7.5778055E4,7.5542195E4,1.1679422E-2,1.41204E3,7.844097E4,8.10861E4,8.0326E4,-5.793152E-2,-2.9811889E-2,-3.444972E-2,-2.1591062E-2,-6.210954E-2,-1.8796986E-2,-6.157618E-3,-1.877408E-2,-2.9165087E-2,-1.6983848E-2,-1.1276087E-2,-5.3246934E-3,-8.043047E-3,-3.055821E-3,3.6585217E-3,-2.549828E-3,-1.4125009E-2,-3.048E-3,-1.1388914E-2,-4.624968E-3,-8.457277E-3,-9.091184E-4,-8.183075E-3,-2.2295348E-3,-5.597129E-3,7.188373E-4,1.1643964E-2,5.267454E-3,5.5524823E-3,1.175511E-2,1.078589E-2,8.623304E-3,-4.2904654E-4,1.6892664E-3,1.4271484E-3,3.2530017E-3,9.102717E-3,3.7219909E-3,1.175381E-2,8.15323E-3,5.126963E-3,3.90302E-3,5.8419514E-3,1.1764399E-2,5.654867E-3,6.6558607E-3,6.4603663E-3,1.0148795E-2,7.1144453E-3,8.78497E-3,8.994226E-3,1.221673E-2,8.989511E-3,9.884077E-3,9.907882E-3,1.1033911E-2,1.1459046E-2,1.3944467E-2,1.2644499E-2,1.4624046E-2,1.4213726E-2,1.6283585E-2],"split_indices":[1,6,1,1,0,1,1,0,2,6,6,6,1,1,1,2,2,1,4,1,2,2,6,1,0,6,3,0,6,0,1,6,4,6,3,6,1,0,1,0,1,4,1,6,3,2,3,6,6,2,2,5,0,6,6,4,6,6,0,1,6,6,6,0,0,0,0,0,0,0,0,0,0,0,0,0,0,0,0,0,0,0,0,0,0,0,0,0,0,0,0,0,0,0,0,0,0,0,0,0,0,0,0,0,0,0,0,0,0,0,0,0,0,0,0,0,0,0,0,0,0,0,0,0,0],"split_type":[0,0,0,0,0,0,0,0,0,0,0,0,0,0,0,0,0,0,0,0,0,0,0,0,0,0,0,0,0,0,0,0,0,0,0,0,0,0,0,0,0,0,0,0,0,0,0,0,0,0,0,0,0,0,0,0,0,0,0,0,0,0,0,0,0,0,0,0,0,0,0,0,0,0,0,0,0,0,0,0,0,0,0,0,0,0,0,0,0,0,0,0,0,0,0,0,0,0,0,0,0,0,0,0,0,0,0,0,0,0,0,0,0,0,0,0,0,0,0,0,0,0,0,0,0],"sum_hessian":[8.9776E4,4.7459E4,4.2317E4,1.2863E4,3.4596E4,2.7611E4,1.4706E4,6.604E3,6.259E3,2.3216E4,1.138E4,1.2236E4,1.5375E4,5.259E3,9.447E3,2.705E3,3.899E3,2.75E3,3.509E3,6.614E3,1.6602E4,6.47E3,4.91E3,9.187E3,3.049E3,8.393E3,6.982E3,3.149E3,2.11E3,6.638E3,2.809E3,1.284E3,1.421E3,1.707E3,2.192E3,1.407E3,1.343E3,1.632E3,1.877E3,1.671E3,4.943E3,1.2757E4,3.845E3,5.579E3,8.91E2,2.673E3,2.237E3,5.308E3,3.879E3,2.615E3,4.34E2,8.264E3,1.29E2,5.752E3,1.23E3,2.364E3,7.85E2,1.937E3,1.73E2,4.733E3,1.905E3,1.4E3,1.409E3,8.63E2,4.21E2,8.13E2,6.08E2,1.76E2,1.531E3,1.596E3,5.96E2,4.07E2,1E3,4.54E2,8.89E2,7.98E2,8.34E2,1.56E2,1.721E3,1.65E2,1.506E3,4.028E3,9.15E2,1.005E3,1.1752E4,2.912E3,9.33E2,1.462E3,4.117E3,7.48E2,1.43E2,2.214E3,4.59E2,1.674E3,5.63E2,1.84E3,3.468E3,4.7E2,3.409E3,8.8E1,2.527E3,1.79E2,2.55E2,4.385E3,3.879E3,4.3E1,8.6E1,1.288E3,4.464E3,7.5E2,4.8E2,2.042E3,3.22E2,7.05E2,8E1,1.347E3,5.9E2,1.195E3,3.538E3,1.634E3,2.71E2,1.299E3,1.01E2,1.184E3,2.25E2],"tree_param":{"num_deleted":"0","num_feature":"7","num_nodes":"125","size_leaf_vector":"1"}},{"base_weights":[-3.5740054E-6,-1.1202863E-1,1.20104164E-1,-3.2474315E-1,-3.1510912E-2,7.712514E-2,2.0089754E-1,-4.9376488E-1,-1.7735025E-1,-8.177689E-2,7.9751156E-2,4.1944556E-2,1.02462195E-1,1.6017094E-1,2.2500274E-1,-7.6681596E-1,-3.2229027E-1,-2.835865E-1,-7.340553E-2,-1.1758637E-1,-9.663836E-3,1.887856E-2,1.5828717E-1,2.5462778E-2,9.413562E-2,8.532984E-2,1.2559117E-1,1.4651768E-1,1.7767406E-1,2.1014671E-1,2.60022E-1,-1.0312719E0,-4.5050645E-1,-4.8756135E-1,-2.2129491E-1,-4.9270383E-1,-1.785755E-1,-1.5344404E-1,-5.695238E-2,-2.2542343E-1,-1.02280155E-1,-1.2364956E-2,2.0007478E-1,-1.2913585E-2,2.0478363E-1,1.1926365E-1,1.8591891E-1,-7.1190167E-3,4.0165916E-2,7.6313645E-2,1.8391733E-1,7.9098344E-2,1.13242395E-1,1.21319346E-1,1.5234731E-1,1.71253E-1,1.355803E-1,1.6974172E-1,1.9908409E-1,2.0428778E-1,2.2458844E-1,2.4317469E-1,2.765774E-1,-7.916268E-2,-4.751569E-2,-3.3159744E-2,-1.5932342E-2,-2.8491944E-2,-1.109955E-2,-1.7681472E-2,-7.868006E-3,-3.191429E-2,-1.2689573E-2,-1.3512447E-2,-3.3106108E-3,-1.2626703E-2,-4.6022E-3,-3.8418372E-3,-1.1499722E-4,-8.226282E-3,-1.50552755E-2,-3.8570666E-3,-8.13537E-3,-2.1860581E-4,-3.8543218E-3,7.618458E-3,1.3271934E-2,-3.3520923E-3,2.2680715E-3,5.116267E-3,1.1043729E-2,7.1318843E-3,2.7357624E-3,1.0552137E-2,7.235938E-3,-2.7052765E-3,1.521324E-3,1.5814359E-3,6.410324E-3,3.5202221E-3,9.333618E-3,3.1503942E-3,9.7355945E-3,4.6193786E-3,3.4733228E-3,4.488235E-3,1.0508954E-2,4.9176314E-3,6.278425E-3,6.79746E-3,1.1329393E-2,8.28622E-3,1.0942298E-2,6.5470203E-3,8.061491E-3,8.914149E-3,7.885414E-3,9.380847E-3,1.1762287E-2,9.412898E-3,1.0482366E-2,1.0347815E-2,1.2016143E-2,1.2012758E-2,1.3900009E-2,1.3550538E-2,1.5779357E-2],"categories":[],"categories_nodes":[],"categories_segments":[],"categories_sizes":[],"default_left":[0,0,0,0,0,0,0,0,0,0,0,0,0,0,0,0,0,0,0,0,0,0,0,0,0,0,0,0,0,0,0,0,0,0,0,0,0,0,0,0,0,0,0,0,0,0,0,0,0,0,0,0,0,0,0,0,0,0,0,0,0,0,0,0,0,0,0,0,0,0,0,0,0,0,0,0,0,0,0,0,0,0,0,0,0,0,0,0,0,0,0,0,0,0,0,0,0,0,0,0,0,0,0,0,0,0,0,0,0,0,0,0,0,0,0,0,0,0,0,0,0,0,0,0,0,0,0],"id":7,"left_children":[1,3,5,7,9,11,13,15,17,19,21,23,25,27,29,31,33,35,37,39,41,43,45,47,49,51,53,55,57,59,61,63,65,67,69,71,73,75,77,79,81,83,85,87,89,91,93,95,97,99,101,103,105,107,109,111,113,115,117,119,121,123,125,-1,-1,-1,-1,-1,-1,-1,-1,-1,-1,-1,-1,-1,-1,-1,-1,-1,-1,-1,-1,-1,-1,-1,-1,-1,-1,-1,-1,-1,-1,-1,-1,-1,-1,-1,-1,-1,-1,-1,-1,-1,-1,-1,-1,-1,-1,-1,-1,-1,-1,-1,-1,-1,-1,-1,-1,-1,-1,-1,-1,-1,-1,-1,-1],"loss_changes":[1.2079697E3,7.955864E2,1.504306E2,3.1767273E2,1.8846918E2,2.520639E1,1.4732971E1,2.7791833E2,7.523515E1,5.993994E1,5.013212E1,1.0184969E1,6.5040894E0,1.3115082E0,4.8606873E0,1.9117737E2,6.083316E1,7.3915955E1,4.5292473E0,2.5577393E1,4.3664484E0,3.492673E1,4.9152985E0,4.312735E0,4.533411E0,1.6343994E0,7.809067E-1,8.289795E-1,3.8195038E-1,5.158386E-1,7.164917E-1,5.4220703E1,2.9095718E1,3.0114594E1,1.91334E1,3.900177E1,2.3107246E1,3.5481424E0,3.1078682E0,8.831757E0,2.0622498E1,3.9343104E0,2.651415E-1,1.5922919E1,1.4001846E0,2.86034E0,2.742508E0,4.9412155E0,4.658243E0,1.5343695E0,6.0116005E-1,9.826431E-1,3.9001446E0,5.766983E-1,1.1366882E0,2.16856E-1,2.3940659E-1,1.5616608E-1,2.2789001E-1,3.6723328E-1,4.7904968E-1,7.5653076E-2,2.2065735E-1,0E0,0E0,0E0,0E0,0E0,0E0,0E0,0E0,0E0,0E0,0E0,0E0,0E0,0E0,0E0,0E0,0E0,0E0,0E0,0E0,0E0,0E0,0E0,0E0,0E0,0E0,0E0,0E0,0E0,0E0,0E0,0E0,0E0,0E0,0E0,0E0,0E0,0E0,0E0,0E0,0E0,0E0,0E0,0E0,0E0,0E0,0E0,0E0,0E0,0E0,0E0,0E0,0E0,0E0,0E0,0E0,0E0,0E0,0E0,0E0,0E0,0E0,0E0,0E0],"parents":[2147483647,0,0,1,1,2,2,3,3,4,4,5,5,6,6,7,7,8,8,9,9,10,10,11,11,12,12,13,13,14,14,15,15,16,16,17,17,18,18,19,19,20,20,21,21,22,22,23,23,24,24,25,25,26,26,27,27,28,28,29,29,30,30,31,31,32,32,33,33,34,34,35,35,36,36,37,37,38,38,39,39,40,40,41,41,42,42,43,43,44,44,45,45,46,46,47,47,48,48,49,49,50,50,51,51,52,52,53,53,54,54,55,55,56,56,57,57,58,58,59,59,60,60,61,61,62,62],"right_children":[2,4,6,8,10,12,14,16,18,20,22,24,26,28,30,32,34,36,38,40,42,44,46,48,50,52,54,56,58,60,62,64,66,68,70,72,74,76,78,80,82,84,86,88,90,92,94,96,98,100,102,104,106,108,110,112,114,116,118,120,122,124,126,-1,-1,-1,-1,-1,-1,-1,-1,-1,-1,-1,-1,-1,-1,-1,-1,-1,-1,-1,-1,-1,-1,-1,-1,-1,-1,-1,-1,-1,-1,-1,-1,-1,-1,-1,-1,-1,-1,-1,-1,-1,-1,-1,-1,-1,-1,-1,-1,-1,-1,-1,-1,-1,-1,-1,-1,-1,-1,-1,-1,-1,-1,-1,-1],"split_conditions":[7.5708E2,6.9886766E4,1.21274E3,7E-1,6.81069E-1,9.882E2,1.35633E3,6.276442E4,3.6919E2,7.751754E4,7.751754E4,7.806021E4,1.09263E3,1.25651E3,1.53427E3,3.3005E2,8.01163E-1,7.619873E-1,1.26E0,1E0,4.266716E1,1.11E0,1.0957536E0,6.955081E4,3.0593744E1,3.552372E1,7.928413E4,6.87E0,7.652074E4,1.7150621E0,1.63612E3,5.6171637E4,4.5671E2,4.8725E2,6.570324E4,5.6171637E4,5.967973E4,6.5460156E4,5.13E0,1.414E2,-3.2E-1,-3.8E-1,8.0214336E4,1.7150621E0,7.1626555E4,-4.5E-1,2.4936E2,4.5E-1,2.0769067E0,1.1935996E0,6.137067E-1,7.37E0,7.645294E4,2.01E0,8.8776004E-1,7.766807E4,5.248879E1,6.31E0,1.1935996E0,1.41204E3,7.288516E4,8.10861E4,8.183366E4,-7.916268E-2,-4.751569E-2,-3.3159744E-2,-1.5932342E-2,-2.8491944E-2,-1.109955E-2,-1.7681472E-2,-7.868006E-3,-3.191429E-2,-1.2689573E-2,-1.3512447E-2,-3.3106108E-3,-1.2626703E-2,-4.6022E-3,-3.8418372E-3,-1.1499722E-4,-8.226282E-3,-1.50552755E-2,-3.8570666E-3,-8.13537E-3,-2.1860581E-4,-3.8543218E-3,7.618458E-3,1.3271934E-2,-3.3520923E-3,2.2680715E-3,5.116267E-3,1.1043729E-2,7.1318843E-3,2.7357624E-3,1.0552137E-2,7.235938E-3,-2.7052765E-3,1.521324E-3,1.5814359E-3,6.410324E-3,3.5202221E-3,9.333618E-3,3.1503942E-3,9.7355945E-3,4.6193786E-3,3.4733228E-3,4.488235E-3,1.0508954E-2,4.9176314E-3,6.278425E-3,6.79746E-3,1.1329393E-2,8.28622E-3,1.0942298E-2,6.5470203E-3,8.061491E-3,8.914149E-3,7.885414E-3,9.380847E-3,1.1762287E-2,9.412898E-3,1.0482366E-2,1.0347815E-2,1.2016143E-2,1.2012758E-2,1.3900009E-2,1.3550538E-2,1.5779357E-2],"split_indices":[1,6,1,2,0,1,1,6,1,6,6,6,1,1,1,1,0,0,2,4,3,2,0,6,3,3,6,5,6,0,1,6,1,1,6,6,6,6,4,1,2,2,6,0,6,2,1,2,0,0,0,5,6,4,0,6,3,5,0,1,6,6,6,0,0,0,0,0,0,0,0,0,0,0,0,0,0,0,0,0,0,0,0,0,0,0,0,0,0,0,0,0,0,0,0,0,0,0,0,0,0,0,0,0,0,0,0,0,0,0,0,0,0,0,0,0,0,0,0,0,0,0,0,0,0,0,0],"split_type":[0,0,0,0,0,0,0,0,0,0,0,0,0,0,0,0,0,0,0,0,0,0,0,0,0,0,0,0,0,0,0,0,0,0,0,0,0,0,0,0,0,0,0,0,0,0,0,0,0,0,0,0,0,0,0,0,0,0,0,0,0,0,0,0,0,0,0,0,0,0,0,0,0,0,0,0,0,0,0,0,0,0,0,0,0,0,0,0,0,0,0,0,0,0,0,0,0,0,0,0,0,0,0,0,0,0,0,0,0,0,0,0,0,0,0,0,0,0,0,0,0,0,0,0,0,0,0],"sum_hessian":[8.9776E4,4.6451E4,4.3325E4,1.2754E4,3.3697E4,2.8282E4,1.5043E4,5.94E3,6.814E3,2.3211E4,1.0486E4,1.1842E4,1.644E4,5.596E3,9.447E3,2.29E3,3.65E3,3.369E3,3.445E3,1.5509E4,7.702E3,5.908E3,4.578E3,9.001E3,2.841E3,9.447E3,6.993E3,3.149E3,2.447E3,6.638E3,2.809E3,1.246E3,1.044E3,1.383E3,2.267E3,1.125E3,2.244E3,5.86E2,2.859E3,1.926E3,1.3583E4,7.605E3,9.7E1,5.046E3,8.62E2,1.9E3,2.678E3,2.799E3,6.202E3,2.372E3,4.69E2,7.726E3,1.721E3,6.035E3,9.58E2,9.61E2,2.188E3,1.792E3,6.55E2,4.733E3,1.905E3,1.4E3,1.409E3,1.57E2,1.089E3,3.98E2,6.46E2,1.055E3,3.28E2,7.37E2,1.53E3,6.98E2,4.27E2,1.235E3,1.009E3,2.23E2,3.63E2,2.096E3,7.63E2,1.069E3,8.57E2,9.594E3,3.989E3,6.77E3,8.35E2,5.8E1,3.9E1,2.616E3,2.43E3,1.18E2,7.44E2,1.394E3,5.06E2,1.661E3,1.017E3,1.243E3,1.556E3,5.655E3,5.47E2,2.253E3,1.19E2,3.9E1,4.3E2,3.243E3,4.483E3,1.387E3,3.34E2,9.46E2,5.089E3,7.87E2,1.71E2,8.65E2,9.6E1,1.858E3,3.3E2,1.04E3,7.52E2,5.02E2,1.53E2,1.195E3,3.538E3,9.05E2,1E3,1.299E3,1.01E2,1.24E3,1.69E2],"tree_param":{"num_deleted":"0","num_feature":"7","num_nodes":"127","size_leaf_vector":"1"}},{"base_weights":[-3.891315E-6,-1.0728978E-1,1.1324123E-1,-3.1503245E-1,-3.1895682E-2,7.2453715E-2,1.9086394E-1,-4.8789552E-1,-1.7052786E-1,-8.093818E-2,6.8538494E-2,2.7157674E-2,9.109962E-2,1.5217522E-1,2.1376294E-1,-7.208613E-1,-3.1144375E-1,-2.71963E-1,-7.0337854E-2,-1.6183767E-1,-4.9220465E-2,9.095347E-3,1.4857745E-1,1.2900824E-2,1.1361661E-1,7.433729E-2,1.1659963E-1,1.4070487E-1,1.7105013E-1,2.0089875E-1,2.5034454E-1,-1.1445303E0,-5.3839415E-1,-5.108392E-1,-2.3294547E-1,-4.689346E-1,-1.713401E-1,-1.5154803E-1,-5.4249916E-2,-7.4001014E-2,-1.9285269E-1,-2.7313158E-2,-1.2300527E-1,-2.0529857E-2,1.92247E-1,1.23791866E-1,1.9018193E-1,-1.9234262E-2,3.055567E-2,7.242725E-2,1.8443966E-1,8.6338595E-2,6.398884E-2,9.316152E-2,1.22810535E-1,1.6281924E-1,1.3010305E-1,1.6732527E-1,1.0577714E-2,1.9550088E-1,2.1489304E-1,2.3564233E-1,2.6617348E-1,-6.3055545E-2,-3.2891635E-2,-3.4889024E-2,-1.5148277E-2,-2.9060325E-2,-1.59925E-2,-1.7515749E-2,-8.897661E-3,-3.2085653E-2,-1.4291145E-2,-1.1354995E-2,8.671146E-4,-1.1998191E-2,-4.5809033E-3,-4.5874496E-3,-1.3292145E-3,-1.7452277E-2,-2.9707325E-3,-2.0316316E-2,-9.134817E-3,-7.711007E-3,-8.1641285E-4,-7.3039643E-3,-9.791648E-4,-2.4362702E-3,4.1232337E-3,1.0546858E-2,4.5932704E-3,5.223625E-3,1.0714612E-2,7.992362E-3,1.0143594E-2,-2.9202176E-3,9.79154E-4,5.7089E-4,5.1499302E-3,2.8889906E-3,8.756279E-3,1.0963001E-2,6.9911624E-3,2.3868943E-3,4.784627E-3,3.054946E-3,5.547835E-3,5.6746947E-3,3.8102542E-3,5.7061804E-3,8.23099E-3,7.070863E-3,8.589064E-3,6.4079235E-3,1.0620155E-2,7.965129E-3,8.752677E-3,8.974729E-3,1.0030615E-2,9.939161E-3,1.1484821E-2,1.1544074E-2,1.2512355E-2,1.2541513E-2,1.42527E-2],"categories":[],"categories_nodes":[],"categories_segments":[],"categories_sizes":[],"default_left":[0,0,0,0,0,0,0,0,0,0,0,0,0,0,0,0,0,0,0,0,0,0,0,0,0,0,0,0,0,0,0,0,0,0,0,0,0,0,0,0,0,0,0,0,0,0,0,0,0,0,0,0,0,0,0,0,0,0,0,0,0,0,0,0,0,0,0,0,0,0,0,0,0,0,0,0,0,0,0,0,0,0,0,0,0,0,0,0,0,0,0,0,0,0,0,0,0,0,0,0,0,0,0,0,0,0,0,0,0,0,0,0,0,0,0,0,0,0,0,0,0,0,0,0,0],"id":8,"left_children":[1,3,5,7,9,11,13,15,17,19,21,23,25,27,29,31,33,35,37,39,41,43,45,47,49,51,53,55,57,59,61,63,65,67,69,71,73,75,77,79,81,83,85,87,89,91,93,95,97,99,101,103,105,107,109,111,113,115,-1,117,119,121,123,-1,-1,-1,-1,-1,-1,-1,-1,-1,-1,-1,-1,-1,-1,-1,-1,-1,-1,-1,-1,-1,-1,-1,-1,-1,-1,-1,-1,-1,-1,-1,-1,-1,-1,-1,-1,-1,-1,-1,-1,-1,-1,-1,-1,-1,-1,-1,-1,-1,-1,-1,-1,-1,-1,-1,-1,-1,-1,-1,-1,-1,-1],"loss_changes":[1.0907672E3,7.2206573E2,1.3826605E2,3.065653E2,1.6662189E2,2.4180542E1,1.329541E1,2.2952368E2,6.79496E1,5.831343E1,5.280512E1,1.0292243E1,8.661087E0,1.1876831E0,4.395874E0,1.8553601E2,4.968631E1,6.578105E1,4.389471E0,1.7423706E1,2.639127E1,3.4566967E1,4.8539886E0,4.0684156E0,3.434721E0,1.5147476E0,1.1593933E0,7.963486E-1,2.830925E-1,4.8641968E-1,5.083771E-1,4.0249817E1,6.3016693E1,1.188269E1,1.4685997E1,3.5345764E1,2.316043E1,2.9241219E0,2.9137917E0,6.6871595E0,1.0180939E1,1.7551495E1,8.917351E0,1.5929483E1,1.6447678E0,5.165146E0,6.466179E-1,3.8677208E0,6.4150977E0,1.1165776E0,6.435871E-1,2.040886E0,8.8594055E-1,5.7365894E-1,2.2893066E0,1.91679E-1,3.5079193E-1,9.226608E-2,0E0,3.778839E-1,4.1627502E-1,3.1288147E-2,2.6860046E-1,0E0,0E0,0E0,0E0,0E0,0E0,0E0,0E0,0E0,0E0,0E0,0E0,0E0,0E0,0E0,0E0,0E0,0E0,0E0,0E0,0E0,0E0,0E0,0E0,0E0,0E0,0E0,0E0,0E0,0E0,0E0,0E0,0E0,0E0,0E0,0E0,0E0,0E0,0E0,0E0,0E0,0E0,0E0,0E0,0E0,0E0,0E0,0E0,0E0,0E0,0E0,0E0,0E0,0E0,0E0,0E0,0E0,0E0,0E0,0E0,0E0,0E0],"parents":[2147483647,0,0,1,1,2,2,3,3,4,4,5,5,6,6,7,7,8,8,9,9,10,10,11,11,12,12,13,13,14,14,15,15,16,16,17,17,18,18,19,19,20,20,21,21,22,22,23,23,24,24,25,25,26,26,27,27,28,28,29,29,30,30,31,31,32,32,33,33,34,34,35,35,36,36,37,37,38,38,39,39,40,40,41,41,42,42,43,43,44,44,45,45,46,46,47,47,48,48,49,49,50,50,51,51,52,52,53,53,54,54,55,55,56,56,57,57,59,59,60,60,61,61,62,62],"right_children":[2,4,6,8,10,12,14,16,18,20,22,24,26,28,30,32,34,36,38,40,42,44,46,48,50,52,54,56,58,60,62,64,66,68,70,72,74,76,78,80,82,84,86,88,90,92,94,96,98,100,102,104,106,108,110,112,114,116,-1,118,120,122,124,-1,-1,-1,-1,-1,-1,-1,-1,-1,-1,-1,-1,-1,-1,-1,-1,-1,-1,-1,-1,-1,-1,-1,-1,-1,-1,-1,-1,-1,-1,-1,-1,-1,-1,-1,-1,-1,-1,-1,-1,-1,-1,-1,-1,-1,-1,-1,-1,-1,-1,-1,-1,-1,-1,-1,-1,-1,-1,-1,-1,-1,-1],"split_conditions":[7.5043E2,6.955081E4,1.21274E3,7E-1,6.6568685E-1,9.5384E2,1.35633E3,6.307727E4,3.6919E2,7.4758914E4,7.751754E4,7.844097E4,1.06604E3,1.26736E3,1.5548E3,1.9534E2,4.203893E-1,7.619873E-1,1.26E0,1.2347E2,-3.4E-1,1.11E0,7.978535E4,7.025888E4,2.94736E1,7.56E0,6.8198875E4,6.87E0,7.9236016E4,2.003452E0,7.649064E4,2.8502512E0,4.5671E2,3.573E2,6.570324E4,5.35003E4,9.17E0,6.5460156E4,3.34E0,7.185032E4,1.8269E2,1E0,3.66E0,3.782349E0,2.4233921E1,9.6E-1,6.44E0,4.5E-1,8.1E-1,1.0644844E0,-3.1E-1,6.7631484E4,1.4204533E0,5.12E0,9.004498E-1,6.703882E4,7.937837E4,1.3101E3,1.0577714E-2,1.41204E3,7.359916E4,1.66725E3,1.5911175E0,-6.3055545E-2,-3.2891635E-2,-3.4889024E-2,-1.5148277E-2,-2.9060325E-2,-1.59925E-2,-1.7515749E-2,-8.897661E-3,-3.2085653E-2,-1.4291145E-2,-1.1354995E-2,8.671146E-4,-1.1998191E-2,-4.5809033E-3,-4.5874496E-3,-1.3292145E-3,-1.7452277E-2,-2.9707325E-3,-2.0316316E-2,-9.134817E-3,-7.711007E-3,-8.1641285E-4,-7.3039643E-3,-9.791648E-4,-2.4362702E-3,4.1232337E-3,1.0546858E-2,4.5932704E-3,5.223625E-3,1.0714612E-2,7.992362E-3,1.0143594E-2,-2.9202176E-3,9.79154E-4,5.7089E-4,5.1499302E-3,2.8889906E-3,8.756279E-3,1.0963001E-2,6.9911624E-3,2.3868943E-3,4.784627E-3,3.054946E-3,5.547835E-3,5.6746947E-3,3.8102542E-3,5.7061804E-3,8.23099E-3,7.070863E-3,8.589064E-3,6.4079235E-3,1.0620155E-2,7.965129E-3,8.752677E-3,8.974729E-3,1.0030615E-2,9.939161E-3,1.1484821E-2,1.1544074E-2,1.2512355E-2,1.2541513E-2,1.42527E-2],"split_indices":[1,6,1,2,0,1,1,6,1,6,6,6,1,1,1,1,0,0,2,1,2,2,6,6,3,5,6,5,6,0,6,0,1,1,6,6,5,6,4,6,1,4,4,0,3,2,5,2,0,0,2,6,0,5,0,6,6,1,0,1,6,1,0,0,0,0,0,0,0,0,0,0,0,0,0,0,0,0,0,0,0,0,0,0,0,0,0,0,0,0,0,0,0,0,0,0,0,0,0,0,0,0,0,0,0,0,0,0,0,0,0,0,0,0,0,0,0,0,0,0,0,0,0,0,0],"split_type":[0,0,0,0,0,0,0,0,0,0,0,0,0,0,0,0,0,0,0,0,0,0,0,0,0,0,0,0,0,0,0,0,0,0,0,0,0,0,0,0,0,0,0,0,0,0,0,0,0,0,0,0,0,0,0,0,0,0,0,0,0,0,0,0,0,0,0,0,0,0,0,0,0,0,0,0,0,0,0,0,0,0,0,0,0,0,0,0,0,0,0,0,0,0,0,0,0,0,0,0,0,0,0,0,0,0,0,0,0,0,0,0,0,0,0,0,0,0,0,0,0,0,0,0,0],"sum_hessian":[8.9776E4,4.6101E4,4.3675E4,1.2275E4,3.3826E4,2.8632E4,1.5043E4,5.588E3,6.687E3,2.2728E4,1.1098E4,8.35E3,2.0282E4,5.596E3,9.447E3,2.407E3,3.181E3,3.322E3,3.365E3,6.4E3,1.6328E4,6.369E3,4.729E3,7.169E3,1.181E3,1.224E4,8.042E3,3.486E3,2.11E3,6.994E3,2.453E3,7.23E2,1.684E3,8.97E2,2.284E3,1.122E3,2.2E3,5.55E2,2.81E3,1.671E3,4.729E3,1.2591E4,3.737E3,5.483E3,8.86E2,2.966E3,1.763E3,2.542E3,4.627E3,7.48E2,4.33E2,5.664E3,6.576E3,1.688E3,6.354E3,1.125E3,2.361E3,1.937E3,1.73E2,5.058E3,1.936E3,1.28E3,1.173E3,5.82E2,1.41E2,1.003E3,6.81E2,6.54E2,2.43E2,7.27E2,1.557E3,5.76E2,5.46E2,1.698E3,5.02E2,2.23E2,3.32E2,1.192E3,1.618E3,8.3E1,1.588E3,2.13E2,4.516E3,1.002E3,1.1589E4,3.055E3,6.82E2,4.305E3,1.178E3,7.46E2,1.4E2,2.446E3,5.2E2,5.24E2,1.239E3,1.265E3,1.277E3,3.661E3,9.66E2,6.56E2,9.2E1,2.41E2,1.92E2,1.106E3,4.558E3,6.197E3,3.79E2,7.65E2,9.23E2,5.264E3,1.09E3,3.37E2,7.88E2,2.309E3,5.2E1,9.61E2,9.76E2,1.233E3,3.825E3,9.34E2,1.002E3,9.78E2,3.02E2,6.55E2,5.18E2],"tree_param":{"num_deleted":"0","num_feature":"7","num_nodes":"125","size_leaf_vector":"1"}},{"base_weights":[-4.6775913E-6,-9.8137245E-2,1.11783065E-1,-3.3235255E-1,-4.1391365E-2,7.699528E-2,1.8969648E-1,-5.484308E-1,-1.2682791E-1,-8.565946E-2,5.032805E-2,5.6181826E-2,1.13753304E-1,1.7616484E-1,2.317033E-1,-7.1096945E-1,-2.4852462E-1,-2.381201E-1,-5.510264E-2,-1.1713518E-1,4.1957623E-3,-1.2562123E-2,1.4055943E-1,3.0029494E-2,6.963067E-2,9.875839E-2,1.2125486E-1,1.489709E-1,1.8699087E-1,2.1684915E-1,2.4991177E-1,-8.474686E-1,-4.8882937E-1,-3.6322317E-1,-1.5581211E-1,-3.9320078E-1,-6.6024914E-2,-9.1358684E-2,-2.2969874E-2,-1.9869424E-1,-8.046382E-2,-7.976014E-2,7.6418474E-2,-1.4867482E-2,1.9547367E-1,1.1070355E-1,1.777462E-1,2.0354623E-2,9.396199E-2,6.1128277E-2,8.208064E-2,6.8937644E-2,1.0590406E-1,1.161857E-1,1.510347E-1,1.4551038E-1,1.0473554E-2,1.7350012E-1,1.9370489E-1,2.1463291E-1,2.5150627E-1,2.4384415E-1,2.806207E-1,-5.5313796E-2,-3.3099208E-2,-3.8093824E-2,-1.8295443E-2,-1.989666E-2,-1.3270113E-2,-1.0579256E-2,-4.8881467E-3,-4.4276517E-2,-1.2729106E-2,-1.4040209E-2,-1.1721355E-3,-5.9009013E-3,-1.9383545E-3,1.3743835E-3,-2.733395E-3,-1.3862292E-2,-7.2510913E-3,-5.0040497E-3,-1.341192E-3,-5.262396E-3,7.727746E-3,2.0356004E-3,9.840698E-3,-1.4074577E-3,9.251743E-4,7.93601E-3,1.2481674E-2,4.6507693E-3,1.01336045E-2,7.457779E-3,9.352309E-3,1.7741347E-4,1.8823039E-3,2.9902176E-3,8.495796E-3,3.6228516E-3,2.5737823E-3,3.6705371E-3,1.0401982E-2,2.5711267E-3,4.4298815E-3,4.8570796E-3,7.716484E-3,4.7914167E-3,6.015379E-3,6.4498815E-3,9.885572E-3,7.874046E-3,6.6049024E-3,8.183563E-3,9.788077E-3,9.279383E-3,1.0801653E-2,1.0547007E-2,1.1531466E-2,1.3264728E-2,1.035342E-2,1.3830515E-2,1.1816896E-2,1.4400958E-2,1.1518505E-2],"categories":[],"categories_nodes":[],"categories_segments":[],"categories_sizes":[],"default_left":[0,0,0,0,0,0,0,0,0,0,0,0,0,0,0,0,0,0,0,0,0,0,0,0,0,0,0,0,0,0,0,0,0,0,0,0,0,0,0,0,0,0,0,0,0,0,0,0,0,0,0,0,0,0,0,0,0,0,0,0,0,0,0,0,0,0,0,0,0,0,0,0,0,0,0,0,0,0,0,0,0,0,0,0,0,0,0,0,0,0,0,0,0,0,0,0,0,0,0,0,0,0,0,0,0,0,0,0,0,0,0,0,0,0,0,0,0,0,0,0,0,0,0,0,0],"id":9,"left_children":[1,3,5,7,9,11,13,15,17,19,21,23,25,27,29,31,33,35,37,39,41,43,45,47,49,51,53,55,57,59,61,63,65,67,69,71,73,75,77,79,81,83,85,87,89,91,93,95,97,99,101,103,105,107,109,111,-1,113,115,117,119,121,123,-1,-1,-1,-1,-1,-1,-1,-1,-1,-1,-1,-1,-1,-1,-1,-1,-1,-1,-1,-1,-1,-1,-1,-1,-1,-1,-1,-1,-1,-1,-1,-1,-1,-1,-1,-1,-1,-1,-1,-1,-1,-1,-1,-1,-1,-1,-1,-1,-1,-1,-1,-1,-1,-1,-1,-1,-1,-1,-1,-1,-1,-1],"loss_changes":[9.848662E2,6.354038E2,1.13739624E2,4.1400378E2,1.5626685E2,2.2192642E1,7.3224792E0,2.2137537E2,3.814305E1,7.34164E1,7.109967E1,6.514553E0,1.1678772E0,2.8579102E0,7.986145E-1,8.894458E1,1.6947159E1,4.996187E1,3.3857412E0,5.7480743E1,4.084393E1,3.5442505E0,5.693634E0,3.8911705E0,1.2901077E0,7.39151E-1,1.0372009E0,5.548973E-1,6.010742E-1,7.9963684E-2,1.9429779E-1,8.682825E1,3.7446106E1,2.3186722E0,2.8478088E0,6.699693E1,8.12401E0,1.910635E0,2.4693837E0,2.5095917E1,1.3953506E1,1.8619572E1,1.5558294E1,3.237816E0,1.2161374E-1,4.628788E0,5.8099365E-1,1.5889013E0,2.1354127E0,7.9170036E-1,5.4034843E0,2.2959971E-1,1.1833115E0,4.8983765E-1,1.0164871E0,4.0433884E-1,0E0,4.795227E-1,8.063202E-1,4.8583984E-2,5.7253838E-3,2.2608185E-1,1.7669678E-2,0E0,0E0,0E0,0E0,0E0,0E0,0E0,0E0,0E0,0E0,0E0,0E0,0E0,0E0,0E0,0E0,0E0,0E0,0E0,0E0,0E0,0E0,0E0,0E0,0E0,0E0,0E0,0E0,0E0,0E0,0E0,0E0,0E0,0E0,0E0,0E0,0E0,0E0,0E0,0E0,0E0,0E0,0E0,0E0,0E0,0E0,0E0,0E0,0E0,0E0,0E0,0E0,0E0,0E0,0E0,0E0,0E0,0E0,0E0,0E0,0E0,0E0],"parents":[2147483647,0,0,1,1,2,2,3,3,4,4,5,5,6,6,7,7,8,8,9,9,10,10,11,11,12,12,13,13,14,14,15,15,16,16,17,17,18,18,19,19,20,20,21,21,22,22,23,23,24,24,25,25,26,26,27,27,28,28,29,29,30,30,31,31,32,32,33,33,34,34,35,35,36,36,37,37,38,38,39,39,40,40,41,41,42,42,43,43,44,44,45,45,46,46,47,47,48,48,49,49,50,50,51,51,52,52,53,53,54,54,55,55,57,57,58,58,59,59,60,60,61,61,62,62],"right_children":[2,4,6,8,10,12,14,16,18,20,22,24,26,28,30,32,34,36,38,40,42,44,46,48,50,52,54,56,58,60,62,64,66,68,70,72,74,76,78,80,82,84,86,88,90,92,94,96,98,100,102,104,106,108,110,112,-1,114,116,118,120,122,124,-1,-1,-1,-1,-1,-1,-1,-1,-1,-1,-1,-1,-1,-1,-1,-1,-1,-1,-1,-1,-1,-1,-1,-1,-1,-1,-1,-1,-1,-1,-1,-1,-1,-1,-1,-1,-1,-1,-1,-1,-1,-1,-1,-1,-1,-1,-1,-1,-1,-1,-1,-1,-1,-1,-1,-1,-1,-1,-1,-1,-1,-1],"split_conditions":[7.9317E2,6.592637E4,1.24146E3,1.31E0,7.751754E4,1.05999E3,1.52231E3,4.0559E2,3.4767E2,9.8425967E-1,6.467637E-1,9.4953E2,1.12144E3,1.32404E3,1.63612E3,6.212526E4,5.5346E2,5.119941E4,5.33E0,7.32296E4,7.1626555E4,4.266716E1,7.937837E4,7.854268E4,7.80171E4,6.7631484E4,2.003452E0,7.9527414E4,7.315873E4,8.148495E4,8.0326E4,2.2165E2,5.695485E-1,3.218167E0,6.7066E2,1.66E0,4.656549E-1,1.6581881E0,7.39E0,4.0066928E-1,5.3103E2,1.13E0,1.02E0,8.05275E4,8.016979E4,9.4E-1,5.78E0,6.1743593E-1,1.0644844E0,7.34E0,7.619873E-1,9.6E-1,8.8776004E-1,2.01E0,7.372937E4,7.26E0,1.0473554E-2,7.1E-1,1.0809948E0,3.9463189E0,1E-2,1.01E0,1.3E-1,-5.5313796E-2,-3.3099208E-2,-3.8093824E-2,-1.8295443E-2,-1.989666E-2,-1.3270113E-2,-1.0579256E-2,-4.8881467E-3,-4.4276517E-2,-1.2729106E-2,-1.4040209E-2,-1.1721355E-3,-5.9009013E-3,-1.9383545E-3,1.3743835E-3,-2.733395E-3,-1.3862292E-2,-7.2510913E-3,-5.0040497E-3,-1.341192E-3,-5.262396E-3,7.727746E-3,2.0356004E-3,9.840698E-3,-1.4074577E-3,9.251743E-4,7.93601E-3,1.2481674E-2,4.6507693E-3,1.01336045E-2,7.457779E-3,9.352309E-3,1.7741347E-4,1.8823039E-3,2.9902176E-3,8.495796E-3,3.6228516E-3,2.5737823E-3,3.6705371E-3,1.0401982E-2,2.5711267E-3,4.4298815E-3,4.8570796E-3,7.716484E-3,4.7914167E-3,6.015379E-3,6.4498815E-3,9.885572E-3,7.874046E-3,6.6049024E-3,8.183563E-3,9.788077E-3,9.279383E-3,1.0801653E-2,1.0547007E-2,1.1531466E-2,1.3264728E-2,1.035342E-2,1.3830515E-2,1.1816896E-2,1.4400958E-2,1.1518505E-2],"split_indices":[1,6,1,2,6,1,1,1,1,0,0,1,1,1,1,6,1,6,5,6,6,3,6,6,6,6,0,6,6,6,6,1,0,0,1,2,0,0,5,0,1,2,2,6,6,2,5,0,0,5,0,2,0,4,6,5,0,2,0,0,2,4,2,0,0,0,0,0,0,0,0,0,0,0,0,0,0,0,0,0,0,0,0,0,0,0,0,0,0,0,0,0,0,0,0,0,0,0,0,0,0,0,0,0,0,0,0,0,0,0,0,0,0,0,0,0,0,0,0,0,0,0,0,0,0],"split_type":[0,0,0,0,0,0,0,0,0,0,0,0,0,0,0,0,0,0,0,0,0,0,0,0,0,0,0,0,0,0,0,0,0,0,0,0,0,0,0,0,0,0,0,0,0,0,0,0,0,0,0,0,0,0,0,0,0,0,0,0,0,0,0,0,0,0,0,0,0,0,0,0,0,0,0,0,0,0,0,0,0,0,0,0,0,0,0,0,0,0,0,0,0,0,0,0,0,0,0,0,0,0,0,0,0,0,0,0,0,0,0,0,0,0,0,0,0,0,0,0,0,0,0,0,0],"sum_hessian":[8.9776E4,4.7808E4,4.1968E4,9.323E3,3.8485E4,2.9015E4,1.2953E4,4.544E3,4.779E3,2.5957E4,1.2528E4,1.8527E4,1.0488E4,9.801E3,3.152E3,2.946E3,1.598E3,1.872E3,2.907E3,1.9223E4,6.734E3,7.383E3,5.145E3,6.293E3,1.2234E4,3.502E3,6.986E3,2.795E3,7.006E3,1.743E3,1.409E3,1.823E3,1.123E3,7.13E2,8.85E2,9.84E2,8.88E2,1.365E3,1.542E3,5.961E3,1.3262E4,3.114E3,3.62E3,7.303E3,8E1,2.856E3,2.289E3,5.467E3,8.26E2,7.273E3,4.961E3,6.79E2,2.823E3,5.974E3,1.012E3,2.647E3,1.48E2,2.337E3,4.669E3,1.645E3,9.8E1,1.184E3,2.25E2,7.59E2,1.064E3,3.47E2,7.76E2,5.24E2,1.89E2,4.5E2,4.35E2,2.15E2,7.69E2,1.46E2,7.42E2,9.05E2,4.6E2,5.95E2,9.47E2,2.418E3,3.543E3,9.71E3,3.552E3,2.809E3,3.05E2,2.793E3,8.27E2,5.224E3,2.079E3,5E1,3E1,2.397E3,4.59E2,5.66E2,1.723E3,2.773E3,2.694E3,5.71E2,2.55E2,3.343E3,3.93E3,4.643E3,3.18E2,3.61E2,3.18E2,2.393E3,4.3E2,1.01E3,4.964E3,6.9E2,3.22E2,1.393E3,1.254E3,1.627E3,7.1E2,3.431E3,1.238E3,1.348E3,2.97E2,7.1E1,2.7E1,2.14E2,9.7E2,1.92E2,3.3E1],"tree_param":{"num_deleted":"0","num_feature":"7","num_nodes":"125","size_leaf_vector":"1"}},{"base_weights":[-4.373252E-6,-9.778959E-2,1.01419866E-1,-2.7939034E-1,-2.6077319E-2,6.4667396E-2,1.723236E-1,-4.184831E-1,-1.4715242E-1,-6.977368E-2,7.316897E-2,2.3994153E-2,8.219844E-2,1.4343181E-1,1.9740753E-1,-6.544245E-1,-2.6989836E-1,-2.3389094E-1,-5.9739705E-2,-1.01888746E-1,-9.039557E-3,2.6190331E-2,1.4094426E-1,1.0998357E-2,1.0443935E-1,6.709389E-2,1.0517651E-1,1.3749191E-1,1.9113463E-1,1.860135E-1,2.2945723E-1,-1.0371972E0,-4.9034798E-1,-4.203596E-1,-1.8050122E-1,-3.6119866E-1,-9.129033E-2,-9.7450815E-2,-2.997089E-2,-2.0040286E-1,-8.73866E-2,-9.780951E-4,-6.783877E-2,-1.7354384E-3,1.8047674E-1,1.748211E-1,1.1517113E-1,-1.8392181E-2,2.7114658E-2,6.5970965E-2,1.6885991E-1,7.817723E-2,5.7537213E-2,8.476727E-2,1.1134539E-1,1.2526882E-1,1.5431327E-1,1.7298533E-1,2.1880741E-1,1.7362645E-1,1.9301283E-1,2.1136479E-1,2.4057081E-1,-5.7254214E-2,-2.8717577E-2,-3.2443475E-2,-1.4715041E-2,-2.4031147E-2,-1.0335169E-2,-1.4957187E-2,-6.8092346E-3,-3.5337567E-2,-1.0418078E-2,-8.682593E-3,4.1900927E-5,-6.732262E-3,-5.9635733E-4,-2.2484518E-3,1.2764891E-3,-7.2389278E-3,-1.3418532E-2,-3.1862624E-3,-7.2506475E-3,-5.5497E-4,6.2888674E-3,-4.200153E-3,1.5688401E-4,-2.5086273E-3,2.8610535E-3,9.647791E-3,4.6428004E-3,5.344274E-3,9.129377E-3,5.172527E-3,8.501251E-3,-2.6624522E-3,8.344086E-4,4.5472063E-4,4.884617E-3,2.6204428E-3,7.982673E-3,6.1231917E-3,9.958605E-3,1.8509309E-3,4.3017985E-3,2.7257397E-3,4.799373E-3,5.1277983E-3,3.4799594E-3,5.158195E-3,7.701142E-3,7.1722805E-3,5.7707108E-3,7.527175E-3,8.2716085E-3,9.500238E-3,7.7977176E-3,1.0149213E-2,1.2024463E-2,9.7395815E-3,8.586413E-3,9.199998E-3,1.0079939E-2,1.0082577E-2,1.1008433E-2,1.3319932E-2,1.1701593E-2],"categories":[],"categories_nodes":[],"categories_segments":[],"categories_sizes":[],"default_left":[0,0,0,0,0,0,0,0,0,0,0,0,0,0,0,0,0,0,0,0,0,0,0,0,0,0,0,0,0,0,0,0,0,0,0,0,0,0,0,0,0,0,0,0,0,0,0,0,0,0,0,0,0,0,0,0,0,0,0,0,0,0,0,0,0,0,0,0,0,0,0,0,0,0,0,0,0,0,0,0,0,0,0,0,0,0,0,0,0,0,0,0,0,0,0,0,0,0,0,0,0,0,0,0,0,0,0,0,0,0,0,0,0,0,0,0,0,0,0,0,0,0,0,0,0,0,0],"id":10,"left_children":[1,3,5,7,9,11,13,15,17,19,21,23,25,27,29,31,33,35,37,39,41,43,45,47,49,51,53,55,57,59,61,63,65,67,69,71,73,75,77,79,81,83,85,87,89,91,93,95,97,99,101,103,105,107,109,111,113,115,117,119,121,123,125,-1,-1,-1,-1,-1,-1,-1,-1,-1,-1,-1,-1,-1,-1,-1,-1,-1,-1,-1,-1,-1,-1,-1,-1,-1,-1,-1,-1,-1,-1,-1,-1,-1,-1,-1,-1,-1,-1,-1,-1,-1,-1,-1,-1,-1,-1,-1,-1,-1,-1,-1,-1,-1,-1,-1,-1,-1,-1,-1,-1,-1,-1,-1,-1],"loss_changes":[8.9039954E2,5.9526105E2,1.1482773E2,2.379483E2,1.4211882E2,2.0694855E1,1.0874359E1,2.2089453E2,5.029294E1,4.4378372E1,3.1893532E1,9.140261E0,7.0326233E0,1.9557495E0,2.8969727E0,1.5248206E2,5.1992188E1,6.042035E1,3.7084455E0,2.1245316E1,3.7308474E0,2.5498411E1,3.560501E0,3.5667355E0,3.0022964E0,1.2920723E0,1.0031967E0,1.2603683E0,3.4988022E-1,4.8182678E-1,3.7281036E-1,3.579492E1,5.2858643E1,1.8467346E1,1.2735771E1,9.275131E1,1.1928217E1,4.636298E0,1.5402684E0,7.178421E0,1.7682396E1,8.883123E0,1.0890355E0,1.4315552E1,9.7381973E-1,9.1436386E-1,1.4817009E0,3.2620723E0,6.1840067E0,9.610491E-1,6.1410046E-1,1.8291855E0,7.5909615E-1,4.9769497E-1,2.139511E0,6.30085E-1,8.470154E-2,1.0689068E-1,5.4792404E-2,5.316925E-2,2.5613403E-1,2.4864197E-2,1.5687561E-1,0E0,0E0,0E0,0E0,0E0,0E0,0E0,0E0,0E0,0E0,0E0,0E0,0E0,0E0,0E0,0E0,0E0,0E0,0E0,0E0,0E0,0E0,0E0,0E0,0E0,0E0,0E0,0E0,0E0,0E0,0E0,0E0,0E0,0E0,0E0,0E0,0E0,0E0,0E0,0E0,0E0,0E0,0E0,0E0,0E0,0E0,0E0,0E0,0E0,0E0,0E0,0E0,0E0,0E0,0E0,0E0,0E0,0E0,0E0,0E0,0E0,0E0,0E0,0E0],"parents":[2147483647,0,0,1,1,2,2,3,3,4,4,5,5,6,6,7,7,8,8,9,9,10,10,11,11,12,12,13,13,14,14,15,15,16,16,17,17,18,18,19,19,20,20,21,21,22,22,23,23,24,24,25,25,26,26,27,27,28,28,29,29,30,30,31,31,32,32,33,33,34,34,35,35,36,36,37,37,38,38,39,39,40,40,41,41,42,42,43,43,44,44,45,45,46,46,47,47,48,48,49,49,50,50,51,51,52,52,53,53,54,54,55,55,56,56,57,57,58,58,59,59,60,60,61,61,62,62],"right_children":[2,4,6,8,10,12,14,16,18,20,22,24,26,28,30,32,34,36,38,40,42,44,46,48,50,52,54,56,58,60,62,64,66,68,70,72,74,76,78,80,82,84,86,88,90,92,94,96,98,100,102,104,106,108,110,112,114,116,118,120,122,124,126,-1,-1,-1,-1,-1,-1,-1,-1,-1,-1,-1,-1,-1,-1,-1,-1,-1,-1,-1,-1,-1,-1,-1,-1,-1,-1,-1,-1,-1,-1,-1,-1,-1,-1,-1,-1,-1,-1,-1,-1,-1,-1,-1,-1,-1,-1,-1,-1,-1,-1,-1,-1,-1,-1,-1,-1,-1,-1,-1,-1,-1,-1,-1,-1],"split_conditions":[7.4398E2,7.025888E4,1.21274E3,7.9E-1,6.81069E-1,9.5384E2,1.39735E3,6.307727E4,3.6919E2,7.743985E4,7.7776625E4,7.844097E4,1.06604E3,7.844097E4,1.59004E3,1.9534E2,8.01163E-1,5.6171637E4,7.0101494E-1,1E0,-4E-1,1.1E0,2.4936E2,7.043895E4,2.94736E1,7.56E0,6.920585E4,1.28375E3,1.2903465E0,1.66E0,7.265959E4,2.945072E0,4.1357E2,4.8725E2,6.570324E4,1.54E0,1.7861303E0,5.13E0,6.518798E4,1.414E2,-3.2E-1,5.1E-1,3.25E0,1.7150621E0,2.2489914E1,1.0809948E0,8.0923914E4,4.9E-1,8.1E-1,1.0644844E0,7.978535E4,6.518798E4,1.1472548E0,5.12E0,9.004498E-1,7.09E0,7.5542195E4,-8E-2,8.183366E4,-4.3E-1,1.49199E3,2.77E0,1.19E0,-5.7254214E-2,-2.8717577E-2,-3.2443475E-2,-1.4715041E-2,-2.4031147E-2,-1.0335169E-2,-1.4957187E-2,-6.8092346E-3,-3.5337567E-2,-1.0418078E-2,-8.682593E-3,4.1900927E-5,-6.732262E-3,-5.9635733E-4,-2.2484518E-3,1.2764891E-3,-7.2389278E-3,-1.3418532E-2,-3.1862624E-3,-7.2506475E-3,-5.5497E-4,6.2888674E-3,-4.200153E-3,1.5688401E-4,-2.5086273E-3,2.8610535E-3,9.647791E-3,4.6428004E-3,5.344274E-3,9.129377E-3,5.172527E-3,8.501251E-3,-2.6624522E-3,8.344086E-4,4.5472063E-4,4.884617E-3,2.6204428E-3,7.982673E-3,6.1231917E-3,9.958605E-3,1.8509309E-3,4.3017985E-3,2.7257397E-3,4.799373E-3,5.1277983E-3,3.4799594E-3,5.158195E-3,7.701142E-3,7.1722805E-3,5.7707108E-3,7.527175E-3,8.2716085E-3,9.500238E-3,7.7977176E-3,1.0149213E-2,1.2024463E-2,9.7395815E-3,8.586413E-3,9.199998E-3,1.0079939E-2,1.0082577E-2,1.1008433E-2,1.3319932E-2,1.1701593E-2],"split_indices":[1,6,1,2,0,1,1,6,1,6,6,6,1,6,1,1,0,6,0,4,2,2,1,6,3,5,6,1,0,4,6,0,1,1,6,2,0,4,6,1,2,0,4,0,3,0,6,2,0,0,6,6,0,5,0,5,6,2,6,2,1,4,4,0,0,0,0,0,0,0,0,0,0,0,0,0,0,0,0,0,0,0,0,0,0,0,0,0,0,0,0,0,0,0,0,0,0,0,0,0,0,0,0,0,0,0,0,0,0,0,0,0,0,0,0,0,0,0,0,0,0,0,0,0,0,0,0],"split_type":[0,0,0,0,0,0,0,0,0,0,0,0,0,0,0,0,0,0,0,0,0,0,0,0,0,0,0,0,0,0,0,0,0,0,0,0,0,0,0,0,0,0,0,0,0,0,0,0,0,0,0,0,0,0,0,0,0,0,0,0,0,0,0,0,0,0,0,0,0,0,0,0,0,0,0,0,0,0,0,0,0,0,0,0,0,0,0,0,0,0,0,0,0,0,0,0,0,0,0,0,0,0,0,0,0,0,0,0,0,0,0,0,0,0,0,0,0,0,0,0,0,0,0,0,0,0,0],"sum_hessian":[8.9776E4,4.5708E4,4.4068E4,1.2939E4,3.2769E4,2.9025E4,1.5043E4,6.305E3,6.634E3,2.2752E4,1.0017E4,8.743E3,2.0282E4,6.994E3,8.049E3,2.435E3,3.87E3,3.329E3,3.305E3,1.4882E4,7.87E3,5.917E3,4.1E3,7.528E3,1.215E3,1.224E4,8.042E3,6.223E3,7.71E2,5.943E3,2.106E3,7.29E2,1.706E3,1.441E3,2.429E3,1.758E3,1.571E3,1.457E3,1.848E3,1.908E3,1.2974E4,6.922E3,9.48E2,5.011E3,9.06E2,1.769E3,2.331E3,2.666E3,4.862E3,7.62E2,4.53E2,5.664E3,6.576E3,1.87E3,6.172E3,3.609E3,2.614E3,4.7E2,3.01E2,2.155E3,3.788E3,8.09E2,1.297E3,5.9E2,1.39E2,9.42E2,7.64E2,1.123E3,3.18E2,6.59E2,1.77E3,5.38E2,1.22E3,8.29E2,7.42E2,1.015E3,4.42E2,1.455E3,3.93E2,1.051E3,8.57E2,9.199E3,3.775E3,6.411E3,5.11E2,7.72E2,1.76E2,2.751E3,2.26E3,7.92E2,1.14E2,1.83E2,1.586E3,1.923E3,4.08E2,1.337E3,1.329E3,3.874E3,9.88E2,6.67E2,9.5E1,1.81E2,2.72E2,9.09E2,4.755E3,6.099E3,4.77E2,8.58E2,1.012E3,5.182E3,9.9E2,1.264E3,2.345E3,1.963E3,6.51E2,2.3E2,2.4E2,1.8E2,1.21E2,1.69E2,1.986E3,1.859E3,1.929E3,3.96E2,4.13E2,2.54E2,1.043E3],"tree_param":{"num_deleted":"0","num_feature":"7","num_nodes":"127","size_leaf_vector":"1"}},{"base_weights":[-4.39826E-6,-9.210021E-2,9.720691E-2,-2.5992295E-1,-2.2599364E-2,6.284851E-2,1.6487986E-1,-3.8467106E-1,-1.3841918E-1,-6.483473E-2,7.657235E-2,3.53626E-2,8.5971594E-2,1.3744822E-1,1.8754755E-1,-6.1982846E-1,-2.4858867E-1,-2.215548E-1,-5.749702E-2,-9.371724E-2,-6.523521E-3,3.423621E-2,1.3397856E-1,2.0264152E-2,7.40459E-2,7.169186E-2,1.0385444E-1,1.317302E-1,1.8132347E-1,1.7671914E-1,2.1800627E-1,-9.8527926E-1,-4.6424615E-1,-3.631222E-1,-1.4597268E-1,-3.6252725E-1,-1.015604E-1,-1.0270553E-1,-3.020746E-2,-1.8931597E-1,-7.985285E-2,-8.713884E-3,2.0687984E-1,5.703113E-3,1.67433E-1,1.6608828E-1,1.0988033E-1,-8.278301E-3,3.4446955E-2,6.0309246E-2,1.4960013E-1,6.532951E-2,9.1887146E-2,9.938961E-2,1.2608936E-1,1.2005036E-1,1.4649165E-1,1.6027397E-1,2.0455895E-1,1.6495363E-1,1.8336727E-1,2.008226E-1,2.2856155E-1,-7.4589334E-2,-4.4489402E-2,-3.0140167E-2,-1.2961971E-2,-2.209143E-2,-8.731296E-3,-9.546567E-3,-2.9265916E-3,-3.218942E-2,-8.7012565E-3,-8.991339E-3,-5.4348464E-4,-8.066735E-3,-2.1779186E-3,3.979082E-3,-2.0255465E-3,-6.8467716E-3,-1.2748392E-2,-2.9214923E-3,-6.703449E-3,-6.404687E-4,3.8778961E-3,3.204219E-3,1.3325669E-2,-2.2546398E-3,3.1142528E-3,-2.3619873E-3,8.733028E-3,5.0785067E-3,8.6732E-3,4.9307933E-3,8.119565E-3,-1.8415366E-3,1.6948617E-3,2.260838E-3,5.484826E-4,2.8102633E-3,7.792787E-3,2.41806E-3,8.13678E-3,3.7597565E-3,2.7615703E-3,3.2946111E-3,7.949361E-3,4.4724303E-3,5.3940522E-3,5.643035E-3,9.214368E-3,6.880524E-3,5.4978793E-3,7.213009E-3,8.296401E-3,8.764281E-3,7.3584476E-3,9.620342E-3,1.1538852E-2,9.3021225E-3,8.160784E-3,8.676379E-3,9.527895E-3,9.579724E-3,1.0459336E-2,1.2656546E-2,1.1117074E-2],"categories":[],"categories_nodes":[],"categories_segments":[],"categories_sizes":[],"default_left":[0,0,0,0,0,0,0,0,0,0,0,0,0,0,0,0,0,0,0,0,0,0,0,0,0,0,0,0,0,0,0,0,0,0,0,0,0,0,0,0,0,0,0,0,0,0,0,0,0,0,0,0,0,0,0,0,0,0,0,0,0,0,0,0,0,0,0,0,0,0,0,0,0,0,0,0,0,0,0,0,0,0,0,0,0,0,0,0,0,0,0,0,0,0,0,0,0,0,0,0,0,0,0,0,0,0,0,0,0,0,0,0,0,0,0,0,0,0,0,0,0,0,0,0,0,0,0],"id":11,"left_children":[1,3,5,7,9,11,13,15,17,19,21,23,25,27,29,31,33,35,37,39,41,43,45,47,49,51,53,55,57,59,61,63,65,67,69,71,73,75,77,79,81,83,85,87,89,91,93,95,97,99,101,103,105,107,109,111,113,115,117,119,121,123,125,-1,-1,-1,-1,-1,-1,-1,-1,-1,-1,-1,-1,-1,-1,-1,-1,-1,-1,-1,-1,-1,-1,-1,-1,-1,-1,-1,-1,-1,-1,-1,-1,-1,-1,-1,-1,-1,-1,-1,-1,-1,-1,-1,-1,-1,-1,-1,-1,-1,-1,-1,-1,-1,-1,-1,-1,-1,-1,-1,-1,-1,-1,-1,-1],"loss_changes":[8.0376044E2,5.3771967E2,1.01542175E2,2.0458636E2,1.3656018E2,1.8409103E1,9.119202E0,2.1300317E2,4.6010193E1,3.8508026E1,2.3662224E1,7.730257E0,4.01017E0,1.6464767E0,2.616516E0,1.3833209E2,4.9556274E1,5.703743E1,4.2754393E0,2.0251862E1,3.542592E0,2.130474E1,3.1798172E0,3.85531E0,3.8476734E0,1.1184082E0,6.807022E-1,9.9861145E-1,3.4137154E-1,4.3467712E-1,3.3625793E-1,3.388385E1,4.853018E1,2.9505554E1,8.747589E0,8.21194E1,1.2944859E1,4.518386E0,2.451159E0,6.622757E0,1.5504791E1,2.6505792E0,6.3860655E-1,1.3275546E1,1.5427418E0,8.2466507E-1,1.3823109E0,3.808973E0,1.6081085E0,1.2248526E0,7.514572E-1,6.5914345E-1,3.6420078E0,4.8163605E-1,8.7534523E-1,5.690193E-1,8.878708E-2,5.407524E-2,7.0295334E-2,4.865265E-2,2.3501587E-1,2.2441864E-2,1.4208221E-1,0E0,0E0,0E0,0E0,0E0,0E0,0E0,0E0,0E0,0E0,0E0,0E0,0E0,0E0,0E0,0E0,0E0,0E0,0E0,0E0,0E0,0E0,0E0,0E0,0E0,0E0,0E0,0E0,0E0,0E0,0E0,0E0,0E0,0E0,0E0,0E0,0E0,0E0,0E0,0E0,0E0,0E0,0E0,0E0,0E0,0E0,0E0,0E0,0E0,0E0,0E0,0E0,0E0,0E0,0E0,0E0,0E0,0E0,0E0,0E0,0E0,0E0,0E0,0E0],"parents":[2147483647,0,0,1,1,2,2,3,3,4,4,5,5,6,6,7,7,8,8,9,9,10,10,11,11,12,12,13,13,14,14,15,15,16,16,17,17,18,18,19,19,20,20,21,21,22,22,23,23,24,24,25,25,26,26,27,27,28,28,29,29,30,30,31,31,32,32,33,33,34,34,35,35,36,36,37,37,38,38,39,39,40,40,41,41,42,42,43,43,44,44,45,45,46,46,47,47,48,48,49,49,50,50,51,51,52,52,53,53,54,54,55,55,56,56,57,57,58,58,59,59,60,60,61,61,62,62],"right_children":[2,4,6,8,10,12,14,16,18,20,22,24,26,28,30,32,34,36,38,40,42,44,46,48,50,52,54,56,58,60,62,64,66,68,70,72,74,76,78,80,82,84,86,88,90,92,94,96,98,100,102,104,106,108,110,112,114,116,118,120,122,124,126,-1,-1,-1,-1,-1,-1,-1,-1,-1,-1,-1,-1,-1,-1,-1,-1,-1,-1,-1,-1,-1,-1,-1,-1,-1,-1,-1,-1,-1,-1,-1,-1,-1,-1,-1,-1,-1,-1,-1,-1,-1,-1,-1,-1,-1,-1,-1,-1,-1,-1,-1,-1,-1,-1,-1,-1,-1,-1,-1,-1,-1,-1,-1,-1],"split_conditions":[7.5043E2,7.0753336E4,1.2182E3,7.8E-1,6.81069E-1,9.9585E2,1.39735E3,6.307727E4,3.573E2,7.755739E4,7.7776625E4,7.7776625E4,1.09963E3,7.840504E4,1.59004E3,1.9534E2,1.4711858E0,5.4473258E4,3.03E0,1E0,8.148495E4,1.04E0,2.4936E2,8.8382E2,3.0593744E1,7.857998E-1,7.876575E4,1.28375E3,9.989264E-1,1.66E0,7.265959E4,5.6171637E4,4.5671E2,4.803E2,4.4515E2,1.66E0,1.7861303E0,8.403202E-1,3.9721E2,1.414E2,-2.8E-1,6.4274025E-1,9.922032E0,1.4204533E0,9.004498E-1,1.0809948E0,8.0923914E4,7.1502086E4,5.55E0,1.1935996E0,6.4274025E-1,7.84E0,7.38347E4,2.98E0,8.8776004E-1,7.09E0,1.26E0,-1.2E-1,5.3548017E0,-4.7E-1,7.288516E4,2.77E0,1.19E0,-7.4589334E-2,-4.4489402E-2,-3.0140167E-2,-1.2961971E-2,-2.209143E-2,-8.731296E-3,-9.546567E-3,-2.9265916E-3,-3.218942E-2,-8.7012565E-3,-8.991339E-3,-5.4348464E-4,-8.066735E-3,-2.1779186E-3,3.979082E-3,-2.0255465E-3,-6.8467716E-3,-1.2748392E-2,-2.9214923E-3,-6.703449E-3,-6.404687E-4,3.8778961E-3,3.204219E-3,1.3325669E-2,-2.2546398E-3,3.1142528E-3,-2.3619873E-3,8.733028E-3,5.0785067E-3,8.6732E-3,4.9307933E-3,8.119565E-3,-1.8415366E-3,1.6948617E-3,2.260838E-3,5.484826E-4,2.8102633E-3,7.792787E-3,2.41806E-3,8.13678E-3,3.7597565E-3,2.7615703E-3,3.2946111E-3,7.949361E-3,4.4724303E-3,5.3940522E-3,5.643035E-3,9.214368E-3,6.880524E-3,5.4978793E-3,7.213009E-3,8.296401E-3,8.764281E-3,7.3584476E-3,9.620342E-3,1.1538852E-2,9.3021225E-3,8.160784E-3,8.676379E-3,9.527895E-3,9.579724E-3,1.0459336E-2,1.2656546E-2,1.1117074E-2],"split_indices":[1,6,1,2,0,1,1,6,1,6,6,6,1,6,1,1,0,6,4,4,6,2,1,1,3,0,6,1,0,4,6,6,1,1,1,2,0,0,1,1,2,0,3,0,0,0,6,6,4,0,0,5,6,4,0,5,2,2,0,2,6,4,4,0,0,0,0,0,0,0,0,0,0,0,0,0,0,0,0,0,0,0,0,0,0,0,0,0,0,0,0,0,0,0,0,0,0,0,0,0,0,0,0,0,0,0,0,0,0,0,0,0,0,0,0,0,0,0,0,0,0,0,0,0,0,0,0],"split_type":[0,0,0,0,0,0,0,0,0,0,0,0,0,0,0,0,0,0,0,0,0,0,0,0,0,0,0,0,0,0,0,0,0,0,0,0,0,0,0,0,0,0,0,0,0,0,0,0,0,0,0,0,0,0,0,0,0,0,0,0,0,0,0,0,0,0,0,0,0,0,0,0,0,0,0,0,0,0,0,0,0,0,0,0,0,0,0,0,0,0,0,0,0,0,0,0,0,0,0,0,0,0,0,0,0,0,0,0,0,0,0,0,0,0,0,0,0,0,0,0,0,0,0,0,0,0,0],"sum_hessian":[8.9776E4,4.6101E4,4.3675E4,1.35E4,3.2601E4,2.8969E4,1.4706E4,6.66E3,6.84E3,2.2864E4,9.737E3,1.3237E4,1.5732E4,6.657E3,8.049E3,2.44E3,4.22E3,3.373E3,3.467E3,1.529E4,7.574E3,5.605E3,4.132E3,9.522E3,3.715E3,8.75E3,6.982E3,5.893E3,7.64E2,5.943E3,2.106E3,7.27E2,1.713E3,1.993E3,2.227E3,1.55E3,1.823E3,1.304E3,2.163E3,1.935E3,1.3355E4,7.498E3,7.6E1,4.617E3,9.88E2,1.769E3,2.363E3,3.161E3,6.361E3,3.145E3,5.7E2,6.657E3,2.093E3,5.819E3,1.163E3,3.295E3,2.598E3,4.05E2,3.59E2,2.155E3,3.788E3,8.09E2,1.297E3,1.13E2,6.14E2,1.021E3,6.92E2,1.405E3,5.88E2,1.47E3,7.57E2,6.21E2,9.29E2,9.78E2,8.45E2,6.54E2,6.5E2,1.85E2,1.978E3,1.078E3,8.57E2,9.574E3,3.781E3,7.159E3,3.39E2,2.3E1,5.3E1,2.433E3,2.184E3,3.2E1,9.56E2,1.83E2,1.586E3,1.948E3,4.15E2,1.885E3,1.276E3,4.36E3,2.001E3,3.017E3,1.28E2,6.6E1,5.04E2,3.364E3,3.293E3,1.51E3,5.83E2,2.686E3,3.133E3,9.5E2,2.13E2,1.198E3,2.097E3,2.338E3,2.6E2,1.83E2,2.22E2,2.51E2,1.08E2,1.56E2,1.999E3,1.61E3,2.178E3,3.96E2,4.13E2,2.54E2,1.043E3],"tree_param":{"num_deleted":"0","num_feature":"7","num_nodes":"127","size_leaf_vector":"1"}},{"base_weights":[-4.5107536E-6,-8.828771E-2,9.15641E-2,-2.4844894E-1,-2.1832895E-2,5.1575977E-2,1.4482313E-1,-3.6777362E-1,-1.3171108E-1,-6.2023655E-2,7.242081E-2,2.0525312E-2,6.710656E-2,1.1281965E-1,1.7234214E-1,-5.907988E-1,-2.3811534E-1,-2.0999344E-1,-5.4718565E-2,-1.2755607E-1,-3.8001247E-2,2.8889343E-2,1.2355227E-1,8.93096E-3,9.804639E-2,5.9796084E-2,8.6771384E-2,1.0659854E-1,1.355095E-1,1.6108884E-1,2.017156E-1,-9.364329E-1,-4.42642E-1,-3.485213E-1,-1.3964812E-1,-3.4369704E-1,-9.5443144E-2,-1.0029779E-1,-2.9082585E-2,-5.0785597E-2,-1.5590954E-1,-1.8016454E-2,-1.03341006E-1,7.999774E-4,1.580634E-1,9.229291E-2,1.4454547E-1,-1.7918872E-2,2.3858342E-2,5.9837177E-2,1.5539825E-1,5.0174445E-2,6.908038E-2,1.0174483E-1,7.581025E-2,1.01289175E-1,1.2724791E-1,1.2199767E-1,1.7298701E-1,1.5032327E-1,1.665736E-1,1.9128375E-1,2.188095E-1,-5.193267E-2,-2.4911378E-2,-2.9317606E-2,-1.3245741E-2,-2.0847043E-2,-8.243516E-3,-1.1615814E-2,-4.878084E-3,-3.0512929E-2,-8.266658E-3,-7.5438446E-3,1.0201574E-3,-8.018385E-3,-2.0275794E-3,3.7812032E-3,-1.9393178E-3,7.740482E-4,-4.9890825E-3,-1.21406345E-2,-6.7606457E-3,-6.4414935E-3,-4.254384E-4,-6.2456275E-3,-2.5522453E-4,-2.4603854E-3,3.112176E-3,-2.2474655E-3,8.266578E-3,5.709009E-3,1.3212323E-3,5.2694264E-3,8.223246E-3,-2.6493517E-3,6.44925E-4,3.2915195E-4,4.4576493E-3,2.2796E-3,7.181438E-3,9.2989905E-3,5.6841406E-3,2.1389972E-3,3.112539E-3,3.118093E-3,9.186957E-3,1.9066911E-3,5.4960903E-3,3.6402557E-3,5.9829825E-3,4.0913424E-3,5.2641495E-3,5.30248E-3,6.6715353E-3,5.592412E-3,7.391485E-3,1.0195967E-2,8.348893E-3,7.081864E-3,8.520631E-3,7.9681305E-3,9.348119E-3,9.426858E-3,1.1739964E-2,1.0633869E-2,1.2285215E-2],"categories":[],"categories_nodes":[],"categories_segments":[],"categories_sizes":[],"default_left":[0,0,0,0,0,0,0,0,0,0,0,0,0,0,0,0,0,0,0,0,0,0,0,0,0,0,0,0,0,0,0,0,0,0,0,0,0,0,0,0,0,0,0,0,0,0,0,0,0,0,0,0,0,0,0,0,0,0,0,0,0,0,0,0,0,0,0,0,0,0,0,0,0,0,0,0,0,0,0,0,0,0,0,0,0,0,0,0,0,0,0,0,0,0,0,0,0,0,0,0,0,0,0,0,0,0,0,0,0,0,0,0,0,0,0,0,0,0,0,0,0,0,0,0,0,0,0],"id":12,"left_children":[1,3,5,7,9,11,13,15,17,19,21,23,25,27,29,31,33,35,37,39,41,43,45,47,49,51,53,55,57,59,61,63,65,67,69,71,73,75,77,79,81,83,85,87,89,91,93,95,97,99,101,103,105,107,109,111,113,115,117,119,121,123,125,-1,-1,-1,-1,-1,-1,-1,-1,-1,-1,-1,-1,-1,-1,-1,-1,-1,-1,-1,-1,-1,-1,-1,-1,-1,-1,-1,-1,-1,-1,-1,-1,-1,-1,-1,-1,-1,-1,-1,-1,-1,-1,-1,-1,-1,-1,-1,-1,-1,-1,-1,-1,-1,-1,-1,-1,-1,-1,-1,-1,-1,-1,-1,-1],"loss_changes":[7.257626E2,4.864976E2,9.3847534E1,1.866654E2,1.2238376E2,1.2137436E1,1.6624115E1,1.9152155E2,4.083454E1,3.565026E1,2.1493477E1,7.543708E0,2.406952E0,1.2192612E0,3.3255615E0,1.2432831E2,4.5534973E1,5.1428238E1,3.9909067E0,1.3215591E1,2.1641798E1,1.8932957E1,2.9009857E0,2.9274533E0,2.3836756E0,1.089489E0,7.382431E-1,7.396393E-1,9.2938995E-1,4.089508E-1,4.5922852E-1,3.2181824E1,4.3443512E1,2.4760315E1,8.627693E0,7.359378E1,1.1632948E1,4.4079027E0,2.227065E0,5.3262963E0,7.9457626E0,1.3373039E1,8.225758E0,1.3175509E1,1.3826256E0,2.5732584E0,2.053524E0,2.8213327E0,5.2941732E0,7.776642E-1,5.350733E-1,5.341997E-1,4.7831326E0,9.9344635E-1,3.3758926E-1,4.1617203E-1,1.6934204E-1,3.460617E-1,5.7959557E-2,4.105339E-1,6.847229E-1,1.6525269E-1,1.22234344E-1,0E0,0E0,0E0,0E0,0E0,0E0,0E0,0E0,0E0,0E0,0E0,0E0,0E0,0E0,0E0,0E0,0E0,0E0,0E0,0E0,0E0,0E0,0E0,0E0,0E0,0E0,0E0,0E0,0E0,0E0,0E0,0E0,0E0,0E0,0E0,0E0,0E0,0E0,0E0,0E0,0E0,0E0,0E0,0E0,0E0,0E0,0E0,0E0,0E0,0E0,0E0,0E0,0E0,0E0,0E0,0E0,0E0,0E0,0E0,0E0,0E0,0E0,0E0,0E0],"parents":[2147483647,0,0,1,1,2,2,3,3,4,4,5,5,6,6,7,7,8,8,9,9,10,10,11,11,12,12,13,13,14,14,15,15,16,16,17,17,18,18,19,19,20,20,21,21,22,22,23,23,24,24,25,25,26,26,27,27,28,28,29,29,30,30,31,31,32,32,33,33,34,34,35,35,36,36,37,37,38,38,39,39,40,40,41,41,42,42,43,43,44,44,45,45,46,46,47,47,48,48,49,49,50,50,51,51,52,52,53,53,54,54,55,55,56,56,57,57,58,58,59,59,60,60,61,61,62,62],"right_children":[2,4,6,8,10,12,14,16,18,20,22,24,26,28,30,32,34,36,38,40,42,44,46,48,50,52,54,56,58,60,62,64,66,68,70,72,74,76,78,80,82,84,86,88,90,92,94,96,98,100,102,104,106,108,110,112,114,116,118,120,122,124,126,-1,-1,-1,-1,-1,-1,-1,-1,-1,-1,-1,-1,-1,-1,-1,-1,-1,-1,-1,-1,-1,-1,-1,-1,-1,-1,-1,-1,-1,-1,-1,-1,-1,-1,-1,-1,-1,-1,-1,-1,-1,-1,-1,-1,-1,-1,-1,-1,-1,-1,-1,-1,-1,-1,-1,-1,-1,-1,-1,-1,-1,-1,-1,-1],"split_conditions":[7.4398E2,7.0753336E4,1.13445E3,7.9E-1,6.81069E-1,9.4953E2,1.32404E3,6.307727E4,3.573E2,7.4758914E4,7.755739E4,7.854268E4,1.05999E3,1.9027101E0,1.53427E3,1.9534E2,1.4711858E0,5.4473258E4,2.99E0,1.2347E2,-3.4E-1,1.04E0,1.0809948E0,7.043895E4,2.94736E1,7.747938E4,-5.2E-1,1.25022E3,7.32296E4,7.315873E4,1.66725E3,2.945072E0,4.1357E2,4.8725E2,6.662846E4,1.66E0,1.36E0,8.403202E-1,3.9721E2,1.54E0,1E0,1E0,3.66E0,1.7861303E0,9.004498E-1,-4.5E-1,6.52E0,9E-2,8.1E-1,1.0644844E0,-3.1E-1,1.00817E3,7.619873E-1,6.9037266E4,3.8632882E0,2.01E0,6.570324E4,1.21E0,-7.7E-1,7.1E-1,1.0809948E0,8.183366E4,7.918197E4,-5.193267E-2,-2.4911378E-2,-2.9317606E-2,-1.3245741E-2,-2.0847043E-2,-8.243516E-3,-1.1615814E-2,-4.878084E-3,-3.0512929E-2,-8.266658E-3,-7.5438446E-3,1.0201574E-3,-8.018385E-3,-2.0275794E-3,3.7812032E-3,-1.9393178E-3,7.740482E-4,-4.9890825E-3,-1.21406345E-2,-6.7606457E-3,-6.4414935E-3,-4.254384E-4,-6.2456275E-3,-2.5522453E-4,-2.4603854E-3,3.112176E-3,-2.2474655E-3,8.266578E-3,5.709009E-3,1.3212323E-3,5.2694264E-3,8.223246E-3,-2.6493517E-3,6.44925E-4,3.2915195E-4,4.4576493E-3,2.2796E-3,7.181438E-3,9.2989905E-3,5.6841406E-3,2.1389972E-3,3.112539E-3,3.118093E-3,9.186957E-3,1.9066911E-3,5.4960903E-3,3.6402557E-3,5.9829825E-3,4.0913424E-3,5.2641495E-3,5.30248E-3,6.6715353E-3,5.592412E-3,7.391485E-3,1.0195967E-2,8.348893E-3,7.081864E-3,8.520631E-3,7.9681305E-3,9.348119E-3,9.426858E-3,1.1739964E-2,1.0633869E-2,1.2285215E-2],"split_indices":[1,6,1,2,0,1,1,6,1,6,6,6,1,0,1,1,0,6,4,1,2,2,0,6,3,6,2,1,6,6,1,0,1,1,6,2,2,0,1,4,4,4,4,0,0,2,5,2,0,0,2,1,0,6,0,4,6,2,2,2,0,6,6,0,0,0,0,0,0,0,0,0,0,0,0,0,0,0,0,0,0,0,0,0,0,0,0,0,0,0,0,0,0,0,0,0,0,0,0,0,0,0,0,0,0,0,0,0,0,0,0,0,0,0,0,0,0,0,0,0,0,0,0,0,0,0,0],"split_type":[0,0,0,0,0,0,0,0,0,0,0,0,0,0,0,0,0,0,0,0,0,0,0,0,0,0,0,0,0,0,0,0,0,0,0,0,0,0,0,0,0,0,0,0,0,0,0,0,0,0,0,0,0,0,0,0,0,0,0,0,0,0,0,0,0,0,0,0,0,0,0,0,0,0,0,0,0,0,0,0,0,0,0,0,0,0,0,0,0,0,0,0,0,0,0,0,0,0,0,0,0,0,0,0,0,0,0,0,0,0,0,0,0,0,0,0,0,0,0,0,0,0,0,0,0,0,0],"sum_hessian":[8.9776E4,4.5708E4,4.4068E4,1.3403E4,3.2305E4,2.5171E4,1.8897E4,6.627E3,6.776E3,2.2648E4,9.657E3,8.393E3,1.6778E4,8.739E3,1.0158E4,2.435E3,4.192E3,3.359E3,3.417E3,6.074E3,1.6574E4,5.217E3,4.44E3,7.302E3,1.091E3,1.2234E4,4.544E3,6.863E3,1.876E3,7.349E3,2.809E3,7.29E2,1.706E3,1.975E3,2.217E3,1.549E3,1.81E3,1.229E3,2.188E3,1.639E3,4.435E3,1.2693E4,3.881E3,4.286E3,9.31E2,1.786E3,2.654E3,2.609E3,4.693E3,6.56E2,4.35E2,6.011E3,6.223E3,1.917E3,2.627E3,5.464E3,1.399E3,1.382E3,4.94E2,2.49E3,4.859E3,1.752E3,1.057E3,5.9E2,1.39E2,9.42E2,7.64E2,1.438E3,5.37E2,6.91E2,1.526E3,6.2E2,9.29E2,1.224E3,5.86E2,6.12E2,6.17E2,1.85E2,2.003E3,6.97E2,9.42E2,8.51E2,3.584E3,1.002E3,1.1691E4,3.182E3,6.99E2,2.363E3,1.923E3,3.2E1,8.99E2,1.34E3,4.46E2,8.97E2,1.757E3,1.22E3,1.389E3,3.712E3,9.81E2,5.62E2,9.4E1,2.49E2,1.86E2,3.731E3,2.28E3,5.88E3,3.43E2,2.19E2,1.698E3,2.461E3,1.66E2,9.34E2,4.53E3,3.2E2,1.079E3,9.96E2,3.86E2,7.5E1,4.19E2,1.744E3,7.46E2,3.596E3,1.263E3,1.653E3,9.9E1,8.68E2,1.89E2],"tree_param":{"num_deleted":"0","num_feature":"7","num_nodes":"127","size_leaf_vector":"1"}},{"base_weights":[-4.6949417E-6,-8.453623E-2,8.631956E-2,-2.8501657E-1,-3.5932127E-2,4.8351843E-2,1.3758889E-1,-4.674269E-1,-1.06537245E-1,-1.15342885E-1,1.0291672E-5,1.8788805E-2,6.3753314E-2,1.07184805E-1,1.637326E-1,-6.197714E-1,-2.6978096E-1,-1.9371675E-1,-4.3765917E-2,-2.2879887E-1,-7.515639E-2,-3.8462956E-2,9.474139E-2,9.168942E-3,1.03766575E-1,7.537738E-2,5.2365746E-2,9.96916E-2,1.2484194E-1,1.5303887E-1,1.916455E-1,-7.297102E-1,-3.3890885E-1,-3.6097845E-1,-1.4448826E-1,-3.3339882E-1,-3.8732987E-2,-1.06407784E-1,-2.7394136E-2,-3.3553478E-1,-1.8017073E-1,-8.511923E-2,1.2701482E-1,-1.933912E-2,-1.0133441E-1,3.0328056E-2,1.2070503E-1,-1.787758E-2,2.239314E-2,5.8671195E-2,1.5702777E-1,4.2854425E-2,8.360476E-2,4.8001807E-2,8.010765E-2,9.600866E-2,1.269016E-1,1.1182291E-1,1.4392345E-1,1.5153645E-1,1.9057319E-1,1.8173166E-1,2.0789063E-1,-4.455797E-2,-2.7747247E-2,-4.2299923E-2,-1.2173439E-2,-2.187956E-2,-1.4656651E-2,-1.0077398E-2,-4.725355E-3,-3.778202E-2,-1.0725943E-2,-1.1730845E-2,3.7051145E-6,-1.2809969E-2,-2.8842504E-3,2.6883956E-3,-1.855057E-3,-2.0422542E-2,-1.1516487E-2,-1.0393975E-2,-4.222605E-3,-5.4276004E-3,3.3538963E-4,-5.8112585E-4,9.23489E-3,-6.3286573E-3,-5.102033E-4,-6.0875025E-3,-4.2783725E-4,-1.9640657E-3,5.096869E-3,3.962081E-3,7.094603E-3,-2.5851615E-3,5.6043937E-4,6.4445245E-5,3.4988883E-3,2.286487E-3,6.5364833E-3,8.4244115E-3,3.1712626E-3,8.13669E-4,2.986511E-3,3.900027E-3,7.2799856E-3,1.8132486E-3,2.7478465E-3,2.737747E-3,8.404327E-3,3.731491E-3,4.986908E-3,5.7262187E-3,8.475748E-3,5.122121E-3,6.629148E-3,8.911074E-3,6.955056E-3,6.9596255E-3,7.878617E-3,8.509169E-3,1.0929595E-2,8.955802E-3,1.1158834E-2,1.0102783E-2,1.1674186E-2],"categories":[],"categories_nodes":[],"categories_segments":[],"categories_sizes":[],"default_left":[0,0,0,0,0,0,0,0,0,0,0,0,0,0,0,0,0,0,0,0,0,0,0,0,0,0,0,0,0,0,0,0,0,0,0,0,0,0,0,0,0,0,0,0,0,0,0,0,0,0,0,0,0,0,0,0,0,0,0,0,0,0,0,0,0,0,0,0,0,0,0,0,0,0,0,0,0,0,0,0,0,0,0,0,0,0,0,0,0,0,0,0,0,0,0,0,0,0,0,0,0,0,0,0,0,0,0,0,0,0,0,0,0,0,0,0,0,0,0,0,0,0,0,0,0,0,0],"id":13,"left_children":[1,3,5,7,9,11,13,15,17,19,21,23,25,27,29,31,33,35,37,39,41,43,45,47,49,51,53,55,57,59,61,63,65,67,69,71,73,75,77,79,81,83,85,87,89,91,93,95,97,99,101,103,105,107,109,111,113,115,117,119,121,123,125,-1,-1,-1,-1,-1,-1,-1,-1,-1,-1,-1,-1,-1,-1,-1,-1,-1,-1,-1,-1,-1,-1,-1,-1,-1,-1,-1,-1,-1,-1,-1,-1,-1,-1,-1,-1,-1,-1,-1,-1,-1,-1,-1,-1,-1,-1,-1,-1,-1,-1,-1,-1,-1,-1,-1,-1,-1,-1,-1,-1,-1,-1,-1,-1],"loss_changes":[6.5512103E2,4.419852E2,8.645648E1,2.8810754E2,1.04207375E2,1.1618881E1,1.5004028E1,1.3162549E2,2.4480396E1,5.1850525E1,9.1611E1,7.146229E0,2.2170868E0,1.1439362E0,3.0030823E0,7.605145E1,2.1737946E1,4.0534637E1,2.666615E0,1.538089E1,1.6934124E1,2.1491129E1,1.2137993E1,2.8098865E0,2.1260176E0,2.2175903E0,1.0226555E0,6.032219E-1,6.298065E-1,3.8560486E-1,4.1477203E-1,4.9588318E1,3.3526505E1,5.6049347E0,2.276741E0,4.9281036E1,6.7579136E0,3.918984E0,1.6288849E0,7.040077E0,5.408943E0,1.7232044E1,3.1609674E0,1.3426912E1,7.895527E0,1.0407031E1,4.53405E0,2.538952E0,5.2982645E0,4.444393E-1,4.2591476E-1,7.5173926E-1,2.290039E0,5.9628105E-1,2.558107E0,4.2414474E-1,3.6508656E-1,2.8826523E-1,1.4904213E-1,5.0497437E-1,1.22190475E-1,1.5005875E-1,1.1082077E-1,0E0,0E0,0E0,0E0,0E0,0E0,0E0,0E0,0E0,0E0,0E0,0E0,0E0,0E0,0E0,0E0,0E0,0E0,0E0,0E0,0E0,0E0,0E0,0E0,0E0,0E0,0E0,0E0,0E0,0E0,0E0,0E0,0E0,0E0,0E0,0E0,0E0,0E0,0E0,0E0,0E0,0E0,0E0,0E0,0E0,0E0,0E0,0E0,0E0,0E0,0E0,0E0,0E0,0E0,0E0,0E0,0E0,0E0,0E0,0E0,0E0,0E0,0E0,0E0],"parents":[2147483647,0,0,1,1,2,2,3,3,4,4,5,5,6,6,7,7,8,8,9,9,10,10,11,11,12,12,13,13,14,14,15,15,16,16,17,17,18,18,19,19,20,20,21,21,22,22,23,23,24,24,25,25,26,26,27,27,28,28,29,29,30,30,31,31,32,32,33,33,34,34,35,35,36,36,37,37,38,38,39,39,40,40,41,41,42,42,43,43,44,44,45,45,46,46,47,47,48,48,49,49,50,50,51,51,52,52,53,53,54,54,55,55,56,56,57,57,58,58,59,59,60,60,61,61,62,62],"right_children":[2,4,6,8,10,12,14,16,18,20,22,24,26,28,30,32,34,36,38,40,42,44,46,48,50,52,54,56,58,60,62,64,66,68,70,72,74,76,78,80,82,84,86,88,90,92,94,96,98,100,102,104,106,108,110,112,