{"learner":{"attributes":{"scikit_learn":"{\"_estimator_type\": \"regressor\"}"},"feature_names":["mass_Mj","T_irr","Met","core","f_sed","kzz","S_physical"],"feature_types":["float","float","float","float","float","float","float"],"gradient_booster":{"model":{"gbtree_model_param":{"num_parallel_tree":"1","num_trees":"200"},"iteration_indptr":[0,1,2,3,4,5,6,7,8,9,10,11,12,13,14,15,16,17,18,19,20,21,22,23,24,25,26,27,28,29,30,31,32,33,34,35,36,37,38,39,40,41,42,43,44,45,46,47,48,49,50,51,52,53,54,55,56,57,58,59,60,61,62,63,64,65,66,67,68,69,70,71,72,73,74,75,76,77,78,79,80,81,82,83,84,85,86,87,88,89,90,91,92,93,94,95,96,97,98,99,100,101,102,103,104,105,106,107,108,109,110,111,112,113,114,115,116,117,118,119,120,121,122,123,124,125,126,127,128,129,130,131,132,133,134,135,136,137,138,139,140,141,142,143,144,145,146,147,148,149,150,151,152,153,154,155,156,157,158,159,160,161,162,163,164,165,166,167,168,169,170,171,172,173,174,175,176,177,178,179,180,181,182,183,184,185,186,187,188,189,190,191,192,193,194,195,196,197,198,199,200],"tree_info":[0,0,0,0,0,0,0,0,0,0,0,0,0,0,0,0,0,0,0,0,0,0,0,0,0,0,0,0,0,0,0,0,0,0,0,0,0,0,0,0,0,0,0,0,0,0,0,0,0,0,0,0,0,0,0,0,0,0,0,0,0,0,0,0,0,0,0,0,0,0,0,0,0,0,0,0,0,0,0,0,0,0,0,0,0,0,0,0,0,0,0,0,0,0,0,0,0,0,0,0,0,0,0,0,0,0,0,0,0,0,0,0,0,0,0,0,0,0,0,0,0,0,0,0,0,0,0,0,0,0,0,0,0,0,0,0,0,0,0,0,0,0,0,0,0,0,0,0,0,0,0,0,0,0,0,0,0,0,0,0,0,0,0,0,0,0,0,0,0,0,0,0,0,0,0,0,0,0,0,0,0,0,0,0,0,0,0,0,0,0,0,0,0,0,0,0,0,0,0,0],"trees":[{"base_weights":[2.5513074E-8,-1.9288549E-1,2.1632278E-1,-5.4901874E-1,-6.0460966E-2,1.4774151E-1,3.4064728E-1,-8.019458E-1,-2.2938153E-1,-1.4934447E-1,1.2086484E-1,1.16773166E-1,2.173262E-1,2.8227624E-1,3.7519026E-1,-1.1979702E0,-5.160313E-1,-3.916717E-1,-9.36901E-2,-2.923888E-1,-1.0576451E-1,1.7297233E-2,2.5730652E-1,7.086498E-2,1.416895E-1,1.8184589E-1,2.2665739E-1,2.6513243E-1,3.104611E-1,3.5406032E-1,4.3526718E-1,-1.5208746E0,-9.158631E-1,-7.667113E-1,-3.177179E-1,-5.595973E-1,-2.1856983E-1,-1.5927468E-1,-3.5553E-2,-4.3367335E-1,-2.495462E-1,-7.113481E-2,-2.2655311E-1,-3.268713E-2,3.299603E-1,1.9534177E-1,3.079347E-1,5.059318E-2,1.7711104E-1,1.352046E-1,1.7676155E-1,2.1353963E-1,1.6584359E-1,2.1067864E-1,2.4461526E-1,2.6138148E-1,3.607472E-1,3.0495048E-1,1.8502682E-2,3.4554127E-1,3.7612742E-1,4.946968E-1,4.2796856E-1,-8.825203E-2,-4.950365E-2,-5.4024767E-2,-2.4273781E-2,-7.687853E-2,-2.8430665E-2,-1.0841231E-2,-3.0069172E-2,-3.4363534E-2,-1.9777535E-2,-1.5579565E-2,-7.7191293E-3,-1.1680145E-2,-2.6634096E-3,-2.5538488E-3,2.178923E-3,-2.5625894E-2,-1.08977845E-2,-1.8534983E-2,-1.0494649E-2,-1.0606213E-2,-2.9595175E-3,-1.3152768E-2,-5.448495E-3,-5.726856E-3,3.0754076E-3,1.7920932E-2,8.982304E-3,1.12726595E-2,5.5138837E-3,1.7402293E-2,1.213128E-2,3.801318E-4,3.6165004E-3,6.112976E-3,1.4627563E-2,7.6987096E-3,6.2870705E-3,7.4243234E-3,1.6787361E-2,9.010175E-3,1.1664218E-2,8.099909E-3,1.5577755E-2,9.618959E-3,1.1005822E-2,1.1933808E-2,1.7318845E-2,1.1946299E-2,1.3639748E-2,1.5421423E-2,1.9210063E-2,1.4801316E-2,1.583784E-2,1.6198572E-2,1.7620394E-2,1.8415887E-2,2.1232503E-2,1.9677201E-2,2.5402745E-2,2.1083511E-2,2.443116E-2],"categories":[],"categories_nodes":[],"categories_segments":[],"categories_sizes":[],"default_left":[0,0,0,0,0,0,0,0,0,0,0,0,0,0,0,0,0,0,0,0,0,0,0,0,0,0,0,0,0,0,0,0,0,0,0,0,0,0,0,0,0,0,0,0,0,0,0,0,0,0,0,0,0,0,0,0,0,0,0,0,0,0,0,0,0,0,0,0,0,0,0,0,0,0,0,0,0,0,0,0,0,0,0,0,0,0,0,0,0,0,0,0,0,0,0,0,0,0,0,0,0,0,0,0,0,0,0,0,0,0,0,0,0,0,0,0,0,0,0,0,0,0,0,0,0],"id":0,"left_children":[1,3,5,7,9,11,13,15,17,19,21,23,25,27,29,31,33,35,37,39,41,43,45,47,49,51,53,55,57,59,61,63,65,67,69,71,73,75,77,79,81,83,85,87,89,91,93,95,97,99,101,103,105,107,109,111,113,115,-1,117,119,121,123,-1,-1,-1,-1,-1,-1,-1,-1,-1,-1,-1,-1,-1,-1,-1,-1,-1,-1,-1,-1,-1,-1,-1,-1,-1,-1,-1,-1,-1,-1,-1,-1,-1,-1,-1,-1,-1,-1,-1,-1,-1,-1,-1,-1,-1,-1,-1,-1,-1,-1,-1,-1,-1,-1,-1,-1,-1,-1,-1,-1,-1,-1],"loss_changes":[3.7460342E3,2.2382173E3,3.607671E2,1.0398047E3,5.5761346E2,5.8750122E1,3.0227295E1,8.1248E2,1.2513287E2,1.447008E2,1.6081978E2,2.1582642E1,2.739441E0,2.6221008E0,1.1839478E1,2.7279883E2,2.0715991E2,7.510632E1,1.1802879E1,3.270508E1,7.442645E1,1.0114127E2,1.5346405E1,1.4298729E1,2.7588348E0,8.541641E-1,1.8554993E0,1.1563263E0,5.8039856E-1,1.1850586E0,8.5269165E-1,1.7995703E2,1.1348218E2,2.8040955E2,6.658272E1,2.7228088E1,7.5706253E0,1.1451897E1,2.020544E0,2.1318558E1,1.9916931E1,2.3282822E1,1.6989304E1,4.302819E1,3.75132E0,5.6383896E0,6.9911804E0,5.2138386E0,6.701557E0,1.815445E0,8.518257E0,3.4301567E-1,6.0510635E-1,5.662842E-1,1.8047943E0,7.957306E-1,3.9794922E-2,1.1042786E-1,0E0,6.3513184E-1,5.776367E-1,1.5407562E-1,6.317444E-1,0E0,0E0,0E0,0E0,0E0,0E0,0E0,0E0,0E0,0E0,0E0,0E0,0E0,0E0,0E0,0E0,0E0,0E0,0E0,0E0,0E0,0E0,0E0,0E0,0E0,0E0,0E0,0E0,0E0,0E0,0E0,0E0,0E0,0E0,0E0,0E0,0E0,0E0,0E0,0E0,0E0,0E0,0E0,0E0,0E0,0E0,0E0,0E0,0E0,0E0,0E0,0E0,0E0,0E0,0E0,0E0,0E0,0E0,0E0,0E0,0E0,0E0],"parents":[2147483647,0,0,1,1,2,2,3,3,4,4,5,5,6,6,7,7,8,8,9,9,10,10,11,11,12,12,13,13,14,14,15,15,16,16,17,17,18,18,19,19,20,20,21,21,22,22,23,23,24,24,25,25,26,26,27,27,28,28,29,29,30,30,31,31,32,32,33,33,34,34,35,35,36,36,37,37,38,38,39,39,40,40,41,41,42,42,43,43,44,44,45,45,46,46,47,47,48,48,49,49,50,50,51,51,52,52,53,53,54,54,55,55,56,56,57,57,59,59,60,60,61,61,62,62],"right_children":[2,4,6,8,10,12,14,16,18,20,22,24,26,28,30,32,34,36,38,40,42,44,46,48,50,52,54,56,58,60,62,64,66,68,70,72,74,76,78,80,82,84,86,88,90,92,94,96,98,100,102,104,106,108,110,112,114,116,-1,118,120,122,124,-1,-1,-1,-1,-1,-1,-1,-1,-1,-1,-1,-1,-1,-1,-1,-1,-1,-1,-1,-1,-1,-1,-1,-1,-1,-1,-1,-1,-1,-1,-1,-1,-1,-1,-1,-1,-1,-1,-1,-1,-1,-1,-1,-1,-1,-1,-1,-1,-1,-1,-1,-1,-1,-1,-1,-1,-1,-1,-1,-1,-1,-1],"split_conditions":[7.7912E2,6.955081E4,1.21274E3,3.9721E2,6.6960365E-1,1.05999E3,1.35633E3,7.305475E-1,1.06E0,7.402348E4,7.751754E4,9.4953E2,1.09963E3,1.26736E3,1.5548E3,-4E-1,7.4E-1,5.8907E2,7.930687E-1,3.490766E-1,-3E-1,1.11E0,1.0957536E0,7.810428E4,3.552372E1,6.27E0,3E0,7.8977766E4,7.9236016E4,2.003452E0,1.02E0,6.497836E4,1.48E0,6.100197E4,7.938998E1,6.497836E4,6.518798E4,1.76E0,6.518798E4,5.4017E2,5.92E0,1E0,5.3103E2,1.7861303E0,2.337024E1,-4.5E-1,2.5326E2,7.025888E4,9.989264E-1,6.87E0,7.7313336E4,6.955081E4,8.083438E4,2.01E0,7.918197E4,1.7919752E1,7.930687E-1,4E0,1.8502682E-2,1.41204E3,7.8507336E4,7.573418E4,8.183366E4,-8.825203E-2,-4.950365E-2,-5.4024767E-2,-2.4273781E-2,-7.687853E-2,-2.8430665E-2,-1.0841231E-2,-3.0069172E-2,-3.4363534E-2,-1.9777535E-2,-1.5579565E-2,-7.7191293E-3,-1.1680145E-2,-2.6634096E-3,-2.5538488E-3,2.178923E-3,-2.5625894E-2,-1.08977845E-2,-1.8534983E-2,-1.0494649E-2,-1.0606213E-2,-2.9595175E-3,-1.3152768E-2,-5.448495E-3,-5.726856E-3,3.0754076E-3,1.7920932E-2,8.982304E-3,1.12726595E-2,5.5138837E-3,1.7402293E-2,1.213128E-2,3.801318E-4,3.6165004E-3,6.112976E-3,1.4627563E-2,7.6987096E-3,6.2870705E-3,7.4243234E-3,1.6787361E-2,9.010175E-3,1.1664218E-2,8.099909E-3,1.5577755E-2,9.618959E-3,1.1005822E-2,1.1933808E-2,1.7318845E-2,1.1946299E-2,1.3639748E-2,1.5421423E-2,1.9210063E-2,1.4801316E-2,1.583784E-2,1.6198572E-2,1.7620394E-2,1.8415887E-2,2.1232503E-2,1.9677201E-2,2.5402745E-2,2.1083511E-2,2.443116E-2],"split_indices":[1,6,1,1,0,1,1,0,2,6,6,1,1,1,1,2,2,1,0,0,2,2,0,6,3,5,4,6,6,0,4,6,2,6,3,6,6,2,6,1,5,4,1,0,3,2,1,6,0,5,6,6,6,4,6,3,0,4,0,1,6,6,6,0,0,0,0,0,0,0,0,0,0,0,0,0,0,0,0,0,0,0,0,0,0,0,0,0,0,0,0,0,0,0,0,0,0,0,0,0,0,0,0,0,0,0,0,0,0,0,0,0,0,0,0,0,0,0,0,0,0,0,0,0,0],"split_type":[0,0,0,0,0,0,0,0,0,0,0,0,0,0,0,0,0,0,0,0,0,0,0,0,0,0,0,0,0,0,0,0,0,0,0,0,0,0,0,0,0,0,0,0,0,0,0,0,0,0,0,0,0,0,0,0,0,0,0,0,0,0,0,0,0,0,0,0,0,0,0,0,0,0,0,0,0,0,0,0,0,0,0,0,0,0,0,0,0,0,0,0,0,0,0,0,0,0,0,0,0,0,0,0,0,0,0,0,0,0,0,0,0,0,0,0,0,0,0,0,0,0,0,0,0],"sum_hessian":[8.9776E4,4.7459E4,4.2317E4,1.2863E4,3.4596E4,2.7274E4,1.5043E4,7.18E3,5.683E3,2.3216E4,1.138E4,1.8876E4,8.398E3,5.596E3,9.447E3,3.009E3,4.171E3,2.587E3,3.096E3,5.42E3,1.7796E4,6.47E3,4.91E3,6.642E3,1.2234E4,1.753E3,6.645E3,3.486E3,2.11E3,6.994E3,2.453E3,1.401E3,1.608E3,1.841E3,2.33E3,1.312E3,1.275E3,1.454E3,1.642E3,1.259E3,4.161E3,1.3832E4,3.964E3,5.579E3,8.91E2,2.21E3,2.7E3,5.579E3,1.063E3,1.0329E4,1.905E3,5.84E2,1.169E3,3.523E3,3.122E3,3.358E3,1.28E2,1.937E3,1.73E2,5.058E3,1.936E3,2.61E2,2.192E3,9.58E2,4.43E2,1.162E3,4.46E2,3.75E2,1.466E3,1.72E3,6.1E2,7.36E2,5.76E2,5.19E2,7.56E2,8.54E2,6E2,1.373E3,2.69E2,9.21E2,3.38E2,1.024E3,3.137E3,1.079E3,1.2753E4,3.024E3,9.4E2,2.985E3,2.594E3,7.48E2,1.43E2,1.631E3,5.79E2,1.67E3,1.03E3,1.874E3,3.705E3,7.22E2,3.41E2,3.457E3,6.872E3,1.619E3,2.86E2,2.21E2,3.63E2,1.141E3,2.8E1,1.206E3,2.317E3,2.953E3,1.69E2,1.139E3,2.219E3,4.4E1,8.4E1,1.118E3,8.19E2,1.233E3,3.825E3,1.675E3,2.61E2,3.4E1,2.27E2,1.993E3,1.99E2],"tree_param":{"num_deleted":"0","num_feature":"7","num_nodes":"125","size_leaf_vector":"1"}},{"base_weights":[-5.512067E-7,-1.8325137E-1,2.0551682E-1,-5.1848036E-1,-5.6194667E-2,1.4036018E-1,3.236331E-1,-7.565702E-1,-2.1679601E-1,-1.4067197E-1,1.17368154E-1,1.1093781E-1,2.064711E-1,2.68182E-1,3.564481E-1,-1.1343148E0,-4.877783E-1,-3.6784118E-1,-8.8485956E-2,-2.7425244E-1,-1.0047809E-1,1.9189602E-2,2.4445058E-1,6.732544E-2,1.346081E-1,1.7277898E-1,2.15332E-1,2.5189316E-1,2.949613E-1,3.3636782E-1,4.1354066E-1,-1.4316559E0,-8.6907774E-1,-7.1635425E-1,-2.996469E-1,-5.3932655E-1,-2.1450536E-1,-1.5156028E-1,-3.2899693E-2,-4.0412518E-1,-2.3590884E-1,-6.7579076E-2,-2.1523008E-1,-2.8829161E-2,3.1232405E-1,1.9842269E-1,3.0918512E-1,4.806422E-2,1.6827497E-1,1.2844568E-1,1.6793616E-1,1.6382311E-1,2.2502296E-1,2.0015052E-1,2.3239386E-1,2.483201E-1,3.4297827E-1,2.8971878E-1,1.7582864E-2,3.2784304E-1,3.563816E-1,4.70134E-1,4.0659082E-1,-8.497517E-2,-4.798887E-2,-5.1114827E-2,-2.3197943E-2,-7.31398E-2,-2.6457855E-2,-9.9753495E-3,-2.8787872E-2,-3.340726E-2,-1.9157706E-2,-1.5625082E-2,-7.278774E-3,-1.1104821E-2,-2.5304626E-3,-2.4262448E-3,2.1539424E-3,-2.3927368E-2,-1.0356061E-2,-1.7639324E-2,-9.987336E-3,-1.0076389E-2,-2.8115546E-3,-1.2441156E-2,-4.859039E-3,-5.583836E-3,2.8480217E-3,1.699585E-2,8.650649E-3,8.454561E-3,1.6966728E-2,1.3059313E-2,1.625122E-2,3.6113997E-4,3.4357205E-3,5.8077457E-3,1.3898328E-2,7.313882E-3,5.972761E-3,7.0533343E-3,1.595092E-2,8.071858E-3,1.5506387E-2,9.943067E-3,1.3971935E-2,9.086209E-3,1.0430183E-2,1.133732E-2,1.645799E-2,1.1349513E-2,1.2958071E-2,1.4667489E-2,1.8260857E-2,1.4061915E-2,1.5046911E-2,1.5358065E-2,1.671739E-2,1.7420618E-2,2.0122569E-2,1.8930504E-2,2.4175093E-2,1.995687E-2,2.266882E-2],"categories":[],"categories_nodes":[],"categories_segments":[],"categories_sizes":[],"default_left":[0,0,0,0,0,0,0,0,0,0,0,0,0,0,0,0,0,0,0,0,0,0,0,0,0,0,0,0,0,0,0,0,0,0,0,0,0,0,0,0,0,0,0,0,0,0,0,0,0,0,0,0,0,0,0,0,0,0,0,0,0,0,0,0,0,0,0,0,0,0,0,0,0,0,0,0,0,0,0,0,0,0,0,0,0,0,0,0,0,0,0,0,0,0,0,0,0,0,0,0,0,0,0,0,0,0,0,0,0,0,0,0,0,0,0,0,0,0,0,0,0,0,0,0,0],"id":1,"left_children":[1,3,5,7,9,11,13,15,17,19,21,23,25,27,29,31,33,35,37,39,41,43,45,47,49,51,53,55,57,59,61,63,65,67,69,71,73,75,77,79,81,83,85,87,89,91,93,95,97,99,101,103,105,107,109,111,113,115,-1,117,119,121,123,-1,-1,-1,-1,-1,-1,-1,-1,-1,-1,-1,-1,-1,-1,-1,-1,-1,-1,-1,-1,-1,-1,-1,-1,-1,-1,-1,-1,-1,-1,-1,-1,-1,-1,-1,-1,-1,-1,-1,-1,-1,-1,-1,-1,-1,-1,-1,-1,-1,-1,-1,-1,-1,-1,-1,-1,-1,-1,-1,-1,-1,-1],"loss_changes":[3.3811494E3,2.021439E3,3.2563672E2,9.3676E2,5.0464267E2,5.303076E1,2.7278809E1,7.3963477E2,1.115029E2,1.2426749E2,1.4058354E2,1.9477997E1,2.4702454E0,2.3671265E0,1.0692383E1,2.3771924E2,1.8301825E2,6.938159E1,1.0909399E1,2.6566467E1,6.717319E1,8.9503914E1,1.4571442E1,1.2908634E1,2.491272E0,7.838135E-1,1.6749573E0,1.0496826E0,5.2557373E-1,1.0765381E0,7.7401733E-1,1.7872974E2,9.908887E1,2.679301E2,6.455774E1,2.4831055E1,9.3910675E0,1.0370731E1,1.9680604E0,1.7773224E1,1.7410538E1,2.1015488E1,1.5699554E1,3.884152E1,3.381569E0,1.1817169E1,1.4653015E0,4.7055826E0,6.050743E0,1.6386261E0,7.6924057E0,4.7389984E-1,3.0602646E-1,5.109863E-1,1.6320343E0,7.1791077E-1,3.5238266E-2,9.976196E-2,0E0,5.5895996E-1,6.227112E-1,1.3749695E-1,5.8377075E-1,0E0,0E0,0E0,0E0,0E0,0E0,0E0,0E0,0E0,0E0,0E0,0E0,0E0,0E0,0E0,0E0,0E0,0E0,0E0,0E0,0E0,0E0,0E0,0E0,0E0,0E0,0E0,0E0,0E0,0E0,0E0,0E0,0E0,0E0,0E0,0E0,0E0,0E0,0E0,0E0,0E0,0E0,0E0,0E0,0E0,0E0,0E0,0E0,0E0,0E0,0E0,0E0,0E0,0E0,0E0,0E0,0E0,0E0,0E0,0E0,0E0,0E0],"parents":[2147483647,0,0,1,1,2,2,3,3,4,4,5,5,6,6,7,7,8,8,9,9,10,10,11,11,12,12,13,13,14,14,15,15,16,16,17,17,18,18,19,19,20,20,21,21,22,22,23,23,24,24,25,25,26,26,27,27,28,28,29,29,30,30,31,31,32,32,33,33,34,34,35,35,36,36,37,37,38,38,39,39,40,40,41,41,42,42,43,43,44,44,45,45,46,46,47,47,48,48,49,49,50,50,51,51,52,52,53,53,54,54,55,55,56,56,57,57,59,59,60,60,61,61,62,62],"right_children":[2,4,6,8,10,12,14,16,18,20,22,24,26,28,30,32,34,36,38,40,42,44,46,48,50,52,54,56,58,60,62,64,66,68,70,72,74,76,78,80,82,84,86,88,90,92,94,96,98,100,102,104,106,108,110,112,114,116,-1,118,120,122,124,-1,-1,-1,-1,-1,-1,-1,-1,-1,-1,-1,-1,-1,-1,-1,-1,-1,-1,-1,-1,-1,-1,-1,-1,-1,-1,-1,-1,-1,-1,-1,-1,-1,-1,-1,-1,-1,-1,-1,-1,-1,-1,-1,-1,-1,-1,-1,-1,-1,-1,-1,-1,-1,-1,-1,-1,-1,-1,-1,-1,-1,-1],"split_conditions":[7.7912E2,6.973136E4,1.21274E3,3.9721E2,6.6960365E-1,1.05999E3,1.35633E3,7.251369E-1,1.06E0,7.402348E4,7.751754E4,9.4953E2,1.09963E3,1.26736E3,1.5548E3,-3.9E-1,7.9E-1,5.7405E2,7.930687E-1,3.490766E-1,-3E-1,1.1E0,7.958701E4,7.810428E4,3.552372E1,4.6E0,3E0,7.8977766E4,7.9236016E4,1.6581881E0,1.02E0,6.375134E4,1.48E0,6.100197E4,7.938998E1,6.497836E4,6.518798E4,1.76E0,6.518798E4,5.4017E2,5.78E0,1E0,3.33E0,1.5312557E0,2.337024E1,9.4E-1,5.78E0,7.025888E4,9.989264E-1,6.87E0,7.7313336E4,8.148495E4,7.335883E4,1.99E0,7.918197E4,1.7919752E1,7.930687E-1,4E0,1.7582864E-2,1.41204E3,7.840504E4,7.645294E4,8.044886E4,-8.497517E-2,-4.798887E-2,-5.1114827E-2,-2.3197943E-2,-7.31398E-2,-2.6457855E-2,-9.9753495E-3,-2.8787872E-2,-3.340726E-2,-1.9157706E-2,-1.5625082E-2,-7.278774E-3,-1.1104821E-2,-2.5304626E-3,-2.4262448E-3,2.1539424E-3,-2.3927368E-2,-1.0356061E-2,-1.7639324E-2,-9.987336E-3,-1.0076389E-2,-2.8115546E-3,-1.2441156E-2,-4.859039E-3,-5.583836E-3,2.8480217E-3,1.699585E-2,8.650649E-3,8.454561E-3,1.6966728E-2,1.3059313E-2,1.625122E-2,3.6113997E-4,3.4357205E-3,5.8077457E-3,1.3898328E-2,7.313882E-3,5.972761E-3,7.0533343E-3,1.595092E-2,8.071858E-3,1.5506387E-2,9.943067E-3,1.3971935E-2,9.086209E-3,1.0430183E-2,1.133732E-2,1.645799E-2,1.1349513E-2,1.2958071E-2,1.4667489E-2,1.8260857E-2,1.4061915E-2,1.5046911E-2,1.5358065E-2,1.671739E-2,1.7420618E-2,2.0122569E-2,1.8930504E-2,2.4175093E-2,1.995687E-2,2.266882E-2],"split_indices":[1,6,1,1,0,1,1,0,2,6,6,1,1,1,1,2,2,1,0,0,2,2,6,6,3,4,4,6,6,0,4,6,2,6,3,6,6,2,6,1,5,4,4,0,3,2,5,6,0,5,6,6,6,4,6,3,0,4,0,1,6,6,6,0,0,0,0,0,0,0,0,0,0,0,0,0,0,0,0,0,0,0,0,0,0,0,0,0,0,0,0,0,0,0,0,0,0,0,0,0,0,0,0,0,0,0,0,0,0,0,0,0,0,0,0,0,0,0,0,0,0,0,0,0,0],"split_type":[0,0,0,0,0,0,0,0,0,0,0,0,0,0,0,0,0,0,0,0,0,0,0,0,0,0,0,0,0,0,0,0,0,0,0,0,0,0,0,0,0,0,0,0,0,0,0,0,0,0,0,0,0,0,0,0,0,0,0,0,0,0,0,0,0,0,0,0,0,0,0,0,0,0,0,0,0,0,0,0,0,0,0,0,0,0,0,0,0,0,0,0,0,0,0,0,0,0,0,0,0,0,0,0,0,0,0,0,0,0,0,0,0,0,0,0,0,0,0,0,0,0,0,0,0],"sum_hessian":[8.9776E4,4.7459E4,4.2317E4,1.3043E4,3.4416E4,2.7274E4,1.5043E4,7.289E3,5.754E3,2.3149E4,1.1267E4,1.8876E4,8.398E3,5.596E3,9.447E3,3.029E3,4.26E3,2.642E3,3.112E3,5.353E3,1.7796E4,6.357E3,4.91E3,6.642E3,1.2234E4,1.753E3,6.645E3,3.486E3,2.11E3,6.994E3,2.453E3,1.426E3,1.603E3,1.922E3,2.338E3,1.246E3,1.396E3,1.457E3,1.655E3,1.218E3,4.135E3,1.3832E4,3.964E3,5.463E3,8.94E2,2.872E3,2.038E3,5.579E3,1.063E3,1.0329E4,1.905E3,1.5E3,2.53E2,3.523E3,3.122E3,3.358E3,1.28E2,1.937E3,1.73E2,4.917E3,2.077E3,2.61E2,2.192E3,9.08E2,5.18E2,1.162E3,4.41E2,3.84E2,1.538E3,1.717E3,6.21E2,6.81E2,5.65E2,5.75E2,8.21E2,8.57E2,6E2,1.373E3,2.82E2,8.83E2,3.35E2,9.75E2,3.16E3,1.079E3,1.2753E4,3.085E3,8.79E2,2.779E3,2.684E3,7.45E2,1.49E2,2.379E3,4.93E2,5.1E2,1.528E3,1.874E3,3.705E3,7.22E2,3.41E2,3.457E3,6.872E3,1.619E3,2.86E2,1.478E3,2.2E1,1.74E2,7.9E1,1.115E3,2.408E3,2.953E3,1.69E2,1.139E3,2.219E3,4.4E1,8.4E1,1.118E3,8.19E2,1.188E3,3.729E3,1.778E3,2.99E2,3.7E1,2.24E2,1.899E3,2.93E2],"tree_param":{"num_deleted":"0","num_feature":"7","num_nodes":"125","size_leaf_vector":"1"}},{"base_weights":[-9.0755185E-7,-1.7810023E-1,1.909484E-1,-5.0797117E-1,-5.571862E-2,1.11024104E-1,2.8164193E-1,-7.411331E-1,-2.4111839E-1,-1.3468441E-1,1.09029286E-1,5.6896325E-2,1.3794002E-1,2.2788562E-1,3.3525413E-1,-1.1413728E0,-4.6361628E-1,-4.2847374E-1,-8.1600964E-2,-2.654395E-1,-9.607503E-2,1.6338782E-2,2.3107453E-1,3.57908E-2,1.8282409E-1,1.2859525E-1,1.8003248E-1,2.0847425E-1,2.5168476E-1,3.1685355E-1,3.928986E-1,-1.3962582E0,-9.0855885E-1,-6.806394E-1,-2.927425E-1,-5.807986E-1,-2.469929E-1,-1.560022E-1,-2.060662E-2,-3.6710447E-1,-2.182785E-1,-6.4568445E-2,-2.0745876E-1,-2.9860957E-2,3.0007318E-1,1.6954996E-1,2.7832016E-1,-1.1809681E-2,6.256109E-2,1.3062812E-1,2.8433925E-1,1.22628555E-1,1.6181558E-1,1.7719541E-1,3.1547952E-1,2.021951E-1,2.5562838E-1,2.4796791E-1,1.7131342E-2,2.9826775E-1,3.2549655E-1,3.7068102E-1,4.0908614E-1,-8.368504E-2,-4.6455845E-2,-5.3268936E-2,-3.508496E-2,-6.763812E-2,-2.3594333E-2,-2.6515607E-2,-9.225392E-3,-3.9020117E-2,-2.2111243E-2,-1.6572839E-2,-8.652433E-3,-1.2029272E-2,-3.13656E-3,7.350113E-3,-1.836103E-3,-2.1388879E-2,-9.838369E-3,-6.0161464E-3,-1.2874136E-2,-9.616631E-3,-2.6863518E-3,-1.179565E-2,-4.303803E-3,-5.308024E-3,2.8987469E-3,1.619402E-2,8.309177E-3,9.831197E-3,4.5184754E-3,1.5762746E-2,1.0843843E-2,-3.9022334E-3,2.6250044E-3,1.6263317E-3,6.546723E-3,5.2962485E-3,1.3561653E-2,1.6138269E-2,1.1453244E-2,6.8957335E-3,5.6600072E-3,6.836403E-3,1.5356115E-2,9.800346E-3,7.7639753E-3,1.8249808E-2,1.1973954E-2,8.537381E-3,1.0506971E-2,1.0709803E-2,1.614323E-2,1.1912341E-2,1.3527383E-2,1.4633066E-2,1.8928584E-2,1.5287536E-2,1.692163E-2,1.8304264E-2,2.0664088E-2,2.276132E-2,1.9932607E-2],"categories":[],"categories_nodes":[],"categories_segments":[],"categories_sizes":[],"default_left":[0,0,0,0,0,0,0,0,0,0,0,0,0,0,0,0,0,0,0,0,0,0,0,0,0,0,0,0,0,0,0,0,0,0,0,0,0,0,0,0,0,0,0,0,0,0,0,0,0,0,0,0,0,0,0,0,0,0,0,0,0,0,0,0,0,0,0,0,0,0,0,0,0,0,0,0,0,0,0,0,0,0,0,0,0,0,0,0,0,0,0,0,0,0,0,0,0,0,0,0,0,0,0,0,0,0,0,0,0,0,0,0,0,0,0,0,0,0,0,0,0,0,0,0,0],"id":2,"left_children":[1,3,5,7,9,11,13,15,17,19,21,23,25,27,29,31,33,35,37,39,41,43,45,47,49,51,53,55,57,59,61,63,65,67,69,71,73,75,77,79,81,83,85,87,89,91,93,95,97,99,101,103,105,107,109,111,113,115,-1,117,119,121,123,-1,-1,-1,-1,-1,-1,-1,-1,-1,-1,-1,-1,-1,-1,-1,-1,-1,-1,-1,-1,-1,-1,-1,-1,-1,-1,-1,-1,-1,-1,-1,-1,-1,-1,-1,-1,-1,-1,-1,-1,-1,-1,-1,-1,-1,-1,-1,-1,-1,-1,-1,-1,-1,-1,-1,-1,-1,-1,-1,-1,-1,-1],"loss_changes":[3.053165E3,1.8752455E3,3.1402222E2,7.819258E2,4.4081384E2,3.3547455E1,5.8413696E1,7.4455005E2,1.7518921E2,1.1560748E2,1.24195465E2,2.0328064E1,6.0272827E0,4.630554E0,1.0651123E1,1.6168164E2,1.4676282E2,7.438489E1,1.43733425E1,2.4952576E1,6.204895E1,8.181883E1,1.3727997E1,8.352359E0,5.7808113E0,2.475891E0,1.0169907E0,1.6031494E0,1.4526672E0,1.1407471E0,7.30896E-1,1.680979E2,4.5900757E1,2.441983E2,5.6959915E1,4.0176575E1,7.6372375E0,1.1242741E1,4.710698E0,1.6999405E1,1.3674942E1,1.908665E1,1.3446259E1,3.5981617E1,2.7320862E0,4.400463E0,6.011322E0,1.0056652E1,8.610413E0,2.4964218E0,7.161846E-1,1.523346E0,6.9352684E0,1.0979462E0,1.23334885E-1,1.1975098E0,1.749939E0,8.956299E-1,0E0,9.958496E-1,1.2372437E0,5.329895E-2,4.973297E-1,0E0,0E0,0E0,0E0,0E0,0E0,0E0,0E0,0E0,0E0,0E0,0E0,0E0,0E0,0E0,0E0,0E0,0E0,0E0,0E0,0E0,0E0,0E0,0E0,0E0,0E0,0E0,0E0,0E0,0E0,0E0,0E0,0E0,0E0,0E0,0E0,0E0,0E0,0E0,0E0,0E0,0E0,0E0,0E0,0E0,0E0,0E0,0E0,0E0,0E0,0E0,0E0,0E0,0E0,0E0,0E0,0E0,0E0,0E0,0E0,0E0,0E0],"parents":[2147483647,0,0,1,1,2,2,3,3,4,4,5,5,6,6,7,7,8,8,9,9,10,10,11,11,12,12,13,13,14,14,15,15,16,16,17,17,18,18,19,19,20,20,21,21,22,22,23,23,24,24,25,25,26,26,27,27,28,28,29,29,30,30,31,31,32,32,33,33,34,34,35,35,36,36,37,37,38,38,39,39,40,40,41,41,42,42,43,43,44,44,45,45,46,46,47,47,48,48,49,49,50,50,51,51,52,52,53,53,54,54,55,55,56,56,57,57,59,59,60,60,61,61,62,62],"right_children":[2,4,6,8,10,12,14,16,18,20,22,24,26,28,30,32,34,36,38,40,42,44,46,48,50,52,54,56,58,60,62,64,66,68,70,72,74,76,78,80,82,84,86,88,90,92,94,96,98,100,102,104,106,108,110,112,114,116,-1,118,120,122,124,-1,-1,-1,-1,-1,-1,-1,-1,-1,-1,-1,-1,-1,-1,-1,-1,-1,-1,-1,-1,-1,-1,-1,-1,-1,-1,-1,-1,-1,-1,-1,-1,-1,-1,-1,-1,-1,-1,-1,-1,-1,-1,-1,-1,-1,-1,-1,-1,-1,-1,-1,-1,-1,-1,-1,-1,-1,-1,-1,-1,-1,-1],"split_conditions":[7.5708E2,6.973136E4,1.11766E3,3.6919E2,6.6960365E-1,9.4953E2,1.32404E3,7.305475E-1,1.08E0,7.402348E4,7.751754E4,7.829826E4,1.06604E3,1.2182E3,1.5548E3,-3.9E-1,7.9E-1,5.5346E2,3.34E0,3.7166494E-1,-3E-1,1.11E0,1.0957536E0,7.025888E4,3.0593744E1,3.8357117E1,8.083438E4,2.7597783E0,7.9527414E4,1.41204E3,1.63612E3,6.375134E4,3.04E0,6.1754332E4,5.0325484E4,6.276442E4,6.497836E4,8.403202E-1,3.9721E2,5.4017E2,1.2932E2,1E0,3.66E0,1.7861303E0,2.337024E1,-4.5E-1,2.5326E2,4.5E-1,6.6568685E-1,1.0644844E0,-3.1E-1,7.21E0,7.7313336E4,6.4E0,-3.7E-1,2.01E0,7.35151E4,1.26736E3,1.7131342E-2,8.079139E4,1.78E0,8.0567445E4,1.12E0,-8.368504E-2,-4.6455845E-2,-5.3268936E-2,-3.508496E-2,-6.763812E-2,-2.3594333E-2,-2.6515607E-2,-9.225392E-3,-3.9020117E-2,-2.2111243E-2,-1.6572839E-2,-8.652433E-3,-1.2029272E-2,-3.13656E-3,7.350113E-3,-1.836103E-3,-2.1388879E-2,-9.838369E-3,-6.0161464E-3,-1.2874136E-2,-9.616631E-3,-2.6863518E-3,-1.179565E-2,-4.303803E-3,-5.308024E-3,2.8987469E-3,1.619402E-2,8.309177E-3,9.831197E-3,4.5184754E-3,1.5762746E-2,1.0843843E-2,-3.9022334E-3,2.6250044E-3,1.6263317E-3,6.546723E-3,5.2962485E-3,1.3561653E-2,1.6138269E-2,1.1453244E-2,6.8957335E-3,5.6600072E-3,6.836403E-3,1.5356115E-2,9.800346E-3,7.7639753E-3,1.8249808E-2,1.1973954E-2,8.537381E-3,1.0506971E-2,1.0709803E-2,1.614323E-2,1.1912341E-2,1.3527383E-2,1.4633066E-2,1.8928584E-2,1.5287536E-2,1.692163E-2,1.8304264E-2,2.0664088E-2,2.276132E-2,1.9932607E-2],"split_indices":[1,6,1,1,0,1,1,0,2,6,6,6,1,1,1,2,2,1,4,0,2,2,0,6,3,3,6,0,6,1,1,6,4,6,6,6,6,0,1,1,1,4,4,0,3,2,1,2,0,0,2,5,6,5,2,4,6,1,0,6,4,6,4,0,0,0,0,0,0,0,0,0,0,0,0,0,0,0,0,0,0,0,0,0,0,0,0,0,0,0,0,0,0,0,0,0,0,0,0,0,0,0,0,0,0,0,0,0,0,0,0,0,0,0,0,0,0,0,0,0,0,0,0,0,0],"split_type":[0,0,0,0,0,0,0,0,0,0,0,0,0,0,0,0,0,0,0,0,0,0,0,0,0,0,0,0,0,0,0,0,0,0,0,0,0,0,0,0,0,0,0,0,0,0,0,0,0,0,0,0,0,0,0,0,0,0,0,0,0,0,0,0,0,0,0,0,0,0,0,0,0,0,0,0,0,0,0,0,0,0,0,0,0,0,0,0,0,0,0,0,0,0,0,0,0,0,0,0,0,0,0,0,0,0,0,0,0,0,0,0,0,0,0,0,0,0,0,0,0,0,0,0,0],"sum_hessian":[8.9776E4,4.6451E4,4.3325E4,1.2569E4,3.3882E4,2.3031E4,2.0294E4,6.707E3,5.862E3,2.2904E4,1.0978E4,7.65E3,1.5381E4,1.0136E4,1.0158E4,2.745E3,3.962E3,2.695E3,3.167E3,5.22E3,1.7684E4,6.24E3,4.738E3,6.553E3,1.097E3,1.259E4,2.791E3,5.588E3,4.548E3,7.705E3,2.453E3,1.308E3,1.437E3,1.744E3,2.218E3,1.464E3,1.231E3,1.426E3,1.741E3,1.652E3,3.568E3,1.3786E4,3.898E3,5.367E3,8.73E2,2.06E3,2.678E3,2.359E3,4.194E3,7.26E2,3.71E2,1.0677E4,1.913E3,2.736E3,5.5E1,4.936E3,6.52E2,4.373E3,1.75E2,2.457E3,5.248E3,1.044E3,1.409E3,8.19E2,4.89E2,8.15E2,6.22E2,4.12E2,1.332E3,6.93E2,1.525E3,5.98E2,8.66E2,5.73E2,6.58E2,7.47E2,6.79E2,1.52E2,1.589E3,1.217E3,4.35E2,1.021E3,2.547E3,1.077E3,1.2709E4,3.157E3,7.41E2,2.872E3,2.495E3,7.4E2,1.33E2,1.534E3,5.26E2,1.67E3,1.008E3,1.162E3,1.197E3,2.915E3,1.279E3,6.19E2,1.07E2,2.16E2,1.55E2,4.068E3,6.609E3,1.633E3,2.8E2,1.468E3,1.268E3,3.1E1,2.4E1,1E3,3.936E3,4.06E2,2.46E2,3.065E3,1.308E3,2.301E3,1.56E2,2.087E3,3.161E3,9.51E2,9.3E1,2.52E2,1.157E3],"tree_param":{"num_deleted":"0","num_feature":"7","num_nodes":"125","size_leaf_vector":"1"}},{"base_weights":[-1.8224746E-6,-1.6544493E-1,1.8554404E-1,-4.7114447E-1,-5.177368E-2,1.24598585E-1,2.883632E-1,-7.0974094E-1,-2.1932325E-1,-1.2855908E-1,1.02797985E-1,8.2321875E-2,1.6067919E-1,2.3825334E-1,3.2175162E-1,-1.0913513E0,-4.4478008E-1,-3.812497E-1,-7.599959E-2,-2.534735E-1,-9.201696E-2,1.3662155E-2,2.2052008E-1,6.542412E-2,1.3319868E-1,1.3659641E-1,1.9145969E-1,2.2240016E-1,2.631144E-1,3.036259E-1,3.7328693E-1,-1.3403494E0,-8.6557484E-1,-6.560652E-1,-2.8001958E-1,-5.4256254E-1,-1.9610927E-1,-1.3954097E-1,-1.7304856E-2,-3.7430468E-1,-2.1627314E-1,-6.225202E-2,-1.9342098E-1,-2.8987348E-2,2.8355315E-1,1.7420664E-1,2.7634078E-1,4.1596178E-2,9.801102E-2,1.1172545E-1,2.62028E-1,1.2583508E-1,1.7093678E-1,1.7889662E-1,2.054788E-1,2.1518935E-1,2.6811695E-1,2.5832522E-1,1.5871301E-2,2.9606253E-1,3.2322297E-1,3.5218418E-1,3.886622E-1,-7.861124E-2,-4.3121666E-2,-5.0935257E-2,-3.3349246E-2,-5.851337E-2,-2.0310609E-2,-9.233387E-3,-2.6731033E-2,-3.7387516E-2,-2.1528354E-2,-1.40682E-2,-6.66742E-3,-1.095543E-2,-2.8476832E-3,6.9253496E-3,-1.5939856E-3,-2.3294343E-2,-1.1487249E-2,-1.6279733E-2,-9.095121E-3,-9.09672E-3,-2.6049176E-3,-1.135756E-2,-4.41205E-3,-4.9600746E-3,2.6788085E-3,1.5384718E-2,7.7477815E-3,7.341381E-3,1.5381399E-2,1.5042285E-2,1.2315686E-2,2.0710689E-4,3.0558081E-3,4.4771717E-3,6.7684087E-3,1.2218771E-2,5.350561E-3,1.5791612E-2,1.1158669E-2,7.0164776E-3,5.8421376E-3,7.224838E-3,1.3479914E-2,8.655252E-3,1.0098818E-2,1.00286E-2,1.5344545E-2,9.633957E-3,1.1396113E-2,1.2436214E-2,1.5615202E-2,1.2161371E-2,1.3209181E-2,1.4554746E-2,1.5944002E-2,1.5803568E-2,1.8273745E-2,1.7390007E-2,1.9641882E-2,2.1627752E-2,1.8936843E-2],"categories":[],"categories_nodes":[],"categories_segments":[],"categories_sizes":[],"default_left":[0,0,0,0,0,0,0,0,0,0,0,0,0,0,0,0,0,0,0,0,0,0,0,0,0,0,0,0,0,0,0,0,0,0,0,0,0,0,0,0,0,0,0,0,0,0,0,0,0,0,0,0,0,0,0,0,0,0,0,0,0,0,0,0,0,0,0,0,0,0,0,0,0,0,0,0,0,0,0,0,0,0,0,0,0,0,0,0,0,0,0,0,0,0,0,0,0,0,0,0,0,0,0,0,0,0,0,0,0,0,0,0,0,0,0,0,0,0,0,0,0,0,0,0,0],"id":3,"left_children":[1,3,5,7,9,11,13,15,17,19,21,23,25,27,29,31,33,35,37,39,41,43,45,47,49,51,53,55,57,59,61,63,65,67,69,71,73,75,77,79,81,83,85,87,89,91,93,95,97,99,101,103,105,107,109,111,113,115,-1,117,119,121,123,-1,-1,-1,-1,-1,-1,-1,-1,-1,-1,-1,-1,-1,-1,-1,-1,-1,-1,-1,-1,-1,-1,-1,-1,-1,-1,-1,-1,-1,-1,-1,-1,-1,-1,-1,-1,-1,-1,-1,-1,-1,-1,-1,-1,-1,-1,-1,-1,-1,-1,-1,-1,-1,-1,-1,-1,-1,-1,-1,-1,-1,-1],"loss_changes":[2.7559404E3,1.649175E3,2.6514392E2,7.7276025E2,4.106397E2,4.0517334E1,2.6271118E1,6.673579E2,1.4525238E2,1.0548828E2,1.2049105E2,1.0511482E1,1.0600067E1,2.4248657E0,8.712097E0,1.5096533E2,1.3558093E2,8.7668396E1,1.2387133E1,2.343222E1,5.396997E1,7.524227E1,1.2743683E1,7.130211E0,8.408188E0,2.951889E0,1.0710602E0,1.2127838E0,5.547333E-1,9.411621E-1,6.593628E-1,1.4104395E2,4.2563843E1,2.189599E2,5.3140045E1,3.5756775E1,7.292885E0,1.0468702E1,3.928592E0,1.6177048E1,1.4978119E1,1.6794502E1,1.4376709E1,3.2730095E1,2.7215347E0,9.843353E0,1.575592E0,3.8811693E0,1.2152176E0,1.609745E0,8.389015E-1,7.8258514E-1,4.961754E0,4.094925E-1,1.41436E0,9.1166687E-1,3.6876678E-1,1.3520813E-1,0E0,4.8062134E-1,4.6977234E-1,4.9621582E-2,4.504242E-1,0E0,0E0,0E0,0E0,0E0,0E0,0E0,0E0,0E0,0E0,0E0,0E0,0E0,0E0,0E0,0E0,0E0,0E0,0E0,0E0,0E0,0E0,0E0,0E0,0E0,0E0,0E0,0E0,0E0,0E0,0E0,0E0,0E0,0E0,0E0,0E0,0E0,0E0,0E0,0E0,0E0,0E0,0E0,0E0,0E0,0E0,0E0,0E0,0E0,0E0,0E0,0E0,0E0,0E0,0E0,0E0,0E0,0E0,0E0,0E0,0E0,0E0],"parents":[2147483647,0,0,1,1,2,2,3,3,4,4,5,5,6,6,7,7,8,8,9,9,10,10,11,11,12,12,13,13,14,14,15,15,16,16,17,17,18,18,19,19,20,20,21,21,22,22,23,23,24,24,25,25,26,26,27,27,28,28,29,29,30,30,31,31,32,32,33,33,34,34,35,35,36,36,37,37,38,38,39,39,40,40,41,41,42,42,43,43,44,44,45,45,46,46,47,47,48,48,49,49,50,50,51,51,52,52,53,53,54,54,55,55,56,56,57,57,59,59,60,60,61,61,62,62],"right_children":[2,4,6,8,10,12,14,16,18,20,22,24,26,28,30,32,34,36,38,40,42,44,46,48,50,52,54,56,58,60,62,64,66,68,70,72,74,76,78,80,82,84,86,88,90,92,94,96,98,100,102,104,106,108,110,112,114,116,-1,118,120,122,124,-1,-1,-1,-1,-1,-1,-1,-1,-1,-1,-1,-1,-1,-1,-1,-1,-1,-1,-1,-1,-1,-1,-1,-1,-1,-1,-1,-1,-1,-1,-1,-1,-1,-1,-1,-1,-1,-1,-1,-1,-1,-1,-1,-1,-1,-1,-1,-1,-1,-1,-1,-1,-1,-1,-1,-1,-1,-1,-1,-1,-1,-1],"split_conditions":[7.7912E2,6.955081E4,1.19774E3,3.6919E2,6.6568685E-1,9.9865E2,1.35633E3,7.305475E-1,1.08E0,7.394124E4,7.751754E4,7.806021E4,1.09263E3,1.25651E3,1.5548E3,-3.9E-1,7.9E-1,5.7405E2,3.4E0,3.490766E-1,-3.3E-1,1.11E0,7.937837E4,9.4627E2,9.989264E-1,7.857998E-1,3E0,2.0769067E0,7.9236016E4,2.003452E0,1.63612E3,6.497836E4,3.04E0,6.276442E4,7.938998E1,6.212526E4,6.518798E4,8.403202E-1,3.9721E2,4.803E2,5.73E0,1E0,5.3103E2,1.7861303E0,2.4233921E1,9.4E-1,2.5326E2,7.025888E4,8.6E-1,-8.5E-1,-2.7E-1,7.31E0,7.564514E4,7.958701E4,7.9236016E4,3E0,7.495159E4,1.28375E3,1.5871301E-2,4.86E0,7.844097E4,8.0567445E4,1.12E0,-7.861124E-2,-4.3121666E-2,-5.0935257E-2,-3.3349246E-2,-5.851337E-2,-2.0310609E-2,-9.233387E-3,-2.6731033E-2,-3.7387516E-2,-2.1528354E-2,-1.40682E-2,-6.66742E-3,-1.095543E-2,-2.8476832E-3,6.9253496E-3,-1.5939856E-3,-2.3294343E-2,-1.1487249E-2,-1.6279733E-2,-9.095121E-3,-9.09672E-3,-2.6049176E-3,-1.135756E-2,-4.41205E-3,-4.9600746E-3,2.6788085E-3,1.5384718E-2,7.7477815E-3,7.341381E-3,1.5381399E-2,1.5042285E-2,1.2315686E-2,2.0710689E-4,3.0558081E-3,4.4771717E-3,6.7684087E-3,1.2218771E-2,5.350561E-3,1.5791612E-2,1.1158669E-2,7.0164776E-3,5.8421376E-3,7.224838E-3,1.3479914E-2,8.655252E-3,1.0098818E-2,1.00286E-2,1.5344545E-2,9.633957E-3,1.1396113E-2,1.2436214E-2,1.5615202E-2,1.2161371E-2,1.3209181E-2,1.4554746E-2,1.5944002E-2,1.5803568E-2,1.8273745E-2,1.7390007E-2,1.9641882E-2,2.1627752E-2,1.8936843E-2],"split_indices":[1,6,1,1,0,1,1,0,2,6,6,6,1,1,1,2,2,1,4,0,2,2,6,1,0,0,4,0,6,0,1,6,4,6,3,6,6,0,1,1,5,4,1,0,3,2,1,6,2,2,2,5,6,6,6,4,6,1,0,4,6,6,4,0,0,0,0,0,0,0,0,0,0,0,0,0,0,0,0,0,0,0,0,0,0,0,0,0,0,0,0,0,0,0,0,0,0,0,0,0,0,0,0,0,0,0,0,0,0,0,0,0,0,0,0,0,0,0,0,0,0,0,0,0,0],"split_type":[0,0,0,0,0,0,0,0,0,0,0,0,0,0,0,0,0,0,0,0,0,0,0,0,0,0,0,0,0,0,0,0,0,0,0,0,0,0,0,0,0,0,0,0,0,0,0,0,0,0,0,0,0,0,0,0,0,0,0,0,0,0,0,0,0,0,0,0,0,0,0,0,0,0,0,0,0,0,0,0,0,0,0,0,0,0,0,0,0,0,0,0,0,0,0,0,0,0,0,0,0,0,0,0,0,0,0,0,0,0,0,0,0,0,0,0,0,0,0,0,0,0,0,0,0],"sum_hessian":[8.9776E4,4.7459E4,4.2317E4,1.2863E4,3.4596E4,2.657E4,1.5747E4,6.604E3,6.259E3,2.3114E4,1.1482E4,1.2236E4,1.4334E4,6.3E3,9.447E3,2.705E3,3.899E3,2.938E3,3.321E3,5.23E3,1.7884E4,6.535E3,4.947E3,9.187E3,3.049E3,8.045E3,6.289E3,3.853E3,2.447E3,6.994E3,2.453E3,1.284E3,1.421E3,1.707E3,2.192E3,1.569E3,1.369E3,1.594E3,1.727E3,1.229E3,4.001E3,1.3827E4,4.057E3,5.644E3,8.91E2,2.706E3,2.241E3,5.308E3,3.879E3,2.615E3,4.34E2,6.129E3,1.916E3,3.324E3,2.965E3,3.333E3,5.2E2,2.254E3,1.93E2,5.058E3,1.936E3,1.044E3,1.409E3,8.63E2,4.21E2,8E2,6.21E2,5.57E2,1.15E3,1.596E3,5.96E2,5.52E2,1.017E3,5.79E2,7.9E2,8.11E2,7.83E2,1.47E2,1.58E3,7.51E2,4.78E2,9.55E2,3.046E3,1.08E3,1.2747E4,3.071E3,9.86E2,3.05E3,2.594E3,7.49E2,1.42E2,2.247E3,4.59E2,1.229E3,1.012E3,1.819E3,3.489E3,3.165E3,7.14E2,8.8E1,2.527E3,1.79E2,2.55E2,2.341E3,3.788E3,1.513E3,4.03E2,2.664E3,6.6E2,2.831E3,1.34E2,1.21E3,2.123E3,3.66E2,1.54E2,6.42E2,1.612E3,4.165E3,8.93E2,1.663E3,2.73E2,9.51E2,9.3E1,2.52E2,1.157E3],"tree_param":{"num_deleted":"0","num_feature":"7","num_nodes":"125","size_leaf_vector":"1"}},{"base_weights":[-2.3664234E-6,-1.6083276E-1,1.7243205E-1,-4.558012E-1,-4.9179744E-2,1.0148319E-1,2.5563708E-1,-6.6520274E-1,-2.1710111E-1,-1.2075661E-1,1.01660915E-1,5.172335E-2,1.2566893E-1,2.0682313E-1,3.026144E-1,-1.0249088E0,-4.1399732E-1,-3.807156E-1,-7.3457934E-2,-2.2500572E-1,-8.188997E-2,1.875882E-2,2.0847279E-1,3.3334386E-2,1.6936982E-1,1.1540922E-1,1.6146737E-1,1.914235E-1,2.3057202E-1,2.8432927E-1,3.5033438E-1,-1.2535496E0,-8.1857526E-1,-5.748183E-1,-2.1773382E-1,-5.2184826E-1,-2.1700422E-1,-1.4115016E-1,-1.800667E-2,-1.13927364E-1,-2.6215068E-1,-5.2380834E-2,-1.816559E-1,-2.3589483E-2,2.699913E-1,1.5231149E-1,2.516008E-1,-1.16764475E-2,5.672616E-2,1.1665674E-1,2.6092374E-1,1.1020152E-1,1.4478876E-1,1.7828694E-1,1.4294171E-1,1.7656259E-1,2.1022603E-1,2.269086E-1,1.54435355E-2,2.6860306E-1,2.921712E-1,3.3103928E-1,3.6925784E-1,-7.611374E-2,-4.2366505E-2,-4.8999857E-2,-3.2780018E-2,-4.830801E-2,-1.4654613E-2,-1.2599592E-2,7.289345E-3,-3.8356133E-2,-2.1411542E-2,-1.4946769E-2,-7.564711E-3,-1.0897609E-2,-2.8179584E-3,6.6569694E-3,-1.6247014E-3,-2.190966E-2,-5.0880853E-3,-1.4236263E-2,-6.875669E-3,-8.551833E-3,-2.1073294E-3,-1.0325647E-2,-3.4956865E-3,-4.7443938E-3,2.9479628E-3,6.9369613E-3,1.4575476E-2,8.919022E-3,3.8045556E-3,1.3917761E-2,8.934835E-3,-3.834643E-3,2.4376675E-3,1.3496772E-3,5.8323145E-3,4.6670306E-3,1.2446967E-2,1.4923762E-2,1.0378043E-2,6.2864483E-3,5.11314E-3,6.078013E-3,1.4084714E-2,8.812114E-3,1.306161E-2,6.9037387E-3,1.29639385E-2,7.877238E-3,9.303884E-3,1.0224163E-2,1.3405356E-2,1.0865955E-2,1.2203774E-2,1.3171077E-2,1.7143285E-2,1.3760756E-2,1.5223277E-2,1.63687E-2,1.8725421E-2,2.0550642E-2,1.7990816E-2],"categories":[],"categories_nodes":[],"categories_segments":[],"categories_sizes":[],"default_left":[0,0,0,0,0,0,0,0,0,0,0,0,0,0,0,0,0,0,0,0,0,0,0,0,0,0,0,0,0,0,0,0,0,0,0,0,0,0,0,0,0,0,0,0,0,0,0,0,0,0,0,0,0,0,0,0,0,0,0,0,0,0,0,0,0,0,0,0,0,0,0,0,0,0,0,0,0,0,0,0,0,0,0,0,0,0,0,0,0,0,0,0,0,0,0,0,0,0,0,0,0,0,0,0,0,0,0,0,0,0,0,0,0,0,0,0,0,0,0,0,0,0,0,0,0],"id":4,"left_children":[1,3,5,7,9,11,13,15,17,19,21,23,25,27,29,31,33,35,37,39,41,43,45,47,49,51,53,55,57,59,61,63,65,67,69,71,73,75,77,79,81,83,85,87,89,91,93,95,97,99,101,103,105,107,109,111,113,115,-1,117,119,121,123,-1,-1,-1,-1,-1,-1,-1,-1,-1,-1,-1,-1,-1,-1,-1,-1,-1,-1,-1,-1,-1,-1,-1,-1,-1,-1,-1,-1,-1,-1,-1,-1,-1,-1,-1,-1,-1,-1,-1,-1,-1,-1,-1,-1,-1,-1,-1,-1,-1,-1,-1,-1,-1,-1,-1,-1,-1,-1,-1,-1,-1,-1],"loss_changes":[2.489786E3,1.5298331E3,2.5574048E2,6.374038E2,3.6383957E2,2.8139252E1,4.566284E1,6.134822E2,1.4009158E2,9.2581696E1,9.602779E1,1.6546501E1,5.7612915E0,3.5333557E0,8.764893E0,1.307373E2,1.261911E2,6.428049E1,1.1918955E1,2.557608E1,4.9005257E1,6.4980385E1,1.14401245E1,6.968645E0,4.959738E0,1.8559875E0,1.0660324E0,1.6226654E0,1.0322571E0,8.2788086E-1,9.037781E-1,1.4313062E2,3.805609E1,2.4215924E2,2.2502853E1,3.4022583E1,6.910507E0,9.300049E0,3.8297446E0,6.0976295E0,1.304422E1,1.5597221E1,1.0540352E1,3.0769587E1,2.4477768E0,4.081604E0,5.1756744E0,8.898831E0,7.755642E0,2.0062456E0,6.935024E-1,1.2687607E0,5.8139763E0,2.6465988E-1,9.108963E-1,5.721817E-1,8.1505585E-1,5.519409E-1,0E0,8.5549927E-1,9.3621826E-1,1.006012E-1,4.0797424E-1,0E0,0E0,0E0,0E0,0E0,0E0,0E0,0E0,0E0,0E0,0E0,0E0,0E0,0E0,0E0,0E0,0E0,0E0,0E0,0E0,0E0,0E0,0E0,0E0,0E0,0E0,0E0,0E0,0E0,0E0,0E0,0E0,0E0,0E0,0E0,0E0,0E0,0E0,0E0,0E0,0E0,0E0,0E0,0E0,0E0,0E0,0E0,0E0,0E0,0E0,0E0,0E0,0E0,0E0,0E0,0E0,0E0,0E0,0E0,0E0,0E0,0E0],"parents":[2147483647,0,0,1,1,2,2,3,3,4,4,5,5,6,6,7,7,8,8,9,9,10,10,11,11,12,12,13,13,14,14,15,15,16,16,17,17,18,18,19,19,20,20,21,21,22,22,23,23,24,24,25,25,26,26,27,27,28,28,29,29,30,30,31,31,32,32,33,33,34,34,35,35,36,36,37,37,38,38,39,39,40,40,41,41,42,42,43,43,44,44,45,45,46,46,47,47,48,48,49,49,50,50,51,51,52,52,53,53,54,54,55,55,56,56,57,57,59,59,60,60,61,61,62,62],"right_children":[2,4,6,8,10,12,14,16,18,20,22,24,26,28,30,32,34,36,38,40,42,44,46,48,50,52,54,56,58,60,62,64,66,68,70,72,74,76,78,80,82,84,86,88,90,92,94,96,98,100,102,104,106,108,110,112,114,116,-1,118,120,122,124,-1,-1,-1,-1,-1,-1,-1,-1,-1,-1,-1,-1,-1,-1,-1,-1,-1,-1,-1,-1,-1,-1,-1,-1,-1,-1,-1,-1,-1,-1,-1,-1,-1,-1,-1,-1,-1,-1,-1,-1,-1,-1,-1,-1,-1,-1,-1,-1,-1,-1,-1,-1,-1,-1,-1,-1,-1,-1,-1,-1,-1,-1],"split_conditions":[7.5708E2,6.9886766E4,1.12144E3,3.6919E2,6.6960365E-1,9.4953E2,1.32404E3,7.4106324E-1,1.08E0,7.466903E4,7.751754E4,7.847702E4,1.05999E3,1.22838E3,1.53427E3,-3.9E-1,6.435058E4,5.5346E2,3.34E0,1.118E2,-3.3E-1,1.1E0,1.0957536E0,6.973136E4,3.0152925E1,3.8357117E1,6.4E0,2.98E0,7.9527414E4,1.41204E3,1.63612E3,6.307727E4,5.747468E4,1.31E0,1.26E0,6.100197E4,6.497836E4,8.403202E-1,3.9721E2,7.185032E4,5.8907E2,1E0,3.67E0,1.7150621E0,7.1626555E4,-4.5E-1,4.028998E1,4.5E-1,6.5013355E-1,1.0644844E0,-3.1E-1,6.87E0,7.743985E4,7.9527414E4,8.0567445E4,2.01E0,7.861919E4,1.26736E3,1.54435355E-2,8.079139E4,1.92E0,8.10861E4,1.12E0,-7.611374E-2,-4.2366505E-2,-4.8999857E-2,-3.2780018E-2,-4.830801E-2,-1.4654613E-2,-1.2599592E-2,7.289345E-3,-3.8356133E-2,-2.1411542E-2,-1.4946769E-2,-7.564711E-3,-1.0897609E-2,-2.8179584E-3,6.6569694E-3,-1.6247014E-3,-2.190966E-2,-5.0880853E-3,-1.4236263E-2,-6.875669E-3,-8.551833E-3,-2.1073294E-3,-1.0325647E-2,-3.4956865E-3,-4.7443938E-3,2.9479628E-3,6.9369613E-3,1.4575476E-2,8.919022E-3,3.8045556E-3,1.3917761E-2,8.934835E-3,-3.834643E-3,2.4376675E-3,1.3496772E-3,5.8323145E-3,4.6670306E-3,1.2446967E-2,1.4923762E-2,1.0378043E-2,6.2864483E-3,5.11314E-3,6.078013E-3,1.4084714E-2,8.812114E-3,1.306161E-2,6.9037387E-3,1.29639385E-2,7.877238E-3,9.303884E-3,1.0224163E-2,1.3405356E-2,1.0865955E-2,1.2203774E-2,1.3171077E-2,1.7143285E-2,1.3760756E-2,1.5223277E-2,1.63687E-2,1.8725421E-2,2.0550642E-2,1.7990816E-2],"split_indices":[1,6,1,1,0,1,1,0,2,6,6,6,1,1,1,2,6,1,4,1,2,2,0,6,3,3,5,4,6,1,1,6,6,2,2,6,6,0,1,6,1,4,4,0,6,2,3,2,0,0,2,5,6,6,6,4,6,1,0,6,4,6,4,0,0,0,0,0,0,0,0,0,0,0,0,0,0,0,0,0,0,0,0,0,0,0,0,0,0,0,0,0,0,0,0,0,0,0,0,0,0,0,0,0,0,0,0,0,0,0,0,0,0,0,0,0,0,0,0,0,0,0,0,0,0],"split_type":[0,0,0,0,0,0,0,0,0,0,0,0,0,0,0,0,0,0,0,0,0,0,0,0,0,0,0,0,0,0,0,0,0,0,0,0,0,0,0,0,0,0,0,0,0,0,0,0,0,0,0,0,0,0,0,0,0,0,0,0,0,0,0,0,0,0,0,0,0,0,0,0,0,0,0,0,0,0,0,0,0,0,0,0,0,0,0,0,0,0,0,0,0,0,0,0,0,0,0,0,0,0,0,0,0,0,0,0,0,0,0,0,0,0,0,0,0,0,0,0,0,0,0,0,0],"sum_hessian":[8.9776E4,4.6451E4,4.3325E4,1.2754E4,3.3697E4,2.3386E4,1.9939E4,6.793E3,5.961E3,2.2853E4,1.0844E4,7.65E3,1.5736E4,9.781E3,1.0158E4,2.792E3,4.001E3,2.786E3,3.175E3,6.205E3,1.6648E4,6.106E3,4.738E3,6.617E3,1.033E3,1.2234E4,3.502E3,5.939E3,3.842E3,7.349E3,2.809E3,1.322E3,1.47E3,2.198E3,1.803E3,1.495E3,1.291E3,1.429E3,1.746E3,1.556E3,4.649E3,1.2849E4,3.799E3,5.226E3,8.8E2,2.06E3,2.678E3,2.263E3,4.354E3,6.57E2,3.76E2,1.0396E4,1.838E3,1.831E3,1.671E3,3.323E3,2.616E3,3.674E3,1.68E2,2.457E3,4.892E3,1.4E3,1.409E3,7.94E2,5.28E2,7.36E2,7.34E2,9.19E2,1.279E3,1.648E3,1.55E2,4.11E2,1.084E3,5.73E2,7.18E2,7.49E2,6.8E2,1.52E2,1.594E3,5.5E1,1.501E3,3.935E3,7.14E2,1.019E3,1.183E4,3.107E3,6.92E2,2.804E3,2.422E3,1.25E2,7.55E2,1.534E3,5.26E2,1.957E3,7.21E2,1.09E3,1.173E3,2.911E3,1.443E3,5.6E2,9.7E1,2.18E2,1.58E2,3.512E3,6.884E3,1.573E3,2.65E2,1.79E3,4.1E1,1.606E3,6.5E1,1.114E3,2.209E3,2.384E3,2.32E2,2.366E3,1.308E3,2.301E3,1.56E2,2.066E3,2.826E3,1.299E3,1.01E2,2.52E2,1.157E3],"tree_param":{"num_deleted":"0","num_feature":"7","num_nodes":"125","size_leaf_vector":"1"}},{"base_weights":[-2.7146223E-6,-1.5279923E-1,1.6381817E-1,-4.3303934E-1,-4.6721257E-2,9.641425E-2,2.4286589E-1,-6.1454E-1,-1.8396077E-1,-1.1520354E-1,9.56343E-2,4.914352E-2,1.1939017E-1,1.9649012E-1,2.8749675E-1,-9.24326E-1,-3.958939E-1,-3.1816173E-1,-7.3481634E-2,-2.1244572E-1,-7.7710055E-2,1.6390078E-2,1.9800457E-1,2.9383942E-2,1.480269E-1,1.09641366E-1,1.5340593E-1,1.7950445E-1,2.1599033E-1,2.7012086E-1,3.3284387E-1,-1.0282863E0,-3.8392335E-1,-5.7964283E-1,-2.4192584E-1,-4.1447785E-1,-1.6311513E-1,-1.2845477E-1,-2.3439135E-2,-3.1344718E-1,-1.7518184E-1,-5.0783172E-2,-1.7590183E-1,-2.3154642E-2,2.5931484E-1,1.455244E-1,2.3902936E-1,-1.0780524E-2,5.1839802E-2,1.0527669E-1,2.3721477E-1,9.663337E-2,1.2058401E-1,1.3250607E-1,1.6692892E-1,1.7347421E-1,2.2290543E-1,2.1288559E-1,1.499134E-2,2.5518522E-1,2.7756855E-1,3.1451243E-1,3.5082227E-1,-6.2249627E-2,-3.4977984E-2,-3.7473626E-2,-6.3171396E-3,-6.956824E-2,-2.2750383E-2,-2.314726E-2,-7.2088935E-3,-2.6438335E-2,-1.504264E-2,-1.1711706E-2,-5.8768704E-3,-9.465474E-3,-1.684073E-3,-4.175658E-3,-1.7230079E-4,-1.928267E-2,-7.889937E-3,-5.138489E-3,-1.0663858E-2,-8.092884E-3,-2.0698663E-3,-1.0093025E-2,-3.4691193E-3,-4.741959E-3,2.5969602E-3,-8.8523293E-4,1.3362537E-2,8.529101E-3,3.544086E-3,8.977204E-3,1.34968385E-2,-3.5435155E-3,2.3958755E-3,1.1613694E-3,5.3771534E-3,4.304656E-3,1.1465236E-2,8.526687E-3,1.3527065E-2,4.3606125E-3,5.5479757E-3,5.6595737E-3,7.972164E-3,6.531582E-3,1.2676522E-2,8.139623E-3,1.4124964E-2,7.264039E-3,9.057291E-3,9.27141E-3,1.4129973E-2,1.1429685E-2,1.0106794E-2,1.2524429E-2,1.6473344E-2,1.3073049E-2,1.4462383E-2,1.55508965E-2,1.779833E-2,1.9527167E-2,1.7092053E-2],"categories":[],"categories_nodes":[],"categories_segments":[],"categories_sizes":[],"default_left":[0,0,0,0,0,0,0,0,0,0,0,0,0,0,0,0,0,0,0,0,0,0,0,0,0,0,0,0,0,0,0,0,0,0,0,0,0,0,0,0,0,0,0,0,0,0,0,0,0,0,0,0,0,0,0,0,0,0,0,0,0,0,0,0,0,0,0,0,0,0,0,0,0,0,0,0,0,0,0,0,0,0,0,0,0,0,0,0,0,0,0,0,0,0,0,0,0,0,0,0,0,0,0,0,0,0,0,0,0,0,0,0,0,0,0,0,0,0,0,0,0,0,0,0,0],"id":5,"left_children":[1,3,5,7,9,11,13,15,17,19,21,23,25,27,29,31,33,35,37,39,41,43,45,47,49,51,53,55,57,59,61,63,65,67,69,71,73,75,77,79,81,83,85,87,89,91,93,95,97,99,101,103,105,107,109,111,113,115,-1,117,119,121,123,-1,-1,-1,-1,-1,-1,-1,-1,-1,-1,-1,-1,-1,-1,-1,-1,-1,-1,-1,-1,-1,-1,-1,-1,-1,-1,-1,-1,-1,-1,-1,-1,-1,-1,-1,-1,-1,-1,-1,-1,-1,-1,-1,-1,-1,-1,-1,-1,-1,-1,-1,-1,-1,-1,-1,-1,-1,-1,-1,-1,-1,-1],"loss_changes":[2.2472566E3,1.3808723E3,2.3082288E2,5.765139E2,3.285272E2,2.539447E1,4.121521E1,4.9937183E2,7.9713E1,8.293973E1,8.879348E1,1.4944889E1,5.201767E0,3.201233E0,7.914795E0,1.7106787E2,1.2227692E2,3.6190903E1,8.115168E0,2.3773132E1,4.3413437E1,5.9287045E1,1.0247879E1,5.753053E0,4.832535E0,1.7299194E0,9.67926E-1,1.3311615E0,1.120224E0,7.4676514E-1,8.157654E-1,1.814248E2,4.6419533E1,1.9887238E2,5.0832733E1,1.9281097E1,2.993494E0,8.102592E0,1.8565619E0,1.9101273E1,1.2741928E1,1.3431496E1,9.757874E0,2.8578243E1,1.9041519E0,3.9119415E0,4.8769836E0,8.073521E0,6.5177584E0,2.033595E0,8.6942863E-1,7.4546814E-1,1.8896942E0,2.8016472E-1,9.6891403E-1,9.686127E-1,1.3681965E0,6.950836E-1,0E0,7.7500916E-1,8.4484863E-1,9.225464E-2,3.6949158E-1,0E0,0E0,0E0,0E0,0E0,0E0,0E0,0E0,0E0,0E0,0E0,0E0,0E0,0E0,0E0,0E0,0E0,0E0,0E0,0E0,0E0,0E0,0E0,0E0,0E0,0E0,0E0,0E0,0E0,0E0,0E0,0E0,0E0,0E0,0E0,0E0,0E0,0E0,0E0,0E0,0E0,0E0,0E0,0E0,0E0,0E0,0E0,0E0,0E0,0E0,0E0,0E0,0E0,0E0,0E0,0E0,0E0,0E0,0E0,0E0,0E0,0E0],"parents":[2147483647,0,0,1,1,2,2,3,3,4,4,5,5,6,6,7,7,8,8,9,9,10,10,11,11,12,12,13,13,14,14,15,15,16,16,17,17,18,18,19,19,20,20,21,21,22,22,23,23,24,24,25,25,26,26,27,27,28,28,29,29,30,30,31,31,32,32,33,33,34,34,35,35,36,36,37,37,38,38,39,39,40,40,41,41,42,42,43,43,44,44,45,45,46,46,47,47,48,48,49,49,50,50,51,51,52,52,53,53,54,54,55,55,56,56,57,57,59,59,60,60,61,61,62,62],"right_children":[2,4,6,8,10,12,14,16,18,20,22,24,26,28,30,32,34,36,38,40,42,44,46,48,50,52,54,56,58,60,62,64,66,68,70,72,74,76,78,80,82,84,86,88,90,92,94,96,98,100,102,104,106,108,110,112,114,116,-1,118,120,122,124,-1,-1,-1,-1,-1,-1,-1,-1,-1,-1,-1,-1,-1,-1,-1,-1,-1,-1,-1,-1,-1,-1,-1,-1,-1,-1,-1,-1,-1,-1,-1,-1,-1,-1,-1,-1,-1,-1,-1,-1,-1,-1,-1,-1,-1,-1,-1,-1,-1,-1,-1,-1,-1,-1,-1,-1,-1,-1,-1,-1,-1,-1],"split_conditions":[7.5708E2,6.9886766E4,1.12144E3,3.9721E2,6.6568685E-1,9.4953E2,1.32404E3,7.251369E-1,1.06E0,7.4758914E4,7.751754E4,7.806021E4,1.05999E3,1.2182E3,1.53427E3,1.44E0,7.9E-1,6.1632E2,7.930687E-1,5.49E0,-2.7E-1,1.11E0,1.0957536E0,6.9886766E4,3.0593744E1,9.9865E2,2.94E0,2.7597783E0,7.983866E4,1.41204E3,1.63612E3,6.375134E4,4.9464387E4,5.967973E4,5.0325484E4,6.435058E4,6.4713188E4,1.79E0,5E2,5.4017E2,1.2347E2,1E0,3.47E0,1.4711858E0,9.133285E-1,-4.5E-1,6.52E0,6E-1,6.388648E-1,1.0644844E0,7.937837E4,7.780697E4,4.3543724E1,8.148495E4,7.978535E4,2.01E0,7.35151E4,6.87E0,1.499134E-2,8.10861E4,1.92E0,8.10861E4,1.12E0,-6.2249627E-2,-3.4977984E-2,-3.7473626E-2,-6.3171396E-3,-6.956824E-2,-2.2750383E-2,-2.314726E-2,-7.2088935E-3,-2.6438335E-2,-1.504264E-2,-1.1711706E-2,-5.8768704E-3,-9.465474E-3,-1.684073E-3,-4.175658E-3,-1.7230079E-4,-1.928267E-2,-7.889937E-3,-5.138489E-3,-1.0663858E-2,-8.092884E-3,-2.0698663E-3,-1.0093025E-2,-3.4691193E-3,-4.741959E-3,2.5969602E-3,-8.8523293E-4,1.3362537E-2,8.529101E-3,3.544086E-3,8.977204E-3,1.34968385E-2,-3.5435155E-3,2.3958755E-3,1.1613694E-3,5.3771534E-3,4.304656E-3,1.1465236E-2,8.526687E-3,1.3527065E-2,4.3606125E-3,5.5479757E-3,5.6595737E-3,7.972164E-3,6.531582E-3,1.2676522E-2,8.139623E-3,1.4124964E-2,7.264039E-3,9.057291E-3,9.27141E-3,1.4129973E-2,1.1429685E-2,1.0106794E-2,1.2524429E-2,1.6473344E-2,1.3073049E-2,1.4462383E-2,1.55508965E-2,1.779833E-2,1.9527167E-2,1.7092053E-2],"split_indices":[1,6,1,1,0,1,1,0,2,6,6,6,1,1,1,2,2,1,0,5,2,2,0,6,3,1,4,0,6,1,1,6,6,6,6,6,6,2,1,1,1,4,4,0,0,2,5,2,0,0,6,6,3,6,6,4,6,5,0,6,4,6,4,0,0,0,0,0,0,0,0,0,0,0,0,0,0,0,0,0,0,0,0,0,0,0,0,0,0,0,0,0,0,0,0,0,0,0,0,0,0,0,0,0,0,0,0,0,0,0,0,0,0,0,0,0,0,0,0,0,0,0,0,0,0],"split_type":[0,0,0,0,0,0,0,0,0,0,0,0,0,0,0,0,0,0,0,0,0,0,0,0,0,0,0,0,0,0,0,0,0,0,0,0,0,0,0,0,0,0,0,0,0,0,0,0,0,0,0,0,0,0,0,0,0,0,0,0,0,0,0,0,0,0,0,0,0,0,0,0,0,0,0,0,0,0,0,0,0,0,0,0,0,0,0,0,0,0,0,0,0,0,0,0,0,0,0,0,0,0,0,0,0,0,0,0,0,0,0,0,0,0,0,0,0,0,0,0,0,0,0,0,0],"sum_hessian":[8.9776E4,4.6451E4,4.3325E4,1.2754E4,3.3697E4,2.3386E4,1.9939E4,7.377E3,5.377E3,2.2752E4,1.0945E4,7.65E3,1.5736E4,9.781E3,1.0158E4,3.051E3,4.326E3,2.427E3,2.95E3,6.33E3,1.6422E4,6.17E3,4.775E3,6.377E3,1.273E3,1.2234E4,3.502E3,5.233E3,4.548E3,7.349E3,2.809E3,2.558E3,4.93E2,1.971E3,2.355E3,1.496E3,9.31E2,1.405E3,1.545E3,1.704E3,4.626E3,1.2889E4,3.533E3,5.307E3,8.63E2,2.097E3,2.678E3,2.287E3,4.09E3,8.62E2,4.11E2,5.594E3,6.64E3,1.38E3,2.122E3,4.599E3,6.34E2,4.389E3,1.59E2,2.457E3,4.892E3,1.4E3,1.409E3,1.54E3,1.018E3,2.03E2,2.9E2,2.61E2,1.71E3,7.21E2,1.634E3,7.44E2,7.52E2,3.62E2,5.69E2,8.55E2,5.5E2,3.85E2,1.16E3,1.163E3,5.41E2,1.596E3,3.03E3,1.003E3,1.1886E4,2.84E3,6.93E2,2.715E3,2.592E3,2.4E1,8.39E2,1.569E3,5.28E2,9.18E2,1.76E3,1.13E3,1.157E3,2.703E3,1.387E3,7.48E2,1.14E2,1.39E2,2.72E2,3.379E3,2.215E3,5.582E3,1.058E3,1.361E3,1.9E1,2.051E3,7.1E1,9.88E2,3.611E3,3.92E2,2.42E2,1.775E3,2.614E3,2.315E3,1.42E2,2.066E3,2.826E3,1.299E3,1.01E2,2.52E2,1.157E3],"tree_param":{"num_deleted":"0","num_feature":"7","num_nodes":"125","size_leaf_vector":"1"}},{"base_weights":[-3.1248164E-6,-1.441956E-1,1.5669723E-1,-4.1391772E-1,-4.5640897E-2,1.0437355E-1,2.4731342E-1,-6.0976106E-1,-1.9489954E-1,-1.1085434E-1,8.706129E-2,6.616225E-2,1.370978E-1,2.043454E-1,2.7594322E-1,-9.358902E-1,-3.7975633E-1,-3.5742307E-1,-7.323774E-2,-2.0495577E-1,-7.369177E-2,1.1012215E-2,1.8867822E-1,4.761295E-2,1.1255322E-1,1.16723925E-1,1.642941E-1,1.9059327E-1,2.2591256E-1,2.6183382E-1,3.249775E-1,-1.1079159E0,-6.738974E-1,-5.2332693E-1,-1.9127004E-1,-4.779815E-1,-1.8962432E-1,-1.3141866E-1,-2.5164383E-2,-3.2385424E-1,-1.7366701E-1,-4.721305E-2,-1.6343851E-1,-2.6215453E-2,2.4412292E-1,1.4773895E-1,2.3883572E-1,1.9202892E-3,6.650163E-2,9.686413E-2,2.341561E-1,1.0735378E-1,1.4710607E-1,1.6304116E-1,2.765404E-1,1.8358763E-1,2.2998242E-1,2.2153288E-1,1.3495981E-2,2.5342575E-1,2.7829573E-1,3.6752367E-1,3.189995E-1,-6.919073E-2,-3.5921454E-2,-4.560452E-2,-2.0762427E-2,-4.369114E-2,-1.2677707E-2,-1.0891194E-2,1.1939721E-2,-3.4134697E-2,-1.973514E-2,-1.2827917E-2,-6.3724103E-3,-9.914128E-3,-3.1839577E-3,-9.983978E-3,-5.882259E-4,-2.0110594E-2,-1.05404435E-2,-4.672455E-3,-1.046954E-2,-7.688643E-3,-1.903636E-3,-9.544711E-3,-3.6972172E-3,-3.1106118E-3,5.262668E-3,1.3279619E-2,6.513213E-3,6.1410675E-3,1.3337572E-2,1.3042239E-2,1.0489129E-2,-1.0449216E-3,4.2792764E-3,2.8633173E-3,5.7981983E-3,1.3726413E-2,4.5299414E-3,9.936373E-3,1.3315387E-2,6.0146907E-3,4.954429E-3,6.1185174E-3,1.1928621E-2,6.967447E-3,8.42873E-3,1.0627884E-2,1.5330459E-2,8.149992E-3,9.768634E-3,1.0720833E-2,1.35539295E-2,1.0693121E-2,1.1591453E-2,1.2449877E-2,1.3720487E-2,1.3074192E-2,1.4786362E-2,1.4429854E-2,1.8803151E-2,1.5588514E-2,1.7846867E-2],"categories":[],"categories_nodes":[],"categories_segments":[],"categories_sizes":[],"default_left":[0,0,0,0,0,0,0,0,0,0,0,0,0,0,0,0,0,0,0,0,0,0,0,0,0,0,0,0,0,0,0,0,0,0,0,0,0,0,0,0,0,0,0,0,0,0,0,0,0,0,0,0,0,0,0,0,0,0,0,0,0,0,0,0,0,0,0,0,0,0,0,0,0,0,0,0,0,0,0,0,0,0,0,0,0,0,0,0,0,0,0,0,0,0,0,0,0,0,0,0,0,0,0,0,0,0,0,0,0,0,0,0,0,0,0,0,0,0,0,0,0,0,0,0,0],"id":6,"left_children":[1,3,5,7,9,11,13,15,17,19,21,23,25,27,29,31,33,35,37,39,41,43,45,47,49,51,53,55,57,59,61,63,65,67,69,71,73,75,77,79,81,83,85,87,89,91,93,95,97,99,101,103,105,107,109,111,113,115,-1,117,119,121,123,-1,-1,-1,-1,-1,-1,-1,-1,-1,-1,-1,-1,-1,-1,-1,-1,-1,-1,-1,-1,-1,-1,-1,-1,-1,-1,-1,-1,-1,-1,-1,-1,-1,-1,-1,-1,-1,-1,-1,-1,-1,-1,-1,-1,-1,-1,-1,-1,-1,-1,-1,-1,-1,-1,-1,-1,-1,-1,-1,-1,-1,-1],"loss_changes":[2.0285349E3,1.2428405E3,2.0396228E2,5.3656177E2,2.9635608E2,3.409784E1,1.9316284E1,4.950935E2,1.1679213E2,8.028067E1,8.719924E1,1.0824276E1,8.1215515E0,1.8257751E0,6.451416E0,1.22338135E2,1.0476166E2,5.1069885E1,9.45039E0,2.412497E1,3.911223E1,5.602397E1,9.88269E0,7.7606354E0,6.834091E0,2.376419E0,8.395233E-1,1.021286E0,4.1202545E-1,9.456787E-1,4.1864014E-1,1.7599084E2,6.646634E1,2.0770325E2,1.9203117E1,2.4808441E1,4.3745384E0,6.912718E0,4.328515E0,1.190004E1,1.4732986E1,1.2376507E1,9.200104E0,2.6352123E1,2.1385498E0,7.8614197E0,1.3321991E0,5.024719E0,2.8995132E0,3.5204124E0,4.1410446E-1,6.75354E-1,4.446003E0,7.9234314E-1,6.565142E-2,7.6325226E-1,3.116169E-1,1.2670135E-1,0E0,3.8427734E-1,6.4711E-1,6.198883E-2,3.974762E-1,0E0,0E0,0E0,0E0,0E0,0E0,0E0,0E0,0E0,0E0,0E0,0E0,0E0,0E0,0E0,0E0,0E0,0E0,0E0,0E0,0E0,0E0,0E0,0E0,0E0,0E0,0E0,0E0,0E0,0E0,0E0,0E0,0E0,0E0,0E0,0E0,0E0,0E0,0E0,0E0,0E0,0E0,0E0,0E0,0E0,0E0,0E0,0E0,0E0,0E0,0E0,0E0,0E0,0E0,0E0,0E0,0E0,0E0,0E0,0E0,0E0,0E0],"parents":[2147483647,0,0,1,1,2,2,3,3,4,4,5,5,6,6,7,7,8,8,9,9,10,10,11,11,12,12,13,13,14,14,15,15,16,16,17,17,18,18,19,19,20,20,21,21,22,22,23,23,24,24,25,25,26,26,27,27,28,28,29,29,30,30,31,31,32,32,33,33,34,34,35,35,36,36,37,37,38,38,39,39,40,40,41,41,42,42,43,43,44,44,45,45,46,46,47,47,48,48,49,49,50,50,51,51,52,52,53,53,54,54,55,55,56,56,57,57,59,59,60,60,61,61,62,62],"right_children":[2,4,6,8,10,12,14,16,18,20,22,24,26,28,30,32,34,36,38,40,42,44,46,48,50,52,54,56,58,60,62,64,66,68,70,72,74,76,78,80,82,84,86,88,90,92,94,96,98,100,102,104,106,108,110,112,114,116,-1,118,120,122,124,-1,-1,-1,-1,-1,-1,-1,-1,-1,-1,-1,-1,-1,-1,-1,-1,-1,-1,-1,-1,-1,-1,-1,-1,-1,-1,-1,-1,-1,-1,-1,-1,-1,-1,-1,-1,-1,-1,-1,-1,-1,-1,-1,-1,-1,-1,-1,-1,-1,-1,-1,-1,-1,-1,-1,-1,-1,-1,-1,-1,-1,-1],"split_conditions":[7.631E2,6.955081E4,1.19774E3,3.6919E2,6.6568685E-1,9.9585E2,1.35633E3,7.4106324E-1,7.8E-1,7.4758914E4,7.751754E4,7.7776625E4,1.09263E3,1.25651E3,1.59004E3,7E-1,6.435058E4,5.7405E2,3.34E0,3.490766E-1,-3.3E-1,1.11E0,7.937837E4,8.8382E2,1.0809948E0,7.857998E-1,8.148495E4,2.003452E0,7.9070695E4,1.2511427E0,1.02E0,6.4713188E4,5.35003E4,1.36E0,1.31E0,6.100197E4,6.518798E4,8.403202E-1,1.13E0,4.3529E2,1.2932E2,1E0,5.3103E2,3.782349E0,2.337024E1,9.4E-1,2.5326E2,7.433759E4,9.6E-1,-1.23E0,6.44E0,7.31E0,7.564514E4,2.01E0,8.7484765E-1,3E0,7.495159E4,4E0,1.3495981E-2,4.86E0,7.359916E4,7.482217E4,7.964972E4,-6.919073E-2,-3.5921454E-2,-4.560452E-2,-2.0762427E-2,-4.369114E-2,-1.2677707E-2,-1.0891194E-2,1.1939721E-2,-3.4134697E-2,-1.973514E-2,-1.2827917E-2,-6.3724103E-3,-9.914128E-3,-3.1839577E-3,-9.983978E-3,-5.882259E-4,-2.0110594E-2,-1.05404435E-2,-4.672455E-3,-1.046954E-2,-7.688643E-3,-1.903636E-3,-9.544711E-3,-3.6972172E-3,-3.1106118E-3,5.262668E-3,1.3279619E-2,6.513213E-3,6.1410675E-3,1.3337572E-2,1.3042239E-2,1.0489129E-2,-1.0449216E-3,4.2792764E-3,2.8633173E-3,5.7981983E-3,1.3726413E-2,4.5299414E-3,9.936373E-3,1.3315387E-2,6.0146907E-3,4.954429E-3,6.1185174E-3,1.1928621E-2,6.967447E-3,8.42873E-3,1.0627884E-2,1.5330459E-2,8.149992E-3,9.768634E-3,1.0720833E-2,1.35539295E-2,1.0693121E-2,1.1591453E-2,1.2449877E-2,1.3720487E-2,1.3074192E-2,1.4786362E-2,1.4429854E-2,1.8803151E-2,1.5588514E-2,1.7846867E-2],"split_indices":[1,6,1,1,0,1,1,0,2,6,6,6,1,1,1,2,6,1,4,0,2,2,6,1,0,0,6,0,6,0,4,6,6,2,2,6,6,0,2,1,1,4,1,0,3,2,1,6,2,2,5,5,6,4,0,4,6,4,0,4,6,6,6,0,0,0,0,0,0,0,0,0,0,0,0,0,0,0,0,0,0,0,0,0,0,0,0,0,0,0,0,0,0,0,0,0,0,0,0,0,0,0,0,0,0,0,0,0,0,0,0,0,0,0,0,0,0,0,0,0,0,0,0,0,0],"split_type":[0,0,0,0,0,0,0,0,0,0,0,0,0,0,0,0,0,0,0,0,0,0,0,0,0,0,0,0,0,0,0,0,0,0,0,0,0,0,0,0,0,0,0,0,0,0,0,0,0,0,0,0,0,0,0,0,0,0,0,0,0,0,0,0,0,0,0,0,0,0,0,0,0,0,0,0,0,0,0,0,0,0,0,0,0,0,0,0,0,0,0,0,0,0,0,0,0,0,0,0,0,0,0,0,0,0,0,0,0,0,0,0,0,0,0,0,0,0,0,0,0,0,0,0,0],"sum_hessian":[8.9776E4,4.6754E4,4.3022E4,1.2511E4,3.4243E4,2.7275E4,1.5747E4,6.604E3,5.907E3,2.296E4,1.1283E4,1.2584E4,1.4691E4,6.3E3,9.447E3,2.73E3,3.874E3,2.528E3,3.379E3,6.499E3,1.6461E4,6.454E3,4.829E3,8.991E3,3.593E3,8.402E3,6.289E3,3.853E3,2.447E3,7.341E3,2.106E3,1.646E3,1.084E3,2.198E3,1.676E3,1.47E3,1.058E3,1.528E3,1.851E3,1.352E3,5.147E3,1.2712E4,3.749E3,5.566E3,8.88E2,2.661E3,2.168E3,2.63E3,6.361E3,3.184E3,4.09E2,6.425E3,1.977E3,6.222E3,6.7E1,3.276E3,5.77E2,2.231E3,2.16E2,4.87E3,2.471E3,2.52E2,1.854E3,9.62E2,6.84E2,5.63E2,5.21E2,9.55E2,1.243E3,1.579E3,9.7E1,4.23E2,1.047E3,5.08E2,5.5E2,7.68E2,7.6E2,1.31E2,1.72E3,7.97E2,5.55E2,1.587E3,3.56E3,1.003E3,1.1709E4,2.868E3,8.81E2,4.37E3,1.196E3,7.46E2,1.42E2,2.202E3,4.59E2,1.229E3,9.39E2,2.067E3,5.63E2,5.362E3,9.99E2,1.07E2,3.077E3,1.98E2,2.11E2,2.499E3,3.926E3,1.558E3,4.19E2,1.183E3,5.039E3,2.4E1,4.3E1,1.198E3,2.078E3,4.23E2,1.54E2,1.291E3,9.4E2,4.032E3,8.38E2,1.266E3,1.205E3,2.8E1,2.24E2,1.565E3,2.89E2],"tree_param":{"num_deleted":"0","num_feature":"7","num_nodes":"125","size_leaf_vector":"1"}},{"base_weights":[-3.0527774E-6,-1.3904715E-1,1.4676431E-1,-3.9924118E-1,-4.4617224E-2,8.177835E-2,2.1476704E-1,-6.170228E-1,-2.1718667E-1,-1.06141634E-1,8.137907E-2,4.123656E-2,1.03068E-1,1.698019E-1,2.554694E-1,-9.218695E-1,-4.0685132E-1,-3.617929E-1,-7.4363254E-2,-1.983524E-1,-7.097899E-2,9.24905E-3,1.7850102E-1,2.4437597E-2,1.5260546E-1,8.774129E-2,1.1449181E-1,1.6326451E-1,2.0318334E-1,2.4029188E-1,3.0070046E-1,-1.2378482E0,-5.3990895E-1,-6.224147E-1,-2.762503E-1,-6.3646585E-1,-2.2148415E-1,-1.2886776E-1,-2.2684399E-2,-2.8539318E-1,-1.5794292E-1,-4.5624763E-2,-1.5654834E-1,-2.6763244E-2,2.318896E-1,1.2923367E-1,2.1552688E-1,-1.5040894E-2,4.7397893E-2,1.0021316E-1,2.2541794E-1,5.042064E-2,9.1022655E-2,1.0607422E-1,1.4446871E-1,1.4961535E-1,1.7588486E-1,1.8124671E-1,2.5987223E-1,2.2570084E-1,2.5067687E-1,2.841847E-1,3.1689754E-1,-9.5312186E-2,-5.699129E-2,-3.989201E-2,-1.8862233E-2,-3.7817977E-2,-1.9365286E-2,-2.1018714E-2,-9.867098E-3,-4.346373E-2,-1.9486262E-2,-1.4970406E-2,2.1081248E-3,-1.047439E-2,-3.0354063E-3,-6.579581E-3,-1.352521E-4,-1.6230894E-2,-7.083311E-3,-4.2656744E-3,-9.848118E-3,-7.3588165E-3,-1.837983E-3,-8.905416E-3,-2.9649795E-3,-6.938645E-3,6.4841035E-4,1.2620424E-2,6.123014E-3,7.664386E-3,2.6509787E-3,1.2326512E-2,8.188217E-3,-3.383375E-3,1.9143535E-3,1.2799375E-3,6.248621E-3,3.9252634E-3,1.089545E-2,1.3314726E-2,8.540046E-3,-2.246151E-5,3.342427E-3,4.3156324E-3,8.251634E-3,6.167595E-3,4.933368E-3,6.137252E-3,1.1314583E-2,7.6229847E-3,4.7664917E-3,8.1297485E-3,9.350796E-3,7.928387E-3,1.0718763E-2,1.5235598E-2,1.2510209E-2,1.106865E-2,1.4326679E-2,1.1789362E-2,1.3073749E-2,1.4046359E-2,1.6145794E-2,1.7640607E-2,1.5438864E-2],"categories":[],"categories_nodes":[],"categories_segments":[],"categories_sizes":[],"default_left":[0,0,0,0,0,0,0,0,0,0,0,0,0,0,0,0,0,0,0,0,0,0,0,0,0,0,0,0,0,0,0,0,0,0,0,0,0,0,0,0,0,0,0,0,0,0,0,0,0,0,0,0,0,0,0,0,0,0,0,0,0,0,0,0,0,0,0,0,0,0,0,0,0,0,0,0,0,0,0,0,0,0,0,0,0,0,0,0,0,0,0,0,0,0,0,0,0,0,0,0,0,0,0,0,0,0,0,0,0,0,0,0,0,0,0,0,0,0,0,0,0,0,0,0,0,0,0],"id":7,"left_children":[1,3,5,7,9,11,13,15,17,19,21,23,25,27,29,31,33,35,37,39,41,43,45,47,49,51,53,55,57,59,61,63,65,67,69,71,73,75,77,79,81,83,85,87,89,91,93,95,97,99,101,103,105,107,109,111,113,115,117,119,121,123,125,-1,-1,-1,-1,-1,-1,-1,-1,-1,-1,-1,-1,-1,-1,-1,-1,-1,-1,-1,-1,-1,-1,-1,-1,-1,-1,-1,-1,-1,-1,-1,-1,-1,-1,-1,-1,-1,-1,-1,-1,-1,-1,-1,-1,-1,-1,-1,-1,-1,-1,-1,-1,-1,-1,-1,-1,-1,-1,-1,-1,-1,-1,-1,-1],"loss_changes":[1.8321117E3,1.1327131E3,1.929964E2,4.8658667E2,2.622304E2,1.9273544E1,3.901654E1,3.577124E2,1.3810138E2,7.368182E1,7.775138E1,1.4387095E1,2.5539703E0,2.1802979E0,7.616516E0,2.7450818E2,9.3013794E1,1.2792413E2,9.478189E0,2.2022293E1,3.5694893E1,5.107957E1,8.600449E0,6.0602503E0,3.8227425E0,7.617798E-1,2.1010056E0,1.4356384E0,2.0134888E0,1.2149048E0,6.6163635E-1,7.952771E1,4.3081726E1,3.9008636E1,2.3378662E1,6.4170135E1,4.5230804E1,8.988148E0,3.7617683E0,1.1161636E1,1.2132385E1,1.1424353E1,7.875046E0,2.440728E1,1.9607277E0,3.7170525E0,4.2910233E0,6.9036994E0,7.144903E0,1.4851913E0,8.9442253E-1,4.2455804E-1,1.9904861E0,8.263016E-1,3.2357025E0,6.16066E-1,6.2106323E-1,8.6608887E-1,1.2317467E-1,8.577881E-1,7.2506714E-1,8.604431E-2,3.0226135E-1,0E0,0E0,0E0,0E0,0E0,0E0,0E0,0E0,0E0,0E0,0E0,0E0,0E0,0E0,0E0,0E0,0E0,0E0,0E0,0E0,0E0,0E0,0E0,0E0,0E0,0E0,0E0,0E0,0E0,0E0,0E0,0E0,0E0,0E0,0E0,0E0,0E0,0E0,0E0,0E0,0E0,0E0,0E0,0E0,0E0,0E0,0E0,0E0,0E0,0E0,0E0,0E0,0E0,0E0,0E0,0E0,0E0,0E0,0E0,0E0,0E0,0E0,0E0,0E0],"parents":[2147483647,0,0,1,1,2,2,3,3,4,4,5,5,6,6,7,7,8,8,9,9,10,10,11,11,12,12,13,13,14,14,15,15,16,16,17,17,18,18,19,19,20,20,21,21,22,22,23,23,24,24,25,25,26,26,27,27,28,28,29,29,30,30,31,31,32,32,33,33,34,34,35,35,36,36,37,37,38,38,39,39,40,40,41,41,42,42,43,43,44,44,45,45,46,46,47,47,48,48,49,49,50,50,51,51,52,52,53,53,54,54,55,55,56,56,57,57,58,58,59,59,60,60,61,61,62,62],"right_children":[2,4,6,8,10,12,14,16,18,20,22,24,26,28,30,32,34,36,38,40,42,44,46,48,50,52,54,56,58,60,62,64,66,68,70,72,74,76,78,80,82,84,86,88,90,92,94,96,98,100,102,104,106,108,110,112,114,116,118,120,122,124,126,-1,-1,-1,-1,-1,-1,-1,-1,-1,-1,-1,-1,-1,-1,-1,-1,-1,-1,-1,-1,-1,-1,-1,-1,-1,-1,-1,-1,-1,-1,-1,-1,-1,-1,-1,-1,-1,-1,-1,-1,-1,-1,-1,-1,-1,-1,-1,-1,-1,-1,-1,-1,-1,-1,-1,-1,-1,-1,-1,-1,-1,-1,-1,-1],"split_conditions":[7.5043E2,6.955081E4,1.10569E3,7E-1,6.6568685E-1,9.4627E2,1.28375E3,6.276442E4,3.6919E2,7.466903E4,7.751754E4,7.847702E4,1.00144E3,1.951121E0,1.53427E3,3.3005E2,8.01163E-1,7.619873E-1,1.61E0,3.771328E-1,-3.4E-1,1.11E0,1.0809948E0,7.043895E4,2.94736E1,6.497836E4,2.9797422E1,3E0,7.372937E4,1.41204E3,1.63612E3,5.6171637E4,4.5671E2,3.3005E2,6.570324E4,5.35003E4,9.17E0,7.7305335E-1,2.0758253E1,5.8907E2,1.2932E2,1E0,3.67E0,7.201586E4,2.337024E1,-4.5E-1,2.5326E2,4.5E-1,8.1E-1,1.0644844E0,-3.1E-1,5.7E-1,9.2E-1,6.4E0,7.564514E4,1.5911175E0,1.18839E3,8.7E-1,-8E-1,8.0214336E4,1.92E0,8.10861E4,1.12E0,-9.5312186E-2,-5.699129E-2,-3.989201E-2,-1.8862233E-2,-3.7817977E-2,-1.9365286E-2,-2.1018714E-2,-9.867098E-3,-4.346373E-2,-1.9486262E-2,-1.4970406E-2,2.1081248E-3,-1.047439E-2,-3.0354063E-3,-6.579581E-3,-1.352521E-4,-1.6230894E-2,-7.083311E-3,-4.2656744E-3,-9.848118E-3,-7.3588165E-3,-1.837983E-3,-8.905416E-3,-2.9649795E-3,-6.938645E-3,6.4841035E-4,1.2620424E-2,6.123014E-3,7.664386E-3,2.6509787E-3,1.2326512E-2,8.188217E-3,-3.383375E-3,1.9143535E-3,1.2799375E-3,6.248621E-3,3.9252634E-3,1.089545E-2,1.3314726E-2,8.540046E-3,-2.246151E-5,3.342427E-3,4.3156324E-3,8.251634E-3,6.167595E-3,4.933368E-3,6.137252E-3,1.1314583E-2,7.6229847E-3,4.7664917E-3,8.1297485E-3,9.350796E-3,7.928387E-3,1.0718763E-2,1.5235598E-2,1.2510209E-2,1.106865E-2,1.4326679E-2,1.1789362E-2,1.3073749E-2,1.4046359E-2,1.6145794E-2,1.7640607E-2,1.5438864E-2],"split_indices":[1,6,1,2,0,1,1,6,1,6,6,6,1,0,1,1,0,0,2,0,2,2,0,6,3,6,3,4,6,1,1,6,1,1,6,6,5,0,3,1,1,4,4,6,3,2,1,2,0,0,2,2,2,5,6,0,1,2,2,6,4,6,4,0,0,0,0,0,0,0,0,0,0,0,0,0,0,0,0,0,0,0,0,0,0,0,0,0,0,0,0,0,0,0,0,0,0,0,0,0,0,0,0,0,0,0,0,0,0,0,0,0,0,0,0,0,0,0,0,0,0,0,0,0,0,0,0],"split_type":[0,0,0,0,0,0,0,0,0,0,0,0,0,0,0,0,0,0,0,0,0,0,0,0,0,0,0,0,0,0,0,0,0,0,0,0,0,0,0,0,0,0,0,0,0,0,0,0,0,0,0,0,0,0,0,0,0,0,0,0,0,0,0,0,0,0,0,0,0,0,0,0,0,0,0,0,0,0,0,0,0,0,0,0,0,0,0,0,0,0,0,0,0,0,0,0,0,0,0,0,0,0,0,0,0,0,0,0,0,0,0,0,0,0,0,0,0,0,0,0,0,0,0,0,0,0,0],"sum_hessian":[8.9776E4,4.6101E4,4.3675E4,1.2275E4,3.3826E4,2.2334E4,2.1341E4,5.588E3,6.687E3,2.2728E4,1.1098E4,7.691E3,1.4643E4,1.0142E4,1.1199E4,2.279E3,3.309E3,3.322E3,3.365E3,6.273E3,1.6455E4,6.369E3,4.729E3,6.684E3,1.007E3,6.257E3,8.386E3,8.486E3,1.656E3,8.39E3,2.809E3,1.246E3,1.033E3,1.247E3,2.062E3,1.122E3,2.2E3,1.637E3,1.728E3,1.987E3,4.286E3,1.2695E4,3.76E3,5.483E3,8.86E2,2.031E3,2.698E3,2.458E3,4.226E3,5.87E2,4.2E2,5.07E2,5.75E3,6.551E3,1.835E3,4.083E3,4.403E3,1.197E3,4.59E2,3.498E3,4.892E3,1.4E3,1.409E3,1.57E2,1.089E3,3.98E2,6.35E2,7.93E2,4.54E2,7.28E2,1.334E3,5.76E2,5.46E2,1.698E3,5.02E2,7.49E2,8.88E2,2.67E2,1.461E3,1.56E3,4.27E2,1.499E3,2.787E3,1.018E3,1.1677E4,3.077E3,6.83E2,1.435E3,4.048E3,7.45E2,1.41E2,1.543E3,4.88E2,1.685E3,1.013E3,1.237E3,1.221E3,3.3E3,9.26E2,4.97E2,9E1,2.38E2,1.82E2,1.24E2,3.83E2,5.408E3,3.42E2,1.961E3,4.59E3,1.452E3,3.83E2,3.878E3,2.05E2,2.014E3,2.389E3,7.14E2,4.83E2,7.6E1,3.83E2,3.27E3,2.28E2,2.066E3,2.826E3,1.299E3,1.01E2,2.52E2,1.157E3],"tree_param":{"num_deleted":"0","num_feature":"7","num_nodes":"127","size_leaf_vector":"1"}},{"base_weights":[-4.3856157E-6,-1.2817927E-1,1.4374484E-1,-3.6068353E-1,-3.8267434E-2,9.8218404E-2,2.262754E-1,-5.228127E-1,-1.4239752E-1,-9.6283846E-2,8.819833E-2,6.482125E-2,1.2684661E-1,1.955665E-1,2.5552353E-1,-7.882067E-1,-3.3594334E-1,-2.3885635E-1,-5.9639897E-2,-1.767026E-1,-6.3638374E-2,-5.381174E-2,1.297658E-1,4.9817864E-2,1.0047715E-1,1.0635651E-1,1.493635E-1,1.7636903E-1,2.1287169E-1,2.4118645E-1,2.9348022E-1,-9.098264E-1,-4.0127474E-1,-4.9390513E-1,-2.0016295E-1,-3.454961E-1,-1.2136876E-1,-1.06302865E-1,-1.8185848E-2,-2.693737E-1,-1.4426945E-1,-3.964503E-2,-1.5040831E-1,-8.124764E-2,1.7051922E-1,9.1061115E-2,2.058466E-1,3.1234886E-2,7.46768E-2,8.62242E-2,2.2189884E-1,1.01579085E-1,1.5947223E-1,1.4347799E-1,1.7685457E-1,1.7264222E-1,2.3312683E-1,2.0805848E-1,2.6419452E-1,2.2531421E-1,2.513335E-1,3.3189622E-1,2.880825E-1,-5.5885166E-2,-2.977634E-2,-3.47928E-2,-7.5598382E-3,-6.823472E-2,-2.0234972E-2,-2.0398384E-2,-5.4244488E-3,-2.1399317E-2,-1.1738875E-2,-9.20835E-3,-4.547444E-3,-7.972553E-3,-1.3429169E-3,2.6760797E-3,-1.8146866E-3,-1.690569E-2,-6.367624E-3,-1.253064E-2,-6.05834E-3,-2.421192E-3,3.6808338E-3,-8.659677E-3,-2.661002E-3,-6.5260986E-3,1.7076674E-3,3.945622E-3,1.1535776E-2,-5.5839255E-4,6.9731968E-3,1.1726874E-2,8.900776E-3,-1.8728092E-4,2.3154663E-3,3.328931E-3,5.3576473E-3,9.949995E-3,4.1267998E-3,9.010399E-3,1.2657667E-2,2.9182173E-3,5.3845635E-3,7.207139E-3,1.1986843E-2,5.9497827E-3,7.4420185E-3,7.24395E-3,1.1481298E-2,7.7787535E-3,9.070608E-3,1.36114685E-2,1.0617773E-2,1.0095502E-2,1.1090333E-2,1.2377738E-2,1.4948851E-2,1.2726474E-2,1.11318715E-2,1.2111436E-2,1.3029634E-2,1.29374E-2,1.6992455E-2,1.4064853E-2,1.618653E-2],"categories":[],"categories_nodes":[],"categories_segments":[],"categories_sizes":[],"default_left":[0,0,0,0,0,0,0,0,0,0,0,0,0,0,0,0,0,0,0,0,0,0,0,0,0,0,0,0,0,0,0,0,0,0,0,0,0,0,0,0,0,0,0,0,0,0,0,0,0,0,0,0,0,0,0,0,0,0,0,0,0,0,0,0,0,0,0,0,0,0,0,0,0,0,0,0,0,0,0,0,0,0,0,0,0,0,0,0,0,0,0,0,0,0,0,0,0,0,0,0,0,0,0,0,0,0,0,0,0,0,0,0,0,0,0,0,0,0,0,0,0,0,0,0,0,0,0],"id":8,"left_children":[1,3,5,7,9,11,13,15,17,19,21,23,25,27,29,31,33,35,37,39,41,43,45,47,49,51,53,55,57,59,61,63,65,67,69,71,73,75,77,79,81,83,85,87,89,91,93,95,97,99,101,103,105,107,109,111,113,115,117,119,121,123,125,-1,-1,-1,-1,-1,-1,-1,-1,-1,-1,-1,-1,-1,-1,-1,-1,-1,-1,-1,-1,-1,-1,-1,-1,-1,-1,-1,-1,-1,-1,-1,-1,-1,-1,-1,-1,-1,-1,-1,-1,-1,-1,-1,-1,-1,-1,-1,-1,-1,-1,-1,-1,-1,-1,-1,-1,-1,-1,-1,-1,-1,-1,-1,-1],"loss_changes":[1.6541631E3,9.921321E2,1.5898016E2,4.683192E2,2.5112775E2,2.6069458E1,1.3462219E1,3.7635205E2,4.502417E1,6.1586395E1,6.3546875E1,6.730667E0,6.759369E0,2.4019165E0,4.1205444E0,1.4725745E2,9.5516815E1,3.2595703E1,5.8746777E0,2.0321167E1,3.4740967E1,1.501907E1,2.4501617E1,4.0924187E0,6.4326134E0,1.9356995E0,1.106247E0,6.9734955E-1,8.978119E-1,8.44635E-1,3.413086E-1,1.5522522E2,5.5293343E1,1.594672E2,4.565738E1,1.2366318E1,2.3539505E0,6.0294304E0,2.092479E0,1.7090218E1,1.2302834E1,1.3005066E1,7.9960403E0,1.23608E1,1.4486213E0,2.7320408E1,2.1996307E0,2.6757522E0,9.8988914E-1,1.3719845E0,4.6386337E-1,1.8585205E0,7.442951E-1,7.3926544E-1,2.0405426E0,4.6211243E-1,1.1437988E-1,2.5369263E-1,1.1524582E-1,1.1475372E-1,2.2393799E-1,5.9244156E-2,3.5762024E-1,0E0,0E0,0E0,0E0,0E0,0E0,0E0,0E0,0E0,0E0,0E0,0E0,0E0,0E0,0E0,0E0,0E0,0E0,0E0,0E0,0E0,0E0,0E0,0E0,0E0,0E0,0E0,0E0,0E0,0E0,0E0,0E0,0E0,0E0,0E0,0E0,0E0,0E0,0E0,0E0,0E0,0E0,0E0,0E0,0E0,0E0,0E0,0E0,0E0,0E0,0E0,0E0,0E0,0E0,0E0,0E0,0E0,0E0,0E0,0E0,0E0,0E0,0E0,0E0],"parents":[2147483647,0,0,1,1,2,2,3,3,4,4,5,5,6,6,7,7,8,8,9,9,10,10,11,11,12,12,13,13,14,14,15,15,16,16,17,17,18,18,19,19,20,20,21,21,22,22,23,23,24,24,25,25,26,26,27,27,28,28,29,29,30,30,31,31,32,32,33,33,34,34,35,35,36,36,37,37,38,38,39,39,40,40,41,41,42,42,43,43,44,44,45,45,46,46,47,47,48,48,49,49,50,50,51,51,52,52,53,53,54,54,55,55,56,56,57,57,58,58,59,59,60,60,61,61,62,62],"right_children":[2,4,6,8,10,12,14,16,18,20,22,24,26,28,30,32,34,36,38,40,42,44,46,48,50,52,54,56,58,60,62,64,66,68,70,72,74,76,78,80,82,84,86,88,90,92,94,96,98,100,102,104,106,108,110,112,114,116,118,120,122,124,126,-1,-1,-1,-1,-1,-1,-1,-1,-1,-1,-1,-1,-1,-1,-1,-1,-1,-1,-1,-1,-1,-1,-1,-1,-1,-1,-1,-1,-1,-1,-1,-1,-1,-1,-1,-1,-1,-1,-1,-1,-1,-1,-1,-1,-1,-1,-1,-1,-1,-1,-1,-1,-1,-1,-1,-1,-1,-1,-1,-1,-1,-1,-1,-1],"split_conditions":[7.7912E2,6.9886766E4,1.21274E3,4.1357E2,6.81069E-1,1.00144E3,1.41204E3,7.305475E-1,1.06E0,7.488245E4,7.359916E4,7.7776625E4,1.09263E3,1.26736E3,1.59004E3,1.31E0,7.9E-1,6.1632E2,7.930687E-1,5.49E0,-2.5E-1,1.1E0,7.8814984E4,9.4627E2,1.1686591E0,1.1E0,3.926054E1,7.83548E4,7.958701E4,1.78E0,1.02E0,6.435058E4,5.119941E4,5.864293E4,5.0325484E4,6.5460156E4,6.4713188E4,1.79E0,2.8691338E1,5.4017E2,1E0,5.5455047E-1,3.66E0,3.7041495E0,1.19E0,2.71E0,2.4936E2,9E-2,8.6E-1,-8.5E-1,6.15E0,6.9037266E4,6.5460156E4,1.99E0,7.418195E4,1.7919752E1,-4E-1,7.5542195E4,4.374448E0,-4.9E-1,1.49584E3,7.482217E4,7.964972E4,-5.5885166E-2,-2.977634E-2,-3.47928E-2,-7.5598382E-3,-6.823472E-2,-2.0234972E-2,-2.0398384E-2,-5.4244488E-3,-2.1399317E-2,-1.1738875E-2,-9.20835E-3,-4.547444E-3,-7.972553E-3,-1.3429169E-3,2.6760797E-3,-1.8146866E-3,-1.690569E-2,-6.367624E-3,-1.253064E-2,-6.05834E-3,-2.421192E-3,3.6808338E-3,-8.659677E-3,-2.661002E-3,-6.5260986E-3,1.7076674E-3,3.945622E-3,1.1535776E-2,-5.5839255E-4,6.9731968E-3,1.1726874E-2,8.900776E-3,-1.8728092E-4,2.3154663E-3,3.328931E-3,5.3576473E-3,9.949995E-3,4.1267998E-3,9.010399E-3,1.2657667E-2,2.9182173E-3,5.3845635E-3,7.207139E-3,1.1986843E-2,5.9497827E-3,7.4420185E-3,7.24395E-3,1.1481298E-2,7.7787535E-3,9.070608E-3,1.36114685E-2,1.0617773E-2,1.0095502E-2,1.1090333E-2,1.2377738E-2,1.4948851E-2,1.2726474E-2,1.11318715E-2,1.2111436E-2,1.3029634E-2,1.29374E-2,1.6992455E-2,1.4064853E-2,1.618653E-2],"split_indices":[1,6,1,1,0,1,1,0,2,6,6,6,1,1,1,2,2,1,0,5,2,2,6,1,0,2,3,6,6,4,4,6,6,6,6,6,6,2,3,1,4,0,4,0,2,4,1,2,2,2,5,6,6,4,6,3,2,6,0,2,1,6,6,0,0,0,0,0,0,0,0,0,0,0,0,0,0,0,0,0,0,0,0,0,0,0,0,0,0,0,0,0,0,0,0,0,0,0,0,0,0,0,0,0,0,0,0,0,0,0,0,0,0,0,0,0,0,0,0,0,0,0,0,0,0,0,0],"split_type":[0,0,0,0,0,0,0,0,0,0,0,0,0,0,0,0,0,0,0,0,0,0,0,0,0,0,0,0,0,0,0,0,0,0,0,0,0,0,0,0,0,0,0,0,0,0,0,0,0,0,0,0,0,0,0,0,0,0,0,0,0,0,0,0,0,0,0,0,0,0,0,0,0,0,0,0,0,0,0,0,0,0,0,0,0,0,0,0,0,0,0,0,0,0,0,0,0,0,0,0,0,0,0,0,0,0,0,0,0,0,0,0,0,0,0,0,0,0,0,0,0,0,0,0,0,0,0],"sum_hessian":[8.9776E4,4.7459E4,4.2317E4,1.3234E4,3.4225E4,2.7274E4,1.5043E4,7.593E3,5.641E3,2.3462E4,1.0763E4,1.259E4,1.4684E4,7.342E3,7.701E3,3.136E3,4.457E3,2.604E3,3.037E3,6.773E3,1.6689E4,2.437E3,8.326E3,8.863E3,3.727E3,7.691E3,6.993E3,3.486E3,3.856E3,5.595E3,2.106E3,2.385E3,7.51E2,2.059E3,2.398E3,1.364E3,1.24E3,1.428E3,1.609E3,1.754E3,5.019E3,1.3075E4,3.614E3,2.172E3,2.65E2,5.52E3,2.806E3,5.073E3,3.79E3,3.337E3,3.9E2,7.059E3,6.32E2,5.765E3,1.228E3,3.275E3,2.11E2,3.53E3,3.26E2,2.191E3,3.404E3,2.52E2,1.854E3,1.434E3,9.51E2,3.44E2,4.07E2,1.9E2,1.869E3,7.33E2,1.665E3,7.8E2,5.84E2,4.03E2,8.37E2,8.55E2,5.73E2,3.24E2,1.285E3,1.181E3,5.73E2,8.94E2,4.125E3,1.2135E4,9.4E2,2.927E3,6.87E2,1.522E3,6.5E2,1.06E2,1.59E2,1.774E3,3.746E3,1.378E3,1.428E3,1.528E3,3.545E3,3.036E3,7.54E2,1.04E2,3.233E3,1.7E2,2.2E2,8.76E2,6.183E3,5.33E2,9.9E1,1.04E3,4.725E3,7.67E2,4.61E2,1.118E3,2.157E3,6.9E1,1.42E2,2.45E3,1.08E3,2.26E2,1E2,1.76E2,2.015E3,1.73E3,1.674E3,2.8E1,2.24E2,1.565E3,2.89E2],"tree_param":{"num_deleted":"0","num_feature":"7","num_nodes":"127","size_leaf_vector":"1"}},{"base_weights":[-4.2451825E-6,-1.2667193E-1,1.313773E-1,-3.6277685E-1,-4.0843826E-2,7.1743235E-2,1.9290796E-1,-5.626749E-1,-1.9600518E-1,-9.4923176E-2,7.68486E-2,3.5803754E-2,9.206211E-2,1.5387918E-1,2.318327E-1,-8.282212E-1,-3.598733E-1,-3.2591587E-1,-6.60355E-2,-1.9312444E-1,-6.7168206E-2,-5.953264E-2,1.2097689E-1,2.1587038E-2,1.4956093E-1,8.689572E-2,1.177906E-1,1.4351666E-1,1.7262954E-1,2.1794435E-1,2.715272E-1,-1.3228068E0,-6.140755E-1,-6.0723096E-1,-2.6208696E-1,-5.7302606E-1,-1.9968659E-1,-1.3771392E-1,-2.8038317E-2,-2.7166095E-1,-1.5182216E-1,-4.3077145E-2,-1.4769107E-1,-8.603383E-2,1.6668056E-1,7.333975E-2,1.7641513E-1,-1.5715502E-2,4.2149488E-2,9.567207E-2,2.1950932E-1,1.0204806E-1,7.945466E-2,9.56462E-2,2.1453175E-1,1.3773225E-1,1.7043313E-1,1.6970475E-1,2.4951513E-1,2.0508806E-1,2.2619216E-1,2.565116E-1,2.8625438E-1,-1.1998793E-1,-6.28994E-2,-3.981841E-2,-1.7060684E-2,-3.4428038E-2,-1.8946672E-2,-1.7949888E-2,-8.142861E-3,-3.722445E-2,-1.4483585E-2,-1.3466244E-2,3.2595915E-3,-1.0574642E-2,-3.40873E-3,-4.6070158E-3,1.894669E-4,-1.8043652E-2,-1.0455651E-2,-6.305629E-3,-1.2426606E-2,-2.5368992E-3,3.6282514E-3,-8.365004E-3,-2.8449167E-3,-6.55763E-3,1.4731875E-3,3.3519808E-3,1.1182114E-2,1.6185142E-3,1.1515341E-2,1.09081585E-2,7.1922964E-3,-3.150532E-3,1.6395667E-3,7.096469E-4,5.062351E-3,3.634107E-3,1.0094768E-2,1.1873982E-2,6.698334E-3,2.9485226E-3,5.4215915E-3,3.8868652E-3,6.853697E-3,3.3016053E-3,7.2585093E-3,8.458487E-3,1.3213621E-2,5.7226825E-3,7.122048E-3,7.032911E-3,1.0828364E-2,9.230843E-3,8.063267E-3,5.9298812E-3,1.2675754E-2,1.0088375E-2,1.3514365E-2,1.06377695E-2,1.1796832E-2,1.2673723E-2,1.4635284E-2,1.3131668E-2,1.4854451E-2],"categories":[],"categories_nodes":[],"categories_segments":[],"categories_sizes":[],"default_left":[0,0,0,0,0,0,0,0,0,0,0,0,0,0,0,0,0,0,0,0,0,0,0,0,0,0,0,0,0,0,0,0,0,0,0,0,0,0,0,0,0,0,0,0,0,0,0,0,0,0,0,0,0,0,0,0,0,0,0,0,0,0,0,0,0,0,0,0,0,0,0,0,0,0,0,0,0,0,0,0,0,0,0,0,0,0,0,0,0,0,0,0,0,0,0,0,0,0,0,0,0,0,0,0,0,0,0,0,0,0,0,0,0,0,0,0,0,0,0,0,0,0,0,0,0,0,0],"id":9,"left_children":[1,3,5,7,9,11,13,15,17,19,21,23,25,27,29,31,33,35,37,39,41,43,45,47,49,51,53,55,57,59,61,63,65,67,69,71,73,75,77,79,81,83,85,87,89,91,93,95,97,99,101,103,105,107,109,111,113,115,117,119,121,123,125,-1,-1,-1,-1,-1,-1,-1,-1,-1,-1,-1,-1,-1,-1,-1,-1,-1,-1,-1,-1,-1,-1,-1,-1,-1,-1,-1,-1,-1,-1,-1,-1,-1,-1,-1,-1,-1,-1,-1,-1,-1,-1,-1,-1,-1,-1,-1,-1,-1,-1,-1,-1,-1,-1,-1,-1,-1,-1,-1,-1,-1,-1,-1,-1],"loss_changes":[1.4940671E3,9.262524E2,1.6168951E2,4.061383E2,2.1337848E2,1.6340439E1,3.291394E1,2.981565E2,1.1217563E2,6.2593445E1,6.3530056E1,1.3072264E1,1.8901672E0,2.0801086E0,5.9261475E0,2.5327405E2,7.588861E1,1.0353842E2,9.046588E0,1.637532E1,3.4736916E1,1.5487223E1,2.1048393E1,5.5140867E0,3.3639545E0,1.334732E0,5.095234E0,1.0637512E0,8.236313E-1,8.0700684E-1,5.479584E-1,4.752112E1,8.309375E1,1.6264008E1,2.1626602E1,5.4345E1,4.0616486E1,5.890829E0,4.4337397E0,9.650528E0,8.220924E0,1.2217802E1,7.332672E0,1.2046736E1,1.5231276E0,2.7587349E1,4.9791107E0,5.8635883E0,7.654686E0,1.2283382E0,5.6770515E-1,1.0713234E0,7.8017807E-1,2.842966E0,9.5710564E-1,6.1429596E-1,1.6604881E0,4.3751526E-1,4.2722702E-2,6.287384E-1,5.904541E-1,7.9811096E-2,2.828369E-1,0E0,0E0,0E0,0E0,0E0,0E0,0E0,0E0,0E0,0E0,0E0,0E0,0E0,0E0,0E0,0E0,0E0,0E0,0E0,0E0,0E0,0E0,0E0,0E0,0E0,0E0,0E0,0E0,0E0,0E0,0E0,0E0,0E0,0E0,0E0,0E0,0E0,0E0,0E0,0E0,0E0,0E0,0E0,0E0,0E0,0E0,0E0,0E0,0E0,0E0,0E0,0E0,0E0,0E0,0E0,0E0,0E0,0E0,0E0,0E0,0E0,0E0,0E0,0E0],"parents":[2147483647,0,0,1,1,2,2,3,3,4,4,5,5,6,6,7,7,8,8,9,9,10,10,11,11,12,12,13,13,14,14,15,15,16,16,17,17,18,18,19,19,20,20,21,21,22,22,23,23,24,24,25,25,26,26,27,27,28,28,29,29,30,30,31,31,32,32,33,33,34,34,35,35,36,36,37,37,38,38,39,39,40,40,41,41,42,42,43,43,44,44,45,45,46,46,47,47,48,48,49,49,50,50,51,51,52,52,53,53,54,54,55,55,56,56,57,57,58,58,59,59,60,60,61,61,62,62],"right_children":[2,4,6,8,10,12,14,16,18,20,22,24,26,28,30,32,34,36,38,40,42,44,46,48,50,52,54,56,58,60,62,64,66,68,70,72,74,76,78,80,82,84,86,88,90,92,94,96,98,100,102,104,106,108,110,112,114,116,118,120,122,124,126,-1,-1,-1,-1,-1,-1,-1,-1,-1,-1,-1,-1,-1,-1,-1,-1,-1,-1,-1,-1,-1,-1,-1,-1,-1,-1,-1,-1,-1,-1,-1,-1,-1,-1,-1,-1,-1,-1,-1,-1,-1,-1,-1,-1,-1,-1,-1,-1,-1,-1,-1,-1,-1,-1,-1,-1,-1,-1,-1,-1,-1,-1,-1,-1],"split_conditions":[7.4398E2,6.955081E4,1.09963E3,7E-1,6.81069E-1,9.4627E2,1.297E3,6.307727E4,3.6919E2,7.394124E4,7.35151E4,7.8814984E4,3.552372E1,1.2182E3,1.53427E3,1.9534E2,4.203893E-1,7.619873E-1,2.99E0,3.771328E-1,-3.4E-1,1.11E0,7.820346E4,7.043895E4,2.94736E1,6.83E0,7.638636E4,3.926054E1,7.9527414E4,1.41204E3,1.63612E3,1E0,4.5671E2,3.573E2,2.3266773E0,5.6171637E4,9.5E0,7.930687E-1,1.48E0,2.4119E2,-1.06E0,5.781589E-1,3.77E0,3.7041495E0,1.19E0,9.9E-1,2.4936E2,4.9E-1,6.6568685E-1,1.0644844E0,3.5E-1,6.518798E4,9.6E-1,8.7E-1,2.3266773E0,1.99E0,7.4256516E4,6.87E0,6.034036E-1,8.12546E4,1.92E0,8.10861E4,6.5013355E-1,-1.1998793E-1,-6.28994E-2,-3.981841E-2,-1.7060684E-2,-3.4428038E-2,-1.8946672E-2,-1.7949888E-2,-8.142861E-3,-3.722445E-2,-1.4483585E-2,-1.3466244E-2,3.2595915E-3,-1.0574642E-2,-3.40873E-3,-4.6070158E-3,1.894669E-4,-1.8043652E-2,-1.0455651E-2,-6.305629E-3,-1.2426606E-2,-2.5368992E-3,3.6282514E-3,-8.365004E-3,-2.8449167E-3,-6.55763E-3,1.4731875E-3,3.3519808E-3,1.1182114E-2,1.6185142E-3,1.1515341E-2,1.09081585E-2,7.1922964E-3,-3.150532E-3,1.6395667E-3,7.096469E-4,5.062351E-3,3.634107E-3,1.0094768E-2,1.1873982E-2,6.698334E-3,2.9485226E-3,5.4215915E-3,3.8868652E-3,6.853697E-3,3.3016053E-3,7.2585093E-3,8.458487E-3,1.3213621E-2,5.7226825E-3,7.122048E-3,7.032911E-3,1.0828364E-2,9.230843E-3,8.063267E-3,5.9298812E-3,1.2675754E-2,1.0088375E-2,1.3514365E-2,1.06377695E-2,1.1796832E-2,1.2673723E-2,1.4635284E-2,1.3131668E-2,1.4854451E-2],"split_indices":[1,6,1,2,0,1,1,6,1,6,6,6,3,1,1,1,0,0,4,0,2,2,6,6,3,5,6,3,6,1,1,4,1,1,0,6,5,0,2,1,2,0,4,0,2,2,1,2,0,0,2,6,2,2,0,4,6,5,0,6,4,6,0,0,0,0,0,0,0,0,0,0,0,0,0,0,0,0,0,0,0,0,0,0,0,0,0,0,0,0,0,0,0,0,0,0,0,0,0,0,0,0,0,0,0,0,0,0,0,0,0,0,0,0,0,0,0,0,0,0,0,0,0,0,0,0,0],"split_type":[0,0,0,0,0,0,0,0,0,0,0,0,0,0,0,0,0,0,0,0,0,0,0,0,0,0,0,0,0,0,0,0,0,0,0,0,0,0,0,0,0,0,0,0,0,0,0,0,0,0,0,0,0,0,0,0,0,0,0,0,0,0,0,0,0,0,0,0,0,0,0,0,0,0,0,0,0,0,0,0,0,0,0,0,0,0,0,0,0,0,0,0,0,0,0,0,0,0,0,0,0,0,0,0,0,0,0,0,0,0,0,0,0,0,0,0,0,0,0,0,0,0,0,0,0,0,0],"sum_hessian":[8.9776E4,4.5708E4,4.4068E4,1.2185E4,3.3523E4,2.238E4,2.1688E4,5.541E3,6.644E3,2.2969E4,1.0554E4,8.084E3,1.4296E4,1.0832E4,1.0856E4,2.398E3,3.143E3,3.322E3,3.322E3,5.06E3,1.7909E4,2.58E3,7.974E3,7.187E3,8.97E2,1.1909E4,2.387E3,6.982E3,3.85E3,8.047E3,2.809E3,7.23E2,1.675E3,8.89E2,2.254E3,1.122E3,2.2E3,1.15E3,2.172E3,1.742E3,3.318E3,1.3786E4,4.123E3,2.31E3,2.7E2,4.29E3,3.684E3,2.554E3,4.633E3,5.08E2,3.89E2,3.918E3,7.991E3,1.944E3,4.43E2,5.752E3,1.23E3,3.712E3,1.38E2,3.155E3,4.892E3,1.4E3,1.409E3,3.9E1,6.84E2,1.003E3,6.72E2,6.54E2,2.35E2,1.139E3,1.115E3,6.98E2,4.24E2,1.742E3,4.58E2,5.57E2,5.93E2,7.2E2,1.452E3,7.16E2,1.026E3,2.623E3,6.95E2,1.293E4,8.56E2,3.39E3,7.33E2,1.661E3,6.49E2,9.9E1,1.71E2,3.403E3,8.87E2,1.612E3,2.072E3,1.293E3,1.261E3,3.146E3,1.487E3,4.19E2,8.9E1,3.2E2,6.9E1,5.07E2,3.411E3,7.762E3,2.29E2,1.218E3,7.26E2,2.34E2,2.09E2,9.72E2,4.78E3,7.5E2,4.8E2,1.334E3,2.378E3,5E0,1.33E2,3.006E3,1.49E2,2.066E3,2.826E3,1.299E3,1.01E2,4.51E2,9.58E2],"tree_param":{"num_deleted":"0","num_feature":"7","num_nodes":"127","size_leaf_vector":"1"}},{"base_weights":[-5.812067E-6,-1.1485656E-1,1.3082646E-1,-3.8077572E-1,-5.0429363E-2,8.980426E-2,2.0423996E-1,-6.3292325E-1,-1.4094494E-1,-1.0494462E-1,4.192498E-2,7.137571E-2,1.3044652E-1,1.7652811E-1,2.3063362E-1,-8.21463E-1,-2.850435E-1,-2.9016757E-1,-4.4784375E-2,-3.4512407E-1,-8.529357E-2,-8.900665E-2,1.0161582E-1,4.6153087E-2,8.546976E-2,1.2319534E-1,1.4959823E-1,1.5911157E-1,1.9222811E-1,2.1763971E-1,2.6503477E-1,-9.8160326E-1,-5.608604E-1,-4.182552E-1,-1.8702684E-1,-4.880406E-1,-7.0600525E-2,-9.8104335E-2,4.052175E-4,-4.7896942E-1,-1.5391518E-1,-1.24609746E-1,-4.0209267E-2,-1.3709201E-1,5.2829874E-3,4.897885E-2,1.6196892E-1,3.536183E-2,9.8667264E-2,8.129178E-2,1.0775946E-1,1.0379905E-1,1.2939464E-1,1.3335101E-1,1.9495058E-1,1.5553181E-1,2.0936213E-1,1.8373935E-1,2.1740781E-1,2.0327185E-1,2.2682524E-1,3.007776E-1,2.60017E-1,-6.409422E-2,-3.8319822E-2,-9.327117E-2,-2.6107663E-2,-2.2585018E-2,-1.3347398E-2,-1.249312E-2,-5.8134096E-3,-5.666805E-2,-1.5319093E-2,-1.7808378E-2,-7.00352E-4,-7.804112E-3,-1.9771487E-3,8.815677E-3,-1.0502277E-3,-3.280848E-2,-1.9315986E-2,-1.230487E-2,-5.334444E-3,-1.09478E-2,-5.2891457E-3,-1.1841737E-3,-5.833867E-3,-8.304238E-3,4.6583596E-3,-1.7624302E-3,6.6837147E-3,7.1490946E-4,1.06829135E-2,6.5025277E-3,1.0324466E-2,1.3528697E-3,3.847707E-3,3.2569189E-3,8.828914E-3,4.6195383E-3,3.684705E-3,4.4447836E-3,1.10445935E-2,6.247762E-3,4.665931E-3,6.2737153E-3,7.506547E-3,5.1967367E-3,7.5725666E-3,7.997921E-3,1.18041355E-2,6.9908327E-3,8.182524E-3,1.2387045E-2,9.563146E-3,8.984607E-3,1.0790377E-2,1.0465941E-2,1.3535594E-2,1.1536784E-2,1.00379875E-2,1.0822166E-2,1.1700517E-2,1.1635511E-2,1.5410698E-2,1.2686302E-2,1.4654583E-2],"categories":[],"categories_nodes":[],"categories_segments":[],"categories_sizes":[],"default_left":[0,0,0,0,0,0,0,0,0,0,0,0,0,0,0,0,0,0,0,0,0,0,0,0,0,0,0,0,0,0,0,0,0,0,0,0,0,0,0,0,0,0,0,0,0,0,0,0,0,0,0,0,0,0,0,0,0,0,0,0,0,0,0,0,0,0,0,0,0,0,0,0,0,0,0,0,0,0,0,0,0,0,0,0,0,0,0,0,0,0,0,0,0,0,0,0,0,0,0,0,0,0,0,0,0,0,0,0,0,0,0,0,0,0,0,0,0,0,0,0,0,0,0,0,0,0,0],"id":10,"left_children":[1,3,5,7,9,11,13,15,17,19,21,23,25,27,29,31,33,35,37,39,41,43,45,47,49,51,53,55,57,59,61,63,65,67,69,71,73,75,77,79,81,83,85,87,89,91,93,95,97,99,101,103,105,107,109,111,113,115,117,119,121,123,125,-1,-1,-1,-1,-1,-1,-1,-1,-1,-1,-1,-1,-1,-1,-1,-1,-1,-1,-1,-1,-1,-1,-1,-1,-1,-1,-1,-1,-1,-1,-1,-1,-1,-1,-1,-1,-1,-1,-1,-1,-1,-1,-1,-1,-1,-1,-1,-1,-1,-1,-1,-1,-1,-1,-1,-1,-1,-1,-1,-1,-1,-1,-1,-1],"loss_changes":[1.3490208E3,8.1906494E2,1.2637482E2,5.6375867E2,1.9377066E2,2.0157654E1,1.09627075E1,2.9786853E2,6.8576805E1,1.1419394E2,1.116601E2,6.58255E0,1.1479645E0,1.9772949E0,3.3851624E0,1.22436646E2,2.0799866E1,8.134065E1,7.0068874E0,4.676039E1,3.9650314E1,2.0285618E1,3.1166039E1,3.7616234E0,1.0980453E0,7.198105E-1,1.6702309E0,5.9469604E-1,7.8445435E-1,6.9244385E-1,2.9968262E-1,1.16888916E2,5.5783325E1,3.3053818E0,4.0747566E0,1.1512244E2,1.4362349E1,4.5231133E0,5.9354E0,1.7411789E1,3.26058E0,2.1202942E1,1.3168734E1,1.9796024E1,7.873014E0,2.994072E1,6.4686203E0,1.902113E0,2.9455872E0,8.375473E-1,3.9775429E0,3.169365E-1,3.5649872E-1,8.883476E-1,8.3301353E-1,3.9292145E-1,1.116848E-1,3.3644104E-1,3.602829E-1,1.04911804E-1,2.0333862E-1,5.633545E-2,3.1159973E-1,0E0,0E0,0E0,0E0,0E0,0E0,0E0,0E0,0E0,0E0,0E0,0E0,0E0,0E0,0E0,0E0,0E0,0E0,0E0,0E0,0E0,0E0,0E0,0E0,0E0,0E0,0E0,0E0,0E0,0E0,0E0,0E0,0E0,0E0,0E0,0E0,0E0,0E0,0E0,0E0,0E0,0E0,0E0,0E0,0E0,0E0,0E0,0E0,0E0,0E0,0E0,0E0,0E0,0E0,0E0,0E0,0E0,0E0,0E0,0E0,0E0,0E0,0E0,0E0],"parents":[2147483647,0,0,1,1,2,2,3,3,4,4,5,5,6,6,7,7,8,8,9,9,10,10,11,11,12,12,13,13,14,14,15,15,16,16,17,17,18,18,19,19,20,20,21,21,22,22,23,23,24,24,25,25,26,26,27,27,28,28,29,29,30,30,31,31,32,32,33,33,34,34,35,35,36,36,37,37,38,38,39,39,40,40,41,41,42,42,43,43,44,44,45,45,46,46,47,47,48,48,49,49,50,50,51,51,52,52,53,53,54,54,55,55,56,56,57,57,58,58,59,59,60,60,61,61,62,62],"right_children":[2,4,6,8,10,12,14,16,18,20,22,24,26,28,30,32,34,36,38,40,42,44,46,48,50,52,54,56,58,60,62,64,66,68,70,72,74,76,78,80,82,84,86,88,90,92,94,96,98,100,102,104,106,108,110,112,114,116,118,120,122,124,126,-1,-1,-1,-1,-1,-1,-1,-1,-1,-1,-1,-1,-1,-1,-1,-1,-1,-1,-1,-1,-1,-1,-1,-1,-1,-1,-1,-1,-1,-1,-1,-1,-1,-1,-1,-1,-1,-1,-1,-1,-1,-1,-1,-1,-1,-1,-1,-1,-1,-1,-1,-1,-1,-1,-1,-1,-1,-1,-1,-1,-1,-1,-1,-1],"split_conditions":[7.9317E2,6.592637E4,1.21274E3,1.31E0,6.580162E-1,1.05999E3,1.41204E3,4.0559E2,3.4767E2,7.133951E4,7.250946E4,9.5384E2,3.63E0,1.26736E3,1.59004E3,6.212526E4,5.4727E2,5.119941E4,3.34E0,5E2,7.6710484E4,3.7041495E0,7.7776625E4,7.810428E4,3.47389E1,1.10569E3,7.5002055E4,7.829826E4,7.743985E4,1.78E0,1.02E0,2.2165E2,1E0,4.8668685E0,6.7066E2,1.66E0,4.656549E-1,8.403202E-1,3.9721E2,2.01E0,6.4479E2,5.38E0,-2.5E-1,1.22E0,7.9164596E0,9.9E-1,7.978535E4,9.7E-1,9.8425967E-1,7.39E0,7.7702555E4,6.4E0,7.937837E4,5.5E-1,1.1472548E0,1.7919752E1,-4E-1,1.31E0,4.374448E0,-4.9E-1,7.288516E4,7.482217E4,7.964972E4,-6.409422E-2,-3.8319822E-2,-9.327117E-2,-2.6107663E-2,-2.2585018E-2,-1.3347398E-2,-1.249312E-2,-5.8134096E-3,-5.666805E-2,-1.5319093E-2,-1.7808378E-2,-7.00352E-4,-7.804112E-3,-1.9771487E-3,8.815677E-3,-1.0502277E-3,-3.280848E-2,-1.9315986E-2,-1.230487E-2,-5.334444E-3,-1.09478E-2,-5.2891457E-3,-1.1841737E-3,-5.833867E-3,-8.304238E-3,4.6583596E-3,-1.7624302E-3,6.6837147E-3,7.1490946E-4,1.06829135E-2,6.5025277E-3,1.0324466E-2,1.3528697E-3,3.847707E-3,3.2569189E-3,8.828914E-3,4.6195383E-3,3.684705E-3,4.4447836E-3,1.10445935E-2,6.247762E-3,4.665931E-3,6.2737153E-3,7.506547E-3,5.1967367E-3,7.5725666E-3,7.997921E-3,1.18041355E-2,6.9908327E-3,8.182524E-3,1.2387045E-2,9.563146E-3,8.984607E-3,1.0790377E-2,1.0465941E-2,1.3535594E-2,1.1536784E-2,1.00379875E-2,1.0822166E-2,1.1700517E-2,1.1635511E-2,1.5410698E-2,1.2686302E-2,1.4654583E-2],"split_indices":[1,6,1,2,0,1,1,1,1,6,6,1,4,1,1,6,1,6,4,1,6,0,6,6,3,1,6,6,6,4,4,1,4,0,1,2,0,0,1,4,1,5,2,2,0,2,6,2,0,5,6,5,6,2,0,3,2,2,0,2,6,6,6,0,0,0,0,0,0,0,0,0,0,0,0,0,0,0,0,0,0,0,0,0,0,0,0,0,0,0,0,0,0,0,0,0,0,0,0,0,0,0,0,0,0,0,0,0,0,0,0,0,0,0,0,0,0,0,0,0,0,0,0,0,0,0,0],"split_type":[0,0,0,0,0,0,0,0,0,0,0,0,0,0,0,0,0,0,0,0,0,0,0,0,0,0,0,0,0,0,0,0,0,0,0,0,0,0,0,0,0,0,0,0,0,0,0,0,0,0,0,0,0,0,0,0,0,0,0,0,0,0,0,0,0,0,0,0,0,0,0,0,0,0,0,0,0,0,0,0,0,0,0,0,0,0,0,0,0,0,0,0,0,0,0,0,0,0,0,0,0,0,0,0,0,0,0,0,0,0,0,0,0,0,0,0,0,0,0,0,0,0,0,0,0,0,0],"sum_hessian":[8.9776E4,4.7808E4,4.1968E4,9.323E3,3.8485E4,2.6925E4,1.5043E4,4.544E3,4.779E3,2.42E4,1.4285E4,1.8527E4,8.398E3,7.342E3,7.701E3,2.946E3,1.598E3,1.872E3,2.907E3,1.829E3,2.2371E4,4.473E3,9.812E3,6.643E3,1.1884E4,6.097E3,2.301E3,3.486E3,3.856E3,5.595E3,2.106E3,1.823E3,1.123E3,6.76E2,9.22E2,9.84E2,8.88E2,1.333E3,1.574E3,1.075E3,7.54E2,1.1949E4,1.0422E4,2.962E3,1.511E3,5.242E3,4.57E3,5.512E3,1.131E3,1.0012E4,1.872E3,1.481E3,4.616E3,1.697E3,6.04E2,3.258E3,2.28E2,2.89E3,9.66E2,2.191E3,3.404E3,2.52E2,1.854E3,7.59E2,1.064E3,3.1E1,1.092E3,5.52E2,1.24E2,4.87E2,4.35E2,2.15E2,7.69E2,1.46E2,7.42E2,6.69E2,6.64E2,1.7E2,1.404E3,3.67E2,7.08E2,2.54E2,5E2,1.986E3,9.963E3,8.571E3,1.851E3,2.631E3,3.31E2,1.149E3,3.62E2,4.331E3,9.11E2,2.664E3,1.906E3,4.596E3,9.16E2,7.92E2,3.39E2,4.064E3,5.948E3,1.606E3,2.66E2,4.87E2,9.94E2,3.888E3,7.28E2,6.49E2,1.048E3,3.29E2,2.75E2,1.116E3,2.142E3,6.9E1,1.59E2,2.572E3,3.18E2,8.43E2,1.23E2,1.76E2,2.015E3,1.405E3,1.999E3,2.8E1,2.24E2,1.565E3,2.89E2],"tree_param":{"num_deleted":"0","num_feature":"7","num_nodes":"127","size_leaf_vector":"1"}},{"base_weights":[-7.2583407E-6,-1.14454426E-1,1.18698984E-1,-3.764827E-1,-5.1132917E-2,6.9053575E-2,1.7877045E-1,-6.1874735E-1,-1.3999869E-1,-1.0236484E-1,3.665006E-2,3.49808E-2,8.841168E-2,1.4468993E-1,2.1156865E-1,-7.961391E-1,-3.174547E-1,-2.7570754E-1,-4.3334812E-2,-3.910853E-1,-8.4490694E-2,-8.9003175E-2,9.274207E-2,2.1736497E-2,1.20868735E-1,8.119822E-2,1.1286034E-1,1.385403E-1,1.7388615E-1,1.9864771E-1,2.4529015E-1,-9.184242E-1,-4.577766E-1,-4.357103E-1,-2.0068309E-1,-4.6371165E-1,-6.7091405E-2,-1.14221774E-1,-6.6610696E-3,-4.6872464E-1,-1.9282374E-1,-1.5266445E-1,-5.724281E-2,-1.5758017E-1,-2.3800839E-2,4.2315394E-2,1.5226665E-1,-1.3526241E-2,3.9051343E-2,7.8401856E-2,1.9198652E-1,7.8214146E-2,1.1015229E-1,1.1060359E-1,2.1183442E-1,1.2833408E-1,1.5551618E-1,1.5467133E-1,2.1381906E-1,1.9321747E-1,2.1282211E-1,2.3174842E-1,2.5857148E-1,-5.869617E-2,-3.528008E-2,-5.6013376E-2,-1.653732E-2,-2.412022E-2,-1.4923601E-2,-1.2517303E-2,-6.386959E-3,-5.3847767E-2,-1.4554133E-2,-1.6924014E-2,-6.653874E-4,-9.2153335E-3,-1.9514561E-3,7.7914135E-3,-1.2785167E-3,-3.7480976E-2,-2.0135386E-2,-1.2235845E-2,-5.297982E-3,-3.5203134E-3,-9.172528E-3,-1.8252217E-3,-6.4275763E-3,-9.550955E-3,2.8028178E-3,-2.7273875E-3,9.935239E-3,2.5312553E-4,9.66803E-3,9.691897E-3,6.1226483E-3,-2.9885187E-3,1.5978642E-3,6.047682E-4,4.3290257E-3,3.1278934E-3,9.144084E-3,1.0913729E-2,6.4557656E-3,1.6689511E-3,4.127482E-3,2.5332067E-3,7.264688E-3,6.2368982E-3,4.7608125E-3,1.3060733E-2,7.4169943E-3,5.186924E-3,6.706706E-3,7.6049687E-3,9.40784E-3,6.6247243E-3,9.4818035E-3,1.2312841E-2,1.0354643E-2,9.0262955E-3,9.891091E-3,9.817058E-3,1.1485102E-2,1.1458047E-2,1.3432405E-2,1.1840179E-2,1.342808E-2],"categories":[],"categories_nodes":[],"categories_segments":[],"categories_sizes":[],"default_left":[0,0,0,0,0,0,0,0,0,0,0,0,0,0,0,0,0,0,0,0,0,0,0,0,0,0,0,0,0,0,0,0,0,0,0,0,0,0,0,0,0,0,0,0,0,0,0,0,0,0,0,0,0,0,0,0,0,0,0,0,0,0,0,0,0,0,0,0,0,0,0,0,0,0,0,0,0,0,0,0,0,0,0,0,0,0,0,0,0,0,0,0,0,0,0,0,0,0,0,0,0,0,0,0,0,0,0,0,0,0,0,0,0,0,0,0,0,0,0,0,0,0,0,0,0,0,0],"id":11,"left_children":[1,3,5,7,9,11,13,15,17,19,21,23,25,27,29,31,33,35,37,39,41,43,45,47,49,51,53,55,57,59,61,63,65,67,69,71,73,75,77,79,81,83,85,87,89,91,93,95,97,99,101,103,105,107,109,111,113,115,117,119,121,123,125,-1,-1,-1,-1,-1,-1,-1,-1,-1,-1,-1,-1,-1,-1,-1,-1,-1,-1,-1,-1,-1,-1,-1,-1,-1,-1,-1,-1,-1,-1,-1,-1,-1,-1,-1,-1,-1,-1,-1,-1,-1,-1,-1,-1,-1,-1,-1,-1,-1,-1,-1,-1,-1,-1,-1,-1,-1,-1,-1,-1,-1,-1,-1,-1],"loss_changes":[1.2196875E3,7.5838544E2,1.3141345E2,5.0958057E2,1.6556699E2,1.5912682E1,2.2257874E1,2.3459277E2,5.9059044E1,1.1993613E2,9.563745E1,9.9439E0,2.7044754E0,1.7322388E0,4.3776855E0,1.13986084E2,2.2421051E1,7.3429245E1,6.8390236E0,2.0766998E1,4.0659485E1,1.872239E1,2.8151817E1,4.6268096E0,3.5124817E0,1.0182648E0,7.5899506E-1,1.3808441E0,1.2698135E0,5.246277E-1,4.454651E-1,1.0955505E2,6.1568573E1,5.040268E0,2.9458084E0,1.03962204E2,1.2971593E1,4.719879E0,5.3348656E0,1.7741272E1,1.7005005E0,1.58172E1,2.3128601E1,1.4591164E1,1.4706081E1,2.8583519E1,5.3081284E0,5.2518625E0,6.5099874E0,1.2019506E0,6.9242096E-1,2.0922852E0,2.3089132E0,7.334633E-1,2.0267534E-1,7.07222E-1,3.094101E-1,8.665924E-1,6.8784714E-2,2.7546692E-1,5.185318E-1,7.219696E-2,2.4302673E-1,0E0,0E0,0E0,0E0,0E0,0E0,0E0,0E0,0E0,0E0,0E0,0E0,0E0,0E0,0E0,0E0,0E0,0E0,0E0,0E0,0E0,0E0,0E0,0E0,0E0,0E0,0E0,0E0,0E0,0E0,0E0,0E0,0E0,0E0,0E0,0E0,0E0,0E0,0E0,0E0,0E0,0E0,0E0,0E0,0E0,0E0,0E0,0E0,0E0,0E0,0E0,0E0,0E0,0E0,0E0,0E0,0E0,0E0,0E0,0E0,0E0,0E0,0E0,0E0],"parents":[2147483647,0,0,1,1,2,2,3,3,4,4,5,5,6,6,7,7,8,8,9,9,10,10,11,11,12,12,13,13,14,14,15,15,16,16,17,17,18,18,19,19,20,20,21,21,22,22,23,23,24,24,25,25,26,26,27,27,28,28,29,29,30,30,31,31,32,32,33,33,34,34,35,35,36,36,37,37,38,38,39,39,40,40,41,41,42,42,43,43,44,44,45,45,46,46,47,47,48,48,49,49,50,50,51,51,52,52,53,53,54,54,55,55,56,56,57,57,58,58,59,59,60,60,61,61,62,62],"right_children":[2,4,6,8,10,12,14,16,18,20,22,24,26,28,30,32,34,36,38,40,42,44,46,48,50,52,54,56,58,60,62,64,66,68,70,72,74,76,78,80,82,84,86,88,90,92,94,96,98,100,102,104,106,108,110,112,114,116,118,120,122,124,126,-1,-1,-1,-1,-1,-1,-1,-1,-1,-1,-1,-1,-1,-1,-1,-1,-1,-1,-1,-1,-1,-1,-1,-1,-1,-1,-1,-1,-1,-1,-1,-1,-1,-1,-1,-1,-1,-1,-1,-1,-1,-1,-1,-1,-1,-1,-1,-1,-1,-1,-1,-1,-1,-1,-1,-1,-1,-1,-1,-1,-1,-1,-1,-1],"split_conditions":[7.4398E2,6.592637E4,1.12144E3,1.31E0,6.5403354E-1,9.5384E2,1.32404E3,3.8196E2,3.4767E2,7.0753336E4,7.250946E4,7.858451E4,1.05999E3,2.003452E0,1.53427E3,2.8502512E0,5.4017E2,5.119941E4,3.03E0,4.94E2,7.488245E4,2.5255334E0,7.7776625E4,6.955081E4,2.94736E1,1.01E0,8.0744414E4,1.22838E3,7.277411E4,2.003452E0,1.63612E3,2.3717E2,5.864293E4,3.1289527E0,6.5831E2,1.66E0,4.656549E-1,7.930687E-1,3.9721E2,1.58E0,6.4479E2,1.0829E2,-3.4E-1,1.22E0,1.08E0,9.4E-1,2.4936E2,5.9E-1,6.1743593E-1,1.0644844E0,1.5E-1,7.061757E4,4.17E0,6.31E0,-3.1E-1,2.01E0,7.798009E4,1.11E0,-8E-1,1.39735E3,7.359916E4,8.148495E4,6.5013355E-1,-5.869617E-2,-3.528008E-2,-5.6013376E-2,-1.653732E-2,-2.412022E-2,-1.4923601E-2,-1.2517303E-2,-6.386959E-3,-5.3847767E-2,-1.4554133E-2,-1.6924014E-2,-6.653874E-4,-9.2153335E-3,-1.9514561E-3,7.7914135E-3,-1.2785167E-3,-3.7480976E-2,-2.0135386E-2,-1.2235845E-2,-5.297982E-3,-3.5203134E-3,-9.172528E-3,-1.8252217E-3,-6.4275763E-3,-9.550955E-3,2.8028178E-3,-2.7273875E-3,9.935239E-3,2.5312553E-4,9.66803E-3,9.691897E-3,6.1226483E-3,-2.9885187E-3,1.5978642E-3,6.047682E-4,4.3290257E-3,3.1278934E-3,9.144084E-3,1.0913729E-2,6.4557656E-3,1.6689511E-3,4.127482E-3,2.5332067E-3,7.264688E-3,6.2368982E-3,4.7608125E-3,1.3060733E-2,7.4169943E-3,5.186924E-3,6.706706E-3,7.6049687E-3,9.40784E-3,6.6247243E-3,9.4818035E-3,1.2312841E-2,1.0354643E-2,9.0262955E-3,9.891091E-3,9.817058E-3,1.1485102E-2,1.1458047E-2,1.3432405E-2,1.1840179E-2,1.342808E-2],"split_indices":[1,6,1,2,0,1,1,1,1,6,6,6,1,0,1,0,1,6,4,1,6,0,6,6,3,2,6,1,6,0,1,1,6,0,1,2,0,0,1,4,1,1,2,2,2,2,1,2,0,0,2,6,5,5,2,4,6,2,2,1,6,6,0,0,0,0,0,0,0,0,0,0,0,0,0,0,0,0,0,0,0,0,0,0,0,0,0,0,0,0,0,0,0,0,0,0,0,0,0,0,0,0,0,0,0,0,0,0,0,0,0,0,0,0,0,0,0,0,0,0,0,0,0,0,0,0,0],"split_type":[0,0,0,0,0,0,0,0,0,0,0,0,0,0,0,0,0,0,0,0,0,0,0,0,0,0,0,0,0,0,0,0,0,0,0,0,0,0,0,0,0,0,0,0,0,0,0,0,0,0,0,0,0,0,0,0,0,0,0,0,0,0,0,0,0,0,0,0,0,0,0,0,0,0,0,0,0,0,0,0,0,0,0,0,0,0,0,0,0,0,0,0,0,0,0,0,0,0,0,0,0,0,0,0,0,0,0,0,0,0,0,0,0,0,0,0,0,0,0,0,0,0,0,0,0,0,0],"sum_hessian":[8.9776E4,4.5708E4,4.4068E4,8.895E3,3.6813E4,2.4129E4,1.9939E4,4.393E3,4.502E3,2.3246E4,1.3567E4,8.743E3,1.5386E4,9.781E3,1.0158E4,2.764E3,1.629E3,1.872E3,2.63E3,1.354E3,2.1892E4,4.187E3,9.38E3,7.576E3,1.167E3,1.1884E4,3.502E3,8.084E3,1.697E3,7.349E3,2.809E3,2.029E3,7.35E2,8.08E2,8.21E2,9.84E2,8.88E2,8.96E2,1.734E3,9.72E2,3.82E2,6.25E3,1.5642E4,2.04E3,2.147E3,5.079E3,4.301E3,2.495E3,5.081E3,7.32E2,4.35E2,1.0777E4,1.107E3,3.426E3,7.6E1,5.054E3,3.03E3,1.149E3,5.48E2,5.324E3,2.025E3,1.4E3,1.409E3,9.2E2,1.109E3,1.17E2,6.18E2,6.01E2,2.07E2,4.87E2,3.34E2,2.15E2,7.69E2,1.46E2,7.42E2,4.63E2,4.33E2,1.8E2,1.554E3,1.83E2,7.89E2,2.38E2,1.44E2,1.703E3,4.547E3,1.2119E4,3.523E3,1.764E3,2.76E2,1.887E3,2.6E2,4.075E3,1.004E3,1.794E3,2.507E3,1.237E3,1.258E3,3.243E3,1.838E3,6.37E2,9.5E1,3.05E2,1.3E2,9.51E2,9.826E3,4.12E2,6.95E2,1.782E3,1.644E3,4.1E1,3.5E1,9.68E2,4.086E3,2.748E3,2.82E2,7.06E2,4.43E2,8.8E1,4.6E2,1.428E3,3.896E3,1.031E3,9.94E2,1.315E3,8.5E1,4.51E2,9.58E2],"tree_param":{"num_deleted":"0","num_feature":"7","num_nodes":"127","size_leaf_vector":"1"}},{"base_weights":[-8.530699E-6,-1.0959313E-1,1.119001E-1,-3.243182E-1,-3.8839325E-2,6.0808517E-2,1.6543874E-1,-5.174254E-1,-1.6865759E-1,-8.6612165E-2,6.1533622E-2,2.9940002E-2,7.901403E-2,1.3081591E-1,1.9785196E-1,-7.5737816E-1,-3.5929474E-1,-2.8351662E-1,-5.422309E-2,-1.8052801E-1,-5.79495E-2,-4.8696034E-2,1.0450664E-1,1.8420918E-2,1.3544926E-1,6.751772E-2,8.888529E-2,1.2545279E-1,1.5829875E-1,1.8604335E-1,2.3304348E-1,-9.3701047E-1,-4.4420204E-1,-1.5525298E0,-3.3668268E-1,-4.3998557E-1,-1.1838011E-1,-1.1998502E-1,-2.0711707E-2,-3.4786245E-1,-1.5653437E-1,-3.6372826E-2,-1.2960318E-1,-6.912893E-2,2.0541663E-1,4.1343458E-2,1.4148799E-1,-1.5941052E-2,3.5251647E-2,8.4255256E-2,1.949779E-1,3.1149482E-2,7.080079E-2,8.085472E-2,1.13901995E-1,1.1379945E-1,1.360757E-1,1.3925904E-1,2.0746869E-1,1.7494927E-1,1.9393873E-1,2.2908314E-1,2.7586204E-1,-5.6652755E-2,-3.1127188E-2,-2.8869942E-2,-1.2826413E-2,-9.100624E-2,-5.5994894E-2,-2.3021499E-2,-1.0643772E-2,-3.9691404E-2,-9.8197E-3,-1.1800982E-2,4.9060123E-5,-9.173643E-3,-2.8494762E-3,5.691861E-3,-1.6142024E-3,-2.3057567E-2,-1.2003453E-2,-1.1302178E-2,-6.1073746E-3,-2.1733688E-3,3.5379652E-3,-7.433336E-3,-2.0340153E-3,-6.834206E-3,1.9159114E-4,6.2524057E-3,1.116142E-2,-2.0240976E-3,6.8946728E-3,3.9802706E-3,8.520248E-3,-2.9315408E-3,1.3586492E-3,5.368181E-4,4.384905E-3,3.1497271E-3,8.919122E-3,1.1611631E-2,8.175424E-3,-7.793002E-4,2.2843478E-3,3.3059611E-3,6.5301987E-3,4.645103E-3,3.6879287E-3,4.45141E-3,8.63241E-3,5.818585E-3,3.2223114E-3,6.7226524E-3,1.00767845E-2,6.0062334E-3,8.595533E-3,1.2492465E-2,9.859308E-3,8.503824E-3,1.0547389E-2,9.100813E-3,1.0129371E-2,1.3129355E-2,1.1217709E-2,1.4489275E-2,1.0473418E-2],"categories":[],"categories_nodes":[],"categories_segments":[],"categories_sizes":[],"default_left":[0,0,0,0,0,0,0,0,0,0,0,0,0,0,0,0,0,0,0,0,0,0,0,0,0,0,0,0,0,0,0,0,0,0,0,0,0,0,0,0,0,0,0,0,0,0,0,0,0,0,0,0,0,0,0,0,0,0,0,0,0,0,0,0,0,0,0,0,0,0,0,0,0,0,0,0,0,0,0,0,0,0,0,0,0,0,0,0,0,0,0,0,0,0,0,0,0,0,0,0,0,0,0,0,0,0,0,0,0,0,0,0,0,0,0,0,0,0,0,0,0,0,0,0,0,0,0],"id":12,"left_children":[1,3,5,7,9,11,13,15,17,19,21,23,25,27,29,31,33,35,37,39,41,43,45,47,49,51,53,55,57,59,61,63,65,67,69,71,73,75,77,79,81,83,85,87,89,91,93,95,97,99,101,103,105,107,109,111,113,115,117,119,121,123,125,-1,-1,-1,-1,-1,-1,-1,-1,-1,-1,-1,-1,-1,-1,-1,-1,-1,-1,-1,-1,-1,-1,-1,-1,-1,-1,-1,-1,-1,-1,-1,-1,-1,-1,-1,-1,-1,-1,-1,-1,-1,-1,-1,-1,-1,-1,-1,-1,-1,-1,-1,-1,-1,-1,-1,-1,-1,-1,-1,-1,-1,-1,-1,-1],"loss_changes":[1.1009891E3,6.8912445E2,1.21489746E2,3.3783813E2,1.6360936E2,1.2771378E1,2.4314331E1,1.9009229E2,8.1818115E1,6.2217697E1,5.2125214E1,1.0247936E1,1.6164703E0,1.5263062E0,4.6109314E0,1.1164673E2,8.112335E1,8.022887E1,6.8732862E0,2.1646423E1,2.7380424E1,1.6042698E1,1.8487144E1,4.398815E0,2.5130043E0,7.869053E-1,1.5354958E0,1.0716553E0,1.5710411E0,7.010803E-1,4.1331482E-1,7.728125E1,1.8050095E1,4.4447784E0,4.5420105E1,1.3732199E2,2.1245188E1,4.200962E0,3.2236464E0,8.15667E0,1.1275673E1,1.0351215E1,6.94252E0,1.40872555E1,3.0133152E-1,2.3113792E1,8.921204E0,4.604754E0,6.56276E0,8.853054E-1,4.110508E-1,3.7371123E-1,1.6882744E0,4.9103928E-1,2.7113075E0,5.249214E-1,4.6035004E-1,7.509365E-1,1.577282E-1,5.778961E-1,4.6765137E-1,3.4954834E-1,1.546917E-1,0E0,0E0,0E0,0E0,0E0,0E0,0E0,0E0,0E0,0E0,0E0,0E0,0E0,0E0,0E0,0E0,0E0,0E0,0E0,0E0,0E0,0E0,0E0,0E0,0E0,0E0,0E0,0E0,0E0,0E0,0E0,0E0,0E0,0E0,0E0,0E0,0E0,0E0,0E0,0E0,0E0,0E0,0E0,0E0,0E0,0E0,0E0,0E0,0E0,0E0,0E0,0E0,0E0,0E0,0E0,0E0,0E0,0E0,0E0,0E0,0E0,0E0,0E0,0E0],"parents":[2147483647,0,0,1,1,2,2,3,3,4,4,5,5,6,6,7,7,8,8,9,9,10,10,11,11,12,12,13,13,14,14,15,15,16,16,17,17,18,18,19,19,20,20,21,21,22,22,23,23,24,24,25,25,26,26,27,27,28,28,29,29,30,30,31,31,32,32,33,33,34,34,35,35,36,36,37,37,38,38,39,39,40,40,41,41,42,42,43,43,44,44,45,45,46,46,47,47,48,48,49,49,50,50,51,51,52,52,53,53,54,54,55,55,56,56,57,57,58,58,59,59,60,60,61,61,62,62],"right_children":[2,4,6,8,10,12,14,16,18,20,22,24,26,28,30,32,34,36,38,40,42,44,46,48,50,52,54,56,58,60,62,64,66,68,70,72,74,76,78,80,82,84,86,88,90,92,94,96,98,100,102,104,106,108,110,112,114,116,118,120,122,124,126,-1,-1,-1,-1,-1,-1,-1,-1,-1,-1,-1,-1,-1,-1,-1,-1,-1,-1,-1,-1,-1,-1,-1,-1,-1,-1,-1,-1,-1,-1,-1,-1,-1,-1,-1,-1,-1,-1,-1,-1,-1,-1,-1,-1,-1,-1,-1,-1,-1,-1,-1,-1,-1,-1,-1,-1,-1,-1,-1,-1,-1,-1,-1,-1],"split_conditions":[7.3941E2,6.8670164E4,1.09963E3,7.8E-1,6.81069E-1,9.4627E2,1.28375E3,7.251369E-1,3.6919E2,7.394124E4,7.35151E4,7.9027984E4,1.00472E3,1.951121E0,1.53427E3,3.2172E2,5.35003E4,5.4473258E4,2.99E0,7.0753336E4,-3.4E-1,1.19E0,2.83E0,6.973136E4,2.9213964E1,6.497836E4,7.857998E-1,3E0,7.372937E4,1.41204E3,8.183366E4,6.375134E4,4.803E2,2.3256E2,6.405763E4,1.66E0,2.003452E0,8.403202E-1,3.9721E2,2.75E0,5.92E0,5.781589E-1,3.79E0,3.32E0,9.696754E-1,1.5312557E0,9.8425967E-1,5.9E-1,6.7660064E-1,1.0644844E0,-7.2E-1,-3.1E-1,1.4204533E0,7.31E0,7.277411E4,1.5911175E0,7.937837E4,1.04E0,-8E-1,7.886237E4,1.92E0,1.18E0,1E-1,-5.6652755E-2,-3.1127188E-2,-2.8869942E-2,-1.2826413E-2,-9.100624E-2,-5.5994894E-2,-2.3021499E-2,-1.0643772E-2,-3.9691404E-2,-9.8197E-3,-1.1800982E-2,4.9060123E-5,-9.173643E-3,-2.8494762E-3,5.691861E-3,-1.6142024E-3,-2.3057567E-2,-1.2003453E-2,-1.1302178E-2,-6.1073746E-3,-2.1733688E-3,3.5379652E-3,-7.433336E-3,-2.0340153E-3,-6.834206E-3,1.9159114E-4,6.2524057E-3,1.116142E-2,-2.0240976E-3,6.8946728E-3,3.9802706E-3,8.520248E-3,-2.9315408E-3,1.3586492E-3,5.368181E-4,4.384905E-3,3.1497271E-3,8.919122E-3,1.1611631E-2,8.175424E-3,-7.793002E-4,2.2843478E-3,3.3059611E-3,6.5301987E-3,4.645103E-3,3.6879287E-3,4.45141E-3,8.63241E-3,5.818585E-3,3.2223114E-3,6.7226524E-3,1.00767845E-2,6.0062334E-3,8.595533E-3,1.2492465E-2,9.859308E-3,8.503824E-3,1.0547389E-2,9.100813E-3,1.0129371E-2,1.3129355E-2,1.1217709E-2,1.4489275E-2,1.0473418E-2],"split_indices":[1,6,1,2,0,1,1,0,1,6,6,6,1,0,1,1,6,6,4,6,2,2,4,6,3,6,0,4,6,1,6,6,1,1,6,2,0,0,1,4,5,0,4,4,0,0,0,2,0,0,2,2,0,5,6,0,6,2,2,6,4,5,2,0,0,0,0,0,0,0,0,0,0,0,0,0,0,0,0,0,0,0,0,0,0,0,0,0,0,0,0,0,0,0,0,0,0,0,0,0,0,0,0,0,0,0,0,0,0,0,0,0,0,0,0,0,0,0,0,0,0,0,0,0,0,0,0],"split_type":[0,0,0,0,0,0,0,0,0,0,0,0,0,0,0,0,0,0,0,0,0,0,0,0,0,0,0,0,0,0,0,0,0,0,0,0,0,0,0,0,0,0,0,0,0,0,0,0,0,0,0,0,0,0,0,0,0,0,0,0,0,0,0,0,0,0,0,0,0,0,0,0,0,0,0,0,0,0,0,0,0,0,0,0,0,0,0,0,0,0,0,0,0,0,0,0,0,0,0,0,0,0,0,0,0,0,0,0,0,0,0,0,0,0,0,0,0,0,0,0,0,0,0,0,0,0,0],"sum_hessian":[8.9776E4,4.5359E4,4.4417E4,1.1241E4,3.4118E4,2.2729E4,2.1688E4,5.016E3,6.225E3,2.3116E4,1.1002E4,8.433E3,1.4296E4,1.0489E4,1.1199E4,1.991E3,3.025E3,3.106E3,3.119E3,5.404E3,1.7712E4,3.086E3,7.916E3,7.604E3,8.29E2,6.608E3,7.688E3,8.781E3,1.708E3,8.39E3,2.809E3,1.264E3,7.27E2,5.5E1,2.97E3,1.594E3,1.512E3,1.052E3,2.067E3,6.76E2,4.728E3,1.3614E4,4.098E3,2.857E3,2.29E2,2.924E3,4.992E3,2.5E3,5.104E3,4.47E2,3.82E2,5.48E2,6.06E3,5.823E3,1.865E3,4.193E3,4.588E3,1.234E3,4.74E2,3.498E3,4.892E3,2.577E3,2.32E2,7.77E2,4.87E2,4.24E2,3.03E2,3.2E1,2.3E1,1.484E3,1.486E3,6.49E2,9.45E2,7.61E2,7.51E2,5.23E2,5.29E2,1.63E2,1.904E3,3.28E2,3.48E2,1.563E3,3.165E3,1.2769E4,8.45E2,3.374E3,7.24E2,1.483E3,1.374E3,4.3E1,1.86E2,1.583E3,1.341E3,1.591E3,3.401E3,1.256E3,1.244E3,3.479E3,1.625E3,3.66E2,8.1E1,1.72E2,2.1E2,1.3E2,4.18E2,5.622E3,4.38E2,2.154E3,3.669E3,1.312E3,5.53E2,3.984E3,2.09E2,4.48E3,1.08E2,7.81E2,4.53E2,8.8E1,3.86E2,3.086E3,4.12E2,2.066E3,2.826E3,3.12E2,2.265E3,1.89E2,4.3E1],"tree_param":{"num_deleted":"0","num_feature":"7","num_nodes":"127","size_leaf_vector":"1"}},{"base_weights":[-1.0261158E-5,-9.8603606E-2,1.1230238E-1,-3.2996833E-1,-4.3708656E-2,7.769446E-2,1.7644893E-1,-5.568231E-1,-1.2068871E-1,-9.051468E-2,3.5041958E-2,5.2012186E-2,9.97338E-2,1.5292056E-1,1.9782823E-1,-7.194117E-1,-2.4051759E-1,-2.489341E-1,-3.8124777E-2,-2.9783377E-1,-7.32186E-2,-8.018201E-2,8.591732E-2,4.056362E-2,7.834376E-2,8.366447E-2,1.1581145E-1,1.4730674E-1,1.8957546E-1,1.865647E-1,2.2764926E-1,-8.50497E-1,-4.9213699E-1,-3.4905553E-1,-1.4903921E-1,-4.242656E-1,-5.328881E-2,-7.877289E-2,8.500013E-3,-4.126656E-1,-1.3202658E-1,-9.97583E-2,-1.9149382E-2,-9.912383E-2,1.2524444E-1,3.994128E-2,1.404542E-1,8.872576E-4,4.7040418E-2,6.632503E-2,1.8312381E-1,7.9359375E-2,1.3234141E-1,1.05499834E-1,1.2714233E-1,1.3488787E-1,1.5888399E-1,1.7392115E-1,2.1817306E-1,1.7881346E-1,2.0035817E-1,2.5982308E-1,2.231384E-1,-5.598691E-2,-3.302976E-2,-8.440183E-2,-2.2732532E-2,-2.072684E-2,-1.5167943E-2,-1.0199907E-2,-4.7920025E-3,-4.9192455E-2,-1.3337026E-2,-1.52786225E-2,-1.4824932E-4,-6.4044446E-3,-1.2065334E-3,7.823679E-3,-4.9711455E-4,-2.8520508E-2,-1.6640067E-2,-1.057865E-2,-4.49652E-3,-8.950918E-3,-4.236073E-3,-1.1325093E-3,1.3702597E-2,-6.0242056E-3,5.0009727E-3,4.678538E-3,1.0847335E-2,4.927506E-4,9.518086E-3,5.575648E-3,9.041272E-3,-9.6828624E-4,1.4675122E-3,1.9158864E-3,4.2605703E-3,7.561007E-3,3.1875924E-3,7.14682E-3,1.0585262E-2,2.0788477E-3,4.241383E-3,5.949683E-3,1.024799E-2,5.0127874E-3,6.335874E-3,6.171522E-3,9.637359E-3,7.5165355E-3,6.3586235E-3,7.778539E-3,9.385315E-3,9.845375E-3,8.152988E-3,1.0340346E-2,1.17306765E-2,8.535422E-3,9.386672E-3,9.62706E-3,1.1181326E-2,9.92005E-3,1.3329248E-2,1.0876574E-2,1.26323225E-2],"categories":[],"categories_nodes":[],"categories_segments":[],"categories_sizes":[],"default_left":[0,0,0,0,0,0,0,0,0,0,0,0,0,0,0,0,0,0,0,0,0,0,0,0,0,0,0,0,0,0,0,0,0,0,0,0,0,0,0,0,0,0,0,0,0,0,0,0,0,0,0,0,0,0,0,0,0,0,0,0,0,0,0,0,0,0,0,0,0,0,0,0,0,0,0,0,0,0,0,0,0,0,0,0,0,0,0,0,0,0,0,0,0,0,0,0,0,0,0,0,0,0,0,0,0,0,0,0,0,0,0,0,0,0,0,0,0,0,0,0,0,0,0,0,0,0,0],"id":13,"left_children":[1,3,5,7,9,11,13,15,17,19,21,23,25,27,29,31,33,35,37,39,41,43,45,47,49,51,53,55,57,59,61,63,65,67,69,71,73,75,77,79,81,83,85,87,89,91,93,95,97,99,101,103,105,107,109,111,113,115,117,119,121,123,125,-1,-1,-1,-1,-1,-1,-1,-1,-1,-1,-1,-1,-1,-1,-1,-1,-1,-1,-1,-1,-1,-1,-1,-1,-1,-1,-1,-1,-1,-1,-1,-1,-1,-1,-1,-1,-1,-1,-1,-1,-1,-1,-1,-1,-1,-1,-1,-1,-1,-1,-1,-1,-1,-1,-1,-1,-1,-1,-1,-1,-1,-1,-1,-1],"loss_changes":[9.941368E2,6.071959E2,9.315662E1,4.3519336E2,1.4243771E2,1.54262085E1,7.367676E0,2.2605737E2,5.0497383E1,8.688745E1,8.4455734E1,3.7930946E0,3.7806702E0,1.4137421E0,2.5445557E0,8.6128174E1,1.4791649E1,6.405499E1,5.502463E0,3.5474045E1,3.210148E1,1.7184061E1,2.5053238E1,2.255949E0,4.7921696E0,1.5278702E0,8.4313965E-1,8.5272217E-1,3.770523E-1,5.6248474E-1,2.47818E-1,9.338953E1,4.697644E1,1.9179688E0,2.3574715E0,8.656375E1,1.122225E1,4.176443E0,3.6938562E0,1.3693329E1,2.542653E0,1.7869308E1,7.5679965E0,1.720148E1,1.0630965E0,2.4544926E1,5.3205643E0,7.1134394E-1,2.5095367E0,7.3833466E-1,4.1999626E-1,1.3904381E0,5.523405E-1,4.1500473E-1,8.2559204E-1,3.3117294E-1,2.7074432E-1,1.1868858E-1,1.2024879E-2,2.2763824E-1,3.2162476E-1,5.2186966E-2,2.5195312E-1,0E0,0E0,0E0,0E0,0E0,0E0,0E0,0E0,0E0,0E0,0E0,0E0,0E0,0E0,0E0,0E0,0E0,0E0,0E0,0E0,0E0,0E0,0E0,0E0,0E0,0E0,0E0,0E0,0E0,0E0,0E0,0E0,0E0,0E0,0E0,0E0,0E0,0E0,0E0,0E0,0E0,0E0,0E0,0E0,0E0,0E0,0E0,0E0,0E0,0E0,0E0,0E0,0E0,0E0,0E0,0E0,0E0,0E0,0E0,0E0,0E0,0E0,0E0,0E0],"parents":[2147483647,0,0,1,1,2,2,3,3,4,4,5,5,6,6,7,7,8,8,9,9,10,10,11,11,12,12,13,13,14,14,15,15,16,16,17,17,18,18,19,19,20,20,21,21,22,22,23,23,24,24,25,25,26,26,27,27,28,28,29,29,30,30,31,31,32,32,33,33,34,34,35,35,36,36,37,37,38,38,39,39,40,40,41,41,42,42,43,43,44,44,45,45,46,46,47,47,48,48,49,49,50,50,51,51,52,52,53,53,54,54,55,55,56,56,57,57,58,58,59,59,60,60,61,61,62,62],