{"learner":{"attributes":{"scikit_learn":"{\"_estimator_type\": \"regressor\"}"},"feature_names":["mass_Mj","T_irr","Met","core","f_sed","kzz","S_physical"],"feature_types":["float","float","float","float","float","float","float"],"gradient_booster":{"model":{"gbtree_model_param":{"num_parallel_tree":"1","num_trees":"200"},"iteration_indptr":[0,1,2,3,4,5,6,7,8,9,10,11,12,13,14,15,16,17,18,19,20,21,22,23,24,25,26,27,28,29,30,31,32,33,34,35,36,37,38,39,40,41,42,43,44,45,46,47,48,49,50,51,52,53,54,55,56,57,58,59,60,61,62,63,64,65,66,67,68,69,70,71,72,73,74,75,76,77,78,79,80,81,82,83,84,85,86,87,88,89,90,91,92,93,94,95,96,97,98,99,100,101,102,103,104,105,106,107,108,109,110,111,112,113,114,115,116,117,118,119,120,121,122,123,124,125,126,127,128,129,130,131,132,133,134,135,136,137,138,139,140,141,142,143,144,145,146,147,148,149,150,151,152,153,154,155,156,157,158,159,160,161,162,163,164,165,166,167,168,169,170,171,172,173,174,175,176,177,178,179,180,181,182,183,184,185,186,187,188,189,190,191,192,193,194,195,196,197,198,199,200],"tree_info":[0,0,0,0,0,0,0,0,0,0,0,0,0,0,0,0,0,0,0,0,0,0,0,0,0,0,0,0,0,0,0,0,0,0,0,0,0,0,0,0,0,0,0,0,0,0,0,0,0,0,0,0,0,0,0,0,0,0,0,0,0,0,0,0,0,0,0,0,0,0,0,0,0,0,0,0,0,0,0,0,0,0,0,0,0,0,0,0,0,0,0,0,0,0,0,0,0,0,0,0,0,0,0,0,0,0,0,0,0,0,0,0,0,0,0,0,0,0,0,0,0,0,0,0,0,0,0,0,0,0,0,0,0,0,0,0,0,0,0,0,0,0,0,0,0,0,0,0,0,0,0,0,0,0,0,0,0,0,0,0,0,0,0,0,0,0,0,0,0,0,0,0,0,0,0,0,0,0,0,0,0,0,0,0,0,0,0,0,0,0,0,0,0,0,0,0,0,0,0,0],"trees":[{"base_weights":[-2.8051234E-8,-9.696671E-1,3.1254932E-1,-2.1785438E0,-3.9973414E-1,6.8388075E-2,5.1864505E-1,-2.8134832E0,-1.2433785E0,-7.429857E-1,3.218797E-2,-5.5132437E-1,1.4273632E-1,4.1996434E-1,6.299698E-1,-1.5584986E0,-3.3237507E0,-1.0875881E0,-8.496594E-2,-4.550006E-1,-1.2966957E0,-2.2608103E-1,1.2852961E-1,-8.3148694E-1,-1.2332116E-1,6.400438E-3,2.729525E-1,4.7924566E-1,3.4254956E-1,3.397092E-2,5.636348E-1,-3.97326E-2,-8.669905E-2,-3.7592473E0,-1.2535614E-1,-1.112597E0,-1.4525229E-2,-1.0014108E0,-3.8787463E-1,-1.6681166E0,-9.7624826E-1,-2.7876798E-2,-6.5886244E-2,1.7092629E-1,-1.3375129E-1,-7.6354843E-1,-9.572233E-2,-1.6524173E-1,-4.589013E-2,-2.8639376E-1,1.3354859E-1,3.6140695E-1,9.972805E-2,3.7825608E-1,5.0613284E-1,1.8948108E-1,4.0273666E-1,2.5840644E-2,3.0102074E-2,-2.1442921E-1,-1.4518699E-1,-5.7667524E-2,-2.9063499E-2,-3.1023428E-2,-5.646469E-2,-3.2983117E-2,-1.3779349E-2,-4.8315942E-2,-8.893924E-2,-5.3167503E-2,-2.3787223E-2,4.453954E-3,-1.2246872E-2,-8.957127E-3,1.036852E-2,-9.499795E-3,7.586205E-3,-2.4911499E-2,-4.4191867E-2,-3.999566E-3,-9.636613E-3,-3.0281276E-3,-1.0613998E-3,-9.376529E-3,-2.4596052E-2,7.759429E-3,-6.931475E-3,6.539156E-3,1.9297326E-2,-3.5884392E-3,1.024892E-2,2.1564454E-2,1.4894425E-2,2.2600863E-2,2.6943866E-2,1.3526007E-2,6.39328E-3,1.7768985E-2,2.143046E-2],"categories":[],"categories_nodes":[],"categories_segments":[],"categories_sizes":[],"default_left":[0,0,0,0,0,0,0,0,0,0,0,0,0,0,0,0,0,0,0,0,0,0,0,0,0,0,0,0,0,0,0,0,0,0,0,0,0,0,0,0,0,0,0,0,0,0,0,0,0,0,0,0,0,0,0,0,0,0,0,0,0,0,0,0,0,0,0,0,0,0,0,0,0,0,0,0,0,0,0,0,0,0,0,0,0,0,0,0,0,0,0,0,0,0,0,0,0,0,0],"id":0,"left_children":[1,3,5,7,9,11,13,15,17,19,21,23,25,27,29,31,33,35,-1,37,39,41,43,45,47,49,51,53,55,-1,57,-1,-1,59,-1,61,-1,63,65,67,69,-1,71,73,75,77,-1,79,81,83,85,87,89,91,93,95,97,-1,-1,-1,-1,-1,-1,-1,-1,-1,-1,-1,-1,-1,-1,-1,-1,-1,-1,-1,-1,-1,-1,-1,-1,-1,-1,-1,-1,-1,-1,-1,-1,-1,-1,-1,-1,-1,-1,-1,-1,-1,-1],"loss_changes":[1.0680144E3,5.9096173E2,1.3406891E2,1.5978955E2,8.675483E1,5.6335697E1,1.560965E1,9.920154E1,6.17836E0,5.1394028E1,6.498393E0,1.5605736E1,1.936693E1,3.364975E0,1.837738E0,5.1901245E0,3.147351E1,1.4110489E0,0E0,7.534096E0,1.1582809E1,3.7331781E0,2.1356306E0,4.350624E0,1.644525E-1,1.9918127E1,8.513893E0,9.842911E-1,3.0283813E0,0E0,2.193451E-1,0E0,0E0,2.0605225E1,0E0,1.1484833E0,0E0,4.1977882E-1,5.738779E0,2.1644592E0,2.1969986E0,0E0,1.3814083E0,2.1294532E0,4.6235102E-1,1.9851723E0,0E0,6.4264715E-2,5.951442E-3,3.199441E0,2.2184587E0,2.0378532E0,3.4442296E0,2.7642632E-1,3.5712433E-1,4.497559E-1,1.4296341E-1,0E0,0E0,0E0,0E0,0E0,0E0,0E0,0E0,0E0,0E0,0E0,0E0,0E0,0E0,0E0,0E0,0E0,0E0,0E0,0E0,0E0,0E0,0E0,0E0,0E0,0E0,0E0,0E0,0E0,0E0,0E0,0E0,0E0,0E0,0E0,0E0,0E0,0E0,0E0,0E0,0E0,0E0],"parents":[2147483647,0,0,1,1,2,2,3,3,4,4,5,5,6,6,7,7,8,8,9,9,10,10,11,11,12,12,13,13,14,14,15,15,16,16,17,17,19,19,20,20,21,21,22,22,23,23,24,24,25,25,26,26,27,27,28,28,30,30,33,33,35,35,37,37,38,38,39,39,40,40,42,42,43,43,44,44,45,45,47,47,48,48,49,49,50,50,51,51,52,52,53,53,54,54,55,55,56,56],"right_children":[2,4,6,8,10,12,14,16,18,20,22,24,26,28,30,32,34,36,-1,38,40,42,44,46,48,50,52,54,56,-1,58,-1,-1,60,-1,62,-1,64,66,68,70,-1,72,74,76,78,-1,80,82,84,86,88,90,92,94,96,98,-1,-1,-1,-1,-1,-1,-1,-1,-1,-1,-1,-1,-1,-1,-1,-1,-1,-1,-1,-1,-1,-1,-1,-1,-1,-1,-1,-1,-1,-1,-1,-1,-1,-1,-1,-1,-1,-1,-1,-1,-1,-1],"split_conditions":[5.716541E2,5.7365246E4,1.01233356E3,3.4791516E2,6.4495742E4,5.4936016E4,1.2856421E3,-6.314696E-1,1.6214026E0,-2.4195324E-1,6.567253E4,8.671433E2,6.5317137E4,-2.1638918E-1,-3.069808E-2,-1.9232309E0,6.69813E0,6.7758904E0,-8.496594E-2,3.1323793E0,2.757697E2,3.4185586E0,-7.1993554E-1,7.834487E2,9.2125183E2,7.4302515E2,-3.985735E-1,1.117141E0,1.1056637E3,3.397092E-2,1.3832893E3,-3.97326E-2,-8.669905E-2,1.9128642E2,-1.2535614E-1,7.1915913E0,-1.4525229E-2,-1.003965E0,6.0066016E4,3.2447195E0,5.3935754E2,-2.7876798E-2,-1.2914008E0,6.0147345E-1,5.6793365E2,3.1684227E0,-9.572233E-2,1.0762445E0,5.8494406E0,-3.9659435E-1,5.108322E-1,2.0939393E0,7.278237E2,4.6620026E0,6.727766E4,7.4893737E-1,1.1851859E3,2.5840644E-2,3.0102074E-2,-2.1442921E-1,-1.4518699E-1,-5.7667524E-2,-2.9063499E-2,-3.1023428E-2,-5.646469E-2,-3.2983117E-2,-1.3779349E-2,-4.8315942E-2,-8.893924E-2,-5.3167503E-2,-2.3787223E-2,4.453954E-3,-1.2246872E-2,-8.957127E-3,1.036852E-2,-9.499795E-3,7.586205E-3,-2.4911499E-2,-4.4191867E-2,-3.999566E-3,-9.636613E-3,-3.0281276E-3,-1.0613998E-3,-9.376529E-3,-2.4596052E-2,7.759429E-3,-6.931475E-3,6.539156E-3,1.9297326E-2,-3.5884392E-3,1.024892E-2,2.1564454E-2,1.4894425E-2,2.2600863E-2,2.6943866E-2,1.3526007E-2,6.39328E-3,1.7768985E-2,2.143046E-2],"split_indices":[1,6,1,1,6,6,1,2,2,2,6,1,6,2,2,2,0,4,0,0,1,0,2,1,1,1,2,0,1,0,1,0,0,1,0,5,0,2,6,5,1,0,2,0,1,4,0,2,0,2,2,0,1,4,6,2,1,0,0,0,0,0,0,0,0,0,0,0,0,0,0,0,0,0,0,0,0,0,0,0,0,0,0,0,0,0,0,0,0,0,0,0,0,0,0,0,0,0,0],"split_type":[0,0,0,0,0,0,0,0,0,0,0,0,0,0,0,0,0,0,0,0,0,0,0,0,0,0,0,0,0,0,0,0,0,0,0,0,0,0,0,0,0,0,0,0,0,0,0,0,0,0,0,0,0,0,0,0,0,0,0,0,0,0,0,0,0,0,0,0,0,0,0,0,0,0,0,0,0,0,0,0,0,0,0,0,0,0,0,0,0,0,0,0,0,0,0,0,0,0,0],"sum_hessian":[3.522E3,8.58E2,2.664E3,2.74E2,5.84E2,1.22E3,1.444E3,1.62E2,1.12E2,3.25E2,2.59E2,1.3E2,1.09E3,7.68E2,6.76E2,4.8E1,1.14E2,8.6E1,2.6E1,2.15E2,1.1E2,7E1,1.89E2,7.8E1,5.2E1,5.33E2,5.57E2,4.32E2,3.36E2,3.82E2,2.94E2,1E1,3.8E1,7.2E1,4.2E1,8.3E1,3E0,2.2E1,1.93E2,4.9E1,6.1E1,2.2E1,4.8E1,1.63E2,2.6E1,7.5E1,3E0,3.3E1,1.9E1,1.61E2,3.72E2,3.68E2,1.89E2,9.4E1,3.38E2,9.6E1,2.4E2,1.39E2,1.55E2,4.2E1,3E1,7.6E1,7E0,7E0,1.5E1,5.5E1,1.38E2,8E0,4.1E1,5.1E1,1E1,2.6E1,2.2E1,1.5E1,1.48E2,2.2E1,4E0,2.5E1,5E1,9E0,2.4E1,1.1E1,8E0,1.1E2,5.1E1,3.45E2,2.7E1,3.6E1,3.32E2,7.2E1,1.17E2,5.4E1,4E1,1.33E2,2.05E2,4E1,5.6E1,9E1,1.5E2],"tree_param":{"num_deleted":"0","num_feature":"7","num_nodes":"99","size_leaf_vector":"1"}},{"base_weights":[-3.2089176E-4,-9.2256004E-1,2.969413E-1,-2.0725172E0,-3.8040492E-1,6.481864E-2,4.9287546E-1,-2.6765602E0,-1.1828576E0,-7.069053E-1,3.043942E-2,-5.2515167E-1,1.3559893E-1,3.9915478E-1,5.986041E-1,-1.9362154E0,-3.478293E0,-1.0343726E0,-8.087499E-2,-4.328721E-1,-1.2337908E0,-2.1527934E-1,1.22100435E-1,-7.9199904E-1,-1.1748955E-1,6.0184053E-3,2.5936309E-1,4.548941E-1,3.2480875E-1,3.2276813E-2,5.356427E-1,-1.0931737E0,-2.2400222E0,-4.301892E0,-2.6895344E0,-1.0579996E0,-1.3980535E-2,-9.551441E-1,-3.6872193E-1,-1.5874559E0,-9.2867696E-1,-2.6543558E-2,-6.275095E-2,1.6238852E-1,-1.2713462E-1,-7.2628033E-1,-9.213274E-2,-1.5738072E-1,-4.3800067E-2,-2.722838E-1,1.2687346E-1,3.434066E-1,9.477671E-2,3.8682693E-1,4.9130568E-1,1.7113514E-1,3.8276243E-1,2.4557834E-2,2.8606623E-2,-6.161241E-2,-3.218047E-2,-8.6000286E-2,-1.2049031E-1,-1.2594709E-1,-2.2541042E-1,-9.714242E-2,-1.4459075E-1,-5.482159E-2,-2.7791975E-2,-2.966615E-2,-5.381791E-2,-2.8716639E-2,-1.17154475E-2,-4.6168562E-2,-8.459816E-2,-5.4189857E-2,-3.1895593E-2,4.2395066E-3,-1.1661152E-2,-9.815844E-3,9.728528E-3,-9.0454575E-3,7.282756E-3,-2.3713833E-2,-4.2025603E-2,-3.8195897E-3,-9.174054E-3,-2.8893373E-3,-1.0142247E-3,-8.911926E-3,-2.3389904E-2,-1.4953973E-3,8.064958E-3,6.2210383E-3,1.8335355E-2,-4.6217632E-3,9.094664E-3,1.5510631E-2,2.256981E-2,2.2881858E-2,2.6454562E-2,1.2142228E-2,6.0792286E-3,1.6890293E-2,2.0366032E-2],"categories":[],"categories_nodes":[],"categories_segments":[],"categories_sizes":[],"default_left":[0,0,0,0,0,0,0,0,0,0,0,0,0,0,0,0,0,0,0,0,0,0,0,0,0,0,0,0,0,0,0,0,0,0,0,0,0,0,0,0,0,0,0,0,0,0,0,0,0,0,0,0,0,0,0,0,0,0,0,0,0,0,0,0,0,0,0,0,0,0,0,0,0,0,0,0,0,0,0,0,0,0,0,0,0,0,0,0,0,0,0,0,0,0,0,0,0,0,0,0,0,0,0,0,0],"id":1,"left_children":[1,3,5,7,9,11,13,15,17,19,21,23,25,27,29,31,33,35,-1,37,39,41,43,45,47,49,51,53,55,-1,57,59,61,63,65,67,-1,69,71,73,75,-1,77,79,81,83,-1,85,87,89,91,93,95,97,99,101,103,-1,-1,-1,-1,-1,-1,-1,-1,-1,-1,-1,-1,-1,-1,-1,-1,-1,-1,-1,-1,-1,-1,-1,-1,-1,-1,-1,-1,-1,-1,-1,-1,-1,-1,-1,-1,-1,-1,-1,-1,-1,-1,-1,-1,-1,-1,-1,-1],"loss_changes":[9.6609326E2,5.347596E2,1.21174286E2,1.4461694E2,7.849391E1,5.105806E1,1.4079498E1,9.001526E1,5.61969E0,4.6535126E1,5.882221E0,1.4157593E1,1.7495266E1,3.0389862E0,1.6546936E0,1.9833893E1,3.8450745E1,1.2556305E0,0E0,6.8846474E0,1.0503571E1,3.3843937E0,1.928474E0,4.1164894E0,1.4890337E-1,1.7995224E1,7.6859436E0,8.9302063E-1,2.900177E0,0E0,1.9786835E-1,7.699871E-1,1.4173889E0,1.8867798E0,7.253418E-1,1.0116806E0,0E0,3.7010002E-1,5.226963E0,1.9077682E0,2.105053E0,0E0,1.2522053E0,1.9313917E0,4.2241704E-1,1.7891579E0,0E0,5.7854116E-2,5.4059215E-3,2.8953457E0,2.0180206E0,1.8371887E0,3.1155734E0,6.3663864E-1,1.15356445E-1,3.009255E-1,1.2848282E-1,0E0,0E0,0E0,0E0,0E0,0E0,0E0,0E0,0E0,0E0,0E0,0E0,0E0,0E0,0E0,0E0,0E0,0E0,0E0,0E0,0E0,0E0,0E0,0E0,0E0,0E0,0E0,0E0,0E0,0E0,0E0,0E0,0E0,0E0,0E0,0E0,0E0,0E0,0E0,0E0,0E0,0E0,0E0,0E0,0E0,0E0,0E0,0E0],"parents":[2147483647,0,0,1,1,2,2,3,3,4,4,5,5,6,6,7,7,8,8,9,9,10,10,11,11,12,12,13,13,14,14,15,15,16,16,17,17,19,19,20,20,21,21,22,22,23,23,24,24,25,25,26,26,27,27,28,28,30,30,31,31,32,32,33,33,34,34,35,35,37,37,38,38,39,39,40,40,42,42,43,43,44,44,45,45,47,47,48,48,49,49,50,50,51,51,52,52,53,53,54,54,55,55,56,56],"right_children":[2,4,6,8,10,12,14,16,18,20,22,24,26,28,30,32,34,36,-1,38,40,42,44,46,48,50,52,54,56,-1,58,60,62,64,66,68,-1,70,72,74,76,-1,78,80,82,84,-1,86,88,90,92,94,96,98,100,102,104,-1,-1,-1,-1,-1,-1,-1,-1,-1,-1,-1,-1,-1,-1,-1,-1,-1,-1,-1,-1,-1,-1,-1,-1,-1,-1,-1,-1,-1,-1,-1,-1,-1,-1,-1,-1,-1,-1,-1,-1,-1,-1,-1,-1,-1,-1,-1,-1],"split_conditions":[5.716541E2,5.7365246E4,1.01233356E3,3.4791516E2,6.4495742E4,5.4936016E4,1.2856421E3,1.2839241E0,1.6214026E0,-2.4195324E-1,6.567253E4,8.671433E2,6.5317137E4,-1.9112824E-1,-3.069808E-2,-1.454241E0,1.9128642E2,6.7758904E0,-8.087499E-2,3.1323793E0,2.757697E2,3.4185586E0,-7.1993554E-1,7.834487E2,9.2125183E2,7.4302515E2,-3.985735E-1,1.089525E3,1.1056637E3,3.2276813E-2,1.3832893E3,5.5022105E4,-8.919499E-1,1.0195955E0,1.1895141E1,7.1915913E0,-1.3980535E-2,-1.003965E0,6.054276E4,3.2447195E0,6.253407E4,-2.6543558E-2,-1.2914008E0,5.347144E-1,5.6793365E2,3.1684227E0,-9.213274E-2,1.0762445E0,5.8494406E0,-3.9659435E-1,8.163484E2,2.0939393E0,7.1456E2,6.786083E4,6.833451E4,7.4893737E-1,1.1851859E3,2.4557834E-2,2.8606623E-2,-6.161241E-2,-3.218047E-2,-8.6000286E-2,-1.2049031E-1,-1.2594709E-1,-2.2541042E-1,-9.714242E-2,-1.4459075E-1,-5.482159E-2,-2.7791975E-2,-2.966615E-2,-5.381791E-2,-2.8716639E-2,-1.17154475E-2,-4.6168562E-2,-8.459816E-2,-5.4189857E-2,-3.1895593E-2,4.2395066E-3,-1.1661152E-2,-9.815844E-3,9.728528E-3,-9.0454575E-3,7.282756E-3,-2.3713833E-2,-4.2025603E-2,-3.8195897E-3,-9.174054E-3,-2.8893373E-3,-1.0142247E-3,-8.911926E-3,-2.3389904E-2,-1.4953973E-3,8.064958E-3,6.2210383E-3,1.8335355E-2,-4.6217632E-3,9.094664E-3,1.5510631E-2,2.256981E-2,2.2881858E-2,2.6454562E-2,1.2142228E-2,6.0792286E-3,1.6890293E-2,2.0366032E-2],"split_indices":[1,6,1,1,6,6,1,2,2,2,6,1,6,2,2,2,1,4,0,0,1,0,2,1,1,1,2,1,1,0,1,6,2,5,3,5,0,2,6,5,6,0,2,0,1,4,0,2,0,2,1,0,1,6,6,2,1,0,0,0,0,0,0,0,0,0,0,0,0,0,0,0,0,0,0,0,0,0,0,0,0,0,0,0,0,0,0,0,0,0,0,0,0,0,0,0,0,0,0,0,0,0,0,0,0],"split_type":[0,0,0,0,0,0,0,0,0,0,0,0,0,0,0,0,0,0,0,0,0,0,0,0,0,0,0,0,0,0,0,0,0,0,0,0,0,0,0,0,0,0,0,0,0,0,0,0,0,0,0,0,0,0,0,0,0,0,0,0,0,0,0,0,0,0,0,0,0,0,0,0,0,0,0,0,0,0,0,0,0,0,0,0,0,0,0,0,0,0,0,0,0,0,0,0,0,0,0,0,0,0,0,0,0],"sum_hessian":[3.522E3,8.58E2,2.664E3,2.74E2,5.84E2,1.22E3,1.444E3,1.62E2,1.12E2,3.25E2,2.59E2,1.3E2,1.09E3,7.68E2,6.76E2,8.6E1,7.6E1,8.6E1,2.6E1,2.15E2,1.1E2,7E1,1.89E2,7.8E1,5.2E1,5.33E2,5.57E2,4.36E2,3.32E2,3.82E2,2.94E2,2.4E1,6.2E1,3.5E1,4.1E1,8.3E1,3E0,2.2E1,1.93E2,4.9E1,6.1E1,2.2E1,4.8E1,1.63E2,2.6E1,7.5E1,3E0,3.3E1,1.9E1,1.61E2,3.72E2,3.68E2,1.89E2,1.56E2,2.8E2,9.2E1,2.4E2,1.39E2,1.55E2,1.7E1,7E0,1.8E1,4.4E1,5E0,3E1,1.1E1,3E1,7.6E1,7E0,7E0,1.5E1,7.5E1,1.18E2,8E0,4.1E1,3.8E1,2.3E1,2.6E1,2.2E1,1.3E1,1.5E2,2.2E1,4E0,2.5E1,5E1,9E0,2.4E1,1.1E1,8E0,1.1E2,5.1E1,6.7E1,3.05E2,3.6E1,3.32E2,6E1,1.29E2,7.4E1,8.2E1,1.55E2,1.25E2,3.6E1,5.6E1,9E1,1.5E2],"tree_param":{"num_deleted":"0","num_feature":"7","num_nodes":"105","size_leaf_vector":"1"}},{"base_weights":[-6.9956074E-4,-8.781171E-1,2.8211558E-1,-1.9727852E0,-3.6202842E-1,6.1437253E-2,4.683897E-1,-2.548213E0,-1.1252853E0,-6.726054E-1,2.8779741E-2,-5.002282E-1,1.2882198E-1,3.741919E-1,5.632471E-1,-1.8428562E0,-3.3120806E0,-9.8376435E-1,-7.698101E-2,-4.118022E-1,-1.1740547E0,-2.0499378E-1,1.1598574E-1,-7.543975E-1,-1.1193383E-1,5.6692525E-3,2.4644695E-1,4.0992E-1,2.4882257E-1,6.088038E-1,5.0402856E-1,-1.0422667E0,-2.1312988E0,-4.096557E0,-2.5608132E0,-8.137765E-2,-9.331293E-1,-9.110166E-1,-3.504943E-1,-1.5106986E0,-8.836315E-1,-2.5274081E-2,-5.976494E-2,1.5426865E-1,-1.2084324E-1,-6.9083136E-1,-8.867776E-2,-1.4989378E-1,-4.1805208E-2,-2.5886908E-1,1.2054738E-1,3.2630283E-1,9.0061374E-2,3.733532E-1,4.74283E-1,1.4642274E-1,3.4227157E-1,2.7311152E-2,3.1375505E-2,2.314799E-2,2.7185459E-2,-5.8702942E-2,-3.0772572E-2,-8.6148515E-2,-1.1691995E-1,-1.206993E-1,-2.1450345E-1,-9.2690066E-2,-1.3759442E-1,-4.773327E-2,-1.3456262E-2,-2.8368253E-2,-5.129519E-2,-2.9953225E-2,-1.23914685E-2,-4.4116627E-2,-8.046897E-2,-5.1549833E-2,-3.036726E-2,4.0353797E-3,-1.110345E-2,-8.199291E-3,9.370414E-3,-8.612853E-3,6.991446E-3,-2.2573745E-2,-3.996552E-2,-3.647703E-3,-8.733696E-3,-2.7569064E-3,-9.691477E-4,-8.470348E-3,-2.2242902E-2,7.0451037E-3,-6.764186E-3,5.918392E-3,1.742134E-2,-9.777451E-3,7.1360655E-3,1.5768053E-2,2.0980997E-2,1.8908082E-2,2.4382716E-2,8.360941E-3,2.6393624E-3,1.6315816E-2,2.489814E-2],"categories":[],"categories_nodes":[],"categories_segments":[],"categories_sizes":[],"default_left":[0,0,0,0,0,0,0,0,0,0,0,0,0,0,0,0,0,0,0,0,0,0,0,0,0,0,0,0,0,0,0,0,0,0,0,0,0,0,0,0,0,0,0,0,0,0,0,0,0,0,0,0,0,0,0,0,0,0,0,0,0,0,0,0,0,0,0,0,0,0,0,0,0,0,0,0,0,0,0,0,0,0,0,0,0,0,0,0,0,0,0,0,0,0,0,0,0,0,0,0,0,0,0,0,0,0,0],"id":2,"left_children":[1,3,5,7,9,11,13,15,17,19,21,23,25,27,29,31,33,35,-1,37,39,41,43,45,47,49,51,53,55,57,59,61,63,65,67,-1,69,71,73,75,77,-1,79,81,83,85,-1,87,89,91,93,95,97,99,101,103,105,-1,-1,-1,-1,-1,-1,-1,-1,-1,-1,-1,-1,-1,-1,-1,-1,-1,-1,-1,-1,-1,-1,-1,-1,-1,-1,-1,-1,-1,-1,-1,-1,-1,-1,-1,-1,-1,-1,-1,-1,-1,-1,-1,-1,-1,-1,-1,-1,-1,-1],"loss_changes":[8.744695E2,4.845741E2,1.0952046E2,1.3124316E2,7.102432E1,4.6276447E1,1.2700836E1,8.17207E1,5.1113586E0,4.2150665E1,5.3242545E0,1.284428E1,1.5802649E1,3.158867E0,1.6301727E0,1.7868988E1,3.4889587E1,1.3173294E0,0E0,6.291546E0,9.517471E0,3.0681949E0,1.7412782E0,3.892704E0,1.3482392E-1,1.6259289E1,6.939087E0,1.1526794E0,1.5192261E0,1.2666321E-1,2.6651E-1,6.8369675E-1,1.2986145E0,1.3653564E0,5.724182E-1,0E0,9.299698E-1,3.2600594E-1,4.8023033E0,1.6803894E0,1.8981552E0,0E0,1.1350865E0,1.7604125E0,3.859445E-1,1.612484E0,0E0,5.2080393E-2,4.9103424E-3,2.6201515E0,1.9614081E0,1.6562881E0,2.8855522E0,8.4700394E-1,7.392502E-2,1.4695323E-1,4.8654556E-2,0E0,0E0,0E0,0E0,0E0,0E0,0E0,0E0,0E0,0E0,0E0,0E0,0E0,0E0,0E0,0E0,0E0,0E0,0E0,0E0,0E0,0E0,0E0,0E0,0E0,0E0,0E0,0E0,0E0,0E0,0E0,0E0,0E0,0E0,0E0,0E0,0E0,0E0,0E0,0E0,0E0,0E0,0E0,0E0,0E0,0E0,0E0,0E0,0E0,0E0],"parents":[2147483647,0,0,1,1,2,2,3,3,4,4,5,5,6,6,7,7,8,8,9,9,10,10,11,11,12,12,13,13,14,14,15,15,16,16,17,17,19,19,20,20,21,21,22,22,23,23,24,24,25,25,26,26,27,27,28,28,29,29,30,30,31,31,32,32,33,33,34,34,36,36,37,37,38,38,39,39,40,40,42,42,43,43,44,44,45,45,47,47,48,48,49,49,50,50,51,51,52,52,53,53,54,54,55,55,56,56],"right_children":[2,4,6,8,10,12,14,16,18,20,22,24,26,28,30,32,34,36,-1,38,40,42,44,46,48,50,52,54,56,58,60,62,64,66,68,-1,70,72,74,76,78,-1,80,82,84,86,-1,88,90,92,94,96,98,100,102,104,106,-1,-1,-1,-1,-1,-1,-1,-1,-1,-1,-1,-1,-1,-1,-1,-1,-1,-1,-1,-1,-1,-1,-1,-1,-1,-1,-1,-1,-1,-1,-1,-1,-1,-1,-1,-1,-1,-1,-1,-1,-1,-1,-1,-1,-1,-1,-1,-1,-1,-1],"split_conditions":[5.716541E2,5.7365246E4,1.01233356E3,3.4791516E2,6.4495742E4,5.4936016E4,1.2586136E3,1.2839241E0,1.6214026E0,-2.4195324E-1,6.567253E4,8.671433E2,6.5317137E4,5.118349E-1,-3.069808E-2,-1.454241E0,1.9128642E2,2.5523293E-1,-7.698101E-2,3.1323793E0,2.757697E2,3.4185586E0,-7.1993554E-1,7.834487E2,9.2125183E2,7.4302515E2,-3.985735E-1,6.848427E4,1.1516493E3,1.3332191E3,1.3832893E3,5.5022105E4,-6.314696E-1,1.0195955E0,1.1895141E1,-8.137765E-2,6.7758904E0,-1.003965E0,6.0066016E4,3.2447195E0,6.253407E4,-2.5274081E-2,-1.2914008E0,6.0147345E-1,5.6793365E2,3.1684227E0,-8.867776E-2,1.0762445E0,5.8494406E0,-3.9659435E-1,5.108322E-1,2.0939393E0,6.148631E2,1.1393179E3,1.5929348E0,1.7389196E0,8.369495E1,2.7311152E-2,3.1375505E-2,2.314799E-2,2.7185459E-2,-5.8702942E-2,-3.0772572E-2,-8.6148515E-2,-1.1691995E-1,-1.206993E-1,-2.1450345E-1,-9.2690066E-2,-1.3759442E-1,-4.773327E-2,-1.3456262E-2,-2.8368253E-2,-5.129519E-2,-2.9953225E-2,-1.23914685E-2,-4.4116627E-2,-8.046897E-2,-5.1549833E-2,-3.036726E-2,4.0353797E-3,-1.110345E-2,-8.199291E-3,9.370414E-3,-8.612853E-3,6.991446E-3,-2.2573745E-2,-3.996552E-2,-3.647703E-3,-8.733696E-3,-2.7569064E-3,-9.691477E-4,-8.470348E-3,-2.2242902E-2,7.0451037E-3,-6.764186E-3,5.918392E-3,1.742134E-2,-9.777451E-3,7.1360655E-3,1.5768053E-2,2.0980997E-2,1.8908082E-2,2.4382716E-2,8.360941E-3,2.6393624E-3,1.6315816E-2,2.489814E-2],"split_indices":[1,6,1,1,6,6,1,2,2,2,6,1,6,2,2,2,1,5,0,0,1,0,2,1,1,1,2,6,1,1,1,6,2,5,3,0,4,2,6,5,6,0,2,0,1,4,0,2,0,2,2,0,1,1,0,2,3,0,0,0,0,0,0,0,0,0,0,0,0,0,0,0,0,0,0,0,0,0,0,0,0,0,0,0,0,0,0,0,0,0,0,0,0,0,0,0,0,0,0,0,0,0,0,0,0,0,0],"split_type":[0,0,0,0,0,0,0,0,0,0,0,0,0,0,0,0,0,0,0,0,0,0,0,0,0,0,0,0,0,0,0,0,0,0,0,0,0,0,0,0,0,0,0,0,0,0,0,0,0,0,0,0,0,0,0,0,0,0,0,0,0,0,0,0,0,0,0,0,0,0,0,0,0,0,0,0,0,0,0,0,0,0,0,0,0,0,0,0,0,0,0,0,0,0,0,0,0,0,0,0,0,0,0,0,0,0,0],"sum_hessian":[3.522E3,8.58E2,2.664E3,2.74E2,5.84E2,1.22E3,1.444E3,1.62E2,1.12E2,3.25E2,2.59E2,1.3E2,1.09E3,7.27E2,7.17E2,8.6E1,7.6E1,8.6E1,2.6E1,2.15E2,1.1E2,7E1,1.89E2,7.8E1,5.2E1,5.33E2,5.57E2,5.64E2,1.63E2,4E2,3.17E2,2.4E1,6.2E1,3.5E1,4.1E1,4E0,8.2E1,2.2E1,1.93E2,4.9E1,6.1E1,2.2E1,4.8E1,1.63E2,2.6E1,7.5E1,3E0,3.3E1,1.9E1,1.61E2,3.72E2,3.68E2,1.89E2,3.64E2,2E2,7.9E1,8.4E1,9.9E1,3.01E2,1.62E2,1.55E2,1.7E1,7E0,2.4E1,3.8E1,5E0,3E1,1.1E1,3E1,7.9E1,3E0,7E0,1.5E1,5.5E1,1.38E2,8E0,4.1E1,3.8E1,2.3E1,2.6E1,2.2E1,1.5E1,1.48E2,2.2E1,4E0,2.5E1,5E1,9E0,2.4E1,1.1E1,8E0,1.1E2,5.1E1,3.45E2,2.7E1,3.6E1,3.32E2,2.9E1,1.6E2,1.65E2,1.99E2,2.8E1,1.72E2,6.4E1,1.5E1,7.9E1,5E0],"tree_param":{"num_deleted":"0","num_feature":"7","num_nodes":"107","size_leaf_vector":"1"}},{"base_weights":[-1.0547555E-3,-8.3588624E-1,2.6803392E-1,-1.8780644E0,-3.4454456E-1,5.8220416E-2,4.451372E-1,-2.4260662E0,-1.0709639E0,-8.816231E-2,-7.757561E-1,-4.7649404E-1,1.22371994E-1,3.605112E-1,5.406058E-1,-1.7540759E0,-3.1538208E0,-1.2593783E0,-7.9916996E-1,-4.5204422E-1,6.0782447E-2,-9.4931465E-1,-2.1752083E-1,-7.185917E-1,-1.0664102E-1,3.8899004E-2,2.81646E-1,4.1188076E-1,2.934384E-1,2.9201021E-2,4.8509067E-1,-9.9373245E-1,-2.027957E0,-3.9010406E0,-2.4382553E0,-1.3826246E0,-4.303781E-2,-1.5602431E-2,-4.2994175E-2,-5.6487745E-1,-2.5663278E-1,-3.0831498E-1,1.0626554E-1,-7.627457E-1,-1.3792294E0,-4.2328677E-1,-1.4006472E-1,-6.571126E-1,-8.535235E-2,-1.4276318E-1,-3.990128E-2,-2.1140625E-1,1.4510223E-1,3.2710728E-1,1.1776898E-1,3.182382E-1,4.34844E-1,1.6176423E-1,3.452183E-1,2.2210464E-2,2.5942609E-2,-5.5930853E-2,-2.9426267E-2,-7.784588E-2,-1.09088734E-1,-1.1567016E-1,-2.0412426E-1,-8.8441774E-2,-1.3093662E-1,-5.2737474E-2,-7.642015E-2,-2.4360947E-2,-3.379275E-2,-9.250284E-3,-2.0715721E-2,-2.3001246E-2,-7.814953E-3,-9.714467E-4,8.905041E-3,-5.4089885E-2,-2.826993E-2,-7.602071E-2,-4.3565053E-2,-2.5958968E-2,-1.2661288E-2,-1.0244369E-2,1.413102E-3,-2.1488471E-2,-3.8006425E-2,-3.4835518E-3,-8.314476E-3,-2.6305518E-3,-9.2607335E-4,-5.8623753E-3,-1.8870637E-2,8.052747E-3,-6.0872827E-3,4.379424E-3,1.760422E-2,-9.6162915E-4,9.0299165E-3,1.8248832E-2,1.2592959E-2,1.929728E-2,2.2976745E-2,1.1565402E-2,5.4451763E-3,1.5216499E-2,1.8378673E-2],"categories":[],"categories_nodes":[],"categories_segments":[],"categories_sizes":[],"default_left":[0,0,0,0,0,0,0,0,0,0,0,0,0,0,0,0,0,0,0,0,0,0,0,0,0,0,0,0,0,0,0,0,0,0,0,0,0,0,0,0,0,0,0,0,0,0,0,0,0,0,0,0,0,0,0,0,0,0,0,0,0,0,0,0,0,0,0,0,0,0,0,0,0,0,0,0,0,0,0,0,0,0,0,0,0,0,0,0,0,0,0,0,0,0,0,0,0,0,0,0,0,0,0,0,0,0,0,0,0],"id":3,"left_children":[1,3,5,7,9,11,13,15,17,19,21,23,25,27,29,31,33,35,37,39,41,43,45,47,49,51,53,55,57,-1,59,61,63,65,67,69,-1,-1,-1,71,73,75,77,79,81,83,85,87,-1,89,91,93,95,97,99,101,103,105,107,-1,-1,-1,-1,-1,-1,-1,-1,-1,-1,-1,-1,-1,-1,-1,-1,-1,-1,-1,-1,-1,-1,-1,-1,-1,-1,-1,-1,-1,-1,-1,-1,-1,-1,-1,-1,-1,-1,-1,-1,-1,-1,-1,-1,-1,-1,-1,-1,-1,-1],"loss_changes":[7.916438E2,4.3921722E2,9.900192E1,1.19032166E2,6.460629E1,4.1942E1,1.1479462E1,7.418219E1,4.780258E0,1.9972454E1,2.091475E1,1.1653181E1,1.4493975E1,2.5287247E0,1.3483734E0,1.610196E1,3.1658997E1,2.0032654E0,1.1808434E0,2.2142658E0,4.431138E0,1.226265E1,7.8541756E-1,3.679058E0,1.2207508E-1,1.9090847E1,2.755251E0,7.92717E-1,2.241848E0,0E0,1.8772125E-1,6.0676956E-1,1.1677551E0,9.260864E-1,4.421234E-1,6.821747E-1,0E0,0E0,0E0,2.4814034E-1,3.86415E-1,5.9690595E-1,2.116316E0,6.8181076E0,2.1891403E0,9.6836805E-2,4.4224584E-1,1.4532356E0,0E0,4.6880543E-2,4.460208E-3,3.3007746E0,2.1651077E0,1.7220325E0,7.179141E-1,1.8419552E-1,2.3917389E-1,3.313949E-1,1.0842514E-1,0E0,0E0,0E0,0E0,0E0,0E0,0E0,0E0,0E0,0E0,0E0,0E0,0E0,0E0,0E0,0E0,0E0,0E0,0E0,0E0,0E0,0E0,0E0,0E0,0E0,0E0,0E0,0E0,0E0,0E0,0E0,0E0,0E0,0E0,0E0,0E0,0E0,0E0,0E0,0E0,0E0,0E0,0E0,0E0,0E0,0E0,0E0,0E0,0E0,0E0],"parents":[2147483647,0,0,1,1,2,2,3,3,4,4,5,5,6,6,7,7,8,8,9,9,10,10,11,11,12,12,13,13,14,14,15,15,16,16,17,17,18,18,19,19,20,20,21,21,22,22,23,23,24,24,25,25,26,26,27,27,28,28,30,30,31,31,32,32,33,33,34,34,35,35,39,39,40,40,41,41,42,42,43,43,44,44,45,45,46,46,47,47,49,49,50,50,51,51,52,52,53,53,54,54,55,55,56,56,57,57,58,58],"right_children":[2,4,6,8,10,12,14,16,18,20,22,24,26,28,30,32,34,36,38,40,42,44,46,48,50,52,54,56,58,-1,60,62,64,66,68,70,-1,-1,-1,72,74,76,78,80,82,84,86,88,-1,90,92,94,96,98,100,102,104,106,108,-1,-1,-1,-1,-1,-1,-1,-1,-1,-1,-1,-1,-1,-1,-1,-1,-1,-1,-1,-1,-1,-1,-1,-1,-1,-1,-1,-1,-1,-1,-1,-1,-1,-1,-1,-1,-1,-1,-1,-1,-1,-1,-1,-1,-1,-1,-1,-1,-1,-1],"split_conditions":[5.716541E2,5.7365246E4,1.01233356E3,3.4791516E2,-7.1993554E-1,5.4936016E4,1.2856421E3,1.2839241E0,4.929565E2,6.266343E4,6.4495742E4,8.671433E2,6.705811E4,-2.1638918E-1,-9.579839E-2,-1.454241E0,1.9128642E2,1.0858829E1,-1.003965E0,1.0858829E1,7.739129E-1,5.4442257E-1,3.4185586E0,7.834487E2,9.2125183E2,7.4302515E2,-1.9112824E-1,1.0351117E0,1.1056637E3,2.9201021E-2,1.3832893E3,5.5022105E4,-8.919499E-1,1.0195955E0,1.1895141E1,1.0400221E0,-4.303781E-2,-1.5602431E-2,-4.2994175E-2,1.021787E1,-1.3643674E0,3.6916107E2,6.537818E4,5.704286E0,4.046231E2,4.5866812E2,4.148352E0,3.1684227E0,-8.535235E-2,1.0762445E0,5.8494406E0,-3.9659435E-1,5.108322E-1,1.7139658E0,6.9039764E2,4.6620026E0,6.65701E4,7.4893737E-1,1.1851859E3,2.2210464E-2,2.5942609E-2,-5.5930853E-2,-2.9426267E-2,-7.784588E-2,-1.09088734E-1,-1.1567016E-1,-2.0412426E-1,-8.8441774E-2,-1.3093662E-1,-5.2737474E-2,-7.642015E-2,-2.4360947E-2,-3.379275E-2,-9.250284E-3,-2.0715721E-2,-2.3001246E-2,-7.814953E-3,-9.714467E-4,8.905041E-3,-5.4089885E-2,-2.826993E-2,-7.602071E-2,-4.3565053E-2,-2.5958968E-2,-1.2661288E-2,-1.0244369E-2,1.413102E-3,-2.1488471E-2,-3.8006425E-2,-3.4835518E-3,-8.314476E-3,-2.6305518E-3,-9.2607335E-4,-5.8623753E-3,-1.8870637E-2,8.052747E-3,-6.0872827E-3,4.379424E-3,1.760422E-2,-9.6162915E-4,9.0299165E-3,1.8248832E-2,1.2592959E-2,1.929728E-2,2.2976745E-2,1.1565402E-2,5.4451763E-3,1.5216499E-2,1.8378673E-2],"split_indices":[1,6,1,1,2,6,1,2,1,6,6,1,6,2,2,2,1,0,2,0,0,2,0,1,1,1,2,0,1,0,1,6,2,5,3,2,0,0,0,5,2,1,6,0,1,1,5,4,0,2,0,2,2,0,1,4,6,2,1,0,0,0,0,0,0,0,0,0,0,0,0,0,0,0,0,0,0,0,0,0,0,0,0,0,0,0,0,0,0,0,0,0,0,0,0,0,0,0,0,0,0,0,0,0,0,0,0,0,0],"split_type":[0,0,0,0,0,0,0,0,0,0,0,0,0,0,0,0,0,0,0,0,0,0,0,0,0,0,0,0,0,0,0,0,0,0,0,0,0,0,0,0,0,0,0,0,0,0,0,0,0,0,0,0,0,0,0,0,0,0,0,0,0,0,0,0,0,0,0,0,0,0,0,0,0,0,0,0,0,0,0,0,0,0,0,0,0,0,0,0,0,0,0,0,0,0,0,0,0,0,0,0,0,0,0,0,0,0,0,0,0],"sum_hessian":[3.522E3,8.58E2,2.664E3,2.74E2,5.84E2,1.22E3,1.444E3,1.62E2,1.12E2,3.67E2,2.17E2,1.3E2,1.09E3,7.68E2,6.76E2,8.6E1,7.6E1,6.4E1,4.8E1,1.06E2,2.61E2,1.65E2,5.2E1,7.8E1,5.2E1,7.16E2,3.74E2,4.32E2,3.36E2,3.74E2,3.02E2,2.4E1,6.2E1,3.5E1,4.1E1,4.7E1,1.7E1,6E0,4.2E1,6.6E1,4E1,2.8E1,2.33E2,1.17E2,4.8E1,1.3E1,3.9E1,7.5E1,3E0,3.3E1,1.9E1,2.13E2,5.03E2,2.92E2,8.2E1,8.8E1,3.44E2,9.6E1,2.4E2,1.43E2,1.59E2,1.7E1,7E0,1.8E1,4.4E1,5E0,3E1,1.1E1,3E1,1.7E1,3E1,4.2E1,2.4E1,2.9E1,1.1E1,1.3E1,1.5E1,8.5E1,1.48E2,4.3E1,7.4E1,3.6E1,1.2E1,7E0,6E0,2.8E1,1.1E1,2.5E1,5E1,9E0,2.4E1,1.1E1,8E0,1.37E2,7.6E1,4.75E2,2.8E1,2.8E1,2.64E2,2.6E1,5.6E1,4.9E1,3.9E1,1.21E2,2.23E2,4E1,5.6E1,9E1,1.5E2],"tree_param":{"num_deleted":"0","num_feature":"7","num_nodes":"109","size_leaf_vector":"1"}},{"base_weights":[-1.3864813E-3,-7.957248E-1,2.546503E-1,-1.7879512E0,-3.2793337E-1,5.5184156E-2,4.230195E-1,-2.3097413E0,-1.019458E0,-8.405577E-2,-7.3811233E-1,-4.5389223E-1,1.16260074E-1,3.273585E-1,4.9952176E-1,-1.6695019E0,-3.0031319E0,-1.1990585E0,-7.6040727E-1,-4.3026555E-1,5.765608E-2,-9.0306544E-1,-2.075401E-1,-6.8449557E-1,-1.01598755E-1,3.4438153E-3,2.2401567E-1,3.596062E-1,2.0402266E-1,5.287152E-1,4.159196E-1,-9.4746006E-1,-1.9295264E0,-3.714872E0,-2.3215659E0,-1.3161842E0,-4.1005462E-2,-1.49337575E-2,-4.0894452E-2,-5.375016E-1,-2.4453193E-1,-2.939619E-1,1.0098627E-1,-7.2530633E-1,-1.3127085E0,-4.0488103E-1,-1.3328227E-1,-6.2503976E-1,-8.215163E-2,-1.3597211E-1,-3.8084112E-2,-2.1062195E-1,1.2036574E-1,2.9678896E-1,8.150323E-2,3.259084E-1,4.1418055E-1,1.3182862E-1,3.0176827E-1,4.7396854E-1,2.7696738E-2,1.7900432E-2,2.2250473E-2,-5.3289678E-2,-2.8138865E-2,-7.790187E-2,-1.0590928E-1,-1.10850565E-1,-1.9424729E-1,-8.438819E-2,-1.2460097E-1,-5.02471E-2,-7.27224E-2,-2.317123E-2,-3.2170698E-2,-6.127537E-3,-1.629145E-2,-2.1933334E-2,-7.44863E-3,-9.2343375E-4,8.462783E-3,-5.1446863E-2,-2.6875276E-2,-7.232241E-2,-4.155436E-2,-2.4823261E-2,-1.2118663E-2,-9.749812E-3,1.3483346E-3,-2.0455373E-2,-3.614336E-2,-3.3267927E-3,-7.915387E-3,-2.5099884E-3,-8.8491704E-4,-6.330676E-3,-1.9678965E-2,-1.2653932E-3,6.974537E-3,1.1081408E-2,1.7570255E-2,-3.0892107E-3,8.472823E-3,1.3940995E-2,1.8422661E-2,1.9233277E-2,2.2600394E-2,7.556124E-3,2.2603997E-3,1.3874422E-2,2.309494E-2,2.4882386E-2,2.11005E-2],"categories":[],"categories_nodes":[],"categories_segments":[],"categories_sizes":[],"default_left":[0,0,0,0,0,0,0,0,0,0,0,0,0,0,0,0,0,0,0,0,0,0,0,0,0,0,0,0,0,0,0,0,0,0,0,0,0,0,0,0,0,0,0,0,0,0,0,0,0,0,0,0,0,0,0,0,0,0,0,0,0,0,0,0,0,0,0,0,0,0,0,0,0,0,0,0,0,0,0,0,0,0,0,0,0,0,0,0,0,0,0,0,0,0,0,0,0,0,0,0,0,0,0,0,0,0,0,0,0,0,0,0,0],"id":4,"left_children":[1,3,5,7,9,11,13,15,17,19,21,23,25,27,29,31,33,35,37,39,41,43,45,47,49,51,53,55,57,59,61,63,65,67,69,71,-1,-1,-1,73,75,77,79,81,83,85,87,89,-1,91,93,95,97,99,101,103,105,107,109,111,-1,-1,-1,-1,-1,-1,-1,-1,-1,-1,-1,-1,-1,-1,-1,-1,-1,-1,-1,-1,-1,-1,-1,-1,-1,-1,-1,-1,-1,-1,-1,-1,-1,-1,-1,-1,-1,-1,-1,-1,-1,-1,-1,-1,-1,-1,-1,-1,-1,-1,-1,-1,-1],"loss_changes":[7.167097E2,3.9812286E2,8.947789E1,1.0791809E2,5.8457535E1,3.801648E1,1.0411377E1,6.734784E1,4.3456345E0,1.8079634E1,1.8891838E1,1.0572903E1,1.326206E1,2.4919891E0,1.7350464E0,1.4505966E1,2.872821E1,1.8055801E0,1.0562363E0,1.9997177E0,4.0214334E0,1.1135635E1,7.2270465E-1,3.475296E0,1.1053181E-1,1.3390827E1,5.762886E0,8.029251E-1,9.199228E-1,5.52063E-1,1.9782257E-1,5.3821564E-1,1.1151276E0,5.579529E-1,3.3148193E-1,6.039734E-1,0E0,0E0,0E0,2.2748566E-1,3.6665463E-1,5.430894E-1,1.9114234E0,6.1755524E0,1.9540558E0,8.8033915E-2,4.0084243E-1,1.3097019E0,0E0,4.2197526E-2,4.051285E-3,2.855091E0,9.6748924E-1,1.4368591E0,2.4049623E0,5.3834915E-1,3.937149E-2,1.2686789E-1,9.344149E-2,2.7442932E-2,0E0,0E0,0E0,0E0,0E0,0E0,0E0,0E0,0E0,0E0,0E0,0E0,0E0,0E0,0E0,0E0,0E0,0E0,0E0,0E0,0E0,0E0,0E0,0E0,0E0,0E0,0E0,0E0,0E0,0E0,0E0,0E0,0E0,0E0,0E0,0E0,0E0,0E0,0E0,0E0,0E0,0E0,0E0,0E0,0E0,0E0,0E0,0E0,0E0,0E0,0E0,0E0,0E0],"parents":[2147483647,0,0,1,1,2,2,3,3,4,4,5,5,6,6,7,7,8,8,9,9,10,10,11,11,12,12,13,13,14,14,15,15,16,16,17,17,18,18,19,19,20,20,21,21,22,22,23,23,24,24,25,25,26,26,27,27,28,28,29,29,30,30,31,31,32,32,33,33,34,34,35,35,39,39,40,40,41,41,42,42,43,43,44,44,45,45,46,46,47,47,49,49,50,50,51,51,52,52,53,53,54,54,55,55,56,56,57,57,58,58,59,59],"right_children":[2,4,6,8,10,12,14,16,18,20,22,24,26,28,30,32,34,36,38,40,42,44,46,48,50,52,54,56,58,60,62,64,66,68,70,72,-1,-1,-1,74,76,78,80,82,84,86,88,90,-1,92,94,96,98,100,102,104,106,108,110,112,-1,-1,-1,-1,-1,-1,-1,-1,-1,-1,-1,-1,-1,-1,-1,-1,-1,-1,-1,-1,-1,-1,-1,-1,-1,-1,-1,-1,-1,-1,-1,-1,-1,-1,-1,-1,-1,-1,-1,-1,-1,-1,-1,-1,-1,-1,-1,-1,-1,-1,-1,-1,-1],"split_conditions":[5.716541E2,5.7365246E4,1.01233356E3,3.4791516E2,-7.1993554E-1,5.4936016E4,1.2338942E3,1.2839241E0,4.929565E2,6.266343E4,6.4495742E4,8.671433E2,6.5317137E4,5.118349E-1,9.7776866E-1,-1.454241E0,1.9128642E2,1.0858829E1,-1.003965E0,1.0858829E1,7.739129E-1,5.4442257E-1,3.4185586E0,7.834487E2,9.2125183E2,7.7388184E2,-3.985735E-1,6.826946E4,1.1516493E3,1.3332191E3,1.3279686E3,5.5022105E4,-6.314696E-1,1.0195955E0,1.1895141E1,1.0400221E0,-4.1005462E-2,-1.49337575E-2,-4.0894452E-2,1.021787E1,-1.6597744E0,3.6916107E2,6.537818E4,5.704286E0,4.046231E2,4.5866812E2,4.148352E0,3.1684227E0,-8.215163E-2,1.0762445E0,5.8494406E0,-3.9659435E-1,8.163484E2,6.806023E4,7.278237E2,1.1393179E3,7.870062E0,1.7389196E0,1.6602429E0,-3.6235338E-1,2.7696738E-2,1.7900432E-2,2.2250473E-2,-5.3289678E-2,-2.8138865E-2,-7.790187E-2,-1.0590928E-1,-1.10850565E-1,-1.9424729E-1,-8.438819E-2,-1.2460097E-1,-5.02471E-2,-7.27224E-2,-2.317123E-2,-3.2170698E-2,-6.127537E-3,-1.629145E-2,-2.1933334E-2,-7.44863E-3,-9.2343375E-4,8.462783E-3,-5.1446863E-2,-2.6875276E-2,-7.232241E-2,-4.155436E-2,-2.4823261E-2,-1.2118663E-2,-9.749812E-3,1.3483346E-3,-2.0455373E-2,-3.614336E-2,-3.3267927E-3,-7.915387E-3,-2.5099884E-3,-8.8491704E-4,-6.330676E-3,-1.9678965E-2,-1.2653932E-3,6.974537E-3,1.1081408E-2,1.7570255E-2,-3.0892107E-3,8.472823E-3,1.3940995E-2,1.8422661E-2,1.9233277E-2,2.2600394E-2,7.556124E-3,2.2603997E-3,1.3874422E-2,2.309494E-2,2.4882386E-2,2.11005E-2],"split_indices":[1,6,1,1,2,6,1,2,1,6,6,1,6,2,2,2,1,0,2,0,0,2,0,1,1,1,2,6,1,1,1,6,2,5,3,2,0,0,0,5,2,1,6,0,1,1,5,4,0,2,0,2,1,6,1,1,0,2,2,2,0,0,0,0,0,0,0,0,0,0,0,0,0,0,0,0,0,0,0,0,0,0,0,0,0,0,0,0,0,0,0,0,0,0,0,0,0,0,0,0,0,0,0,0,0,0,0,0,0,0,0,0,0],"split_type":[0,0,0,0,0,0,0,0,0,0,0,0,0,0,0,0,0,0,0,0,0,0,0,0,0,0,0,0,0,0,0,0,0,0,0,0,0,0,0,0,0,0,0,0,0,0,0,0,0,0,0,0,0,0,0,0,0,0,0,0,0,0,0,0,0,0,0,0,0,0,0,0,0,0,0,0,0,0,0,0,0,0,0,0,0,0,0,0,0,0,0,0,0,0,0,0,0,0,0,0,0,0,0,0,0,0,0,0,0,0,0,0,0],"sum_hessian":[3.522E3,8.58E2,2.664E3,2.74E2,5.84E2,1.22E3,1.444E3,1.62E2,1.12E2,3.67E2,2.17E2,1.3E2,1.09E3,6.44E2,8E2,8.6E1,7.6E1,6.4E1,4.8E1,1.06E2,2.61E2,1.65E2,5.2E1,7.8E1,5.2E1,5.33E2,5.57E2,5.09E2,1.35E2,5.89E2,2.11E2,2.4E1,6.2E1,3.5E1,4.1E1,4.7E1,1.7E1,6E0,4.2E1,6.6E1,4E1,2.8E1,2.33E2,1.17E2,4.8E1,1.3E1,3.9E1,7.5E1,3E0,3.3E1,1.9E1,1.88E2,3.45E2,3.68E2,1.89E2,3.19E2,1.9E2,7.9E1,5.6E1,1.92E2,3.97E2,7.5E1,1.36E2,1.7E1,7E0,2.4E1,3.8E1,5E0,3E1,1.1E1,3E1,1.7E1,3E1,4.2E1,2.4E1,1.7E1,2.3E1,1.3E1,1.5E1,8.5E1,1.48E2,4.3E1,7.4E1,3.6E1,1.2E1,7E0,6E0,2.8E1,1.1E1,2.5E1,5E1,9E0,2.4E1,1.1E1,8E0,1.3E2,5.8E1,4E1,3.05E2,1.57E2,2.11E2,7.2E1,1.17E2,1.55E2,1.64E2,1.13E2,7.7E1,6.4E1,1.5E1,5.1E1,5E0,1.26E2,6.6E1],"tree_param":{"num_deleted":"0","num_feature":"7","num_nodes":"113","size_leaf_vector":"1"}},{"base_weights":[-1.6694475E-3,-7.5749415E-1,2.4195348E-1,-1.7021868E0,-3.12113E-1,5.2310582E-2,4.02031E-1,-2.1990354E0,-9.704303E-1,-8.01236E-2,-7.022964E-1,-4.3236852E-1,1.1045967E-1,3.1117815E-1,4.7468773E-1,-1.5890756E0,-2.8596518E0,-1.1416284E0,-7.235262E-1,-4.0947902E-1,5.468996E-2,-8.5907E-1,-1.980186E-1,-6.520272E-1,-9.679489E-2,3.2336698E-3,2.1287584E-1,3.417714E-1,1.9416545E-1,5.145408E-1,4.177144E-1,-9.033442E-1,-1.8359678E0,-3.5376031E0,-2.2104635E0,-1.2529368E0,-3.9069097E-2,-1.4293738E-2,-3.889728E-2,-5.114525E-1,-2.3285215E-1,-2.8027695E-1,9.596924E-2,-6.897048E-1,-1.249397E0,-3.8727576E-1,-1.2682812E-1,-5.945325E-1,-7.907095E-2,-1.2950405E-1,-3.6349572E-2,-2.2569995E-1,1.0265461E-1,2.8202713E-1,7.745633E-2,3.097141E-1,3.936906E-1,1.1903771E-1,2.7932876E-1,2.2423368E-2,2.6611775E-2,3.767569E-1,2.3227321E-2,-5.0773222E-2,-2.690779E-2,-7.416258E-2,-1.0074959E-1,-1.0623179E-1,-1.8484823E-1,-8.052039E-2,-1.185719E-1,-7.694853E-2,-5.4494716E-2,-1.5043429E-2,-2.6947096E-2,-8.303738E-3,-1.9019565E-2,-2.0915002E-2,-7.0994734E-3,-1.7078456E-3,7.6429755E-3,-4.8932977E-2,-2.554943E-2,-7.533442E-2,-4.9197454E-2,-2.3737246E-2,-1.1599296E-2,-9.279127E-3,1.2865395E-3,-1.9471943E-2,-3.4371626E-2,-3.1770826E-3,-7.5354427E-3,-2.3949435E-3,-8.455833E-4,-7.4464814E-3,-1.9261735E-2,-1.6667548E-3,6.626954E-3,4.556605E-3,1.511954E-2,-8.7210545E-3,6.195446E-3,1.3248409E-2,1.7507114E-2,1.8280052E-2,2.148486E-2,6.880821E-3,2.1544413E-3,1.2880856E-2,2.2132654E-2,1.582159E-2,1.951453E-2],"categories":[],"categories_nodes":[],"categories_segments":[],"categories_sizes":[],"default_left":[0,0,0,0,0,0,0,0,0,0,0,0,0,0,0,0,0,0,0,0,0,0,0,0,0,0,0,0,0,0,0,0,0,0,0,0,0,0,0,0,0,0,0,0,0,0,0,0,0,0,0,0,0,0,0,0,0,0,0,0,0,0,0,0,0,0,0,0,0,0,0,0,0,0,0,0,0,0,0,0,0,0,0,0,0,0,0,0,0,0,0,0,0,0,0,0,0,0,0,0,0,0,0,0,0,0,0,0,0,0,0,0,0],"id":5,"left_children":[1,3,5,7,9,11,13,15,17,19,21,23,25,27,29,31,33,35,37,39,41,43,45,47,49,51,53,55,57,59,61,63,65,67,69,71,-1,-1,-1,73,75,77,79,81,83,85,87,89,-1,91,93,95,97,99,101,103,105,107,109,-1,-1,111,-1,-1,-1,-1,-1,-1,-1,-1,-1,-1,-1,-1,-1,-1,-1,-1,-1,-1,-1,-1,-1,-1,-1,-1,-1,-1,-1,-1,-1,-1,-1,-1,-1,-1,-1,-1,-1,-1,-1,-1,-1,-1,-1,-1,-1,-1,-1,-1,-1,-1,-1],"loss_changes":[6.488952E2,3.6089154E2,8.088188E1,9.784833E1,5.2896988E1,3.445999E1,9.390839E0,6.1136597E1,3.9504547E0,1.6362175E1,1.7064415E1,9.593113E0,1.1980323E1,2.242611E0,1.6038055E0,1.307074E1,2.6069336E1,1.6273727E0,9.4462395E-1,1.8081093E0,3.649622E0,1.0112183E1,6.64968E-1,3.281166E0,1.00079745E-1,1.2177435E1,5.2035084E0,7.269058E-1,8.36895E-1,3.0729675E-1,4.6755219E-1,4.7714806E-1,9.893799E-1,2.5149536E-1,2.3796082E-1,5.611954E-1,0E0,0E0,0E0,2.2570038E-1,3.4077E-1,4.941249E-1,1.7375026E0,5.5935364E0,1.8640747E0,8.002877E-2,3.633157E-1,1.1803303E0,0E0,3.798014E-2,3.6798306E-3,1.9267282E0,1.5202825E0,1.4068623E0,2.2446804E0,4.8610115E-1,3.608322E-2,9.848666E-2,1.0936451E-1,0E0,0E0,2.6720047E-2,0E0,0E0,0E0,0E0,0E0,0E0,0E0,0E0,0E0,0E0,0E0,0E0,0E0,0E0,0E0,0E0,0E0,0E0,0E0,0E0,0E0,0E0,0E0,0E0,0E0,0E0,0E0,0E0,0E0,0E0,0E0,0E0,0E0,0E0,0E0,0E0,0E0,0E0,0E0,0E0,0E0,0E0,0E0,0E0,0E0,0E0,0E0,0E0,0E0,0E0,0E0],"parents":[2147483647,0,0,1,1,2,2,3,3,4,4,5,5,6,6,7,7,8,8,9,9,10,10,11,11,12,12,13,13,14,14,15,15,16,16,17,17,18,18,19,19,20,20,21,21,22,22,23,23,24,24,25,25,26,26,27,27,28,28,29,29,30,30,31,31,32,32,33,33,34,34,35,35,39,39,40,40,41,41,42,42,43,43,44,44,45,45,46,46,47,47,49,49,50,50,51,51,52,52,53,53,54,54,55,55,56,56,57,57,58,58,61,61],"right_children":[2,4,6,8,10,12,14,16,18,20,22,24,26,28,30,32,34,36,38,40,42,44,46,48,50,52,54,56,58,60,62,64,66,68,70,72,-1,-1,-1,74,76,78,80,82,84,86,88,90,-1,92,94,96,98,100,102,104,106,108,110,-1,-1,112,-1,-1,-1,-1,-1,-1,-1,-1,-1,-1,-1,-1,-1,-1,-1,-1,-1,-1,-1,-1,-1,-1,-1,-1,-1,-1,-1,-1,-1,-1,-1,-1,-1,-1,-1,-1,-1,-1,-1,-1,-1,-1,-1,-1,-1,-1,-1,-1,-1,-1,-1],"split_conditions":[5.716541E2,5.7365246E4,1.01233356E3,3.4791516E2,-7.1993554E-1,5.4936016E4,1.2338942E3,1.2839241E0,4.929565E2,6.266343E4,6.4495742E4,8.671433E2,6.5317137E4,5.118349E-1,8.0679566E-2,-1.454241E0,1.9128642E2,1.0858829E1,-1.003965E0,1.0858829E1,7.739129E-1,5.4442257E-1,3.4185586E0,7.834487E2,9.2125183E2,7.4302515E2,-3.985735E-1,6.826946E4,1.1056637E3,1.31245E3,1.3832893E3,5.5022105E4,-6.314696E-1,1.0195955E0,1.1895141E1,4.5866812E2,-3.9069097E-2,-1.4293738E-2,-3.889728E-2,-1.8972415E0,-1.3643674E0,3.6916107E2,6.4866617E4,5.704286E0,2.4927307E2,4.5866812E2,4.148352E0,3.1684227E0,-7.907095E-2,1.0762445E0,5.8494406E0,-3.9659435E-1,8.163484E2,2.0939393E0,6.148631E2,1.1393179E3,7.870062E0,1.7389196E0,1.6602429E0,2.2423368E-2,2.6611775E-2,1.2586136E3,2.3227321E-2,-5.0773222E-2,-2.690779E-2,-7.416258E-2,-1.0074959E-1,-1.0623179E-1,-1.8484823E-1,-8.052039E-2,-1.185719E-1,-7.694853E-2,-5.4494716E-2,-1.5043429E-2,-2.6947096E-2,-8.303738E-3,-1.9019565E-2,-2.0915002E-2,-7.0994734E-3,-1.7078456E-3,7.6429755E-3,-4.8932977E-2,-2.554943E-2,-7.533442E-2,-4.9197454E-2,-2.3737246E-2,-1.1599296E-2,-9.279127E-3,1.2865395E-3,-1.9471943E-2,-3.4371626E-2,-3.1770826E-3,-7.5354427E-3,-2.3949435E-3,-8.455833E-4,-7.4464814E-3,-1.9261735E-2,-1.6667548E-3,6.626954E-3,4.556605E-3,1.511954E-2,-8.7210545E-3,6.195446E-3,1.3248409E-2,1.7507114E-2,1.8280052E-2,2.148486E-2,6.880821E-3,2.1544413E-3,1.2880856E-2,2.2132654E-2,1.582159E-2,1.951453E-2],"split_indices":[1,6,1,1,2,6,1,2,1,6,6,1,6,2,2,2,1,0,2,0,0,2,0,1,1,1,2,6,1,1,1,6,2,5,3,1,0,0,0,2,2,1,6,0,1,1,5,4,0,2,0,2,1,0,1,1,0,2,2,0,0,1,0,0,0,0,0,0,0,0,0,0,0,0,0,0,0,0,0,0,0,0,0,0,0,0,0,0,0,0,0,0,0,0,0,0,0,0,0,0,0,0,0,0,0,0,0,0,0,0,0,0,0],"split_type":[0,0,0,0,0,0,0,0,0,0,0,0,0,0,0,0,0,0,0,0,0,0,0,0,0,0,0,0,0,0,0,0,0,0,0,0,0,0,0,0,0,0,0,0,0,0,0,0,0,0,0,0,0,0,0,0,0,0,0,0,0,0,0,0,0,0,0,0,0,0,0,0,0,0,0,0,0,0,0,0,0,0,0,0,0,0,0,0,0,0,0,0,0,0,0,0,0,0,0,0,0,0,0,0,0,0,0,0,0,0,0,0,0],"sum_hessian":[3.522E3,8.58E2,2.664E3,2.74E2,5.84E2,1.22E3,1.444E3,1.62E2,1.12E2,3.67E2,2.17E2,1.3E2,1.09E3,6.44E2,8E2,8.6E1,7.6E1,6.4E1,4.8E1,1.06E2,2.61E2,1.65E2,5.2E1,7.8E1,5.2E1,5.33E2,5.57E2,5.09E2,1.35E2,4.66E2,3.34E2,2.4E1,6.2E1,3.5E1,4.1E1,4.7E1,1.7E1,6E0,4.2E1,6.6E1,4E1,2.8E1,2.33E2,1.17E2,4.8E1,1.3E1,3.9E1,7.5E1,3E0,3.3E1,1.9E1,1.61E2,3.72E2,3.68E2,1.89E2,3.19E2,1.9E2,7.3E1,6.2E1,1.04E2,3.62E2,1.83E2,1.51E2,1.7E1,7E0,2.4E1,3.8E1,5E0,3E1,1.1E1,3E1,1.4E1,3.3E1,9E0,5.7E1,2.9E1,1.1E1,1.3E1,1.5E1,7.1E1,1.62E2,4.3E1,7.4E1,2.2E1,2.6E1,7E0,6E0,2.8E1,1.1E1,2.5E1,5E1,9E0,2.4E1,1.1E1,8E0,1.1E2,5.1E1,6.7E1,3.05E2,3.6E1,3.32E2,2.9E1,1.6E2,1.55E2,1.64E2,1.13E2,7.7E1,5.8E1,1.5E1,5.7E1,5E0,3.8E1,1.45E2],"tree_param":{"num_deleted":"0","num_feature":"7","num_nodes":"113","size_leaf_vector":"1"}},{"base_weights":[-1.9349619E-3,-7.211331E-1,2.2988234E-1,-1.620592E0,-2.9707786E-1,5.317133E-2,3.8524586E-1,-2.0936403E0,-9.238885E-1,-7.6365806E-2,-6.6829324E-1,-3.9708346E-1,1.0814121E-1,3.129448E-1,4.6391967E-1,-1.5125252E0,-2.7230349E0,-1.0871701E0,-6.8843544E-1,-3.8965294E-1,5.1871166E-2,-8.173154E-1,-1.8893525E-1,-6.211083E-1,-8.509989E-2,4.3565284E-2,2.6944402E-1,3.58907E-1,2.5510317E-1,5.016576E-1,4.156832E-1,-8.612843E-1,-1.7469459E0,-1.6844043E-1,-2.1046805E0,-1.1930285E0,-3.7224166E-2,-1.3681151E-2,-7.399529E-1,-4.8650664E-1,-2.2187603E-1,-2.6722917E-1,9.119612E-2,-6.558507E-1,-1.1894687E0,-3.7043604E-1,-1.206866E-1,-5.655144E-1,-7.610578E-2,-1.23343885E-1,-2.9684067E-2,-1.4286414E-1,1.3582383E-1,3.145689E-1,1.1640295E-1,2.7396387E-1,3.8323095E-1,1.4552648E-1,2.9587474E-1,2.3691747E-2,2.6354758E-2,1.9124871E-2,2.2349136E-2,-4.8375603E-2,-2.573058E-2,-6.6955395E-2,-9.401616E-2,-7.682987E-2,-1.1283455E-1,-4.5300957E-2,-6.605971E-2,-3.8785957E-2,-2.4325542E-2,-2.0848168E-2,-2.9333044E-2,-5.446062E-3,-1.4867364E-2,-1.9943947E-2,-6.7666895E-3,-8.6951506E-4,7.662905E-3,-4.6541933E-2,-2.4288991E-2,-7.173148E-2,-4.6828687E-2,-2.2698743E-2,-1.1102183E-2,-7.6145157E-3,6.5498757E-3,-1.8535795E-2,-3.2686748E-2,-3.03411E-3,-7.1737403E-3,-1.0120553E-3,-2.810663E-3,-2.9175018E-3,-1.600772E-2,1.017399E-2,4.4720853E-3,1.0368646E-2,1.7942963E-2,2.4142175E-3,9.978599E-3,1.5692497E-2,1.0688805E-2,1.8289022E-2,2.1979045E-2,9.872911E-3,5.089086E-3,1.4268519E-2,1.8948076E-2],"categories":[],"categories_nodes":[],"categories_segments":[],"categories_sizes":[],"default_left":[0,0,0,0,0,0,0,0,0,0,0,0,0,0,0,0,0,0,0,0,0,0,0,0,0,0,0,0,0,0,0,0,0,0,0,0,0,0,0,0,0,0,0,0,0,0,0,0,0,0,0,0,0,0,0,0,0,0,0,0,0,0,0,0,0,0,0,0,0,0,0,0,0,0,0,0,0,0,0,0,0,0,0,0,0,0,0,0,0,0,0,0,0,0,0,0,0,0,0,0,0,0,0,0,0,0,0,0,0,0,0],"id":6,"left_children":[1,3,5,7,9,11,13,15,17,19,21,23,25,27,29,31,33,35,37,39,41,43,45,47,49,51,53,55,57,59,61,63,65,-1,67,69,-1,-1,71,73,75,77,79,81,83,85,87,89,-1,91,93,95,97,99,101,103,105,107,109,-1,-1,-1,-1,-1,-1,-1,-1,-1,-1,-1,-1,-1,-1,-1,-1,-1,-1,-1,-1,-1,-1,-1,-1,-1,-1,-1,-1,-1,-1,-1,-1,-1,-1,-1,-1,-1,-1,-1,-1,-1,-1,-1,-1,-1,-1,-1,-1,-1,-1,-1,-1],"loss_changes":[5.875294E2,3.271585E2,7.3145615E1,8.869879E1,4.787901E1,3.0931505E1,7.9206696E0,5.5498657E1,3.5958557E0,1.480461E1,1.5418404E1,9.452465E0,1.1581578E1,1.881073E0,1.0238495E0,1.1777191E1,2.3657166E1,1.4697723E0,8.446655E-1,1.6307869E0,3.3121045E0,9.194756E0,6.11814E-1,3.0963745E0,1.1925942E-1,1.3710371E1,2.159481E0,7.4419785E-1,1.4401913E0,1.5640259E-2,1.4375687E-1,4.2276382E-1,9.089966E-1,0E0,1.5925598E-1,5.6864166E-1,0E0,0E0,1.2384415E-2,2.2204208E-1,3.1713104E-1,4.4957423E-1,1.579612E0,5.0663757E0,1.6943588E0,7.274926E-2,3.381158E-1,1.0637264E0,0E0,3.418243E-2,5.1250327E-3,3.9369707E0,1.6543684E0,1.0887775E0,4.0960026E-1,1.6096926E-1,1.509285E-1,1.8890238E-1,1.0219383E-1,0E0,0E0,0E0,0E0,0E0,0E0,0E0,0E0,0E0,0E0,0E0,0E0,0E0,0E0,0E0,0E0,0E0,0E0,0E0,0E0,0E0,0E0,0E0,0E0,0E0,0E0,0E0,0E0,0E0,0E0,0E0,0E0,0E0,0E0,0E0,0E0,0E0,0E0,0E0,0E0,0E0,0E0,0E0,0E0,0E0,0E0,0E0,0E0,0E0,0E0,0E0,0E0],"parents":[2147483647,0,0,1,1,2,2,3,3,4,4,5,5,6,6,7,7,8,8,9,9,10,10,11,11,12,12,13,13,14,14,15,15,16,16,17,17,18,18,19,19,20,20,21,21,22,22,23,23,24,24,25,25,26,26,27,27,28,28,29,29,30,30,31,31,32,32,34,34,35,35,38,38,39,39,40,40,41,41,42,42,43,43,44,44,45,45,46,46,47,47,49,49,50,50,51,51,52,52,53,53,54,54,55,55,56,56,57,57,58,58],"right_children":[2,4,6,8,10,12,14,16,18,20,22,24,26,28,30,32,34,36,38,40,42,44,46,48,50,52,54,56,58,60,62,64,66,-1,68,70,-1,-1,72,74,76,78,80,82,84,86,88,90,-1,92,94,96,98,100,102,104,106,108,110,-1,-1,-1,-1,-1,-1,-1,-1,-1,-1,-1,-1,-1,-1,-1,-1,-1,-1,-1,-1,-1,-1,-1,-1,-1,-1,-1,-1,-1,-1,-1,-1,-1,-1,-1,-1,-1,-1,-1,-1,-1,-1,-1,-1,-1,-1,-1,-1,-1,-1,-1,-1],"split_conditions":[5.716541E2,5.7365246E4,1.0221711E3,3.4791516E2,-7.1993554E-1,5.4936016E4,1.2856421E3,1.2839241E0,4.929565E2,6.266343E4,6.4495742E4,8.671433E2,6.806023E4,-2.1638918E-1,-9.579839E-2,-1.454241E0,1.9128642E2,1.0858829E1,-1.003965E0,1.0858829E1,7.739129E-1,5.4442257E-1,3.4185586E0,7.834487E2,9.2125183E2,7.638434E2,-1.9112824E-1,1.117141E0,1.1056637E3,1.3999778E3,1.3999778E3,5.5022105E4,-8.919499E-1,-1.6844043E-1,1.1895141E1,1.0400221E0,-3.7224166E-2,-1.3681151E-2,9.861171E0,1.021787E1,-1.6597744E0,3.6916107E2,6.537818E4,5.704286E0,2.4927307E2,4.5866812E2,5.6793365E2,3.1684227E0,-7.610578E-2,1.0762445E0,6.1167515E1,-3.9659435E-1,-9.7374886E-1,4.9488564E0,7.097897E4,4.6620026E0,6.9977445E4,7.4893737E-1,1.6602429E0,2.3691747E-2,2.6354758E-2,1.9124871E-2,2.2349136E-2,-4.8375603E-2,-2.573058E-2,-6.6955395E-2,-9.401616E-2,-7.682987E-2,-1.1283455E-1,-4.5300957E-2,-6.605971E-2,-3.8785957E-2,-2.4325542E-2,-2.0848168E-2,-2.9333044E-2,-5.446062E-3,-1.4867364E-2,-1.9943947E-2,-6.7666895E-3,-8.6951506E-4,7.662905E-3,-4.6541933E-2,-2.4288991E-2,-7.173148E-2,-4.6828687E-2,-2.2698743E-2,-1.1102183E-2,-7.6145157E-3,6.5498757E-3,-1.8535795E-2,-3.2686748E-2,-3.03411E-3,-7.1737403E-3,-1.0120553E-3,-2.810663E-3,-2.9175018E-3,-1.600772E-2,1.017399E-2,4.4720853E-3,1.0368646E-2,1.7942963E-2,2.4142175E-3,9.978599E-3,1.5692497E-2,1.0688805E-2,1.8289022E-2,2.1979045E-2,9.872911E-3,5.089086E-3,1.4268519E-2,1.8948076E-2],"split_indices":[1,6,1,1,2,6,1,2,1,6,6,1,6,2,2,2,1,0,2,0,0,2,0,1,1,1,2,0,1,1,1,6,2,0,3,2,0,0,0,5,2,1,6,0,1,1,1,4,0,2,3,2,2,0,6,4,6,2,2,0,0,0,0,0,0,0,0,0,0,0,0,0,0,0,0,0,0,0,0,0,0,0,0,0,0,0,0,0,0,0,0,0,0,0,0,0,0,0,0,0,0,0,0,0,0,0,0,0,0,0,0],"split_type":[0,0,0,0,0,0,0,0,0,0,0,0,0,0,0,0,0,0,0,0,0,0,0,0,0,0,0,0,0,0,0,0,0,0,0,0,0,0,0,0,0,0,0,0,0,0,0,0,0,0,0,0,0,0,0,0,0,0,0,0,0,0,0,0,0,0,0,0,0,0,0,0,0,0,0,0,0,0,0,0,0,0,0,0,0,0,0,0,0,0,0,0,0,0,0,0,0,0,0,0,0,0,0,0,0,0,0,0,0,0,0],"sum_hessian":[3.522E3,8.58E2,2.664E3,2.74E2,5.84E2,1.247E3,1.417E3,1.62E2,1.12E2,3.67E2,2.17E2,1.35E2,1.112E3,7.41E2,6.76E2,8.6E1,7.6E1,6.4E1,4.8E1,1.06E2,2.61E2,1.65E2,5.2E1,7.8E1,5.7E1,7.95E2,3.17E2,4.1E2,3.31E2,3.74E2,3.02E2,2.4E1,6.2E1,3.5E1,4.1E1,4.7E1,1.7E1,6E0,4.2E1,6.6E1,4E1,2.8E1,2.33E2,1.17E2,4.8E1,1.3E1,3.9E1,7.5E1,3E0,3.3E1,2.4E1,2.63E2,5.32E2,2.44E2,7.3E1,9.4E1,3.16E2,9.1E1,2.4E2,1.88E2,1.86E2,1.53E2,1.49E2,1.7E1,7E0,1.8E1,4.4E1,1.1E1,3E1,1.7E1,3E1,3.5E1,7E0,4.2E1,2.4E1,1.7E1,2.3E1,1.3E1,1.5E1,8.5E1,1.48E2,4.3E1,7.4E1,2.2E1,2.6E1,7E0,6E0,3.5E1,4E0,2.5E1,5E1,9E0,2.4E1,1.9E1,5E0,1.79E2,8.4E1,2.15E2,3.17E2,7.3E1,1.71E2,4.1E1,3.2E1,5.4E1,4E1,2.47E2,6.9E1,4E1,5.1E1,2.17E2,2.3E1],"tree_param":{"num_deleted":"0","num_feature":"7","num_nodes":"111","size_leaf_vector":"1"}},{"base_weights":[-2.1311047E-3,-6.863957E-1,2.1842627E-1,-1.542539E0,-2.8276187E-1,5.0428707E-2,3.6612907E-1,-1.9925976E0,-8.7968856E-1,-1.24085926E-1,-7.5470734E-1,-3.7826866E-1,1.027669E-1,2.8418738E-1,4.2889288E-1,-1.4396011E0,-2.591534E0,-1.0350976E0,-6.555809E-1,-2.746921E-1,1.02528356E-1,-1.1067598E0,-4.0198016E-1,-5.916646E-1,-8.108678E-2,4.138166E-2,2.5609988E-1,3.1103438E-1,1.8200779E-1,4.5445815E-1,3.5572124E-1,-8.2118434E-1,-1.6621537E0,-3.2050471E0,-2.0039625E0,-1.135697E0,-3.546636E-2,-1.3094815E-2,-7.0442295E-1,-4.595039E-1,-1.5360439E-1,-3.336973E-2,1.5522423E-1,-1.1859297E0,-3.2506745E-2,-6.021983E-1,-1.9118357E-1,-5.3791267E-1,-7.3251806E-2,-1.17476895E-1,-2.8352737E-2,-1.3579261E-1,1.2906013E-1,2.989561E-1,1.10750295E-1,2.82165E-1,3.592941E-1,1.2073772E-1,2.5943318E-1,4.0721422E-1,4.7622603E-1,1.3154318E-2,3.6838803E-1,-4.6091195E-2,-2.4604864E-2,-6.7064196E-2,-9.126101E-2,-9.478712E-2,-1.6775362E-1,-7.3308505E-2,-1.0737481E-1,-7.02748E-2,-4.916326E-2,-3.690053E-2,-2.3261297E-2,-1.5897641E-2,-3.0018583E-2,-1.8224943E-2,-1.7256599E-3,8.620458E-3,-5.144481E-3,5.8729756E-3,1.1871256E-2,-6.7457885E-2,-5.0831314E-2,-3.457123E-2,-1.9992573E-2,-1.1608477E-2,6.2878826E-3,-1.764465E-2,-3.1084454E-2,-2.897575E-3,-6.829399E-3,-4.252362E-4,-1.949285E-3,-2.7724358E-3,-1.5216755E-2,8.996336E-3,3.6239314E-3,9.857222E-3,1.7051032E-2,-9.3915245E-5,7.7706077E-3,1.2066595E-2,1.58293E-2,1.6036544E-2,1.9429369E-2,6.9283186E-3,3.8539108E-3,1.186267E-2,2.0420957E-2,2.1776898E-2,1.860377E-2,2.2687702E-2,2.5199568E-2,1.8798625E-2,1.4369828E-2],"categories":[],"categories_nodes":[],"categories_segments":[],"categories_sizes":[],"default_left":[0,0,0,0,0,0,0,0,0,0,0,0,0,0,0,0,0,0,0,0,0,0,0,0,0,0,0,0,0,0,0,0,0,0,0,0,0,0,0,0,0,0,0,0,0,0,0,0,0,0,0,0,0,0,0,0,0,0,0,0,0,0,0,0,0,0,0,0,0,0,0,0,0,0,0,0,0,0,0,0,0,0,0,0,0,0,0,0,0,0,0,0,0,0,0,0,0,0,0,0,0,0,0,0,0,0,0,0,0,0,0,0,0,0,0,0,0],"id":7,"left_children":[1,3,5,7,9,11,13,15,17,19,21,23,25,27,29,31,33,35,37,39,41,43,45,47,49,51,53,55,57,59,61,63,65,67,69,71,-1,-1,73,75,77,79,81,83,-1,85,87,89,-1,91,93,95,97,99,101,103,105,107,109,111,113,-1,115,-1,-1,-1,-1,-1,-1,-1,-1,-1,-1,-1,-1,-1,-1,-1,-1,-1,-1,-1,-1,-1,-1,-1,-1,-1,-1,-1,-1,-1,-1,-1,-1,-1,-1,-1,-1,-1,-1,-1,-1,-1,-1,-1,-1,-1,-1,-1,-1,-1,-1,-1,-1,-1,-1],"loss_changes":[5.318397E2,2.9640707E2,6.611007E1,8.028552E1,4.3714893E1,2.8040558E1,7.170868E0,5.025647E1,3.257019E0,1.5011017E1,1.7809334E1,8.576792E0,1.0465383E1,1.6386986E0,1.3367157E0,1.0608902E1,2.133435E1,1.3246155E0,7.577076E-1,5.837324E0,1.265563E0,1.8680038E0,3.0502682E0,2.9206295E0,1.079711E-1,1.2382883E1,1.9477539E0,5.785141E-1,5.901222E-1,4.1283417E-1,1.5184021E-1,3.743534E-1,8.4820557E-1,7.110596E-1,9.3444824E-2,5.920677E-1,0E0,0E0,2.122879E-3,1.8828697E0,4.031043E0,7.330253E-1,3.6635756E-1,3.1414795E-1,0E0,4.0960884E-1,5.228225E-1,9.586334E-1,0E0,3.0762762E-2,4.944518E-3,3.558044E0,1.5209904E0,9.8202324E-1,3.7252694E-1,3.5930824E-1,7.7573776E-2,4.7698855E-2,9.145641E-2,3.0033112E-2,1.9638062E-2,0E0,4.972458E-3,0E0,0E0,0E0,0E0,0E0,0E0,0E0,0E0,0E0,0E0,0E0,0E0,0E0,0E0,0E0,0E0,0E0,0E0,0E0,0E0,0E0,0E0,0E0,0E0,0E0,0E0,0E0,0E0,0E0,0E0,0E0,0E0,0E0,0E0,0E0,0E0,0E0,0E0,0E0,0E0,0E0,0E0,0E0,0E0,0E0,0E0,0E0,0E0,0E0,0E0,0E0,0E0,0E0,0E0],"parents":[2147483647,0,0,1,1,2,2,3,3,4,4,5,5,6,6,7,7,8,8,9,9,10,10,11,11,12,12,13,13,14,14,15,15,16,16,17,17,18,18,19,19,20,20,21,21,22,22,23,23,24,24,25,25,26,26,27,27,28,28,29,29,30,30,31,31,32,32,33,33,34,34,35,35,38,38,39,39,40,40,41,41,42,42,43,43,45,45,46,46,47,47,49,49,50,50,51,51,52,52,53,53,54,54,55,55,56,56,57,57,58,58,59,59,60,60,62,62],"right_children":[2,4,6,8,10,12,14,16,18,20,22,24,26,28,30,32,34,36,38,40,42,44,46,48,50,52,54,56,58,60,62,64,66,68,70,72,-1,-1,74,76,78,80,82,84,-1,86,88,90,-1,92,94,96,98,100,102,104,106,108,110,112,114,-1,116,-1,-1,-1,-1,-1,-1,-1,-1,-1,-1,-1,-1,-1,-1,-1,-1,-1,-1,-1,-1,-1,-1,-1,-1,-1,-1,-1,-1,-1,-1,-1,-1,-1,-1,-1,-1,-1,-1,-1,-1,-1,-1,-1,-1,-1,-1,-1,-1,-1,-1,-1,-1,-1,-1],"split_conditions":[5.716541E2,5.7365246E4,1.0221711E3,3.4791516E2,-2.8959468E-1,5.4936016E4,1.2338942E3,1.2839241E0,4.929565E2,6.537818E4,4.2293774E2,8.671433E2,6.806023E4,5.118349E-1,9.7776866E-1,-1.454241E0,1.9128642E2,1.0858829E1,-1.003965E0,7.199154E0,4.0995507E0,7.10323E1,6.3208914E4,7.834487E2,9.2125183E2,7.638434E2,-1.9112824E-1,6.826946E4,1.1516493E3,1.3332191E3,1.2586136E3,5.5022105E4,-6.314696E-1,1.0195955E0,1.1895141E1,4.5866812E2,-3.546636E-2,-1.3094815E-2,9.861171E0,-1.2715284E0,6.093515E4,3.1126451E1,9.422077E0,6.668988E0,-3.2506745E-2,5.2948724E2,5.6793365E2,3.1684227E0,-7.3251806E-2,1.0762445E0,5.6919273E1,-3.9659435E-1,-3.43481E-1,4.9488564E0,6.18899E2,1.1393179E3,5.2253452E1,1.2839241E0,1.6602429E0,-6.986787E-1,1.4456667E3,1.3154318E-2,1.8776493E0,-4.6091195E-2,-2.4604864E-2,-6.7064196E-2,-9.126101E-2,-9.478712E-2,-1.6775362E-1,-7.3308505E-2,-1.0737481E-1,-7.02748E-2,-4.916326E-2,-3.690053E-2,-2.3261297E-2,-1.5897641E-2,-3.0018583E-2,-1.8224943E-2,-1.7256599E-3,8.620458E-3,-5.144481E-3,5.8729756E-3,1.1871256E-2,-6.7457885E-2,-5.0831314E-2,-3.457123E-2,-1.9992573E-2,-1.1608477E-2,6.2878826E-3,-1.764465E-2,-3.1084454E-2,-2.897575E-3,-6.829399E-3,-4.252362E-4,-1.949285E-3,-2.7724358E-3,-1.5216755E-2,8.996336E-3,3.6239314E-3,9.857222E-3,1.7051032E-2,-9.3915245E-5,7.7706077E-3,1.2066595E-2,1.58293E-2,1.6036544E-2,1.9429369E-2,6.9283186E-3,3.8539108E-3,1.186267E-2,2.0420957E-2,2.1776898E-2,1.860377E-2,2.2687702E-2,2.5199568E-2,1.8798625E-2,1.4369828E-2],"split_indices":[1,6,1,1,2,6,1,2,1,6,1,1,6,2,2,2,1,0,2,0,0,3,6,1,1,1,2,6,1,1,1,6,2,5,3,1,0,0,0,2,6,3,0,0,0,1,1,4,0,2,3,2,2,0,1,1,3,2,2,2,1,0,2,0,0,0,0,0,0,0,0,0,0,0,0,0,0,0,0,0,0,0,0,0,0,0,0,0,0,0,0,0,0,0,0,0,0,0,0,0,0,0,0,0,0,0,0,0,0,0,0,0,0,0,0,0,0],"split_type":[0,0,0,0,0,0,0,0,0,0,0,0,0,0,0,0,0,0,0,0,0,0,0,0,0,0,0,0,0,0,0,0,0,0,0,0,0,0,0,0,0,0,0,0,0,0,0,0,0,0,0,0,0,0,0,0,0,0,0,0,0,0,0,0,0,0,0,0,0,0,0,0,0,0,0,0,0,0,0,0,0,0,0,0,0,0,0,0,0,0,0,0,0,0,0,0,0,0,0,0,0,0,0,0,0,0,0,0,0,0,0,0,0,0,0,0,0],"sum_hessian":[3.522E3,8.58E2,2.664E3,2.74E2,5.84E2,1.247E3,1.417E3,1.62E2,1.12E2,4.38E2,1.46E2,1.35E2,1.112E3,6.17E2,8E2,8.6E1,7.6E1,6.4E1,4.8E1,2.63E2,1.75E2,7.2E1,7.4E1,7.8E1,5.7E1,7.95E2,3.17E2,4.87E2,1.3E2,5.89E2,2.11E2,2.4E1,6.2E1,3.5E1,4.1E1,4.7E1,1.7E1,6E0,4.2E1,1.03E2,1.6E2,4.9E1,1.26E2,6E1,1.2E1,3.7E1,3.7E1,7.5E1,3E0,3.3E1,2.4E1,2.63E2,5.32E2,2.44E2,7.3E1,3.09E2,1.78E2,7.4E1,5.6E1,1.92E2,3.97E2,2.8E1,1.83E2,1.7E1,7E0,2.4E1,3.8E1,5E0,3E1,1.1E1,3E1,1.4E1,3.3E1,3.5E1,7E0,5.3E1,5E1,5.7E1,1.03E2,1.2E1,3.7E1,8.8E1,3.8E1,2.7E1,3.3E1,2.4E1,1.3E1,3.3E1,4E0,2.5E1,5E1,9E0,2.4E1,9E0,1.5E1,1.79E2,8.4E1,2.79E2,2.53E2,7.3E1,1.71E2,2.1E1,5.2E1,1.45E2,1.64E2,8.2E1,9.6E1,5.1E1,2.3E1,5.1E1,5E0,1E2,9.2E1,2.29E2,1.68E2,1.64E2,1.9E1],"tree_param":{"num_deleted":"0","num_feature":"7","num_nodes":"117","size_leaf_vector":"1"}},{"base_weights":[-2.3139487E-3,-6.5342134E-1,2.0755605E-1,-1.4686862E0,-2.6906022E-1,4.7823265E-2,3.4799257E-1,-1.897092E0,-8.3772326E-1,-6.8107404E-2,-6.070491E-1,-3.6034107E-1,9.765483E-2,2.701502E-1,4.0761626E-1,-1.3702534E0,-2.4677134E0,-9.857258E-1,-6.2429684E-1,-3.534065E-1,4.866782E-2,-7.425049E-1,-1.7133763E-1,-5.636254E-1,-7.724103E-2,1.4109077E-3,1.8802775E-1,2.9561248E-1,1.7323618E-1,4.4230485E-1,3.580426E-1,-7.829531E-1,-1.5815592E0,-3.0520875E0,-1.9080663E0,-1.1170628E0,-3.728782E-2,-1.2533605E-2,-3.353005E-2,-4.4327778E-1,-1.9792394E-1,-2.4595045E-1,8.497236E-2,-5.950325E-1,-1.0824894E0,-3.594979E-1,-1.1349808E-1,-5.1165813E-1,-7.050487E-2,-1.1188909E-1,-2.7030028E-2,-2.0088634E-1,8.787725E-2,2.4636668E-1,6.882506E-2,2.681467E-1,3.4152746E-1,1.148447E-1,2.4702783E-1,2.0016093E-2,2.3174932E-2,3.225695E-1,1.9931408E-2,-2.6523579E-2,-4.5795467E-2,-1.0889212E-1,-7.340669E-2,-9.083766E-2,-1.596365E-1,-6.994853E-2,-1.0217925E-1,-3.9590474E-2,-6.0656555E-2,-2.6024688E-2,-1.8330144E-2,-6.872361E-3,-1.6631102E-2,-1.8279867E-2,-6.294375E-3,-4.5891334E-3,5.7739816E-3,-4.218057E-2,-2.2063289E-2,-5.9850123E-2,-3.3664964E-2,-1.8769382E-2,-4.6177804E-3,-1.125726E-2,-2.1566597E-3,-1.6796349E-2,-2.9560704E-2,-2.7671873E-3,-6.501583E-3,-9.0567826E-4,-2.6123286E-3,-6.795579E-3,-1.6785963E-2,5.2372823E-3,-6.3660527E-3,-1.8061057E-3,1.2895827E-2,-7.760521E-3,5.5071656E-3,1.0833924E-2,1.4635487E-2,1.524438E-2,1.8467912E-2,4.9579595E-3,8.32438E-3,1.1280939E-2,1.957008E-2,1.5623497E-2,2.0776339E-2],"categories":[],"categories_nodes":[],"categories_segments":[],"categories_sizes":[],"default_left":[0,0,0,0,0,0,0,0,0,0,0,0,0,0,0,0,0,0,0,0,0,0,0,0,0,0,0,0,0,0,0,0,0,0,0,0,0,0,0,0,0,0,0,0,0,0,0,0,0,0,0,0,0,0,0,0,0,0,0,0,0,0,0,0,0,0,0,0,0,0,0,0,0,0,0,0,0,0,0,0,0,0,0,0,0,0,0,0,0,0,0,0,0,0,0,0,0,0,0,0,0,0,0,0,0,0,0,0,0,0,0,0,0],"id":8,"left_children":[1,3,5,7,9,11,13,15,17,19,21,23,25,27,29,31,33,35,37,39,41,43,45,47,49,51,53,55,57,59,61,63,65,67,69,71,-1,-1,-1,73,75,77,79,81,83,85,87,89,-1,91,93,95,97,99,101,103,105,107,109,-1,-1,111,-1,-1,-1,-1,-1,-1,-1,-1,-1,-1,-1,-1,-1,-1,-1,-1,-1,-1,-1,-1,-1,-1,-1,-1,-1,-1,-1,-1,-1,-1,-1,-1,-1,-1,-1,-1,-1,-1,-1,-1,-1,-1,-1,-1,-1,-1,-1,-1,-1,-1,-1],"loss_changes":[4.8154623E2,2.6877777E2,5.9765488E1,7.274548E1,3.9691742E1,2.5418842E1,6.471176E0,4.5620483E1,2.9540176E0,1.2277437E1,1.2739075E1,7.7832394E0,9.680437E0,1.4737968E0,1.2190552E0,9.558411E0,1.9358765E1,1.2155457E0,6.796169E-1,1.4074211E0,2.8232458E0,7.6788406E0,5.3600216E-1,2.7536316E0,9.787905E-2,9.463281E0,3.9747276E0,5.238342E-1,5.36083E-1,2.2998047E-1,3.5371017E-1,3.5336018E-1,1.0635529E0,4.5428467E-1,3.8757324E-2,2.8929138E-1,0E0,0E0,0E0,2.0586014E-1,2.8827202E-1,3.7056553E-1,1.2724003E0,4.138077E0,1.490078E0,1.6268611E-2,3.202423E-1,8.639107E-1,0E0,2.7683407E-2,4.67469E-3,1.373611E0,1.3891253E0,1.2654629E0,1.7758789E0,3.2848167E-1,6.991577E-2,4.4244707E-2,8.787441E-2,0E0,0E0,4.2905807E-2,0E0,0E0,0E0,0E0,0E0,0E0,0E0,0E0,0E0,0E0,0E0,0E0,0E0,0E0,0E0,0E0,0E0,0E0,0E0,0E0,0E0,0E0,0E0,0E0,0E0,0E0,0E0,0E0,0E0,0E0,0E0,0E0,0E0,0E0,0E0,0E0,0E0,0E0,0E0,0E0,0E0,0E0,0E0,0E0,0E0,0E0,0E0,0E0,0E0,0E0,0E0],"parents":[2147483647,0,0,1,1,2,2,3,3,4,4,5,5,6,6,7,7,8,8,9,9,10,10,11,11,12,12,13,13,14,14,15,15,16,16,17,17,18,18,19,19,20,20,21,21,22,22,23,23,24,24,25,25,26,26,27,27,28,28,29,29,30,30,31,31,32,32,33,33,34,34,35,35,39,39,40,40,41,41,42,42,43,43,44,44,45,45,46,46,47,47,49,49,50,50,51,51,52,52,53,53,54,54,55,55,56,56,57,57,58,58,61,61],"right_children":[2,4,6,8,10,12,14,16,18,20,22,24,26,28,30,32,34,36,38,40,42,44,46,48,50,52,54,56,58,60,62,64,66,68,70,72,-1,-1,-1,74,76,78,80,82,84,86,88,90,-1,92,94,96,98,100,102,104,106,108,110,-1,-1,112,-1,-1,-1,-1,-1,-1,-1,-1,-1,-1,-1,-1,-1,-1,-1,-1,-1,-1,-1,-1,-1,-1,-1,-1,-1,-1,-1,-1,-1,-1,-1,-1,-1,-1,-1,-1,-1,-1,-1,-1,-1,-1,-1,-1,-1,-1,-1,-1,-1,-1,-1],"split_conditions":[5.716541E2,5.7365246E4,1.0221711E3,3.4791516E2,-7.1993554E-1,5.4936016E4,1.2338942E3,1.2839241E0,4.929565E2,6.266343E4,6.4495742E4,8.671433E2,6.5317137E4,5.118349E-1,8.0679566E-2,-1.454241E0,1.9128642E2,6.330286E0,-1.003965E0,1.0858829E1,7.739129E-1,5.4442257E-1,6.527188E4,7.834487E2,9.2125183E2,7.4302515E2,-3.985735E-1,6.826946E4,1.1516493E3,1.3423944E3,1.3832893E3,-1.9232309E0,2.9217875E0,1.0195955E0,1.1895141E1,4.0100563E-1,-3.728782E-2,-1.2533605E-2,-3.353005E-2,5.9896184E4,-1.3643674E0,3.6916107E2,6.3809348E4,5.704286E0,4.046231E2,1.592643E1,8.600485E0,3.1684227E0,-7.050487E-2,1.0762445E0,6.1167515E1,-3.9659435E-1,5.108322E-1,9.674984E-1,6.148631E2,1.1229108E3,5.2253452E1,6.0143898E1,1.6602429E0,2.0016093E-2,2.3174932E-2,1.1190047E1,1.9931408E-2,-2.6523579E-2,-4.5795467E-2,-1.0889212E-1,-7.340669E-2,-9.083766E-2,-1.596365E-1,-6.994853E-2,-1.0217925E-1,-3.9590474E-2,-6.0656555E-2,-2.6024688E-2,-1.8330144E-2,-6.872361E-3,-1.6631102E-2,-1.8279867E-2,-6.294375E-3,-4.5891334E-3,5.7739816E-3,-4.218057E-2,-2.2063289E-2,-5.9850123E-2,-3.3664964E-2,-1.8769382E-2,-4.6177804E-3,-1.125726E-2,-2.1566597E-3,-1.6796349E-2,-2.9560704E-2,-2.7671873E-3,-6.501583E-3,-9.0567826E-4,-2.6123286E-3,-6.795579E-3,-1.6785963E-2,5.2372823E-3,-6.3660527E-3,-1.8061057E-3,1.2895827E-2,-7.760521E-3,5.5071656E-3,1.0833924E-2,1.4635487E-2,1.524438E-2,1.8467912E-2,4.9579595E-3,8.32438E-3,1.1280939E-2,1.957008E-2,1.5623497E-2,2.0776339E-2],"split_indices":[1,6,1,1,2,6,1,2,1,6,6,1,6,2,2,2,1,0,2,0,0,2,6,1,1,1,2,6,1,1,1,2,5,5,3,2,0,0,0,6,2,1,6,0,1,0,0,4,0,2,3,2,2,0,1,1,3,3,2,0,0,5,0,0,0,0,0,0,0,0,0,0,0,0,0,0,0,0,0,0,0,0,0,0,0,0,0,0,0,0,0,0,0,0,0,0,0,0,0,0,0,0,0,0,0,0,0,0,0,0,0,0,0],"split_type":[0,0,0,0,0,0,0,0,0,0,0,0,0,0,0,0,0,0,0,0,0,0,0,0,0,0,0,0,0,0,0,0,0,0,0,0,0,0,0,0,0,0,0,0,0,0,0,0,0,0,0,0,0,0,0,0,0,0,0,0,0,0,0,0,0,0,0,0,0,0,0,0,0,0,0,0,0,0,0,0,0,0,0,0,0,0,0,0,0,0,0,0,0,0,0,0,0,0,0,0,0,0,0,0,0,0,0,0,0,0,0,0,0],"sum_hessian":[3.522E3,8.58E2,2.664E3,2.74E2,5.84E2,1.247E3,1.417E3,1.62E2,1.12E2,3.67E2,2.17E2,1.35E2,1.112E3,6.17E2,8E2,8.6E1,7.6E1,6.4E1,4.8E1,1.06E2,2.61E2,1.65E2,5.2E1,7.8E1,5.7E1,5.39E2,5.73E2,4.87E2,1.3E2,4.66E2,3.34E2,2.4E1,6.2E1,3.5E1,4.1E1,3.9E1,2.5E1,6E0,4.2E1,6.6E1,4E1,2.8E1,2.33E2,1.17E2,4.8E1,1.1E1,4.1E1,7.5E1,3E0,3.3E1,2.4E1,1.61E2,3.78E2,3.84E2,1.89E2,3.09E2,1.78E2,7.4E1,5.6E1,1.63E2,3.03E2,1.83E2,1.51E2,1E1,1.4E1,7E0,5.5E1,5E0,3E1,1.1E1,3E1,1.1E1,2.8E1,3E1,3.6E1,2.9E1,1.1E1,1.3E1,1.5E1,3.4E1,1.99E2,4.3E1,7.4E1,3.6E1,1.2E1,1E1,1E0,1.5E1,2.6E1,2.5E1,5E1,9E0,2.4E1,1.9E1,5E0,1.1E2,5.1E1,3.51E2,2.7E1,1.5E1,3.69E2,2.9E1,1.6E2,1.03E2,2.06E2,8.2E1,9.6E1,5.9E1,1.5E1,5.1E1,5E0,1.69E2,1.4E1],"tree_param":{"num_deleted":"0","num_feature":"7","num_nodes":"113","size_leaf_vector":"1"}},{"base_weights":[-2.507481E-3,-6.2208515E-1,1.9719973E-1,-1.3983822E0,-2.560958E-1,4.5315478E-2,3.3073595E-1,-1.8063921E0,-7.9746187E-1,-1.1169811E-1,-6.855821E-1,-3.4327728E-1,9.27578E-2,2.6863024E-1,3.98316E-1,-1.0277628E0,-2.15177E0,-9.3855554E-1,-5.940221E-1,-2.4824993E-1,9.376425E-2,-1.0095092E0,-3.6115193E-1,-5.3692335E-1,-7.359939E-2,3.6362696E-2,2.336312E-1,3.0894503E-1,2.179133E-1,4.302382E-1,3.5552105E-1,-6.964316E-1,-6.1487373E-2,-2.4520888E0,-7.633802E-2,-1.03073E0,-3.203075E-2,-1.1996448E-2,-6.378507E-1,-4.1817316E-1,-1.3694392E-1,-9.2668205E-2,1.26697E-1,-1.2359496E0,-8.4973013E-1,-5.4149574E-1,-1.7130408E-1,-4.8668513E-1,-6.786094E-2,-1.06567204E-1,-2.5819188E-2,-1.168216E-1,1.210956E-1,2.722083E-1,1.0275247E-1,2.2555713E-1,3.2872948E-1,1.2397718E-1,2.5286853E-1,2.025739E-2,2.266694E-2,1.6371537E-2,1.9097295E-2,-3.7187885E-2,-1.4876241E-2,-1.4327121E-1,-9.407675E-2,-6.416467E-2,-4.4449467E-2,-3.3476826E-2,-2.0776678E-2,-1.4517567E-2,-2.7265726E-2,-1.649697E-2,-1.3997544E-3,5.5107116E-3,-8.459388E-3,7.174904E-3,-3.0699382E-3,-3.6669802E-2,-6.5665685E-2,-3.4014884E-2,-5.1798876E-2,-3.1074494E-2,-1.7998544E-2,-1.0473263E-2,6.122639E-3,-1.5988832E-2,-2.8111646E-2,-2.6426686E-3,-6.189503E-3,-3.6533712E-4,-1.7887884E-3,-2.225582E-3,-1.3737671E-2,9.323838E-3,3.9532944E-3,8.829544E-3,1.5588172E-2,1.9466851E-3,9.043132E-3,8.837688E-3,1.3741693E-2,1.5696066E-2,1.8665401E-2,8.424723E-3,4.324642E-3,1.2170854E-2,1.6409146E-2],"categories":[],"categories_nodes":[],"categories_segments":[],"categories_sizes":[],"default_left":[0,0,0,0,0,0,0,0,0,0,0,0,0,0,0,0,0,0,0,0,0,0,0,0,0,0,0,0,0,0,0,0,0,0,0,0,0,0,0,0,0,0,0,0,0,0,0,0,0,0,0,0,0,0,0,0,0,0,0,0,0,0,0,0,0,0,0,0,0,0,0,0,0,0,0,0,0,0,0,0,0,0,0,0,0,0,0,0,0,0,0,0,0,0,0,0,0,0,0,0,0,0,0,0,0,0,0,0,0],"id":9,"left_children":[1,3,5,7,9,11,13,15,17,19,21,23,25,27,29,31,33,35,37,39,41,43,45,47,49,51,53,55,57,59,61,63,-1,65,-1,67,-1,-1,69,71,73,75,77,79,81,83,85,87,-1,89,91,93,95,97,99,101,103,105,107,-1,-1,-1,-1,-1,-1,-1,-1,-1,-1,-1,-1,-1,-1,-1,-1,-1,-1,-1,-1,-1,-1,-1,-1,-1,-1,-1,-1,-1,-1,-1,-1,-1,-1,-1,-1,-1,-1,-1,-1,-1,-1,-1,-1,-1,-1,-1,-1,-1,-1],"loss_changes":[4.3603796E2,2.4369794E2,5.403666E1,6.5984314E1,3.6203278E1,2.3039644E1,5.844513E0,4.162274E1,2.6860352E0,1.2339976E1,1.5083893E1,7.062683E0,8.833811E0,1.4498024E0,7.7188873E-1,2.6236038E0,1.727887E1,1.1247635E0,6.0741234E-1,4.935892E0,1.0923338E0,1.59095E0,2.4750814E0,2.595066E0,8.861065E-2,1.0346028E1,1.5775871E0,6.0391235E-1,1.0587921E0,3.832245E-2,9.391403E-2,1.9404411E-1,0E0,1.2060028E1,0E0,5.7749176E-1,0E0,0E0,2.4690628E-2,1.5318165E0,3.3760505E0,4.378078E-1,4.828422E-1,1.2545013E-1,7.4681854E-1,3.2807636E-1,4.5163393E-1,7.7853775E-1,0E0,2.4910837E-2,4.346611E-3,3.2310631E0,1.3949556E0,8.715744E-1,3.618406E-1,1.4862204E-1,1.006546E-1,1.3894677E-1,9.1664314E-2,0E0,0E0,0E0,0E0,0E0,0E0,0E0,0E0,0E0,0E0,0E0,0E0,0E0,0E0,0E0,0E0,0E0,0E0,0E0,0E0,0E0,0E0,0E0,0E0,0E0,0E0,0E0,0E0,0E0,0E0,0E0,0E0,0E0,0E0,0E0,0E0,0E0,0E0,0E0,0E0,0E0,0E0,0E0,0E0,0E0,0E0,0E0,0E0,0E0,0E0],"parents":[2147483647,0,0,1,1,2,2,3,3,4,4,5,5,6,6,7,7,8,8,9,9,10,10,11,11,12,12,13,13,14,14,15,15,16,16,17,17,18,18,19,19,20,20,21,21,22,22,23,23,24,24,25,25,26,26,27,27,28,28,29,29,30,30,31,31,33,33,35,35,38,38,39,39,40,40,41,41,42,42,43,43,44,44,45,45,46,46,47,47,49,49,50,50,51,51,52,52,53,53,54,54,55,55,56,56,57,57,58,58],"right_children":[2,4,6,8,10,12,14,16,18,20,22,24,26,28,30,32,34,36,38,40,42,44,46,48,50,52,54,56,58,60,62,64,-1,66,-1,68,-1,-1,70,72,74,76,78,80,82,84,86,88,-1,90,92,94,96,98,100,102,104,106,108,-1,-1,-1,-1,-1,-1,-1,-1,-1,-1,-1,-1,-1,-1,-1,-1,-1,-1,-1,-1,-1,-1,-1,-1,-1,-1,-1,-1,-1,-1,-1,-1,-1,-1,-1,-1,-1,-1,-1,-1,-1,-1,-1,-1,-1,-1,-1,-1,-1,-1],"split_conditions":[5.716541E2,5.7365246E4,1.0221711E3,3.4791516E2,-2.8959468E-1,5.4936016E4,1.2856421E3,-2.8959468E-1,4.929565E2,6.537818E4,4.2293774E2,8.671433E2,6.806023E4,-2.1638918E-1,-3.069808E-2,-1.5581036E0,6.9614496E0,1.0858829E1,-1.003965E0,7.199154E0,1.6551275E0,6.668988E0,6.3208914E4,7.834487E2,9.2125183E2,7.7615643E2,-1.9112824E-1,9.1370136E-1,1.1056637E3,1.3999778E3,1.3999778E3,5.6753324E4,-6.1487373E-2,1.9128642E2,-7.633802E-2,4.5866812E2,-3.203075E-2,-1.1996448E-2,9.861171E0,-1.2715284E0,6.093515E4,3.1126451E1,1.0473046E1,1.5459442E2,5.5076737E0,5.2948724E2,5.6793365E2,3.1684227E0,-6.786094E-2,1.0762445E0,5.6919273E1,-3.9659435E-1,-9.7374886E-1,4.9488564E0,7.097897E4,1.089525E3,6.9977445E4,7.4893737E-1,1.6602429E0,2.025739E-2,2.266694E-2,1.6371537E-2,1.9097295E-2,-3.7187885E-2,-1.4876241E-2,-1.4327121E-1,-9.407675E-2,-6.416467E-2,-4.4449467E-2,-3.3476826E-2,-2.0776678E-2,-1.4517567E-2,-2.7265726E-2,-1.649697E-2,-1.3997544E-3,5.5107116E-3,-8.459388E-3,7.174904E-3,-3.0699382E-3,-3.6669802E-2,-6.5665685E-2,-3.4014884E-2,-5.1798876E-2,-3.1074494E-2,-1.7998544E-2,-1.0473263E-2,6.122639E-3,-1.5988832E-2,-2.8111646E-2,-2.6426686E-3,-6.189503E-3,-3.6533712E-4,-1.7887884E-3,-2.225582E-3,-1.3737671E-2,9.323838E-3,3.9532944E-3,8.829544E-3,1.5588172E-2,1.9466851E-3,9.043132E-3,8.837688E-3,1.3741693E-2,1.5696066E-2,1.8665401E-2,8.424723E-3,4.324642E-3,1.2170854E-2,1.6409146E-2],"split_indices":[1,6,1,1,2,6,1,2,1,6,1,1,6,2,2,2,0,0,2,0,0,0,6,1,1,1,2,0,1,1,1,6,0,1,0,1,0,0,0,2,6,3,5,1,4,1,1,4,0,2,3,2,2,0,6,1,6,2,2,0,0,0,0,0,0,0,0,0,0,0,0,0,0,0,0,0,0,0,0,0,0,0,0,0,0,0,0,0,0,0,0,0,0,0,0,0,0,0,0,0,0,0,0,0,0,0,0,0,0],"split_type":[0,0,0,0,0,0,0,0,0,0,0,0,0,0,0,0,0,0,0,0,0,0,0,0,0,0,0,0,0,0,0,0,0,0,0,0,0,0,0,0,0,0,0,0,0,0,0,0,0,0,0,0,0,0,0,0,0,0,0,0,0,0,0,0,0,0,0,0,0,0,0,0,0,0,0,0,0,0,0,0,0,0,0,0,0,0,0,0,0,0,0,0,0,0,0,0,0,0,0,0,0,0,0,0,0,0,0,0,0],"sum_hessian":[3.522E3,8.58E2,2.664E3,2.74E2,5.84E2,1.247E3,1.417E3,1.62E2,1.12E2,4.38E2,1.46E2,1.35E2,1.112E3,7.41E2,6.76E2,5.1E1,1.11E2,6.4E1,4.8E1,2.63E2,1.75E2,7.2E1,7.4E1,7.8E1,5.7E1,7.95E2,3.17E2,4.1E2,3.31E2,3.82E2,2.94E2,2.1E1,3E1,7.3E1,3.8E1,4.7E1,1.7E1,6E0,4.2E1,1.03E2,1.6E2,2.6E1,1.49E2,2.7E1,4.5E1,3.7E1,3.7E1,7.5E1,3E0,3.3E1,2.4E1,2.83E2,5.12E2,2.44E2,7.3E1,8.1E1,3.29E2,9.1E1,2.4E2,1.92E2,1.9E2,1.49E2,1.45E2,1.8E1,3E0,4E1,3.3E1,1.4E1,3.3E1,3.5E1,7E0,5.3E1,5E1,5.7E1,1.03E2,7E0,1.9E1,1.37E2,1.2E1,5E0,2.2E1,2.6E1,1.9E1,2.4E1,1.3E1,3.3E1,4E0,2.5E1,5E1,9E0,2.4E1,9E0,1.5E1,1.95E2,8.8E1,1.99E2,3.13E2,7.3E1,1.71E2,4.1E1,3.2E1,4.3E1,3.8E1,2.53E2,7.6E1,4E1,5.1E1,2.17E2,2.3E1],"tree_param":{"num_deleted":"0","num_feature":"7","num_nodes":"109","size_leaf_vector":"1"}},{"base_weights":[-2.6227464E-3,-5.920685E-1,1.873722E-1,-1.330769E0,-2.4380402E-1,4.297742E-2,3.1432372E-1,-1.750043E0,-7.984137E-1,-6.0850576E-2,-5.5152446E-1,-3.270174E-1,8.814932E-2,2.438441E-1,3.6830887E-1,-9.785583E-1,-2.1261916E0,-9.398254E-1,-5.65673E-1,-3.205833E-1,4.545574E-2,-6.7476404E-1,-1.5512279E-1,-5.114944E-1,-7.010881E-2,-2.7814574E-4,1.7118534E-1,2.7432296E-1,1.7632164E-1,3.9072642E-1,3.0418313E-1,-6.1109364E-1,-5.6979068E-2,-2.5476456E0,-1.5577335E0,-1.0334479E0,-3.1534575E-2,-1.1482312E-2,-6.072199E-1,-4.039341E-1,-1.7655687E-1,-2.4855435E-1,7.614816E-2,-5.4119617E-1,-9.826466E-1,-3.2827404E-1,-1.0195759E-1,-4.629311E-1,-6.5316156E-2,-1.0149857E-1,-2.4614383E-2,-1.4299342E-1,1.0447209E-1,2.2408013E-1,6.3102834E-2,2.1645144E-1,2.9105595E-1,1.214629E-1,2.4029426E-1,3.7124786E-1,2.1617642E-2,2.5969857E-1,1.633202E-2,-3.2847386E-2,-1.4318386E-2,-1.3916285E-1,-1.00560226E-1,-5.319899E-2,-8.326662E-2,-6.1483115E-2,-4.2393E-2,-3.1849477E-2,-1.9867694E-2,-2.3926452E-2,-1.6525922E-2,-3.751325E-3,-1.2267406E-2,-1.8070772E-2,-6.7031193E-3,-5.192559E-4,6.3036927E-3,-3.8295433E-2,-2.0107446E-2,-5.9889197E-2,-3.8149357E-2,-1.7134856E-2,-4.240507E-3,-1.0198932E-2,-1.8862231E-3,-1.5220137E-2,-2.673362E-2,-2.52375E-3,-5.892403E-3,-8.097154E-4,-2.428945E-3,-4.633581E-3,-1.5417564E-2,6.923057E-3,3.7818165E-3,2.8214124E-3,1.2060602E-2,-7.2106565E-3,5.0670593E-3,8.696887E-3,1.3180129E-2,1.5445556E-2,1.2150025E-2,6.8147555E-3,3.224459E-3,1.1439093E-2,1.8070944E-2,1.7201584E-2,1.9467842E-2,1.211873E-2,1.7489968E-2],"categories":[],"categories_nodes":[],"categories_segments":[],"categories_sizes":[],"default_left":[0,0,0,0,0,0,0,0,0,0,0,0,0,0,0,0,0,0,0,0,0,0,0,0,0,0,0,0,0,0,0,0,0,0,0,0,0,0,0,0,0,0,0,0,0,0,0,0,0,0,0,0,0,0,0,0,0,0,0,0,0,0,0,0,0,0,0,0,0,0,0,0,0,0,0,0,0,0,0,0,0,0,0,0,0,0,0,0,0,0,0,0,0,0,0,0,0,0,0,0,0,0,0,0,0,0,0,0,0,0,0,0,0,0,0],"id":10,"left_children":[1,3,5,7,9,11,13,15,17,19,21,23,25,27,29,31,33,35,37,39,41,43,45,47,49,51,53,55,57,59,61,63,-1,65,67,69,-1,-1,71,73,75,77,79,81,83,85,87,89,-1,91,93,95,97,99,101,103,105,107,109,111,-1,113,-1,-1,-1,-1,-1,-1,-1,-1,-1,-1,-1,-1,-1,-1,-1,-1,-1,-1,-1,-1,-1,-1,-1,-1,-1,-1,-1,-1,-1,-1,-1,-1,-1,-1,-1,-1,-1,-1,-1,-1,-1,-1,-1,-1,-1,-1,-1,-1,-1,-1,-1,-1,-1],"loss_changes":[3.946577E2,2.2066455E2,4.883898E1,5.998349E1,3.2901073E1,2.0887108E1,5.3054657E0,4.231891E1,3.516571E0,1.0175504E1,1.0545151E1,6.409685E0,8.172435E0,1.2234802E0,1.0326233E0,2.3804626E0,2.0468475E1,1.5188522E0,5.446348E-1,1.2131882E0,2.383184E0,6.2946396E0,4.5442772E-1,2.444622E0,8.032915E-2,8.087647E0,3.2674198E0,3.475895E-1,6.5515757E-1,3.1787872E-1,1.2696075E-1,7.9891205E-2,0E0,1.6065979E0,6.719818E-1,9.9666214E-1,0E0,0E0,1.5538216E-2,2.087574E-1,2.6795292E-1,2.7459002E-1,1.0295253E0,3.3789787E0,1.4016991E0,1.3073683E-2,2.6753658E-1,7.015953E-1,0E0,2.2414714E-2,4.2578736E-3,1.8769584E0,2.9531837E-1,1.0921841E0,1.5208248E0,1.5260124E-1,2.046547E-1,8.163047E-2,4.1418552E-2,6.762695E-2,0E0,3.38459E-2,0E0,0E0,0E0,0E0,0E0,0E0,0E0,0E0,0E0,0E0,0E0,0E0,0E0,0E0,0E0,0E0,0E0,0E0,0E0,0E0,0E0,0E0,0E0,0E0,0E0,0E0,0E0,0E0,0E0,0E0,0E0,0E0,0E0,0E0,0E0,0E0,0E0,0E0,0E0,0E0,0E0,0E0,0E0,0E0,0E0,0E0,0E0,0E0,0E0,0E0,0E0,0E0,0E0],"parents":[2147483647,0,0,1,1,2,2,3,3,4,4,5,5,6,6,7,7,8,8,9,9,10,10,11,11,12,12,13,13,14,14,15,15,16,16,17,17,18,18,19,19,20,20,21,21,22,22,23,23,24,24,25,25,26,26,27,27,28,28,29,29,30,30,31,31,33,33,34,34,35,35,38,38,39,39,40,40,41,41,42,42,43,43,44,44,45,45,46,46,47,47,49,49,50,50,51,51,52,52,53,53,54,54,55,55,56,56,57,57,58,58,59,59,61,61],"right_children":[2,4,6,8,10,12,14,16,18,20,22,24,26,28,30,32,34,36,38,40,42,44,46,48,50,52,54,56,58,60,62,64,-1,66,68,70,-1,-1,72,74,76,78,80,82,84,86,88,90,-1,92,94,96,98,100,102,104,106,108,110,112,-1,114,-1,-1,-1,-1,-1,-1,-1,-1,-1,-1,-1,-1,-1,-1,-1,-1,-1,-1,-1,-1,-1,-1,-1,-1,-1,-1,-1,-1,-1,-1,-1,-1,-1,-1,-1,-1,-1,-1,-1,-1,-1,-1,-1,-1,-1,-1,-1,-1,-1,-1,-1,-1,-1],"split_conditions":[5.716541E2,5.7365246E4,1.0221711E3,3.299721E2,-7.1993554E-1,5.4936016E4,1.2338942E3,-2.8959468E-1,4.929565E2,6.266343E4,6.4495742E4,8.671433E2,6.5317137E4,1.6506632E-1,9.7776866E-1,4.751247E0,6.401142E0,8.944082E0,-1.003965E0,1.0858829E1,5.347144E-1,5.4442257E-1,6.527188E4,7.834487E2,9.2125183E2,8.163484E2,-3.985735E-1,1.0351117E0,1.1654391E3,1.4388086E3,1.3279686E3,3.1301908E0,-5.6979068E-2,1.9128642E2,1.13679184E2,4.5866812E2,-3.1534575E-2,-1.1482312E-2,9.861171E0,5.9896184E4,-1.6597744E0,3.6916107E2,6.537818E4,5.704286E0,2.4927307E2,1.592643E1,8.600485E0,3.1684227E0,-6.5316156E-2,1.0762445E0,6.1167515E1,-1.5043112E-2,-3.43481E-1,2.0939393E0,6.148631E2,1.1056637E3,-5.28237E-1,1.2839241E0,1.6602429E0,6.679967E4,2.1617642E-2,9.60704E0,1.633202E-2,-3.2847386E-2,-1.4318386E-2,-1.3916285E-1,-1.00560226E-1,-5.319899E-2,-8.326662E-2,-6.1483115E-2,-4.2393E-2,-3.1849477E-2,-1.9867694E-2,-2.3926452E-2,-1.6525922E-2,-3.751325E-3,-1.2267406E-2,-1.8070772E-2,-6.7031193E-3,-5.192559E-4,6.3036927E-3,-3.8295433E-2,-2.0107446E-2,-5.9889197E-2,-3.8149357E-2,-1.7134856E-2,-4.240507E-3,-1.0198932E-2,-1.8862231E-3,-1.5220137E-2,-2.673362E-2,-2.52375E-3,-5.892403E-3,-8.097154E-4,-2.428945E-3,-4.633581E-3,-1.5417564E-2,6.923057E-3,3.7818165E-3,2.8214124E-3,1.2060602E-2,-7.2106565E-3,5.0670593E-3,8.696887E-3,1.3180129E-2,1.5445556E-2,1.2150025E-2,6.8147555E-3,3.224459E-3,1.1439093E-2,1.8070944E-2,1.7201584E-2,1.9467842E-2,1.211873E-2,1.7489968E-2],"split_indices":[1,6,1,1,2,6,1,2,1,6,6,1,6,2,2,5,0,0,2,0,0,2,6,1,1,1,2,0,1,1,1,5,0,1,1,1,0,0,0,6,2,1,6,0,1,0,0,4,0,2,3,2,2,0,1,1,2,2,2,6,0,5,0,0,0,0,0,0,0,0,0,0,0,0,0,0,0,0,0,0,0,0,0,0,0,0,0,0,0,0,0,0,0,0,0,0,0,0,0,0,0,0,0,0,0,0,0,0,0,0,0,0,0,0,0],"split_type":[0,0,0,0,0,0,0,0,0,0,0,0,0,0,0,0,0,0,0,0,0,0,0,0,0,0,0,0,0,0,0,0,0,0,0,0,0,0,0,0,0,0,0,0,0,0,0,0,0,0,0,0,0,0,0,0,0,0,0,0,0,0,0,0,0,0,0,0,0,0,0,0,0,0,0,0,0,0,0,0,0,0,0,0,0,0,0,0,0,0,0,0,0,0,0,0,0,0,0,0,0,0,0,0,0,0,0,0,0,0,0,0,0,0,0],"sum_hessian":[3.522E3,8.58E2,2.664E3,2.74E2,5.84E2,1.247E3,1.417E3,1.52E2,1.22E2,3.67E2,2.17E2,1.35E2,1.112E3,6.17E2,8E2,5.1E1,1.01E2,7.4E1,4.8E1,1.06E2,2.61E2,1.65E2,5.2E1,7.8E1,5.7E1,5.39E2,5.73E2,4.23E2,1.94E2,5.89E2,2.11E2,1.7E1,3.4E1,5.6E1,4.5E1,5.5E1,1.9E1,6E0,4.2E1,6.6E1,4E1,2.4E1,2.37E2,1.17E2,4.8E1,1.1E1,4.1E1,7.5E1,3E0,3.3E1,2.4E1,2.28E2,3.11E2,3.84E2,1.89E2,9.8E1,3.25E2,1.06E2,8.8E1,4.08E2,1.81E2,7.5E1,1.36E2,1.4E1,3E0,3.6E1,2E1,1E1,3.5E1,2.4E1,3.1E1,3.5E1,7E0,3E1,3.6E1,1.7E1,2.3E1,1.1E1,1.3E1,8.7E1,1.5E2,4.3E1,7.4E1,2.2E1,2.6E1,1E1,1E0,1.5E1,2.6E1,2.5E1,5E1,9E0,2.4E1,1.9E1,5E0,1.76E2,5.2E1,1.41E2,1.7E2,3.6E1,3.48E2,2.9E1,1.6E2,5.4E1,4.4E1,2.33E2,9.2E1,8.3E1,2.3E1,8.3E1,5E0,1.71E2,2.37E2,6.6E1,9E0],"tree_param":{"num_deleted":"0","num_feature":"7","num_nodes":"115","size_leaf_vector":"1"}},{"base_weights":[-2.7375831E-3,-5.6356436E-1,1.7803274E-1,-1.2666993E0,-2.3206744E-1,3.7909154E-2,2.9631156E-1,-1.6656802E0,-7.6010776E-1,-1.00560606E-1,-6.2322E-1,-3.2319802E-1,8.123375E-2,2.291494E-1,3.500235E-1,-9.316331E-1,-2.02357E0,-8.946396E-1,-5.3867924E-1,-2.2369449E-1,8.4711574E-2,-9.2309105E-1,-3.23036E-1,-4.8727748E-1,-7.2528675E-2,3.0145686E-2,2.1219447E-1,2.517988E-1,1.4252919E-1,3.7490165E-1,2.9770663E-1,-6.307613E-1,-5.5755116E-2,-2.35448E0,-6.8930365E-2,-9.8363036E-1,-3.0036679E-2,-2.9706715E-2,-1.4654757E-2,-3.8067526E-1,-1.2090134E-1,-3.119399E-2,1.2967665E-1,-1.1322794E0,-7.756918E-1,-4.842144E-1,-1.5335661E-1,-4.4033656E-1,-6.28668E-2,-9.667112E-2,-2.786008E-2,-1.2710656E-1,9.950035E-2,2.4837115E-1,9.541935E-2,2.3001646E-1,2.9717067E-1,9.133532E-2,2.118797E-1,3.2512844E-1,3.8868392E-1,2.503483E-1,3.189151E-1,-3.3616405E-2,-1.3781443E-2,-1.297666E-1,-9.4205916E-2,-5.853193E-2,-4.033959E-2,-1.3257614E-2,-2.4776476E-2,-1.4940708E-2,-1.0259107E-3,-3.6899261E-3,1.205311E-2,8.8826185E-3,3.5685783E-3,-3.3697817E-2,-6.0130622E-2,-3.1114308E-2,-4.7200244E-2,-2.7747948E-2,-1.6164904E-2,-9.445396E-3,5.953181E-3,-1.4488399E-2,-2.5423149E-2,-2.4101853E-3,-5.609562E-3,-1.8820713E-3,-5.861362E-4,-1.2135023E-2,-2.0990132E-3,5.559196E-3,-4.274764E-3,7.991501E-3,1.4388456E-2,1.7505098E-3,8.470612E-3,9.832631E-3,1.3066339E-2,1.3001166E-2,1.6310273E-2,5.266636E-3,1.43812E-3,9.614408E-3,1.7317988E-2,1.9500276E-2,1.5397391E-2,1.8631402E-2,2.0619664E-2,1.1811279E-2,1.6702922E-2,1.5285258E-2,1.848161E-2],"categories":[],"categories_nodes":[],"categories_segments":[],"categories_sizes":[],"default_left":[0,0,0,0,0,0,0,0,0,0,0,0,0,0,0,0,0,0,0,0,0,0,0,0,0,0,0,0,0,0,0,0,0,0,0,0,0,0,0,0,0,0,0,0,0,0,0,0,0,0,0,0,0,0,0,0,0,0,0,0,0,0,0,0,0,0,0,0,0,0,0,0,0,0,0,0,0,0,0,0,0,0,0,0,0,0,0,0,0,0,0,0,0,0,0,0,0,0,0,0,0,0,0,0,0,0,0,0,0,0,0,0,0,0,0],"id":11,"left_children":[1,3,5,7,9,11,13,15,17,19,21,23,25,27,29,31,33,35,37,39,41,43,45,47,49,51,53,55,57,59,61,63,-1,65,-1,67,-1,-1,-1,69,71,73,75,77,79,81,83,85,-1,87,89,91,93,95,97,99,101,103,105,107,109,111,113,-1,-1,-1,-1,-1,-1,-1,-1,-1,-1,-1,-1,-1,-1,-1,-1,-1,-1,-1,-1,-1,-1,-1,-1,-1,-1,-1,-1,-1,-1,-1,-1,-1,-1,-1,-1,-1,-1,-1,-1,-1,-1,-1,-1,-1,-1,-1,-1,-1,-1,-1,-1],"loss_changes":[3.5726505E2,1.9992783E2,4.4157547E1,5.4317017E1,3.0029282E1,1.9128582E1,5.132492E0,3.8309113E1,3.1821442E0,1.0033979E1,1.2934231E1,5.3526487E0,7.2929716E0,1.229538E0,9.309311E-1,2.1670685E0,1.8523407E1,1.3707199E0,4.9318695E-1,4.2140245E0,9.213054E-1,1.3726006E0,1.976892E0,2.301981E0,5.4462403E-2,8.584904E0,1.2690086E0,4.356804E-1,4.6349168E-1,2.4337006E-1,1.8431854E-1,1.394453E-1,0E0,2.5870667E0,0E0,9.074745E-1,0E0,0E0,0E0,1.2485142E0,2.8692396E0,5.977574E-1,3.4256864E-1,9.207916E-2,6.002884E-1,2.5317287E-1,3.9051813E-1,6.3224983E-1,0E0,2.016744E-2,2.7156407E-3,2.3612704E0,1.1896353E0,7.667885E-1,3.2483757E-1,3.1318665E-1,8.990574E-2,6.703907E-2,8.357525E-2,1.6997337E-2,5.0735474E-3,2.2757053E-2,6.2561035E-3,0E0,0E0,0E0,0E0,0E0,0E0,0E0,0E0,0E0,0E0,0E0,0E0,0E0,0E0,0E0,0E0,0E0,0E0,0E0,0E0,0E0,0E0,0E0,0E0,0E0,0E0,0E0,0E0,0E0,0E0,0E0,0E0,0E0,0E0,0E0,0E0,0E0,0E0,0E0,0E0,0E0,0E0,0E0,0E0,0E0,0E0,0E0,0E0,0E0,0E0,0E0,0E0],"parents":[2147483647,0,0,1,1,2,2,3,3,4,4,5,5,6,6,7,7,8,8,9,9,10,10,11,11,12,12,13,13,14,14,15,15,16,16,17,17,18,18,19,19,20,20,21,21,22,22,23,23,24,24,25,25,26,26,27,27,28,28,29,29,30,30,31,31,33,33,35,35,39,39,40,40,41,41,42,42,43,43,44,44,45,45,46,46,47,47,49,49,50,50,51,51,52,52,53,53,54,54,55,55,56,56,57,57,58,58,59,59,60,60,61,61,62,62],"right_children":[2,4,6,8,10,12,14,16,18,20,22,24,26,28,30,32,34,36,38,40,42,44,46,48,50,52,54,56,58,60,62,64,-1,66,-1,68,-1,-1,-1,70,72,74,76,78,80,82,84,86,-1,88,90,92,94,96,98,100,102,104,106,108,110,112,114,-1,-1,-1,-1,-1,-1,-1,-1,-1,-1,-1,-1,-1,-1,-1,-1,-1,-1,-1,-1,-1,-1,-1,-1,-1,-1,-1,-1,-1,-1,-1,-1,-1,-1,-1,-1,-1,-1,-1,-1,-1,-1,-1,-1,-1,-1,-1,-1,-1,-1,-1,-1],"split_conditions":[5.716541E2,5.7365246E4,1.01233356E3,3.299721E2,-2.8959468E-1,5.4936016E4,1.2338942E3,-2.8959468E-1,4.929565E2,6.537818E4,4.2293774E2,8.671433E2,6.806023E4,5.118349E-1,5.7122636E-1,-1.5581036E0,6.9614496E0,8.944082E0,5.6236844E4,7.199154E0,4.0995507E0,6.668988E0,6.3208914E4,7.834487E2,9.2125183E2,7.4302515E2,-1.9112824E-1,6.884159E4,1.1516493E3,1.31245E3,1.3279686E3,5.6753324E4,-5.5755116E-2,1.9128642E2,-6.8930365E-2,4.5866812E2,-3.0036679E-2,-2.9706715E-2,-1.4654757E-2,-1.2715284E0,6.093515E4,7.021626E4,-1.302006E0,1.5459442E2,5.5076737E0,5.2948724E2,5.6793365E2,3.1684227E0,-6.28668E-2,1.0762445E0,5.8494406E0,7.0131793E0,5.108322E-1,4.9488564E0,7.097897E4,1.1393179E3,5.4216473E1,1.7389196E0,1.6602429E0,1.4161679E0,1.4456667E3,9.60704E0,1.455004E3,-3.3616405E-2,-1.3781443E-2,-1.297666E-1,-9.4205916E-2,-5.853193E-2,-4.033959E-2,-1.3257614E-2,-2.4776476E-2,-1.4940708E-2,-1.0259107E-3,-3.6899261E-3,1.205311E-2,8.8826185E-3,3.5685783E-3,-3.3697817E-2,-6.0130622E-2,-3.1114308E-2,-4.7200244E-2,-2.7747948E-2,-1.6164904E-2,-9.445396E-3,5.953181E-3,-1.4488399E-2,-2.5423149E-2,-2.4101853E-3,-5.609562E-3,-1.8820713E-3,-5.861362E-4,-1.2135023E-2,-2.0990132E-3,5.559196E-3,-4.274764E-3,7.991501E-3,1.4388456E-2,1.7505098E-3,8.470612E-3,9.832631E-3,1.3066339E-2,1.3001166E-2,1.6310273E-2,5.266636E-3,1.43812E-3,9.614408E-3,1.7317988E-2,1.9500276E-2,1.5397391E-2,1.8631402E-2,2.0619664E-2,1.1811279E-2,1.6702922E-2,1.5285258E-2,1.848161E-2],"split_indices":[1,6,1,1,2,6,1,2,1,6,1,1,6,2,2,2,0,0,6,0,0,0,6,1,1,1,2,6,1,1,1,6,0,1,0,1,0,0,0,2,6,6,2,1,4,1,1,4,0,2,0,0,2,0,6,1,3,2,2,4,1,5,1,0,0,0,0,0,0,0,0,0,0,0,0,0,0,0,0,0,0,0,0,0,0,0,0,0,0,0,0,0,0,0,0,0,0,0,0,0,0,0,0,0,0,0,0,0,0,0,0,0,0,0,0],"split_type":[0,0,0,0,0,0,0,0,0,0,0,0,0,0,0,0,0,0,0,0,0,0,0,0,0,0,0,0,0,0,0,0,0,0,0,0,0,0,0,0,0,0,0,0,0,0,0,0,0,0,0,0,0,0,0,0,0,0,0,0,0,0,0,0,0,0,0,0,0,0,0,0,0,0,0,0,0,0,0,0,0,0,0,0,0,0,0,0,0,0,0,0,0,0,0,0,0,0,0,0,0,0,0,0,0,0,0,0,0,0,0,0,0,0,0],"sum_hessian":[3.522E3,8.58E2,2.664E3,2.74E2,5.84E2,1.22E3,1.444E3,1.52E2,1.22E2,4.38E2,1.46E2,1.3E2,1.09E3,6.44E2,8E2,5.1E1,1.01E2,7.4E1,4.8E1,2.63E2,1.75E2,7.2E1,7.4E1,7.8E1,5.2E1,7.85E2,3.05E2,5.09E2,1.35E2,5.38E2,2.62E2,2.1E1,3E1,6.5E1,3.6E1,5.5E1,1.9E1,3.8E1,1E1,1.03E2,1.6E2,4.9E1,1.26E2,2.7E1,4.5E1,3.7E1,3.7E1,7.5E1,3E0,3.3E1,1.9E1,2.4E2,5.45E2,2.32E2,7.3E1,3.48E2,1.61E2,7.9E1,5.6E1,1.22E2,4.16E2,8.5E1,1.77E2,1.8E1,3E0,4E1,2.5E1,2.4E1,3.1E1,5.3E1,5E1,5.7E1,1.03E2,4.3E1,6E0,6.8E1,5.8E1,5E0,2.2E1,2.6E1,1.9E1,2.4E1,1.3E1,3.3E1,4E0,2.5E1,5E1,9E0,2.4E1,1.1E1,8E0,1.01E2,1.39E2,5.13E2,3.2E1,7.3E1,1.59E2,4.1E1,3.2E1,1.72E2,1.76E2,7.5E1,8.6E1,6.4E1,1.5E1,5.1E1,5E0,2.1E1,1.01E2,2.58E2,1.58E2,7.6E1,9E0,1.46E2,3.1E1],"tree_param":{"num_deleted":"0","num_feature":"7","num_nodes":"115","size_leaf_vector":"1"}},{"base_weights":[-2.797536E-3,-5.3634316E-1,1.6917938E-1,-1.2054347E0,-2.2089608E-1,3.593701E-2,2.816498E-1,-1.5849848E0,-7.2351104E-1,-5.4249734E-2,-5.0119406E-1,-3.0790278E-1,7.719006E-2,2.1782504E-1,3.3269262E-1,-8.8703513E-1,-1.9252632E0,-8.5162646E-1,-5.126506E-1,-2.9078385E-1,4.255713E-2,-6.132882E-1,-1.406503E-1,-4.6421465E-1,-6.9100164E-2,-3.2277682E-3,1.5401073E-1,2.3931126E-1,1.3565001E-1,3.5297313E-1,2.7468228E-1,-6.013778E-1,-5.3057283E-2,-2.3094566E0,-1.4073441E0,-9.2986465E-1,-2.7610648E-2,-1.036215E-2,-5.50446E-1,-3.681422E-1,-1.5727669E-1,-9.1505505E-2,1.0198854E-1,-4.9228776E-1,-8.921609E-1,-2.9987293E-1,-9.180931E-2,-4.188449E-1,-6.0509294E-2,-9.207348E-2,-2.6590526E-2,-1.3228065E-1,9.336157E-2,2.0364438E-1,5.6806345E-2,2.1858127E-1,2.8249308E-1,8.6852334E-2,2.0175816E-1,3.1531876E-1,3.703458E-1,9.993012E-3,2.8498206E-1,-3.3983223E-2,-1.8970907E-2,-1.2607978E-1,-9.128566E-2,-4.7647648E-2,-7.535465E-2,-5.5722393E-2,-3.833964E-2,-2.8878072E-2,-1.7981037E-2,-9.578228E-3,-1.9611968E-2,-3.10056E-3,-1.1108631E-2,-1.0185893E-2,4.8026848E-3,3.205542E-3,8.22733E-3,-3.4767486E-2,-1.8329715E-2,-5.457009E-2,-3.4469713E-2,-1.5647914E-2,-3.8983584E-3,-9.300948E-3,-1.6290514E-3,-2.3095308E-2,-1.0646775E-2,-2.3017277E-3,-5.3403056E-3,-8.729752E-4,-2.2493163E-3,-9.807381E-3,-8.7865704E-4,6.2812953E-3,3.3577539E-3,-2.2207082E-3,1.071404E-2,5.7302514E-4,1.0577966E-2,9.343842E-3,1.2416716E-2,1.2757356E-2,1.6018994E-2,5.3800726E-3,2.3326064E-3,9.14293E-3,1.6596405E-2,1.698321E-2,1.4274428E-2,1.7625196E-2,1.9621816E-2,1.4575246E-2,1.0845967E-2],"categories":[],"categories_nodes":[],"categories_segments":[],"categories_sizes":[],"default_left":[0,0,0,0,0,0,0,0,0,0,0,0,0,0,0,0,0,0,0,0,0,0,0,0,0,0,0,0,0,0,0,0,0,0,0,0,0,0,0,0,0,0,0,0,0,0,0,0,0,0,0,0,0,0,0,0,0,0,0,0,0,0,0,0,0,0,0,0,0,0,0,0,0,0,0,0,0,0,0,0,0,0,0,0,0,0,0,0,0,0,0,0,0,0,0,0,0,0,0,0,0,0,0,0,0,0,0,0,0,0,0,0,0,0,0,0,0],"id":12,"left_children":[1,3,5,7,9,11,13,15,17,19,21,23,25,27,29,31,33,35,37,39,41,43,45,47,49,51,53,55,57,59,61,63,-1,65,67,69,-1,-1,71,73,75,77,79,81,83,85,87,89,-1,91,93,95,97,99,101,103,105,107,109,111,113,-1,115,-1,-1,-1,-1,-1,-1,-1,-1,-1,-1,-1,-1,-1,-1,-1,-1,-1,-1,-1,-1,-1,-1,-1,-1,-1,-1,-1,-1,-1,-1,-1,-1,-1,-1,-1,-1,-1,-1,-1,-1,-1,-1,-1,-1,-1,-1,-1,-1,-1,-1,-1,-1,-1,-1],"loss_changes":[3.233525E2,1.810368E2,3.9927094E1,4.9154633E1,2.7298529E1,1.734297E1,4.6350403E0,3.4629303E1,2.8861923E0,8.438885E0,8.724182E0,4.85785E0,6.740423E0,1.1063709E0,8.454056E-1,1.9481239E0,1.7045868E1,1.2434349E0,4.515314E-1,1.047184E0,2.0968256E0,5.1622543E0,3.8462818E-1,2.1668358E0,4.9310863E-2,6.668731E0,2.6805649E0,3.9478302E-1,4.2120266E-1,2.691803E-1,1.0642147E-1,1.2440491E-1,0E0,1.245697E0,6.4876556E-1,8.9126587E-1,0E0,0E0,1.4791489E-2,2.0994759E-1,2.3969877E-1,1.7243311E0,4.2070985E-1,2.7568684E0,1.2271652E0,1.0444045E-2,2.2829407E-1,5.7551384E-1,0E0,1.8144548E-2,2.5740098E-3,1.674212E0,2.5029707E-1,9.831066E-1,1.3308821E0,2.828064E-1,8.609581E-2,6.1709642E-2,7.953286E-2,4.319191E-2,1.8527985E-2,0E0,1.8456459E-2,0E0,0E0,0E0,0E0,0E0,0E0,0E0,0E0,0E0,0E0,0E0,0E0,0E0,0E0,0E0,0E0,0E0,0E0,0E0,0E0,0E0,0E0,0E0,0E0,0E0,0E0,0E0,0E0,0E0,0E0,0E0,0E0,0E0,0E0,0E0,0E0,0E0,0E0,0E0,0E0,0E0,0E0,0E0,0E0,0E0,0E0,0E0,0E0,0E0,0E0,0E0,0E0,0E0,0E0],"parents":[2147483647,0,0,1,1,2,2,3,3,4,4,5,5,6,6,7,7,8,8,9,9,10,10,11,11,12,12,13,13,14,14,15,15,16,16,17,17,18,18,19,19,20,20,21,21,22,22,23,23,24,24,25,25,26,26,27,27,28,28,29,29,30,30,31,31,33,33,34,34,35,35,38,38,39,39,40,40,41,41,42,42,43,43,44,44,45,45,46,46,47,47,49,49,50,50,51,51,52,52,53,53,54,54,55,55,56,56,57,57,58,58,59,59,60,60,62,62],"right_children":[2,4,6,8,10,12,14,16,18,20,22,24,26,28,30,32,34,36,38,40,42,44,46,48,50,52,54,56,58,60,62,64,-1,66,68,70,-1,-1,72,74,76,78,80,82,84,86,88,90,-1,92,94,96,98,100,102,104,106,108,110,112,114,-1,116,-1,-1,-1,-1,-1,-1,-1,-1,-1,-1,-1,-1,-1,-1,-1,-1,-1,-1,-1,-1,-1,-1,-1,-1,-1,-1,-1,-1,-1,-1,-1,-1,-1,-1,-1,-1,-1,-1,-1,-1,-1,-1,-1,-1,-1,-1,-1,-1,-1,-1,-1,-1,-1,-1],"split_conditions":[5.716541E2,5.7365246E4,1.01233356E3,3.299721E2,-7.1993554E-1,5.4936016E4,1.2338942E3,-2.8959468E-1,4.929565E2,6.266343E4,6.4495742E4,8.671433E2,6.5317137E4,5.118349E-1,9.7776866E-1,-1.5581036E0,6.401142E0,1.0858829E1,-1.003965E0,1.0858829E1,5.067276E0,5.4442257E-1,6.527188E4,7.834487E2,9.2125183E2,8.163484E2,-3.985735E-1,6.884159E4,1.1516493E3,1.3332191E3,1.2586136E3,5.4936016E4,-5.3057283E-2,1.9128642E2,1.13679184E2,4.5866812E2,-2.7610648E-2,-1.036215E-2,9.861171E0,-1.8972415E0,-1.6597744E0,6.7231375E4,6.6907016E4,5.704286E0,2.4927307E2,1.592643E1,8.600485E0,6.932782E2,-6.0509294E-2,1.0762445E0,6.1167515E1,1.0246062E1,-3.43481E-1,9.674984E-1,7.129731E4,1.1393179E3,7.870062E0,1.2839241E0,1.6602429E0,-6.986787E-1,1.4456667E3,9.993012E-3,1.8776493E0,-3.3983223E-2,-1.8970907E-2,-1.2607978E-1,-9.128566E-2,-4.7647648E-2,-7.535465E-2,-5.5722393E-2,-3.833964E-2,-2.8878072E-2,-1.7981037E-2,-9.578228E-3,-1.9611968E-2,-3.10056E-3,-1.1108631E-2,-1.0185893E-2,4.8026848E-3,3.205542E-3,8.22733E-3,-3.4767486E-2,-1.8329715E-2,-5.457009E-2,-3.4469713E-2,-1.5647914E-2,-3.8983584E-3,-9.300948E-3,-1.6290514E-3,-2.3095308E-2,-1.0646775E-2,-2.3017277E-3,-5.3403056E-3,-8.729752E-4,-2.2493163E-3,-9.807381E-3,-8.7865704E-4,6.2812953E-3,3.3577539E-3,-2.2207082E-3,1.071404E-2,5.7302514E-4,1.0577966E-2,9.343842E-3,1.2416716E-2,1.2757356E-2,1.6018994E-2,5.3800726E-3,2.3326064E-3,9.14293E-3,1.6596405E-2,1.698321E-2,1.4274428E-2,1.7625196E-2,1.9621816E-2,1.4575246E-2,1.0845967E-2],"split_indices":[1,6,1,1,2,6,1,2,1,6,6,1,6,2,2,2,0,0,2,0,0,2,6,1,1,1,2,6,1,1,1,6,0,1,1,1,0,0,0,2,2,6,6,0,1,0,0,1,0,2,3,0,2,0,6,1,0,2,2,2,1,0,2,0,0,0,0,0,0,0,0,0,0,0,0,0,0,0,0,0,0,0,0,0,0,0,0,0,0,0,0,0,0,0,0,0,0,0,0,0,0,0,0,0,0,0,0,0,0,0,0,0,0,0,0,0,0],"split_type":[0,0,0,0,0,0,0,0,0,0,0,0,0,0,0,0,0,0,0,0,0,0,0,0,0,0,0,0,0,0,0,0,0,0,0,0,0,0,0,0,0,0,0,0,0,0,0,0,0,0,0,0,0,0,0,0,0,0,0,0,0,0,0,0,0,0,0,0,0,0,0,0,0,0,0,0,0,0,0,0,0,0,0,0,0,0,0,0,0,0,0,0,0,0,0,0,0,0,0,0,0,0,0,0,0,0,0,0,0,0,0,0,0,0,0,0,0],"sum_hessian":[3.522E3,8.58E2,2.664E3,2.74E2,5.84E2,1.22E3,1.444E3,1.52E2,1.22E2,3.67E2,2.17E2,1.3E2,1.09E3,6.44E2,8E2,5.1E1,1.01E2,7.4E1,4.8E1,1.06E2,2.61E2,1.65E2,5.2E1,7.8E1,5.2E1,5.33E2,5.57E2,5.09E2,1.35E2,5.89E2,2.11E2,2.1E1,3E1,5.6E1,4.5E1,5.7E1,1.7E1,6E0,4.2E1,6.6E1,4E1,8E1,1.81E2,1.17E2,4.8E1,1.1E1,4.1E1,7.5E1,3E0,3.3E1,1.9E1,2.28E2,3.05E2,3.68E2,1.89E2,3.48E2,1.61E2,7.9E1,5.6E1,1.92E2,3.97E2,2.8E1,1.83E2,1.4E1,7E0,3.6E1,2E1,1E1,3.5E1,2.4E1,3.3E1,3.5E1,7E0,9E0,5.7E1,1.7E1,2.3E1,5E1,3E1,1.14E2,6.7E1,4.3E1,7.4E1,2.2E1,2.6E1,1E1,1E0,1.5E1,2.6E1,6.1E1,1.4E1,9E0,2.4E1,1.4E1,5E0,1.46E2,8.2E1,1.35E2,1.7E2,1.5E1,3.53E2,1.47E2,4.2E1,1.72E2,1.76E2,9.8E1,6.3E1,5.1E1,2.8E1,5.1E1,5E0,1E2,9.2E1,2.29E2,1.68E2,1.64E2,1.9E1],"tree_param":{"num_deleted":"0","num_feature":"7","num_nodes":"117","size_leaf_vector":"1"}},{"base_weights":[-2.8659317E-3,-5.1049834E-1,1.607585E-1,-1.1474367E0,-2.1021019E-1,3.4069393E-2,2.6769733E-1,-1.5086532E0,-6.8878996E-1,-9.041146E-2,-5.6654644E-1,-2.9330924E-1,7.3347606E-2,2.0706402E-1,3.161877E-1,-8.4472215E-1,-1.832337E0,-8.106674E-1,-4.881859E-1,-2.0206018E-1,7.75753E-2,-8.4427166E-1,-2.886733E-1,-4.421969E-1,-6.5848224E-2,-3.0683493E-3,1.463454E-1,2.3378299E-1,1.4644538E-1,3.4375525E-1,2.768139E-1,-2.036689E-2,-9.3916273E-1,-2.197797E0,-1.3396509E0,-8.8499314E-1,-2.6306814E-2,-9.918058E-3,-5.240135E-1,-4.1702747E-1,-1.3815726E-1,-7.7911206E-2,1.05045706E-1,-1.0376016E0,-7.0823884E-1,-4.3259174E-1,-1.3715824E-1,-3.9834657E-1,-5.82402E-2,-8.7694556E-2,-2.5417054E-2,-1.642889E-1,6.6960596E-2,1.9348517E-1,5.4024808E-2,2.027312E-1,2.5797966E-1,9.8064326E-2,2.0568395E-1,2.9786867E-1,1.7804062E-2,2.4839175E-1,1.5469926E-2,-3.3920974E-2,-5.0490003E-2,-1.1994618E-1,-8.693872E-2,-4.5481842E-2,-7.169158E-2,-5.3047713E-2,-3.6479037E-2,-2.7474282E-2,-1.7194366E-2,-2.8541064E-2,-1.7406462E-2,-1.2835196E-2,-1.760366E-4,4.649961E-3,-7.118991E-3,3.6452666E-3,9.73264E-3,-3.098208E-2,-5.5076074E-2,-2.8465224E-2,-4.3019418E-2,-2.6891274E-2,-1.6580574E-2,-8.514758E-3,5.7802224E-3,-1.30166365E-2,-2.3044793E-2,-2.1981513E-3,-5.0839693E-3,-8.322311E-4,-2.155598E-3,-2.0628728E-3,-1.0863685E-2,4.051402E-3,-5.4632165E-3,7.7261548E-3,1.3072953E-2,-2.5337785E-3,5.916962E-3,8.190625E-3,1.1475078E-2,1.371011E-2,1.0515206E-2,5.771195E-3,2.219994E-3,9.7602885E-3,1.5904892E-2,1.7759023E-2,1.3965619E-2,1.1959209E-2,1.6809234E-2],"categories":[],"categories_nodes":[],"categories_segments":[],"categories_sizes":[],"default_left":[0,0,0,0,0,0,0,0,0,0,0,0,0,0,0,0,0,0,0,0,0,0,0,0,0,0,0,0,0,0,0,0,0,0,0,0,0,0,0,0,0,0,0,0,0,0,0,0,0,0,0,0,0,0,0,0,0,0,0,0,0,0,0,0,0,0,0,0,0,0,0,0,0,0,0,0,0,0,0,0,0,0,0,0,0,0,0,0,0,0,0,0,0,0,0,0,0,0,0,0,0,0,0,0,0,0,0,0,0,0,0,0,0,0,0],"id":13,"left_children":[1,3,5,7,9,11,13,15,17,19,21,23,25,27,29,31,33,35,37,39,41,43,45,47,49,51,53,55,57,59,61,-1,63,65,67,69,-1,-1,71,73,75,77,79,81,83,85,87,89,-1,91,93,95,97,99,101,103,105,107,109,111,-1,113,-1,-1,-1,-1,-1,-1,-1,-1,-1,-1,-1,-1,-1,-1,-1,-1,-1,-1,-1,-1,-1,-1,-1,-1,-1,-1,-1,-1,-1,-1,-1,-1,-1,-1,-1,-1,-1,-1,-1,-1,-1,-1,-1,-1,-1,-1,-1,-1,-1,-1,-1,-1,-1],"loss_changes":[2.9270618E2,1.6405547E2,3.609626E1,4.4520294E1,2.4921627E1,1.5722168E1,4.1830215E0,3.1332489E1,2.6114845E0,8.249342E0,1.110062E1,4.4073477E0,6.0862627E0,1.0104485E0,7.7427673E-1,1.7653961E0,1.5421539E1,1.120472E0,4.0485764E-1,3.5689611E0,7.599288E-1,1.1849709E0,1.5761023E0,2.0392418E0,4.4584513E-2,6.0399165E0,2.4179459E0,2.8280067E-1,5.530348E-1,1.5806961E-1,2.3339844E-1,0E0,8.849716E-2,1.0911255E0,5.586853E-1,8.1204987E-1,0E0,0E0,8.331299E-3,4.370489E-1,3.271042E0,3.1073686E-1,4.1780972E-1,6.549835E-2,4.8256302E-1,2.2545862E-1,3.3796626E-1,5.360966E-1,0E0,1.6323537E-2,2.3869658E-3,1.0470805E0,9.3353343E-1,9.368601E-1,1.2854085E0,1.7077827E-1,1.3336945E-1,9.921348E-2,4.273796E-2,1.2460709E-2,0E0,6.832886E-2,0E0,0E0,0E0,0E0,0E0,0E0,0E0,0E0,0E0,0E0,0E0,0E0,0E0,0E0,0E0,0E0,0E0,0E0,0E0,0E0,0E0,0E0,0E0,0E0,0E0,0E0,0E0,0E0,0E0,0E0,0E0,0E0,0E0,0E0,0E0,0E0,0E0,0E0,0E0,0E0,0E0,0E0,0E0,0E0,0E0,0E0,0E0,0E0,0E0,0E0,0E0,0E0,0E0],"parents":[2147483647,0,0,1,1,2,2,3,3,4,4,5,5,6,6,7,7,8,8,9,9,10,10,11,11,12,12,13,13,14,14,15,15,16,16,17,17,18,18,19,19,20,20,21,21,22,22,23,23,24,24,25,25,26,26,27,27,28,28,29,29,30,30,32,32,33,33,34,34,35,35,38,38,39,39,40,40,41,41,42,42,43,43,44,44,45,45,46,46,47,47,49,49,50,50,51,51,52,52,53,53,54,54,55,55,56,56,57,57,58,58,59,59,61,61],"right_children":[2,4,6,8,10,12,14,16,18,20,22,24,26,28,30,32,34,36,38,40,42,44,46,48,50,52,54,56,58,60,62,-1,64,66,68,70,-1,-1,72,74,76,78,80,82,84,86,88,90,-1,92,94,96,98,100,102,104,106,108,110,112,-1,114,-1,-1,-1,-1,-1,-1,-1,-1,-1,-1,-1,-1,-1,-1,-1,-1,-1,-1,-1,-1,-1,-1,-1,-1,-1,-1,-1,-1,-1,-1,-1,-1,-1,-1,-1,-1,-1,-1,-1,-1,-1,-1,-1,-1,-1,-1,-1,-1,-1,-1,-1,-1,-1],"split_conditions":[5.716541E2,5.7365246E4,1.01233356E3,3.299721E2,-2.8959468E-1,5.4936016E4,1.2338942E3,-2.8959468E-1,4.929565E2,6.537818E4,4.2293774E2,8.671433E2,6.5317137E4,1.6506632E-1,8.0679566E-2,-1.9232309E0,6.401142E0,1.0858829E1,-1.003965E0,4.45187E0,1.6551275E0,6.668988E0,6.3208914E4,7.834487E2,9.2125183E2,7.4302515E2,-3.985735E-1,4.6075244E0,1.1654391E3,1.31245E3,1.3832893E3,-2.036689E-2,-1.5581036E0,1.9128642E2,1.13679184E2,4.5866812E2,-2.6306814E-2,-9.918058E-3,9.861171E0,1.7384154E2,6.262654E4,3.1126451E1,9.422077E0,1.5459442E2,5.5076737E0,5.1613293E2,5.6793365E2,3.1684227E0,-5.82402E-2,1.0762445E0,6.1167515E1,-1.5581036E0,5.108322E-1,1.0076052E1,7.278237E2,1.1056637E3,-5.28237E-1,1.2839241E0,1.6602429E0,1.4161679E0,1.7804062E-2,1.1190047E1,1.5469926E-2,-3.3920974E-2,-5.0490003E-2,-1.1994618E-1,-8.693872E-2,-4.5481842E-2,-7.169158E-2,-5.3047713E-2,-3.6479037E-2,-2.7474282E-2,-1.7194366E-2,-2.8541064E-2,-1.7406462E-2,-1.2835196E-2,-1.760366E-4,4.649961E-3,-7.118991E-3,3.6452666E-3,9.73264E-3,-3.098208E-2,-5.5076074E-2,-2.8465224E-2,-4.3019418E-2,-2.6891274E-2,-1.6580574E-2,-8.514758E-3,5.7802224E-3,-1.30166365E-2,-2.3044793E-2,-2.1981513E-3,-5.0839693E-3,-8.322311E-4,-2.155598E-3,-2.0628728E-3,-1.0863685E-2,4.051402E-3,-5.4632165E-3,7.7261548E-3,1.3072953E-2,-2.5337785E-3,5.916962E-3,8.190625E-3,1.1475078E-2,1.371011E-2,1.0515206E-2,5.771195E-3,2.219994E-3,9.7602885E-3,1.5904892E-2,1.7759023E-2,1.3965619E-2,1.1959209E-2,1.6809234E-2],"split_indices":[1,6,1,1,2,6,1,2,1,6,1,1,6,2,2,2,0,0,2,0,0,0,6,1,1,1,2,0,1,1,1,0,2,1,1,1,0,0,0,1,6,3,0,1,4,1,1,4,0,2,3,2,2,0,1,1,2,2,2,4,0,5,0,0,0,0,0,0,0,0,0,0,0,0,0,0,0,0,0,0,0,0,0,0,0,0,0,0,0,0,0,0,0,0,0,0,0,0,0,0,0,0,0,0,0,0,0,0,0,0,0,0,0,0,0],"split_type":[0,0,0,0,0,0,0,0,0,0,0,0,0,0,0,0,0,0,0,0,0,0,0,0,0,0,0,0,0,0,0,0,0,0,0,0,0,0,0,0,0,0,0,0,0,0,0,0,0,0,0,0,0,0,0,0,0,0,0,0,0,0,0,0,0,0,0,0,0,0,0,0,0,0,0,0,0,0,0,0,0,0,0,0,0,0,0,0,0,0,0,0,0,0,0,0,0,0,0,0,0,0,0,0,0,0,0,0,0,0,0,0,0,0,0],"sum_hessian":[3.522E3,8.58E2,2.664E3,2.74E2,5.84E2,1.22E3,1.444E3,1.52E2,1.22E2,4.38E2,1.46E2,1.3E2,1.09E3,6.44E2,8E2,5.1E1,1.01E2,7.4E1,4.8E1,2.63E2,1.75E2,7.2E1,7.4E1,7.8E1,5.2E1,5.33E2,5.57E2,4.45E2,1.99E2,4.66E2,3.34E2,1E1,4.1E1,5.6E1,4.5E1,5.7E1,1.7E1,6E0,4.2E1,5.9E1,2.04E2,2.6E1,1.49E2,2.7E1,4.5E1,3.7E1,3.7E1,7.5E1,3E0,3.3E1,1.9E1,1.61E2,3.72E2,3.68E2,1.89E2,1.99E2,2.46E2,1.11E2,8.8E1,1.04E2,3.62E2,1.83E2,1.51E2,1.1E1,3E1,3.6E1,2E1,1E1,3.5E1,2.4E1,3.3E1,3.5E1,7E0,1.6E1,4.3E1,1.08E2,9.6E1,7E0,1.9E1,1.11E2,3.8E1,5E0,2.2E1,2.6E1,1.9E1,1.6E1,2.1E1,3.3E1,4E0,2.5E1,5E1,9E0,2.4E1,1.4E1,5E0,4.9E1,1.12E2,3.45E2,2.7E1,2.36E2,1.32E2,7.2E1,1.17E2,8.4E1,1.15E2,1.8E2,6.6E1,8.3E1,2.8E1,8.3E1,5E0,2.1E1,8.3E1,1.69E2,1.4E1],"tree_param":{"num_deleted":"0","num_feature":"7","num_nodes":"115","size_leaf_vector":"1"}},{"base_weights":[-2.9424927E-3,-4.8596415E-1,1.5274927E-1,-1.092244E0,-2.001301E-1,3.4659553E-2,2.5657383E-1,-1.4360234E0,-6.55736E-1,-8.600033E-2,-5.396052E-1,7.681327E-2,-2.3493023E-1,2.031901E-1,3.039844E-1,-8.04501E-1,-1.7438972E0,-7.716785E-1,-4.6489072E-1,-1.921805E-1,7.375855E-2,-8.0421615E-1,-2.748558E-1,3.0979462E-2,1.8654403E-1,-3.7705398E-1,-4.286267E-2,2.3547739E-1,1.605871E-1,3.3162794E-1,2.6883203E-1,-1.9441122E-2,-8.9421445E-1,-2.0318944E0,-5.9152003E-2,-8.481812E-1,-5.1888704E-1,-9.493002E-3,-4.9885175E-1,-3.3062643E-1,-1.0155592E-1,1.1257163E-2,1.3756737E-1,-5.1085424E-2,-6.903624E-1,-4.1210616E-1,-1.3037239E-1,-1.1149756E-1,8.4931076E-2,2.1696098E-1,8.3318375E-2,-2.2625547E-2,-2.58215E-1,-8.352394E-2,-7.229024E-3,1.7193934E-1,2.5217083E-1,9.4194576E-2,1.9017678E-1,3.0808467E-1,1.7506985E-2,2.4599496E-1,1.4835509E-2,-3.236626E-2,-4.8046943E-2,-1.23427175E-1,-9.014273E-2,-2.0343706E-2,-4.465003E-2,-2.7443856E-2,-1.3085377E-2,-2.519657E-2,-7.13765E-3,-5.0244983E-3,-1.8566376E-2,-1.3820337E-2,-1.0152071E-3,-7.5657485E-4,1.252182E-2,4.158289E-3,9.104855E-3,-2.7632657E-2,-4.2338382E-2,-2.5625804E-2,-1.578923E-2,-8.101548E-3,5.5490136E-3,-1.4834409E-2,-3.3763049E-3,-5.6056198E-2,4.6766168E-3,6.8066986E-3,1.25237005E-2,-1.4306237E-3,5.7344586E-3,-9.542478E-3,-1.4357418E-2,-2.0992316E-3,-4.8399353E-3,2.5091371E-3,-8.432249E-4,6.583795E-3,1.0647803E-2,1.2060667E-2,1.6260825E-2,6.4647147E-3,3.2354183E-3,9.284815E-3,1.5242188E-2,1.0973722E-2,1.56140225E-2,1.2633267E-2,8.633171E-3],"categories":[],"categories_nodes":[],"categories_segments":[],"categories_sizes":[],"default_left":[0,0,0,0,0,0,0,0,0,0,0,0,0,0,0,0,0,0,0,0,0,0,0,0,0,0,0,0,0,0,0,0,0,0,0,0,0,0,0,0,0,0,0,0,0,0,0,0,0,0,0,0,0,0,0,0,0,0,0,0,0,0,0,0,0,0,0,0,0,0,0,0,0,0,0,0,0,0,0,0,0,0,0,0,0,0,0,0,0,0,0,0,0,0,0,0,0,0,0,0,0,0,0,0,0,0,0,0,0,0,0,0,0],"id":14,"left_children":[1,3,5,7,9,11,13,15,17,19,21,23,25,27,29,31,33,35,37,39,41,43,45,47,49,51,53,55,57,59,61,-1,63,65,-1,67,69,-1,71,73,75,77,79,-1,81,83,85,87,89,91,93,-1,95,97,99,101,103,105,107,109,-1,111,-1,-1,-1,-1,-1,-1,-1,-1,-1,-1,-1,-1,-1,-1,-1,-1,-1,-1,-1,-1,-1,-1,-1,-1,-1,-1,-1,-1,-1,-1,-1,-1,-1,-1,-1,-1,-1,-1,-1,-1,-1,-1,-1,-1,-1,-1,-1,-1,-1,-1,-1],"loss_changes":[2.650126E2,1.4864221E2,3.266564E1,4.032547E1,2.2618954E1,1.42005825E1,3.5271225E0,2.8344727E1,2.3628807E0,7.46103E0,1.0077133E1,5.42595E0,4.5970926E0,8.837929E-1,6.386795E-1,1.5914879E0,1.4071747E1,1.010334E0,3.6296463E-1,3.2787256E0,7.003638E-1,1.1022987E0,1.4335527E0,5.8745484E0,9.8038197E-1,7.5297546E-1,1.05166584E-1,3.5863495E-1,5.5572987E-1,7.299423E-2,1.4029121E-1,0E0,6.985092E-2,2.150238E0,0E0,7.442894E-1,1.0611534E-2,0E0,5.8431625E-3,9.368324E-1,2.281705E0,5.718353E-1,1.9561231E-1,0E0,6.3049126E-1,2.0567751E-1,3.0833554E-1,1.6900175E0,5.8518248E0,6.295481E-1,2.6312214E-1,0E0,2.3162127E-2,1.4684364E-2,2.2973888E-2,1.0737991E-1,1.6007233E-1,8.684969E-2,4.6658516E-2,2.4738312E-3,0E0,4.9311638E-2,0E0,0E0,0E0,0E0,0E0,0E0,0E0,0E0,0E0,0E0,0E0,0E0,0E0,0E0,0E0,0E0,0E0,0E0,0E0,0E0,0E0,0E0,0E0,0E0,0E0,0E0,0E0,0E0,0E0,0E0,0E0,0E0,0E0,0E0,0E0,0E0,0E0,0E0,0E0,0E0,0E0,0E0,0E0,0E0,0E0,0E0,0E0,0E0,0E0,0E0,0E0],"parents":[2147483647,0,0,1,1,2,2,3,3,4,4,5,5,6,6,7,7,8,8,9,9,10,10,11,11,12,12,13,13,14,14,15,15,16,16,17,17,18,18,19,19,20,20,21,21,22,22,23,23,24,24,25,25,26,26,27,27,28,28,29,29,30,30,32,32,33,33,35,35,36,36,38,38,39,39,40,40,41,41,42,42,44,44,45,45,46,46,47,47,48,48,49,49,50,50,52,52,53,53,54,54,55,55,56,56,57,57,58,58,59,59,61,61],"right_children":[2,4,6,8,10,12,14,16,18,20,22,24,26,28,30,32,34,36,38,40,42,44,46,48,50,52,54,56,58,60,62,-1,64,66,-1,68,70,-1,72,74,76,78,80,-1,82,84,86,88,90,92,94,-1,96,98,100,102,104,106,108,110,-1,112,-1,-1,-1,-1,-1,-1,-1,-1,-1,-1,-1,-1,-1,-1,-1,-1,-1,-1,-1,-1,-1,-1,-1,-1,-1,-1,-1,-1,-1,-1,-1,-1,-1,-1,-1,-1,-1,-1,-1,-1,-1,-1,-1,-1,-1,-1,-1,-1,-1,-1,-1],"split_conditions":[5.716541E2,5.7365246E4,1.0221711E3,3.299721E2,-2.8959468E-1,7.846246E-1,1.2496776E3,-2.8959468E-1,4.929565E2,6.537818E4,4.2293774E2,6.806023E4,8.0438544E2,-2.1638918E-1,-3.069808E-2,-1.9232309E0,6.9614496E0,8.944082E0,-1.003965E0,7.199154E0,6.3586392E0,4.9488564E0,6.3208914E4,7.170679E2,-1.9112824E-1,6.8115E2,9.2125183E2,9.1370136E-1,1.1056637E3,1.3832893E3,1.3999778E3,-1.9441122E-2,-1.5581036E0,3.1323793E0,-5.9152003E-2,1.903695E-1,1.3871647E1,-9.493002E-3,1.2562823E1,-1.7333919E0,6.054276E4,7.021626E4,6.6907016E4,-5.1085424E-2,5.5076737E0,5.1613293E2,5.6793365E2,2.755832E0,5.4244742E4,4.9488564E0,6.9484414E4,-2.2625547E-2,5.3867934E4,1.0762445E0,9.515877E-1,1.089525E3,7.114885E4,7.4893737E-1,1.6602429E0,1.6551275E0,1.7506985E-2,1.8776493E0,1.4835509E-2,-3.236626E-2,-4.8046943E-2,-1.23427175E-1,-9.014273E-2,-2.0343706E-2,-4.465003E-2,-2.7443856E-2,-1.3085377E-2,-2.519657E-2,-7.13765E-3,-5.0244983E-3,-1.8566376E-2,-1.3820337E-2,-1.0152071E-3,-7.5657485E-4,1.252182E-2,4.158289E-3,9.104855E-3,-2.7632657E-2,-4.2338382E-2,-2.5625804E-2,-1.578923E-2,-8.101548E-3,5.5490136E-3,-1.4834409E-2,-3.3763049E-3,-5.6056198E-2,4.6766168E-3,6.8066986E-3,1.25237005E-2,-1.4306237E-3,5.7344586E-3,-9.542478E-3,-1.4357418E-2,-2.0992316E-3,-4.8399353E-3,2.5091371E-3,-8.432249E-4,6.583795E-3,1.0647803E-2,1.2060667E-2,1.6260825E-2,6.4647147E-3,3.2354183E-3,9.284815E-3,1.5242188E-2,1.0973722E-2,1.56140225E-2,1.2633267E-2,8.633171E-3],"split_indices":[1,6,1,1,2,2,1,2,1,6,1,6,1,2,2,2,0,0,2,0,0,0,6,1,2,1,1,0,1,1,1,0,2,0,0,2,0,0,0,2,6,6,6,0,4,1,1,0,6,0,6,0,6,2,2,1,6,2,2,0,0,2,0,0,0,0,0,0,0,0,0,0,0,0,0,0,0,0,0,0,0,0,0,0,0,0,0,0,0,0,0,0,0,0,0,0,0,0,0,0,0,0,0,0,0,0,0,0,0,0,0,0,0],"split_type":[0,0,0,0,0,0,0,0,0,0,0,0,0,0,0,0,0,0,0,0,0,0,0,0,0,0,0,0,0,0,0,0,0,0,0,0,0,0,0,0,0,0,0,0,0,0,0,0,0,0,0,0,0,0,0,0,0,0,0,0,0,0,0,0,0,0,0,0,0,0,0,0,0,0,0,0,0,0,0,0,0,0,0,0,0,0,0,0,0,0,0,0,0,0,0,0,0,0,0,0,0,0,0,0,0,0,0,0,0,0,0,0,0],"sum_hessian":[3.522E3,8.58E2,2.664E3,2.74E2,5.84E2,1.247E3,1.417E3,1.52E2,1.22E2,4.38E2,1.46E2,1.079E3,1.68E2,6.69E2,7.48E2,5.1E1,1.01E2,7.4E1,4.8E1,2.63E2,1.75E2,7.2E1,7.4E1,7.62E2,3.17E2,9.6E1,7.2E1,3.78E2,2.91E2,4.14E2,3.34E2,1E1,4.1E1,6.5E1,3.6E1,5.5E1,1.9E1,6E0,4.2E1,1.03E2,1.6E2,8.9E1,8.6E1,2.2E1,5E1,3.7E1,3.7E1,2.09E2,5.53E2,2.44E2,7.3E1,5.7E1,3.9E1,3.3E1,3.9E1,8.1E1,2.97E2,9.1E1,2E2,1.9E2,2.24E2,1.89E2,1.45E2,1.1E1,3E1,1.9E1,4.6E1,6E0,4.9E1,1.6E1,3E0,4.1E1,1E0,1.6E1,8.7E1,5E1,1.1E2,8.1E1,8E0,4E1,4.6E1,2.9E1,2.1E1,1.6E1,2.1E1,3.3E1,4E0,3.9E1,1.7E2,3E0,5.5E2,7.3E1,1.71E2,1.6E1,5.7E1,1.4E1,2.5E1,9E0,2.4E1,5E0,3.4E1,4.3E1,3.8E1,2.62E2,3.5E1,4E1,5.1E1,1.95E2,5E0,1.1E1,1.79E2,1.71E2,1.8E1],"tree_param":{"num_deleted":"0","num_feature":"7","num_nodes":"113","size_leaf_vector":"1"}},{"base_weights":[-2.9759246E-3,-4.6247894E-1,1.4513516E-1,-1.0395224E0,-1.904286E-1,-1.6365325E-2,2.1392637E-1,-1.3666574E0,-6.241472E-1,-4.4974636E-2,-4.3509206E-1,-2.0293657E-1,8.675258E-2,1.3729955E-1,2.6539108E-1,-7.3886204E-1,-1.6466126E0,-7.3450154E-1,-4.4249982E-1,-2.5181738E-1,3.9670963E-2,-5.957579E-1,-2.4307564E-1,-8.6747676E-2,-2.9637125E-1,1.426296E-1,-1.8618558E-2,1.9830278E-1,6.761232E-2,2.2547694E-1,2.9831538E-1,-1.8557435E-2,-4.1181546E-2,-1.9021931E0,-1.1254867E0,-8.015146E-1,-4.777648E-1,-2.4395177E-2,-1.2064787E-2,-3.2317704E-1,-1.2906334E-1,-1.996637E-1,6.464448E-2,-3.131736E-1,-7.656636E-1,-3.2445544E-1,-7.316679E-2,-3.1825566E-1,-4.597132E-2,-3.5458872E-1,-5.7878308E-2,9.3263514E-2,1.9144055E-1,-8.401138E-2,1.2281892E-1,1.6855608E-1,2.5255516E-1,7.9673424E-2,-2.6112981E-2,2.5367075E-1,1.9771548E-1,2.5541708E-1,3.202533E-1,-1.17564395E-1,-8.4225565E-2,-5.7478715E-2,-2.3465162E-2,-4.835822E-2,-3.2806966E-2,-2.4462385E-2,-7.063878E-3,-1.9753067E-2,-1.2710758E-2,-4.8690126E-3,-1.6885277E-2,-1.45192845E-2,-5.3820154E-3,-3.1741466E-3,4.315512E-3,-2.7407665E-2,-7.826254E-3,-4.7133576E-2,-3.2063738E-2,-1.9394474E-2,-1.15588E-2,-5.0339606E-3,5.3270557E-3,-9.612177E-3,-2.0622112E-2,-4.641319E-3,4.0376093E-4,-1.6407257E-2,-5.3954083E-2,-1.4182356E-3,-4.4718035E-3,-1.7149108E-4,6.997195E-3,3.6322277E-3,1.0634017E-2,-1.4131843E-2,-2.4744987E-3,2.3534119E-3,9.979699E-3,7.989696E-3,1.4664352E-2,1.1025889E-2,1.43577E-2,2.8095522E-3,5.1177153E-3,-3.7685835E-3,2.602201E-4,1.0294927E-2,1.3292204E-2,